-7.214273934840569336e-01 -6.523805517106613383e-01 9.856581995149844844e-02 -9.687816066595635878e-01 6.720526191178360920e-01 8.506022129315409241e-01 3.590938404838570630e-01 -1.720007560339525676e-01 -5.794293695257469734e-01 -1.861161744468244894e-01 -2.210648164493748610e-02 5.930122987412028701e-01 -1.119265130166003708e+00 1.127499007499760814e-01 5.433250519028517272e-02 3.100574732103383191e+00 8.932106297069666301e-01 -7.357041811369353645e-01 -4.119461961126832383e-01 8.894768260464672172e-02 4.295264502297229114e-01 -6.883016629232141526e-01 1.226168202097918325e+00 3.483357912549047697e-01 -9.398207734106549527e-01 -7.616444444707124450e-01 -5.683505844841642007e-01 -2.647572409307019994e-02 -1.366398664542683439e-01 -1.045871612165099052e+00 -2.569126450604201223e-02 -1.460957808420792203e-01 5.097280636644501151e-01 2.072706299271244446e-01 1.885547783085856632e-01 -1.223237244835923693e-01 3.409512590530535681e-01 6.508942252659052352e-01 9.100453981991412089e-01 -9.666266969786671548e-02 -5.692027958786346487e-01 -6.036343204932675954e-01 -7.092261533355044278e-01 -6.275687403523317887e-01 -1.112437686339895482e+00 -4.106393090097057996e-01 6.949913781409414737e-01 -4.765668115124192979e-03 -8.338382232563532614e-01 -3.248326346901773687e-01 -8.400834398847260853e-02 -5.902560137691982289e-01 3.144234942522254883e-01 3.793111684968626385e-01 -6.915901307073182291e-01 -9.374010432621315836e-01 -5.273301284145840429e-01 -8.121036627005698977e-03 2.112620695679763849e-01 -6.308882072913352124e-01 8.012318387602722358e-02 8.391705046823276504e-02 4.964432358004093326e-01 -1.216919319181134274e+00 -7.520453070405347384e-02 -1.850743200977419955e-02 -7.048294799825670365e-02 7.732197020007977595e-03 -8.350078415589442526e-01 4.480988650945884055e-01 9.533397612820917466e-01 5.417740047494403743e-01 -6.991552891751163790e-01 9.419797398615157302e-01 5.459998386885421828e-01 -4.423484726498312369e-01 -1.514233493043997403e-01 1.127015292512782429e-01 2.839831260723358897e-01 6.883279472833119250e-01 -1.197527553053271410e+00 2.248626487456073519e-01 4.299613299152674761e-01 2.104377173074291618e-01 9.301261038292047978e-01 2.169061587199668795e-01 -4.570205281243950868e-01 -6.878235989198321354e-01 -2.478200526642572732e-01 -8.765279851666638589e-01 2.394042203719936035e-01 3.079870733278142203e-01 4.535968534671792618e-01 4.895724299603333995e-01 2.441261566501076452e-01 -3.280580287370440384e-01 1.578041229786074084e-01 6.650876287225313543e-01 -1.789487008610421093e+00 -5.637550871304450317e-02 -2.463962196385546255e-01 4.635336808249604368e-01 4.061666077417226406e-01 -2.195442827404823494e-01 -7.946050381701924570e-02 1.109142561086392115e-01 -7.711884935214117220e-01 -9.598550302964060643e-01 8.806507819468893938e-01 5.968807018261955699e-01 1.003779727356775113e-02 -2.687573349988058857e-01 5.165209937755997904e-01 7.048034812320543852e-01 2.656534093201020075e-01 -7.250376670649520683e-02 4.114949832734516866e-01 3.178815151814589068e-01 5.211861410377799375e-01 -9.579171167892494010e-01 -9.214013377559565621e-01 -9.923427534708125775e-01 -8.171407414002704872e-01 -7.795138954382392349e-01 3.923514301370017998e-02 -3.575089185395654429e-02 1.081537303227632751e+00 -9.741427214003539614e-01 1.026227557331848450e+00 4.353414348920114918e-01 -8.687323522526491093e-01 7.051588964488443301e-01 -9.393577939506941865e-01 1.027686588271985002e+00 -1.135792445249840688e+00 -4.600808647199080004e-01 -7.307029817528630788e-01 -9.181607136399964064e-01 6.279659396048281605e-01 7.069435338616287812e-01 -1.938894494006187519e-01 6.893729213667524336e-01 4.795216487469110556e-01 5.404863999757096860e-01 -8.381521001018346073e-01 -7.331074972042225246e-01 -6.312410198901207137e-01 -9.622914645767624009e-01 -9.835240995620793403e-02 -5.946932163662164150e-01 -6.822555107046585077e-01 5.563861995947211314e-01 -2.058592733531089958e-01 -3.648919205949773814e-01 -1.976645983257134809e-01 -2.795826399956237163e-01 -6.356941570798955166e-01 6.396944566683063771e-01 -6.616611258205516988e-01 1.600331233552377275e-01 -6.141972964248608446e-02 -4.886073961861978621e-01 6.817617077699192896e-01 -3.416433400462006165e-01 -5.458959171604595983e-01 -9.314907817469941786e-02 6.299846204422365759e-01 -2.150468303712647078e-01 -8.275890028996514269e-01 5.322817880789385558e-01 -1.645090897775319805e-01 5.731801173973533059e-01 -8.369541949765799682e-01 -6.564779861047784770e-01 3.459059156298411319e-01 -1.000957686709213756e-01 -4.597960619637986857e-01 2.587836179194404410e-02 4.762524076433604647e-01 5.711112478857241492e-02 -4.953401861518856586e-02 4.565020564484584265e-01 -7.266425574419848044e-01 -6.748075278088327966e-01 -7.647100387657490561e-01 -3.388602388276050204e-01 4.488381388761551460e-01 2.397324179066966099e-01 -4.454363011111293069e-01 -6.753824906690892860e-01 -6.842615321844087994e-02 5.763285654687385628e-01 -1.305163533624639771e-01 1.204864756905235298e-02 5.296997484840308967e-01 -8.747536830106148464e-01 -4.068205824483208666e-01 9.976858408903135356e-01 3.892519826914800363e-01 -8.379470484649522710e-01 6.337335530365286740e-01 3.834862361848949130e-01 3.028891549248494131e-01 -2.122739844825810351e+00 -7.449097102794132175e-01 5.895171228196358776e-02 8.076223469827932266e-01 -2.475908001362844502e+00 8.022832328938518665e-02 -9.871453855180695180e-02 3.229265246708975523e-01 3.388864335409352280e-01 2.035201917118386883e-01 -8.113862204012285417e-01 8.245597035815729337e-01 6.743096682692675259e-01 6.530991071084953914e-01 -7.039935085504965828e-01 -1.719161312322249613e-01 -2.944984424219657115e-01 -3.377947607752380954e-02 -1.251043257233636741e+00 -4.222317556457989146e-02 -3.346807995801320823e-01 3.307257803968896015e-01 5.646416540600200928e-01 3.532817127941230706e-01 2.140269937134922362e-01 -1.453453074048977334e-01 9.261400426423528620e-02 -2.413842867027311823e-01 -3.099570717462225566e-01 1.030186714796246461e+00 2.803267467866994989e-01 3.004130212224002117e-01 4.682704104596697170e-01 -6.204526037042715769e-01 -2.944890095815808628e-01 5.016017244358188520e-01 1.600676988016316582e-01 7.431682441688204355e-01 -1.295458858710980266e-01 1.622121777143203658e-01 1.481727997114401507e-01 -9.048678248434565141e-01 5.780449591584503333e-01 -8.808563370360045219e-01 5.083933026033998770e-01 3.409363267695820765e-01 4.057286087415557657e-02 -8.742367455171916601e-01 -9.904331569711423144e-01 -6.893972226207890630e-01 4.817697561972114073e-01 2.090700581154621984e-01
-9.431378141205950527e-01 9.469729804235254012e-01 4.394060971346727129e-01 -8.973772594913673739e-01 6.291097956617782705e-01 3.774827969631899816e-01 5.413501042436494881e-01 2.150035066329799849e-01 7.023927240732266153e-01 -1.430649232989802434e-02 -8.869078352409380805e-01 -2.704532880994379995e-02 -8.991011092321274933e-01 1.037327806783920198e-01 -1.327352647828224652e-01 2.486840009862894885e+00 5.362549177797713007e-01 4.209525563567403927e-01 -4.528595633923104269e-01 5.381677011066995364e-01 7.820417210170527156e-02 -3.526655336393376694e-01 1.000223007108773876e+00 -3.348846658025682044e-01 -6.486635164878146176e-01 -2.630857170612523332e-01 -8.837225634910524097e-02 6.317851334497431859e-02 -1.728059786190949132e-01 -9.190539730401303675e-01 3.770710189923101030e-01 -3.709817525227933344e-02 2.402866492793266917e-01 5.039971146324618845e-01 4.945653405135085334e-01 -1.049789834663539118e-01 9.092099635370542998e-01 3.265261549360122806e-01 2.617768699877208449e-02 -5.653513589761133273e-02 3.210317155050205207e-01 -9.364744755011369381e-01 -8.909026954411694010e-01 -2.674354318423884935e-01 6.790915577884013565e-01 2.097707940486944755e-01 2.694562680928314080e-01 3.077113347005722699e-01 -5.667503522009094130e-01 -5.543873942798209775e-01 -1.423090979234741815e-01 -1.352041897602030085e+00 -2.379650710066219532e-01 -1.021062843261698050e-01 -1.025531483303212393e-01 -1.072793106415394160e+00 1.382074268478976353e-01 3.081139079809389614e-01 1.047458267509760566e+00 -1.833267940474985203e-01 1.209066538167666433e-01 5.333509851718853945e-01 -2.475765644049068015e-01 -1.150686090525777416e+00 -5.552696709628909266e-01 -2.503427509785487448e-01 -6.837361577982656868e-01 9.035705457266481055e-02 7.078279292300370118e-01 -5.861161628470010765e-01 6.668287317546958137e-01 2.422083293252856318e-01 -1.309492939761686126e-01 -2.723541891908770607e-01 7.979606606167215233e-02 -5.560591189024541858e-01 1.895306709796656108e-01 -6.476928315579223439e-01 -6.662261921117812458e-01 -7.567638211420750771e-01 -1.308170547078509660e+00 2.453707557505752646e-01 3.468347658567986769e-01 2.899105825347603749e-01 1.175663447548523921e+00 4.561713651722904550e-01 -7.532910349422298202e-01 -5.611374084411729912e-01 1.334787207792791919e-01 -9.057028139709455417e-02 5.070519318453707847e-01 3.563439466475369910e-01 8.781260606991097006e-01 -1.787609493319921583e-01 7.117573450321603712e-01 -1.460893050033701124e-01 1.167558117987615440e-01 2.635829608217661948e-02 -1.043092195671442290e+00 -6.345740630555959938e-02 -6.280472861521083638e-01 6.502804679355707052e-01 3.280844285262076165e-01 -3.365048797868353536e-01 -1.321497086257810566e-02 8.897495104072181485e-03 8.635156499703738886e-01 -9.626854486209500683e-01 7.150537183933474150e-01 -2.135553294556596371e-01 -1.225744733234366002e-01 1.029619375257341714e-02 3.460501263058370358e-01 8.078939799209271522e-01 -6.400745300232919544e-01 -1.998283879631909676e-02 -1.023641405326305293e-01 1.569202260827125273e-02 8.903899537752398841e-01 -7.343492592450293621e-01 5.125212724880241488e-01 -6.605368513376038697e-01 9.714585874657573339e-02 -6.992753283089446770e-01 -4.682262670907633845e-02 -2.080605897741700794e-01 1.069371716877204510e-02 2.736723674176646526e-01 5.296873351799412655e-01 -8.051592948903953939e-01 -1.004022783729278112e+00 3.337049171372629131e-01 -1.064621417164400397e+00 -6.906902822745759618e-01 -9.781354438400474693e-01 2.929580737963088377e-01 -1.960652198686444192e-01 -2.665638766180133401e-01 1.102807964319534734e-01 6.755408061014062104e-01 1.211163232249331673e-01 8.798780381162277786e-01 -2.157765396672761682e-02 7.360183022547159837e-01 1.097820820277567444e-01 -5.270081689542117642e-01 -2.988415355509906890e-01 -3.165228954596956967e-01 7.966463108113226443e-01 -6.464368683401013893e-01 -9.338155626177297997e-01 3.232400640460063590e-01 -6.321400721526156952e-01 -9.219401485862874779e-01 7.780272620157087093e-01 7.606744402192008869e-02 -6.446540594451652950e-01 7.817213029793027568e-01 -1.082335402608919805e+00 -6.740900988000279037e-01 -3.008012995216688065e-02 -6.463869167266435012e-01 4.882340014778769333e-01 6.154716699531176394e-01 -1.841092148090823777e-01 -6.252974672727605876e-01 -2.123600838134118984e-01 7.962539416107493606e-01 6.917887090965791907e-01 -3.561541248817578498e-01 1.335388116517615686e-01 -3.460106943904377869e-02 -3.905500014531984587e-01 1.406722488862870990e-01 -7.396812150906258154e-02 1.211904584798253331e-01 -7.465273873015239037e-01 1.182358696273404369e-01 -3.012891089698668812e-01 2.194686248187144861e-01 7.845000317574791771e-01 6.145274979012570471e-01 -1.077408335138885231e+00 -6.592786506920816914e-01 -8.023062337100324015e-01 8.943839470362093813e-01 -7.404245822882232764e-01 -2.516683899826809290e-01 -6.512274494941830971e-01 -9.375420518891008914e-01 -2.315794521286747634e-02 6.354496515481147245e-01 3.287783617075547282e-02 -8.808219645871092629e-01 -6.329410916669288012e-01 -4.148284770934649868e-01 -1.336992333568142177e-01 -6.258903933368966666e-01 3.728822838982016608e-01 -1.560882259006843471e-02 2.924064791290292842e-01 -3.217547128984011851e-01 -3.960661456659747004e-01 -3.451923940696808857e-01 -1.372879808228771314e-01 -2.038599367218841552e-01 -8.215323147457573860e-01 -7.409813443410157019e-01 -1.909363841678285434e-01 9.230637984379012895e-02 1.615113373260106400e-01 4.368097672159469980e-01 3.119695879061789578e-01 -1.672844851520601583e+00 6.739162712132374944e-01 6.380675829458363202e-01 -1.754728374656598089e-01 -5.752128251179337015e-01 6.132669694961668805e-01 2.846616869732730426e-01 6.525503765243374776e-02 2.269564268783502425e-01 -9.399734859597821610e-03 5.173798436638853415e-01 4.083146386211049528e-01 9.564290753843831538e-01 3.773005080043435600e-01 2.769677659249362156e-01 -5.144187026710300703e-01 2.171218706478056093e-01 -5.659403246602612292e-02 4.760121492974392354e-01 -8.072626649121525944e-01 5.021599464611826297e-02 -2.063170141362737076e-01 -2.964535199784764097e-01 1.881777938991678056e-01 1.278496160454172803e-01 2.380878395027695438e-01 6.870369791475130529e-03 7.629547508396143929e-01 -2.163481789729932714e-01 2.464148633986874559e-01 1.876680976191321404e-01 -1.133182723454626784e+00 4.133596293354624418e-01 -6.743369504002055814e-01 6.033121651494413040e-01 5.906189641997251494e-01 4.977816723924767539e-02 -3.714357580152374272e-01 2.621149201680254559e-01 -2.355762591051074051e-01 7.523350631750272965e-01 7.843330500640165459e-01
-5.837668413048060501e-01 4.864499523089255151e-01 4.098443214164218529e-01 -4.335484366388720617e-02 8.456275983416814412e-01 6.960837139522431105e-01 1.593654156400320931e-01 7.479050388883244915e-01 7.377344916970779432e-01 -2.565934879272568914e-01 -2.341302705570543208e-01 2.007160184535880243e-01 -9.886117932164741051e-02 -1.702306373508772896e-01 -2.049312190914810428e-01 1.793719236484375035e+00 4.148282858311110877e-01 8.941274325778542087e-01 8.687548589566413959e-01 8.089997729630130641e-01 7.425942735725705734e-01 1.908247126702276586e-01 1.297898814821377256e+00 -5.813801529611458685e-01 8.580317242173044479e-01 -4.163883141146773603e-01 -7.986324103647889361e-01 2.986244716534945942e-01 -3.559013810240183040e-02 -1.095875802835243468e-01 6.057184609436635503e-01 -1.558242328653522968e-01 4.819982838230074118e-01 5.648655381881546589e-01 1.029396065783917506e-03 5.929185822851136267e-01 2.585994598948098133e-01 -8.218949036112489503e-01 -5.310889908114750646e-02 2.740158581740931854e-01 5.767212526889546886e-01 -1.005995628378973938e-01 -7.167585148702597386e-02 3.561616760409943017e-01 7.522476038195853310e-01 3.543899962917634872e-01 4.974646951295842445e-01 8.916736554462313391e-01 7.263952984249158473e-02 -5.171465386119518115e-01 -1.215341514000908424e-01 -3.023925614983740573e+00 5.508384484736829345e-02 -1.490502160997217995e-01 8.138278646814671724e-01 -1.356926286537305515e-01 2.905739884389694216e-01 2.117998951211998715e-01 9.916176975235687641e-01 -9.435779844522097781e-02 5.663372956758574439e-01 1.376177565778179124e-01 -2.312575589091568906e-01 -1.909226289525013387e-01 3.919817184969751622e-01 2.396371077590523091e-01 -1.041984491187845918e-01 8.377824607783904143e-02 -5.343037796842268206e-01 3.433863678049922652e-01 7.892051379742234252e-01 -1.706193044544780157e+00 2.262497346708443879e-01 9.725800370539846584e-01 1.938114435037905647e-01 -8.459956031567591461e-01 2.963961308520590143e-01 2.301125535900569452e-02 8.390363086865507691e-01 5.365255175041631075e-01 -4.336215522835879521e-01 -1.872282118362573744e+00 9.404009053736103740e-02 2.603289833546247878e-01 3.465547712162129756e-01 6.447687980662633045e-01 -1.180107209272376473e-01 -1.289242223924806918e+00 -4.603898508925478583e-01 -2.784367907403677012e-01 1.831267345303796146e-01 -1.969088373792453384e+00 3.708955452990165269e-01 3.989783197924393621e-01 8.796230962029550904e-01 -7.212201120461395609e-01 -8.507415928957033913e-01 6.647520970842354382e-01 -2.162251583525962861e-01 2.475637034169755890e-01 -5.551214979578269343e-02 1.377235357864934895e-01 2.766636379971335047e-01 5.777454499170406876e-01 3.768587515204847027e-01 1.623325021437837801e-01 8.237208537517202167e-01 -4.789039391424979031e-01 5.453713014471945897e-01 -1.911611493137679862e-02 5.080219588760455096e-01 5.809197084281599865e-01 -7.579980837457421794e-01 5.736296387236508032e-01 -6.835008702028991245e-02 2.746340014405189156e-01 -3.615972387598173632e-02 2.738329214873920225e-01 9.393222585304975558e-01 -7.223901120487450367e-01 -9.067880838764265372e-02 -1.744039176049263284e+00 4.739296958467054677e-01 -5.832500060369301409e-02 3.050770349189061426e-01 -4.721064577209044266e-01 -1.214164831274470169e+00 1.359189837329178030e-01 1.808999215001091676e-01 -6.014174171444572892e-01 5.054695215925282259e-01 6.054333470140249585e-01 -1.351456781860196077e-01 -5.393709350121864698e-01 -1.420300011258607553e-01 -1.837720775447733157e-01 -8.291435191584909381e-01 -3.737568628554630568e-01 8.380849631778056752e-01 4.130644200658409315e-01 3.099468014434354490e-01 4.943643519073881443e-01 6.274268003249408032e-01 -6.320603890024421023e-01 2.919262144010578153e-01 -5.250337256061411439e-01 -7.066257085575966546e-01 8.559138323925815847e-03 -3.957059936499934261e-01 8.697717061720883214e-02 -4.151305327225393582e-01 -5.613989808094955736e-01 1.532367610620308518e-01 -1.590211904649190267e-01 -5.212129584921895153e-01 1.057924650150234847e-01 4.586552046120304094e-01 2.154044621017097982e-01 -1.007561249447179973e-02 3.239620311883282811e-01 3.262288968220175556e-02 -6.424575533893835955e-01 3.649758428642616570e-01 2.461224025004437044e-01 -9.355717107433340063e-01 3.771805020956404131e-01 7.391745971865975040e-01 -8.210513130413535365e-02 8.374469024906823211e-01 -5.638655445146790735e-01 9.865302194254392532e-02 3.609174301434568966e-01 -5.580026724929632032e-01 5.377870766397452318e-01 3.467972977858043149e-01 4.373713935120484564e-01 -7.165347598873053614e-02 -6.817235895600416429e-01 2.323735081707027916e-01 7.316779095769584407e-01 2.184503064902990621e-01 8.199496204238878594e-01 -1.479902785443627522e-01 9.792675530101557779e-02 -4.839342402169067442e-02 -4.358245728020482268e-01 -5.572350157409849958e-01 -1.381040135267334323e-01 -2.069275057602379120e-01 -3.520676396510569739e-01 2.422326493557893923e-01 5.425344191418391970e-01 1.383943153356571865e-01 -9.090024330405832576e-01 5.233223844184176077e-01 -9.958013440010787809e-01 3.914506041670756109e-01 -8.854064369626815645e-02 4.435193445591740224e-01 9.057352097307760364e-01 -1.615056207857357373e+00 6.397787645749034580e-01 -2.074953721482292734e-01 5.525928995304006941e-01 -6.208264174631469290e-01 4.796438687256209497e-03 -5.956427309680665250e-01 1.135423737270269545e-01 6.574160629110199494e-01 3.213865083076354878e-01 2.860280444630911578e-01 2.406204161677866771e-01 -5.870722560140123614e-01 -3.020345062072431030e+00 3.734389327681960080e-01 7.271132352327593917e-01 -3.934770858517664949e-01 1.141154657283659085e-01 6.999602976665778575e-01 -9.234902686377086667e-01 2.742147701460526665e-01 -3.791188430437554824e-01 2.560577447526786732e-01 3.300328860698901190e-01 4.660210112819570538e-01 1.842139857128134439e-01 5.719397788096639568e-01 4.310325726422151171e-01 3.801071298063956050e-01 3.014669603702461176e-01 2.050461756750460718e-01 8.393183369179901820e-01 -6.639423233749104369e-01 1.570098703178987309e-01 -2.358920149209307315e-01 8.394305004717168561e-01 -8.798197188105385536e-01 -9.480427048927151379e-01 6.823041309792443609e-01 -2.754957476300946007e-01 3.222297570451543303e-01 2.594703966749765112e-01 6.078147973476004662e-01 4.668440964846520824e-01 -1.132432711381310686e-01 1.405057908092112728e-01 7.184375735332452217e-01 -4.795993109175910041e-01 5.987928986700497003e-01 2.754789935982747129e-01 -3.146295246836223192e-01 -6.801864098217995647e-01 -1.015049581349996677e+00 -4.478648657393823410e-03 -2.522547273471418272e-01
