-9.324644526292059643e-01 3.833007054582742712e-01 1.715123450430389995e-01 2.793424502420188138e-01 -2.566488733224409069e-01 -4.508697037072230129e-01 1.782021222725517495e-02 7.664828231477575082e-01 1.227288506801425122e-01 3.188336436587659306e-01 -1.213380266877291253e-01 9.386279574313528551e-01 4.811354192070456115e-01 -2.919530456151749331e-01 3.027751167920242903e-01 8.124165816228474946e-02 7.668637060396717997e-01 -4.556872505451718958e-01 -7.864151532572208891e-01 -6.206484167832010401e-01 -2.304074825089329204e-01 7.060194930317702511e-01 -4.634931503767596439e-01 2.489537915438485294e-01 2.454070916180941253e-01 -1.898811949504310981e-01 -9.003501876067336873e-01 4.862911748649705879e-01 -4.138440157257035623e-01 -2.085457919740519861e-01 -2.493152833925460776e-01 3.236563497091956010e-01 -8.307414588593743376e-01 9.318750579229283237e-02 -9.710639249767152315e-01 9.635100990490056416e-01 1.945570614635726558e-01 -2.355299808222548752e-01 -7.132416458659865954e-01 3.926594281890047888e-01 8.048788120589962514e-01 -3.657561681876606019e-01 5.310456876837469364e-01 -4.279731186626802297e-01 9.081930440338006338e-01 4.031219626102833797e-01 2.439270257388599927e-01 8.600166900362999911e-01 -4.669906503246581964e-01 8.408398930428311324e-01 3.507047044883282449e-01 5.408193938139631562e-01 1.409959121051572173e-01 6.657768941118870076e-01 3.951016390515166288e-01 -7.102043651972549387e-01 2.219587811571348823e-01 -4.453599861838554164e-01 8.284880328598216437e-01 -6.068184599323270811e-01 -4.296066498246763898e-01 -9.065324618837301562e-01 -1.072213157733310773e-01 1.094907535872000764e-01 1.438893738508408571e-01 8.042561501439021709e-01 -3.065852094071147005e-01 -1.080673990130768813e-01 7.008064575707286803e-01 1.488594488432117557e-01 3.048036109616626965e-01 -4.447618559986594167e-01 -2.741107092991928659e-02 2.382212857457681465e-01 -7.380140644314333587e-01 -9.382591769971291296e-01 -7.791456602579571733e-01 -4.652046434409616571e-02 -9.542759881171035685e-01 2.479352456568662821e-01 -8.086309765634435154e-01 -5.017350499077072312e-01 -1.489546379523958852e-01 -7.725162106168954601e-01 -4.609228671632230601e-01 -9.636372967462736305e-01 9.687364158548678050e-01 2.165619082347005897e-01 -2.490187164857517732e-01 -9.538898983317378732e-01 -2.272442500340754734e-01 -9.761059137401276176e-02 8.602509400173806720e-01 -4.446983138441751859e-01 2.273523672094654724e-01 3.242951159212320023e-01 -6.292533673581425235e-01 9.531520651911144781e-03 5.707768463721679675e-01 -8.119842106565109408e-01 2.096520267504409230e-01 -9.519221397767164694e-01 -9.867824048961965078e-01 -8.822732732591039850e-01 -3.879038418086105944e-02 8.491491161617614747e-01 -1.904732954176836524e-01 -8.532747358447632102e-01 7.210609542014801976e-01 3.748170750673918833e-02 -3.646694908862290752e-01 9.240197629919989497e-01 8.743999537525967147e-01 -4.822536926426191917e-01 -5.993709657096949472e-01 1.766292283987753453e-01 6.782518683339142651e-01 -3.322009636955907674e-01 1.713062880992061721e-01 -6.814124412260432750e-01 -6.127288798278004434e-01 5.191737919607755103e-01 -7.008736931209662568e-01 -4.728965896655430989e-01 3.763125098952864178e-01 -9.714414591431834722e-01 -9.382755624244897286e-01 -4.320535745765637925e-01 -3.289521323241966222e-01 -2.778631988101747385e-01 6.098878829879749164e-01 -9.331207835695144448e-01 -2.866311517884070348e-01 2.719751108419936059e-01 -7.155195406392933499e-01 7.122691592512734315e-01 2.899421834928035957e-01 -7.718594212589056092e-01 -5.866003536424280185e-01 4.840250490262858474e-01 -1.952386354075894281e-01 -3.273499037472506895e-02 7.704873109138407061e-01 -7.289573480224434965e-01 9.267366453454844999e-01 -9.165950432837556283e-01 -8.076435614715153921e-01 -5.548407538143523832e-01 6.118874824341967722e-01 -9.440693782683468038e-02 3.046526744893300886e-01 -6.572034156694044338e-01 -6.694618246557427765e-01 3.960092876231165876e-02 4.790145135065437265e-01 -8.244574297696848075e-02 7.322882203840780369e-01 3.182058960051800112e-01 -5.036028825119405194e-01 -5.371557118935234021e-01 -2.579765848996920519e-01 5.118549973870417658e-01 8.733189384883863760e-01 7.220318543476131889e-01 -4.788373953579709852e-01 -1.776536365440809506e-01 2.177750478588781069e-01 9.167869704332910763e-02 -2.259398927742229390e-01 -7.991665372865058847e-01 4.223597051765831667e-01 -8.262964928968897782e-01 7.267744020660658055e-01 7.224040381998881877e-01 4.139672606870257732e-01 -3.002692926250288483e-02 3.938085704822189559e-01 -2.141249157179206664e-01 5.934260289604830207e-01 5.716136319249291997e-01 -6.951357528289131560e-01 -3.678984551386792479e-01 -3.163648520683425835e-01 -2.745777566092557076e-01 1.320545609280566191e-01 -9.194504271094413594e-01 3.157763645848509770e-01 -5.981737924606362888e-01 -1.720050268873591359e-01 -1.039847448188704476e-01 -3.053129773418247206e-01 -2.356095423235911313e-01 -6.434421777687390209e-01 -8.661881935192455861e-01 1.000494601265220357e-01 1.901257660537817584e-01 -7.103292348885492657e-01 -5.451708585262612372e-01 -4.323832049593678284e-01 6.558425082769139269e-01 -6.958449818990892766e-01 9.826087006808105484e-02 1.336323470813292613e-01 -3.158906351665933254e-01 -3.023494819856474836e-01 9.162678036766774836e-01 1.048588017222837898e-01 3.021890240605392131e-01 -2.329319822341595694e-02 2.904211204228449583e-01 2.054480955478871218e-01 -7.125448780881094013e-01 -3.323067646052045299e-01 -8.622881443471959451e-02 -7.484818672882629365e-01 -2.794493038972820642e-01 -5.465219098852381885e-01 6.924116732804531660e-01 -3.232132761872051341e-01 -5.485195635154690441e-01 -1.853623897570268741e-01 3.606138264108000868e-01 -8.697201317416360933e-01 -6.412242447602496398e-01 3.811387454536411257e-01 5.025855692417305898e-01 2.343318588193895324e-01 7.552558288774358086e-01 -6.637742565067640266e-01 4.051275483289404344e-01 8.328204558405362112e-01 -7.010152500104062101e-01 -5.175360386629277443e-01 9.079321920213104247e-02 -3.162251312911705803e-01 3.794669084108684975e-01 -8.913202901583940907e-01 -6.801171970981159109e-01 4.302682491851347324e-01 9.398399003599733348e-01 8.585254830697871542e-01 8.007989446025315372e-01 -7.489608144454108496e-01 -7.095176150693273120e-01 -8.583666075586673383e-01 8.050785860839325403e-02 7.606491099100977094e-01 6.219824488068909779e-02 5.612751230039526584e-01 -6.251793504753857533e-01 7.244160572256400643e-01 -6.319599498750111399e-01 -8.919685348987805851e-01 -1.650832410617321666e-01 1.088636205347548319e-01
9.184515689946000094e-01 -8.161676318803956498e-01 -4.723051877887453620e-01 -7.656800486242982817e-01 -2.466576330188890720e-01 -4.483550910939343437e-01 3.658908688944410154e-02 -3.120257167210465088e-01 8.195271135505625137e-01 5.546791631360911135e-01 6.918790979167657174e-01 -7.995932922994020142e-01 1.471054087431740154e-01 -6.205120411930775681e-01 7.124471546126148747e-01 -9.905942737221848926e-01 -7.813895810751986248e-01 -2.588588540499491830e-01 -2.286150293490560870e-01 -4.769641056538221902e-01 -8.218697611686558435e-01 -7.782553760711704571e-01 -3.721706962674395935e-01 8.809779919606440801e-01 -5.899602857475692019e-01 4.618008107571550114e-01 -4.936638724484488927e-01 -9.277201482896171303e-01 -9.973353581754453856e-01 -7.584853135907058119e-01 -6.536345552640564216e-02 4.554581593861242728e-01 4.267457781549699458e-01 -3.329936623419684216e-01 -3.011627554658497657e-02 6.248819624871795320e-01 6.735315802094254956e-01 -3.630974547623204152e-01 -1.046038339614970614e+00 -9.414416914935714864e-01 4.725753370290991517e-01 -4.378794658117833305e-01 -3.724813280509366165e-02 -5.806531541860832091e-01 6.791353646815722067e-01 -2.017077592345319862e-03 4.976719946389235316e-02 -4.209339117567567068e-01 1.454148094285255717e-02 -1.004196137931090638e+00 -4.764118505142453941e-01 -3.082866511688176492e-01 -4.478486224296464036e-01 -8.265156631206490578e-01 6.090148275573600833e-02 4.910082923798462229e-01 8.817731373516412008e-01 -3.814914660563026305e-02 1.309125701626771276e-01 -4.479061854494615358e-01 -7.231244974913125789e-01 -7.548242986693279866e-01 4.562033726204115514e-01 4.336948918816758702e-01 -6.445691496537702125e-01 -1.952969005252792323e-01 1.799775575769716751e-01 -7.711917787341326935e-01 5.137085890431524193e-01 1.945097048393591432e-01 2.246459989445269145e-01 4.131967138772093540e-01 9.739222922069955546e-01 1.180676565131185407e-01 7.411899538212969318e-01 -1.872089910792581191e-01 2.658089403959188468e-01 8.538382199562214447e-01 3.290991303881920516e-01 -4.136301417215831333e-01 1.960519734318031393e-01 -3.487252686260682299e-01 -3.530819873120454866e-01 1.957878034836069425e-01 -6.972408179178554155e-01 -4.423227459814015744e-02 8.932598038677365127e-01 -2.988354851433142056e-01 -6.828522617335427425e-01 -7.594603158942139776e-02 6.736361961719093960e-01 6.274013375275612203e-01 6.159089205964758396e-01 -9.824771125216538170e-01 -4.538514543699530557e-01 9.506336750913573219e-01 -8.146066997530464482e-01 -3.622751475618175149e-02 5.672565341811439676e-01 -7.959248827376023128e-01 2.867964191589725265e-01 -1.530555935268207261e-02 -6.313836709617322018e-01 7.537634072018339904e-01 -6.672922265500329519e-01 2.704869333708639356e-01 4.817479034816993799e-01 9.589491382358354687e-02 2.385093430218127308e-01 -7.550677612723916132e-01 -3.850420801641368795e-01 1.499869006123307480e-01 -2.064653212722612763e-01 3.304759514780200025e-01 6.469547835631994648e-01 -6.176026907184938297e-01 7.729665315239213630e-01 -2.464457330824384729e-01 8.687473306915841631e-01 1.760970304547786469e-01 5.689532565325513547e-01 2.038322062609373986e-02 -1.044240002139238364e-02 -4.070964419143800472e-01 -7.457155427077752918e-01 -2.847741849414403004e-01 -5.750340762033276931e-01 -9.766704191497139753e-01 -4.856291250783141833e-01 -6.167355520272364000e-01 7.755357934185189706e-01 -8.746583524762813200e-01 -6.189726617058132208e-01 3.804125890309556501e-01 8.086162154827460924e-01 -5.542307425002891419e-01 -9.959915966055610248e-01 8.870832649794334612e-01 3.368353354709795466e-01 -4.100801781940605073e-01 -7.014341810106297648e-02 1.813522442271817137e-01 -2.639904159635250158e-01 7.467586212559070846e-01 4.502974559433218227e-01 8.949338347846845787e-01 -3.362763407410163663e-01 8.473705239273020551e-01 -3.265366054440702742e-02 2.600185824294692916e-01 4.695767878467765888e-01 5.648706787794838258e-01 -2.416330980305026188e-01 -1.267388265153343019e-01 6.213123758399007324e-01 3.736254731377376959e-01 8.175586168794752862e-01 9.321162782079585041e-01 -6.455324326125291279e-01 -6.149153200545549591e-01 3.558512544949704592e-01 4.837713002243055338e-01 1.982375293234498459e-01 7.723844131875793328e-01 -5.291788508686720016e-01 -3.523807110417870314e-01 -5.832103180991756591e-02 -3.612487470318558325e-01 4.442181364089208689e-02 3.225947500633215559e-01 -5.939067177981501855e-01 -5.590628121066441858e-02 9.637297788375071006e-01 -3.599053687057622297e-01 -9.596038160816895424e-01 5.939463932314069661e-01 7.233738107476512039e-03 -9.353703489723227404e-01 7.410091070752924391e-01 -2.413966138901039726e-01 8.104188265449616679e-01 -2.210249536533364922e-01 -8.853161507255253859e-01 -5.200903881142724394e-01 -3.002225836805569315e-01 4.817017996452566120e-01 -6.654475942740583072e-01 -1.553220327732007244e-01 7.363762023163306081e-01 4.546502988538766304e-02 -8.287471060335948048e-01 -9.731851374393066800e-01 3.748907105197812339e-01 9.370220012493938322e-01 5.312087558155984546e-01 5.172079399611004824e-01 3.312454514181094045e-01 5.341240968653000465e-01 -9.623612039840038213e-01 -5.389533958526109281e-01 3.632886658053632867e-01 7.080311234251851493e-01 3.225073893112722634e-01 -6.690935375269666530e-01 8.617028936205308742e-01 7.685821692585778075e-01 -8.393003956273479282e-01 -6.478387043849129778e-01 -4.822419788028888821e-01 4.731013385107215030e-01 6.650092303936789850e-01 1.292534821155147395e-01 -5.808588339079386875e-01 -2.050402926428015749e-01 -7.597321290381296999e-01 8.158945088464433226e-01 5.384256587871724120e-01 1.621391135398197667e-02 -1.523250459369865084e-01 -8.116932989108337493e-01 -3.767609350006456692e-01 -7.978048964134769605e-01 5.551380802386286506e-01 8.898519184966120765e-02 -5.610357495662345872e-01 -6.011111164231964787e-01 -5.111759097693839848e-01 -4.187328285034229158e-01 -2.196919221303592074e-01 -4.331426252746938266e-01 3.359384794776991701e-01 -9.498163870541148635e-01 -3.503361987124090082e-01 4.770675869084627929e-01 8.568799990823842139e-01 6.075867415130797866e-01 -5.615168408348411022e-01 -5.407858494964625784e-01 -6.713866366309846345e-01 7.339988321473697175e-01 -5.331711750389425131e-01 5.081184933743345677e-01 -5.086255543795363820e-01 -9.379961098421486509e-01 4.681813793671898427e-01 4.318445902472838882e-01 -8.513894639746875104e-01 -3.572342133102871520e-01 9.024634529372040914e-01 -6.738932004416180455e-01 -8.362711518107652786e-01 1.515136826761432631e-01 8.826756069374530611e-01 -7.868986868348361030e-01 -2.139076474818599541e-03
2.832080093488014150e-01 -7.515129202336539027e-01 -1.072677044185874173e+00 6.692562327301966318e-01 -1.062657378615482706e+00 -5.711381831257605901e-01 2.473867574483818998e-01 -5.299815998356974811e-01 -1.096656269947314133e+00 3.234286764782303564e-02 -4.834892219826839033e-01 -7.893594326342304734e-01 8.222283860570823721e-01 -7.436801507483045137e-01 3.273345171793164976e-01 6.467042585032005686e-01 6.433105007723993740e-01 -7.128227056186102750e-01 -6.113281699291583937e-01 -1.074135055831679564e+00 7.735248664399047014e-01 6.841480322077361231e-01 6.895049698019344031e-02 -8.834014579920344001e-01 -7.295445389370907030e-01 1.047707487277095041e-02 -5.791184485814314664e-01 -4.810056774047895556e-01 -7.550846133631398116e-01 -7.489434134743069293e-01 -1.804942672271375448e-01 -5.024714775443051701e-02 -8.079943026463611011e-02 8.535350558397616361e-01 -8.169710574364491551e-01 4.210420967251448099e-01 4.817760717312721819e-01 7.395147679863144086e-02 -1.923976692725829218e-01 7.119421984999678710e-01 5.460924457826502598e-01 -9.722565756860586106e-01 8.468554628505129411e-01 -1.062265877680948378e+00 3.092547900826886700e-02 7.506487517260990172e-02 5.354221354235857433e-01 -2.949473966407586412e-01 -9.163407268680243689e-01 2.894330224530147766e-02 -1.065806727833241485e+00 -3.470581484349307688e-01 8.909756475696614109e-01 6.568589101542842146e-01 -7.605395761858683157e-01 5.093115084480646093e-01 5.302596680461042489e-01 7.748619726333851876e-01 -6.112430992326466361e-01 -1.122164680474894427e-01 5.913059801339370924e-01 2.602613977728101546e-01 1.035562919304566648e-01 1.748076420003628340e-01 -6.109500861466428123e-01 -1.072617855673448473e+00 3.915037475157454594e-01 -4.121938078502245251e-01 -3.470451742632075787e-01 1.091314588755617765e-01 2.230761468655134971e-01 -6.592489070398587225e-01 5.686722890613430392e-01 -3.407720673157828006e-01 1.705563076651701870e-01 8.367048217494952311e-01 2.130345955356993670e-02 -3.449007863341770896e-01 1.451733794082106233e-01 -1.209441818141386571e-01 -1.927283654193863716e-01 3.793458840153878797e-01 7.710223798798188088e-01 -1.089801364123549055e-01 -9.175132503366023595e-01 1.572753350940248734e-02 -5.756344193854530111e-01 -1.037858320095144338e+00 4.755388051795549353e-01 -5.709645732946142527e-01 4.499292030310095281e-01 -1.245228040353605764e-01 -4.534252001901546980e-01 -4.488439346541687747e-01 -9.924711999480658742e-01 -5.318757604659785088e-02 5.564292979763179048e-01 -9.202484464786127027e-01 -8.695507341154344871e-01 -5.630692423903164989e-02 2.237141489685319229e-01 2.800138809046330834e-01 -4.450316962320620684e-01 -9.914350287549529295e-01 -2.543473037610721188e-01 -6.362831829597179745e-01 -1.060076281124156861e+00 3.095633685524744050e-01 8.109969019362731624e-01 -2.904862813955609302e-01 -4.965492693400918034e-01 1.859218139409726106e-02 6.176045890358271562e-01 5.007840665678585657e-01 2.899776835399500707e-01 -1.945606234110427990e-01 2.670343777086282011e-01 -6.913668923695805990e-01 -5.083703243681799711e-01 4.564432423341512335e-01 7.750693324801348760e-01 -7.115271143455536018e-01 -4.761905460221887432e-01 -1.085978805411998538e+00 -2.169920174189413631e-01 -6.573513660266261383e-01 1.955967838483337051e-01 3.102884766385161641e-01 -8.518484769887282315e-01 -9.173170104569072780e-01 7.014409138052773995e-01 -3.041079562986173102e-01 -2.599817501165881117e-02 8.107125587107248954e-01 4.399364789414164090e-01 -4.324495648885802179e-01 -9.104861237198041968e-01 -3.109796667280792168e-02 -4.334909926655515222e-01 -1.075389872714865858e+00 4.484353993086455659e-01 -3.160165282074132165e-01 3.627092956807523999e-02 4.113619206589337329e-01 7.996560453621061049e-01 1.414481652475453877e-01 -4.719023130411384992e-01 -8.648027898208824338e-01 -9.205841931497300568e-01 -4.688206743461321713e-01 2.417200186183176280e-01 2.945720808279918557e-01 -6.790824675438023039e-01 -9.198203643936880836e-01 -4.625110701295409021e-01 -3.261384275182093589e-02 3.991512274125334492e-01 -2.718443350048973736e-02 -5.101781232207220906e-01 1.340183798296670226e-01 -5.874246852679665398e-01 2.255094102245955856e-01 5.911302899525731069e-01 1.997287767957571791e-01 6.348503161721549826e-02 -4.754608488002007305e-01 6.517476962323955902e-01 9.010676978355270927e-01 4.651924400759391287e-01 6.154196865094275354e-02 -8.205806818520643420e-01 -4.434961366741300703e-01 -3.690367393534083607e-01 -5.379642680675015276e-01 -2.176002585952749313e-01 1.298118614777069024e-01 -6.927733130384283733e-01 -6.133242057873674602e-01 -8.492931028071862842e-01 -4.496915985915038716e-01 -1.337089536237023313e-01 -8.351338164212189497e-02 8.963838457748805055e-01 8.631963606061959782e-01 -1.939535376288260837e-01 8.529403492820496480e-01 -7.055207173342613602e-01 2.350750901256785930e-02 -2.307813871869853761e-01 8.068844227067023533e-01 5.935841704092673643e-01 -6.687642517606265935e-01 -2.176918907377975998e-01 -7.656500194968809403e-01 -4.805184332749438958e-02 5.098619915493113330e-01 -1.005990092916595913e+00 -7.310868891099565614e-01 8.563243159632638601e-01 8.140275473410021334e-01 1.561642182686283700e-02 1.942471809464033083e-01 -5.493025421639959882e-01 8.049967001497003727e-01 2.432702377472623911e-01 2.601101942625267949e-01 -1.050737420395541522e+00 6.143144385173076039e-01 4.714434616198824313e-01 2.734367690278358132e-01 3.665228467869114937e-01 -7.882810502704207245e-01 3.606897884620985373e-01 -9.350328495405274554e-01 3.123951328787426540e-01 -1.123070027005366178e+00 4.629872464068889859e-01 -9.534389977656491932e-02 -7.177976201503986076e-01 3.851765180277688660e-01 -4.485715278665425854e-01 6.671453225260545183e-01 -7.012878817371578366e-01 7.767257109645494539e-01 8.265753865996140481e-01 -4.574759782135929265e-01 6.670735766465285543e-01 5.865310088754107642e-01 -2.175426437230396082e-01 -3.648863932648171438e-01 -5.154229970341150935e-01 9.069996489502725190e-01 -5.942415776853762210e-01 7.408406227017065859e-01 -2.528693794562746344e-01 7.887118655691492952e-01 5.593726999178054715e-01 -7.646504678209665729e-01 8.319839303959709886e-02 2.706681965817889779e-01 -2.502731252099704706e-01 -1.066824326006283963e+00 -4.399253194827615343e-01 6.030479465844613696e-01 -9.536448111317472609e-01 -9.037906931371936237e-01 3.255014441011785387e-01 -4.618488902006969571e-02 -9.500640462594341085e-02 -3.395792900518431190e-01 1.326272958636658394e-01 5.966300073610816268e-01 -5.190722150005581126e-01 5.334053118411451466e-01 -2.426846367645796032e-01
1.051334491659268733e-01 4.426402635643733596e-01 -5.201799465071212936e-01 8.310046248792498647e-01 2.267779098074462762e-01 3.438832409303382853e-01 -3.709617381968250416e-01 3.233328402892443054e-01 -6.132690224418275715e-01 4.926020400547531652e-01 -9.077059553380568691e-01 -7.338588938978940490e-01 -5.922886229253065266e-02 5.611006461089808051e-01 -1.305437443444280865e-01 6.766434845209042814e-01 1.040086436665180747e+00 -8.107855788070328362e-02 6.651925280688802955e-01 -1.072709125529275054e-01 3.481078353251686464e-01 -5.254090622419769208e-01 -9.593466510538304348e-01 8.703570551347545869e-01 7.223561008032007846e-01 -5.837568425133564665e-01 2.074044215436042227e-01 -2.577431105022191526e-01 -7.774770226477133450e-01 -2.600028790720860239e-01 -4.816896269733458857e-01 -1.026136453584270303e+00 -2.412897134876174077e-01 6.813609809545321250e-01 6.862314538052951551e-01 1.667309168253601481e-01 -3.487666216662382856e-01 -6.705237545993076864e-01 7.771558058238228206e-01 1.296432754592838354e-01 -6.852414340889098066e-01 -4.308482097840464209e-01 9.477075924566074061e-01 -4.942119098376989705e-01 -9.484503294849682131e-01 -5.334594382469977081e-01 4.665131449120658025e-01 4.838142938138317861e-01 -1.930132859707446025e-01 4.798518170615188039e-01 -1.127044510576973163e-01 -4.031890685438589000e-02 -7.599878298570910129e-01 7.574704602972779366e-01 -3.720753534533782769e-01 2.645578757140448767e-01 1.015212588483337397e+00 -6.189707421514293317e-01 1.024129199754450825e+00 2.250141757514858010e-01 -6.389376906734633987e-01 6.381216629636708992e-01 9.290352604099327838e-01 -1.555431247966923038e-02 3.556541383556588443e-01 -1.030975018537399590e+00 1.096702841034832288e+00 -3.555840271456883750e-01 -8.488295029249817159e-01 5.793581975750082824e-01 9.123489791869358045e-01 5.667289240606833145e-01 -9.282012230974365785e-01 -9.142607696358479030e-01 6.264957292217888940e-02 -4.664519095774957158e-01 6.708852315056974547e-01 8.088620428858928069e-01 9.666724048066980268e-01 3.557914870765818693e-01 6.954169057543128085e-01 -4.344718323324493481e-01 -7.534558425405820659e-01 7.300862290553430389e-01 -2.974600403438766860e-01 -2.644798277347553683e-01 3.797698936188880769e-01 9.707127997325892821e-02 -2.396387210777527754e-01 -3.640665616865292331e-01 -7.686841664533863305e-01 1.578491469168914196e-01 -4.429407372701323897e-01 6.037694483360297459e-01 3.471020183611326915e-01 -9.653669900045394048e-01 1.024594503018741332e+00 6.846613495562612339e-01 -4.859674475424946016e-01 -1.025322642424702391e+00 -3.729125596554866418e-02 -4.455421770853770225e-01 1.958853309480611815e-01 4.176249051745359320e-01 7.010871981588049362e-01 -8.714898054421006401e-01 5.008548285997469485e-01 -4.186017993273436488e-01 1.041079502440117377e+00 6.815988334206870558e-01 8.357556257303254410e-02 2.168868683144739573e-01 -5.790963741505169571e-01 -4.708126362751800520e-01 -6.783684967645521313e-01 -1.891517024341727582e-01 -9.356074665941469526e-01 -1.025800357947381364e-01 3.701979286047944462e-01 -8.483242603951440808e-01 -2.232625757623075968e-01 -9.436886940699903414e-01 1.493898569510989371e-01 2.777539753814607937e-01 3.502772552799298666e-01 7.274968221657329703e-01 -6.057575774306028782e-01 1.171649952828095476e-01 -3.513009488686498760e-01 -7.602055094050599315e-01 -3.998412446372552331e-01 -9.542460460230742791e-01 8.636119267929458498e-01 3.510404874414645993e-01 -7.589640936432114904e-01 5.612109345815611272e-01 -1.904357344672268082e-01 8.806941201496769622e-01 -3.774101255658997983e-02 6.265131373085891520e-01 -5.074222600212082712e-01 -1.922313139338991395e-01 -2.700714834379391305e-01 -9.300185597032378793e-01 -3.428602699206076410e-01 3.570518104086435884e-01 -1.992519782567372666e-01 8.611812620467077517e-01 -4.080593680719579730e-01 -4.167655866240093654e-01 -2.526349654791450461e-01 5.049668312258437375e-02 -5.673138134778606956e-01 -6.262450550460711973e-01 9.110198788286926197e-01 -4.031055244452927400e-01 1.177338378654371187e-01 -9.244676944240688421e-01 -6.370846835797850938e-01 -9.090350217698408564e-01 5.545076427048962753e-01 -6.719799465877814848e-01 6.403854939795754209e-02 -6.177030735067654543e-01 -4.215504355141069803e-01 8.471811470788577214e-01 1.668968891493460560e-01 9.815441267303085526e-01 2.225680178509283902e-01 -9.616882568388743779e-01 -7.792699081324305777e-02 -8.557473898072128771e-01 -4.969165802235072649e-01 -1.652320358420776569e-01 1.150649093538922141e-01 -4.110393054421282444e-01 -5.386180011562396314e-02 -2.425814709546922909e-01 1.366280330162853579e-02 -4.739932254739416262e-01 -8.168593485550463829e-01 5.174577645283190419e-01 -3.528672032117723956e-01 3.060494930263205071e-01 9.667033459613716406e-02 7.533463534375698378e-01 6.717422628277832652e-01 1.888895225204905923e-02 -7.569527025139802801e-01 1.628810089965907204e-01 3.642299516808199522e-01 3.463055681141933295e-01 6.857902718076095416e-01 5.785914908071378981e-01 1.502102639373941451e-01 3.516682615061664796e-01 -4.346212187712986674e-01 2.000083811888245244e-01 5.188748860961409637e-01 7.659379767920755366e-01 7.731745148553907931e-01 4.313160582978827623e-02 -4.983869095789455472e-01 -3.087462406316396346e-01 9.264737694188496242e-01 1.145972030715327189e-01 6.725022055743261618e-01 1.679841632217791980e-01 -8.349852762423680408e-02 -3.852675798228045734e-01 2.729246446506381624e-02 -1.073169837114376302e+00 8.428302488312344742e-01 -3.702588153454623027e-02 -1.074637179016746602e+00 4.554071256739729567e-01 -7.929259427335622057e-01 -9.876545384320388754e-01 -2.334760627382857223e-01 1.055151720505588253e+00 -7.291640855981527114e-01 -9.224873050034094746e-01 7.604322582209929182e-01 6.671590475900170958e-01 4.976895933604968403e-01 5.354338406090242836e-02 4.365547257831629314e-03 -1.883698197835226018e-01 2.451191715400319049e-01 5.727294099293624985e-01 6.909854421866190588e-01 3.536253755444925262e-01 6.993544596654766021e-02 -1.918658639945079736e-01 -4.975103531797412382e-01 -4.716448651463918118e-01 -5.164374264433465589e-01 4.539026826824052452e-01 6.639544166283772864e-01 3.027982668175628889e-01 -4.192572410653618853e-01 -5.049560026409903868e-01 4.409066140871389927e-01 1.058353592019779299e+00 -9.815107775530554912e-01 -6.503852270559860038e-01 5.808784491720953014e-01 5.415897451450307765e-01 -5.260811186715647070e-01 1.834660773006218937e-01 2.631136801771905565e-01 3.207670116555960127e-01 -6.255349981641337986e-02 -3.020741282613834122e-01 -3.465124227194477102e-01
-7.027310812452667310e-01 -8.661792849794283100e-01 1.884489943714638682e-01 2.672151751259506103e-01 3.491299274216215220e-01 -1.196277400111462441e+00 -2.365594821579654616e-01 -7.958580458706950855e-01 1.645560688513265576e-02 9.265564390616305435e-01 -2.100994541276922645e-01 -3.240782640759144462e-01 6.267432865260518238e-01 6.885868609977592314e-01 -4.890322825422663278e-01 4.826358207750359730e-01 8.616895118776505269e-01 -8.048272579835576979e-01 -1.654568990030066411e-01 5.618930504009481686e-01 -3.382228664137468810e-01 -1.937874433071435643e-01 4.724859143844123421e-01 -8.305828448816156007e-01 -4.568503951677324593e-01 6.503098270711933637e-02 -6.356359008776433228e-01 5.862577791872185529e-01 4.915463627350203368e-01 7.733333013049916715e-01 6.692188991202568937e-02 -8.941776451725320651e-01 7.491976412228662507e-01 6.225066600651615323e-01 3.804105527835364292e-02 5.834192021628245017e-01 6.485786946995628632e-01 6.019102766293832341e-01 7.474465638651887900e-02 1.360486825817480150e-01 7.232674871585390575e-01 1.471207303736117855e-01 -6.549757890368305135e-01 3.337867270207210413e-01 1.110755572243063288e-01 -6.437108651389552572e-01 -1.014085493287735229e+00 -6.268321712339376406e-01 2.951675585057711437e-01 7.157403755016240599e-01 6.109242423846750203e-01 -9.042756914435430282e-01 -9.281622487520945208e-01 4.878182703740914783e-01 -5.328310555200531651e-01 -6.394061467976522861e-01 -1.124400376081281294e+00 -9.374358607009206645e-01 -9.553830286406583827e-01 -7.397054928437389876e-01 -3.232997366387132532e-01 4.731282466557624189e-01 4.839213897562879008e-01 7.927300417388656317e-01 -1.503599884158965394e-01 3.063417866022367653e-01 -2.196194163097215379e-01 -9.538367041549374870e-01 -1.073021616707137360e+00 -6.685520806991580578e-01 9.067463063869383166e-01 2.681184509137140015e-01 -5.714003198289155927e-01 3.264643499742914123e-01 3.583177450804655439e-01 -9.076893042825553426e-01 -3.654512865010566269e-01 4.675427247804595510e-01 -9.054930342894098594e-01 6.555032693894627949e-01 7.355590728863389272e-01 5.779145349231269435e-01 -8.272425024267227034e-01 3.659478062248656266e-02 2.299068133564100003e-01 7.086124891046886587e-01 -9.703416100656542254e-01 5.224731777632389829e-01 -5.590686586806448144e-01 2.119837200256028675e-01 3.849626907908003659e-01 3.461515428199812283e-01 -6.362175263475702280e-01 4.553187406522892638e-02 -4.550780923945864642e-01 9.268311148830027379e-01 4.743077507111206903e-01 -3.587994665673404082e-01 6.056067183366787843e-01 3.765398652498113674e-01 7.460428934189156092e-01 -6.120337131963046184e-01 -5.664935469817194980e-01 -9.746830315161946201e-01 -5.708805406611980882e-01 -3.989940057986103294e-01 1.470154249637928845e-01 -7.774071473995755599e-02 2.757292545222078117e-01 -5.212626198010622547e-01 -6.863031799063255001e-01 -3.211753759532876562e-01 -2.189442894005009244e-01 -2.787959545550218188e-01 6.351992667199377607e-01 -5.563590306288437315e-01 -3.313600583162815139e-01 -6.429555254812894249e-01 -4.221937318379799242e-01 -2.966874970698590852e-01 -7.493954391635328921e-03 -4.896571257534524380e-01 -6.997857246672707365e-01 2.942024171565246204e-01 6.432079827113380555e-01 -9.242506444677647259e-01 -6.053030195477918651e-01 -8.055272735820272478e-01 2.326202607247699339e-01 -6.547874379912587139e-01 1.348991616905320934e-01 -6.177320621960158409e-01 6.039183171406174999e-01 -4.013085475883748088e-01 2.108035988840126496e-01 -8.564598974169532752e-01 -5.933804122645996992e-01 -5.574631626487241975e-01 1.739153570294435236e-01 3.246703387017955689e-01 5.374030603798413130e-01 -7.534567147448245628e-01 3.924965687091773736e-01 4.304750133508039589e-01 3.443440854920969130e-02 2.003133630603549098e-01 -8.688318172230229397e-01 -8.734698475755181546e-01 -2.640140049248396736e-01 4.047508942950260313e-01 -8.158499172269771949e-01 -2.914674851420697155e-01 -2.236648522753226231e-01 7.148587186765542612e-01 -9.789701564953742219e-01 5.859726697541947082e-01 7.832877974331419191e-01 -5.295099458899179545e-01 6.385719281565204186e-01 -5.545413243601408082e-01 4.605694274559523071e-01 -2.447262409691792762e-01 9.451852857776801842e-02 -6.412424881366527440e-01 2.264148406940735270e-01 -8.653243674345256764e-01 8.370065045426591799e-02 -8.712396798894053718e-02 4.921527831520008389e-01 -1.666245056172663275e-01 3.337410518050701325e-01 -3.755328133803269020e-01 -4.362774486414879305e-01 5.135901679200319814e-01 -2.450220851036769010e-01 -2.119191036473342393e-01 1.563331061658854160e-01 4.573143406666176358e-01 6.305429539570960029e-02 -4.149017683544215518e-01 -7.773209894430628264e-01 3.358462485219278482e-01 6.228399441408665194e-01 -9.193228493844228799e-01 -1.023936805853420534e-01 8.261222091347021346e-01 6.497146521688897114e-02 -5.886723399942477702e-02 -9.244749581240017111e-01 3.079254831579294679e-02 1.336982203865617058e-01 -7.634663578434991438e-01 8.908290124392660436e-01 -7.594240536525821428e-01 2.044693111086941240e-01 -6.544572145109065486e-01 -9.908169068560038761e-01 -5.952523452552679339e-01 -3.694447046748032260e-01 -2.375830661922176679e-01 -5.545479429027961871e-01 3.715695572222340037e-01 5.381941261554494815e-01 4.258691122902850124e-01 3.832967287597794925e-01 -6.070520529098036855e-01 -6.888440673860737329e-01 -9.201127723275583925e-01 -2.553331156540800673e-01 -8.438821918980698999e-01 1.472658092145704423e-01 8.103045321742260443e-01 4.179780602110619303e-01 -7.841810421161572453e-01 -9.783053348733926624e-01 -3.077536957058089051e-01 9.821056238047182196e-01 -4.151590768196198877e-01 3.771983588752540473e-01 2.757028307732046768e-01 -8.918062437407713386e-03 -2.730071513504796488e-01 -6.577767750703810146e-01 8.611752756238473250e-01 -8.606602058547971890e-01 -7.346368233953420868e-01 -5.596767094167151013e-01 6.411905900687925319e-01 3.242527347604357568e-01 -6.610577198880216443e-01 -8.458387044454775960e-01 6.489447639304122273e-01 5.500060830076138885e-01 -9.950563649491607210e-01 7.227778578653136776e-01 1.272744308385579670e-01 -1.269127360545524164e-01 1.948381723079958827e-01 -1.141059410270049090e+00 -5.460147233876072592e-01 -1.025462551077339413e+00 2.048856923727798707e-01 -2.457284501990618097e-01 -1.998507525444456479e-01 -4.569004156414082640e-01 5.478120862923362422e-01 -1.018733047791295698e+00 -6.328283547563805511e-01 1.254534306393327026e-01 4.643252333325615933e-01 5.493968341995716931e-02 4.600534740909982268e-01 -9.771285050693377938e-01 -6.502231837743193132e-01 -1.018452582997493527e+00
-1.258881659336494874e-01 9.547592170803267386e-01 -1.065635932348036663e+00 -1.883186547517903264e-01 -9.017342345721502950e-01 6.131872148376323051e-02 -7.397913639662749841e-01 3.621803009804908657e-01 -6.381336849543557399e-01 7.273026936629354289e-01 -7.031320782428944760e-01 -3.461574718769802606e-01 -4.118626137301903967e-01 4.735038169429767185e-01 6.025431441323718168e-04 6.914177507873839890e-01 -8.766853703832033773e-01 -1.656610277626829539e-02 4.210303633366218601e-01 9.566257393717086943e-01 2.769958999117316800e-01 -6.993572379998449495e-01 6.231512561148025986e-01 -8.130999938122366322e-01 3.983055640779118445e-01 6.818592244185924800e-01 4.801365674644086229e-02 -3.982766498049492010e-02 9.051517745508788071e-01 -1.031009988924689758e+00 -9.422462915485507740e-01 -5.223210562571884985e-01 -3.841057192230082351e-02 1.017363086540127998e-01 -3.343404698810760745e-01 -4.953769753250793495e-01 -6.648846007382743784e-01 7.019259246018078047e-01 -3.383482071207259967e-01 -6.054232070334819582e-02 6.624048474674910647e-01 1.332735637508240811e-01 -2.399523439894938881e-01 -6.797668435332957504e-01 -1.159918240357608599e-01 -1.505097937724388935e-01 1.003877595867935346e+00 -5.452627821001848618e-01 -6.482606943476241224e-01 -5.623478894590450139e-01 -5.860396675977295189e-01 -9.685054264403628599e-01 -3.269604870031317945e-01 -4.465597631847200710e-01 6.603484451057508586e-01 4.562361667239223095e-01 -8.748412147914527148e-01 6.284477865231453686e-01 -8.749439616975224210e-01 4.188030215523843025e-01 -2.517846550735568061e-03 -9.626851450975251190e-01 7.162624269900449425e-01 8.137099956051246918e-01 6.721914394518476721e-01 -2.540532980984975264e-01 -7.326680799115463660e-01 9.475357171980454130e-01 4.362846652162764571e-01 -1.019784590201191499e+00 -2.758092995431204453e-01 4.862912041510269456e-01 -5.383304790143835644e-02 -5.319971482259071571e-01 6.718698511216459890e-01 -4.532156965967623630e-01 -1.016279648489007981e+00 -6.431555130587602864e-01 9.408878637553117485e-01 2.488432882534694357e-01 -5.864381566023435521e-01 3.182846964857611871e-01 3.456756446748756595e-01 2.172942155676127751e-01 -9.964619094727925619e-01 -5.305680609386054236e-01 6.082327695700345815e-01 4.602628011504815708e-01 -7.078779176621041724e-01 -3.427389613731127715e-01 1.028541495152916069e-01 5.100088413761517669e-01 -7.444243588206913564e-01 -9.269638696075552797e-01 -2.800378961913940201e-01 8.592596816708476526e-01 -5.637895107309702780e-01 -9.281477491337183361e-01 -1.012608590754694671e+00 -3.549669374272206301e-01 -1.000915979775527376e+00 2.234963086453901626e-01 2.406335651549582899e-01 -1.963667632591450940e-01 3.219469094734800363e-01 -1.276839881386747921e-01 2.886706817886940390e-01 -5.810455137668951719e-01 3.724035910399150495e-01 -3.058113642032553314e-02 4.060842904652246510e-01 -1.757139240493384713e-01 -9.113964880589044137e-02 -1.053974946612572738e+00 -1.084801644768847023e-01 -8.243421141176147104e-01 -6.588368239093048695e-01 -1.244482103889429231e-01 -4.779761712133343173e-03 -3.492278824315254160e-01 -8.143782929131695436e-01 5.083959715141032065e-01 7.890309129812018707e-01 3.971555143294051571e-01 -9.990365165814092396e-01 5.686442494395350655e-01 -8.329780514268644298e-01 -1.073549190167897432e-01 7.687375172231348808e-01 -5.808161962899390796e-01 -7.316317405228206505e-01 5.622938621179852658e-01 8.746804558546481534e-01 -3.699774300311832187e-01 -6.504242101494747130e-01 -7.384954749726730938e-01 7.756692834690358529e-01 2.867969886465203400e-02 6.733631729279110356e-01 -3.495495727463321378e-01 -1.017469094495667692e+00 -2.089255340915894821e-01 -6.812191200620223430e-01 3.886442268342064216e-02 4.167179327827914143e-02 -4.973217525776086889e-01 -3.657440010594222302e-01 -1.111850758775012826e+00 -2.522330329304947605e-01 -3.124254664520556002e-01 1.010474391515942677e-01 7.059642588571291011e-01 -1.035830039564304139e-01 -9.272978479433755528e-01 7.656755593664478221e-01 6.513334706351411318e-01 -3.228035643826110412e-01 -3.878681133471392761e-01 7.290344714741679999e-01 -2.573416184138532792e-01 1.913919954447856342e-01 8.346284438963937902e-01 -1.036410315345597688e+00 -4.840595993921862905e-01 -6.094865069702496418e-01 7.067745239328729889e-01 1.065417695516163027e-01 -9.759790290490577558e-01 3.691299458718697579e-01 2.604506095899236096e-01 1.448404425303987664e-01 7.944540235414331297e-01 7.303033179871024627e-01 5.361146404465649828e-01 -5.681801508913147947e-01 -8.688226631496454022e-01 -4.811948108805996216e-01 -7.039233736128842622e-01 1.140013176402072531e-01 1.500380218136812549e-01 8.329145194560343135e-02 -8.778045407860733951e-01 -3.092775497646044203e-01 8.724794922449785606e-01 3.913952876881817700e-01 -2.897905740673552000e-01 3.495727282538554914e-01 -5.861003369687923792e-01 -8.046798314219878456e-01 1.114465349211152118e-01 -5.978524642657127020e-01 -5.877998494645614302e-02 8.013843927106941711e-01 2.021647607107161237e-01 4.190600279927533256e-01 -9.679740399191560929e-01 -1.909649759938670532e-01 -2.076408690915162170e-01 2.770643493377741295e-01 -4.991408436756648581e-01 -2.245725419855134075e-01 9.377270402558859352e-01 -8.296440704250344078e-01 -7.161745340821560335e-01 -5.346020287206345589e-01 2.939849105576507471e-01 3.314424100292058251e-01 4.895144539653464855e-01 -1.984089387859600540e-01 7.007858277974011729e-01 3.556160351560836985e-01 3.983476639319980528e-01 5.289485527903741158e-01 2.879032609438365586e-01 -1.446359856128684729e-01 -8.088577885766825570e-01 2.151273745148166161e-01 1.134997168609033769e-01 1.952320290978039330e-01 -4.815651427903063775e-01 -4.037980789689996075e-02 -6.481830515355417877e-01 2.518312127174918702e-01 -9.448871975922530364e-01 8.017429452126999534e-01 -7.074297624367196224e-01 -5.551016445186979231e-01 6.453780687331053256e-01 6.375966149171133912e-01 5.443025583496901021e-01 -4.764293899175441882e-01 7.436698795899887582e-01 5.576769201980822377e-01 2.810317978566816421e-01 8.701675129660111363e-01 5.498133385790809902e-01 -1.678612144419600882e-01 -4.689079037635200398e-01 -3.750300304794698114e-01 -1.028959653690035836e+00 -4.547749490294919483e-01 -4.426759110455815160e-01 6.946408404700709083e-01 6.370769239603634171e-01 8.941158127441475312e-01 -3.001079600781668133e-01 3.540787546155845233e-01 1.227320205742839093e-01 -5.260136269734387859e-01 6.274102810263456620e-01 -6.755580601733108814e-01 5.619763956596298682e-01 -7.618935286212999980e-01 -8.223951940743933209e-01 3.708579373664094847e-01
-4.166161919519636991e-02 -1.835946060686737269e-01 4.680459855456257090e-01 -3.532122961910739711e-01 6.415539575871045397e-01 8.456134825006615952e-01 9.061872127692918166e-01 -5.405978935971409438e-01 -2.746926358043284555e-01 3.724970052447595381e-01 6.858133709662690425e-01 3.273250325227327617e-01 4.608036498986750606e-01 6.366079434801180659e-01 -3.333096789881226929e-01 2.349126523966844904e-02 -1.695610999006934988e-02 2.108360990381351885e-01 6.760134842270235644e-01 1.439831949473526773e-01 8.519501010577613664e-01 4.043168344460039698e-01 -2.045961255372722998e-01 1.171287755990012280e-01 7.705275597119289888e-01 1.674643170716639262e-01 3.452250861985413088e-01 2.623550383940603803e-01 -4.042826017386593751e-01 -6.773898166098424323e-01 -2.402267897581724654e-01 -7.931698059098659659e-01 5.757949622414005875e-01 3.483964483233428777e-01 -2.426671069817578630e-01 -7.068851790840791072e-01 6.746776548055656297e-01 2.025148847289243159e-01 9.030805454343379113e-01 -8.843068328979094561e-01 -5.757148125310371789e-01 -9.138830954167943554e-01 4.190873395872399820e-01 -7.601031889889119375e-01 6.975527678997861525e-01 -1.114652116606905524e-01 -5.027075498123317540e-03 -9.681275150681430963e-01 1.547518975569282529e-01 -6.134782765457090781e-01 -6.406835437029941849e-01 7.026115062309286063e-01 7.153389376132944788e-01 -1.052137617337675524e+00 6.057654380235496516e-01 6.836954676534343633e-01 -3.506235998055761555e-02 2.057321113730284923e-01 4.166976695275597664e-01 3.179153733660335934e-01 -1.629231804359511093e-01 4.690984507744692250e-02 6.681212405673424282e-02 6.067593376364359692e-01 -5.864105186354295896e-01 4.201746920507653527e-01 5.412708513142884259e-01 5.094529547924047108e-01 5.020634803562261661e-01 5.567952385858231379e-01 -2.161558724061414805e-01 1.844731648766595455e-01 4.432678301920110475e-01 4.726173383412139439e-01 8.586937462784791641e-01 8.607131449817171376e-01 2.565752900484197935e-02 -1.109791565854475331e-01 6.033534505748423538e-01 -6.348958953397328964e-01 4.545791483834654145e-01 -7.313490983885123642e-01 1.134256267141065810e-01 1.248346670470329572e-01 -2.030678067789167818e-01 6.472367385205405332e-01 1.982748263488451346e-02 -1.111518262725471051e-01 -2.828525303050178352e-01 -9.421694187029266976e-01 -3.504147439640076245e-01 -9.195713717780932273e-01 2.625140105584492997e-02 1.973665905892785788e-01 4.893400249656906786e-01 1.806799711776542749e-01 -7.083452685432333196e-01 4.042240737844888798e-01 1.890496771248236299e-02 -8.958297192660462649e-01 -1.023641058037379592e+00 -4.730673625197046595e-01 2.869888858055489878e-01 7.791601475877318883e-01 8.396217429465392401e-01 4.556814442244658814e-01 -4.915479082962971868e-01 1.347805916450751096e-01 -6.245216531007560246e-01 4.387377353137323355e-01 -7.318911640307538269e-01 4.479205700447583816e-01 6.788809456524304009e-01 -2.654927415144311964e-02 -9.615081173476993648e-01 -1.606822424179465136e-01 5.842416179111549202e-01 -7.183488078989272996e-01 -9.913250503233923538e-01 3.630274085758711800e-01 6.727899578180165929e-02 -9.768083841071378837e-01 8.483214698157096612e-01 4.865054293413761943e-02 8.607827066165099628e-02 4.760948237221534485e-01 7.600165267377436695e-01 -9.743742485986115476e-01 -4.040355311550226647e-01 -6.580592125058624120e-01 -1.431810600076438567e-01 -9.139817139224323261e-01 -9.113323865692224413e-01 -4.714754516594650280e-01 7.459389183838894821e-01 8.432913721388342054e-01 4.226192966101032789e-01 -1.093244255603142534e+00 4.012417246138494376e-01 -1.049959129181279538e+00 -7.340153526959636299e-01 -1.053279445256968261e+00 -7.829597485259919276e-01 3.100105312517025813e-01 3.352864368691259034e-01 -3.215564085267982319e-01 3.622491986338949865e-01 5.955198688727648682e-01 -8.077498797535693775e-01 -9.032106775351755878e-01 -3.291807578683235147e-01 -2.922075739630926594e-01 -5.362964415539100971e-01 4.404784225965027722e-01 -4.152998595758206068e-01 5.047008167869958539e-01 7.052119406973041960e-01 -2.530794676390441325e-02 -2.211554491467154493e-01 -9.339132284039414200e-01 -5.511418392659563903e-01 6.742221173652996891e-01 -5.736102409522376711e-01 1.753044958410240328e-01 -1.138127170680890282e-01 -9.080519428141906602e-01 7.140800027722922216e-01 -9.381614140006194758e-01 2.435208551165827240e-01 8.923858054665800843e-01 3.231173140632197516e-01 -4.522261691857162869e-01 -9.299487545053121140e-01 1.123200259768746267e-01 3.889450340600103528e-01 -3.783523663732687448e-01 2.596948554732358971e-01 5.140785415467001573e-02 -1.006201526762091847e+00 7.120573626221742281e-01 -3.302587267273281446e-01 -3.244837165128451328e-01 5.926241449328418787e-01 -1.143700131652890112e-01 -1.537565249900340048e-01 2.192441495323065592e-01 -6.418600321152775345e-01 -2.770890414681660696e-02 2.740218025833921489e-01 1.813980844779061741e-02 3.092822413534508930e-01 1.399336995465245148e-01 5.894877815656355269e-01 6.763662538856958228e-01 -8.833531795298064093e-01 -5.797779122656948614e-01 -9.884721413948232005e-01 -6.571893834608517615e-01 3.491914458509509100e-01 -9.418212100448523083e-01 -7.566329522376071814e-01 4.536922991636415103e-01 -1.739351718822465254e-01 -4.995820786241767508e-01 2.120170348270431215e-01 6.955505217862647527e-01 -9.761434378482782837e-01 2.761921419960017277e-01 2.525110410444018627e-01 6.677771929247485749e-01 -7.171014266670759918e-01 3.523375354408016524e-01 -8.506910405745409243e-01 -9.642895743358415039e-01 2.745136151831201743e-01 -1.004949949174839929e+00 -9.978737916637807626e-01 -1.009600358789958907e+00 -1.641653845941051793e-01 4.134636151470819088e-01 9.092241963835228091e-01 -6.254083069391536132e-01 5.208295099110598070e-01 5.310044815019989706e-01 6.688084225314884224e-01 -4.847142784761744316e-01 -8.333944688472841866e-01 4.750655213908302477e-01 8.670486790304919589e-02 -2.756432407918109617e-01 -9.770407480119180921e-01 -1.070201941649134847e+00 -4.445468143899862223e-01 -5.302261367568509298e-01 -1.233773086500739719e-01 7.871598381500396480e-01 -2.558598673048655958e-01 -5.032939143383480252e-01 5.767226324222302081e-01 -4.843712040463087898e-01 7.333306241255099778e-01 6.488005644056427101e-01 1.954953112018154859e-01 4.094760655318615550e-01 -7.509593811717180101e-01 1.372699323867054289e-01 -4.396134852956021244e-01 -1.106452881102660962e-01 -6.151425615242305245e-01 7.218024181283962948e-01 -2.626874786096434766e-01 -1.247695555224248160e-01 3.885893052365479994e-01 -9.079928491971376303e-01 -6.506290301034985124e-02
5.676634151899258018e-01 3.014300528012213709e-01 -3.945507523427127516e-01 3.519623148976278038e-01 8.164497638281029701e-01 7.407990014616602226e-01 4.453185133326095224e-01 -5.323337864894645000e-01 -3.486954121573450638e-01 4.318649485623230616e-02 -2.766946585690388538e-01 -1.803070663785636685e-01 5.029235349307220604e-01 -8.934240781764917205e-01 8.634013322214710850e-01 3.667925503597896375e-01 6.957455794550596595e-01 4.953501330484746390e-01 -2.253847132462076241e-01 8.179335397497926596e-01 -5.996754070626735267e-01 -9.363624247797838196e-01 -8.800233974568131279e-01 -6.591536154372970024e-01 1.643682379670454233e-02 -6.246341302140412388e-01 6.139255641750276382e-01 -1.051535312027742419e+00 4.221957166803992356e-01 8.446956199380982744e-01 -5.212630861879641309e-01 1.559306026275376900e-01 3.688611087462271843e-01 -3.975142505852544694e-01 -1.610185639670847768e-01 4.428623824984987967e-01 -7.915069335508850834e-01 -7.813848704243100407e-01 -3.195006102073174592e-01 -6.269915496469957716e-01 -4.339428639093401707e-01 -7.366081299666303872e-01 -8.521546700334989843e-01 7.654584521890627213e-01 -3.857789510393418442e-01 6.117227806463637618e-02 3.155405523249765060e-02 -1.212164651148002759e-01 4.371725758346844959e-01 -3.505457341156281714e-01 7.371090047103819876e-01 -9.412974895512502549e-01 8.193929755889589606e-02 -3.770806562734443923e-01 -3.110350113852000109e-01 -4.830625530588021910e-01 1.635369423068509798e-01 -6.014387508335419241e-01 -5.379528782608258286e-01 -4.752395992374058853e-01 -1.049049969638586655e+00 -3.154824158957575952e-01 -9.363830950217755245e-01 6.678930782887114725e-01 3.912014028060436521e-01 1.196522697946124925e-01 4.501156951575548404e-01 7.394501554452019843e-01 3.285648518343043945e-01 8.956925427001487250e-02 -7.854251354853984957e-01 -2.169551958904264721e-01 1.190433467942059870e-01 1.730594380049123582e-01 8.336049923552666385e-01 -6.542920683584267927e-01 2.155955375226711046e-01 -5.018420955651421433e-01 -2.108140759932102815e-01 8.865175012656670850e-01 -4.041358315349988239e-01 -3.711163891617312305e-01 -2.342776835991388362e-01 -1.013534611189999657e+00 -2.700325901498811243e-01 1.856050403486302347e-01 1.163511969034153326e-01 6.744682317255872306e-01 1.834864063607721529e-01 6.963755257145846922e-02 2.181418914144619969e-01 -9.722865917865466390e-01 9.246001151111257199e-01 -7.522890320519829421e-01 -1.987864634871036040e-01 -5.255005824272839243e-01 6.860078996961831155e-02 6.233949524082341154e-02 -3.439840315159473083e-01 8.795285927555966943e-01 4.751541644758368044e-01 7.265378611888164695e-01 -1.714505581155571778e-01 1.306617903684083593e-01 -2.263118425385981236e-01 -4.422899791138250603e-01 4.543793253609681830e-03 -7.101425838919998013e-01 -6.313306612181777133e-01 -2.817628522622449977e-02 -1.046452657530126951e+00 -1.643949644920623399e-01 9.624454302503054892e-01 6.167955743189639239e-01 -9.382200950289676378e-01 2.924609248351949242e-01 -6.634061702632572111e-01 -8.036430709026439745e-01 -3.393019679458216808e-01 2.462052707537008556e-01 5.021105797693127537e-02 -1.000333662882443075e+00 6.208908691180861084e-01 -1.511608647569865349e-01 6.662380719182322553e-01 -7.081300420864404810e-01 -8.869732789123025984e-01 -6.927736623346984757e-02 -1.751870535885324265e-01 -9.933681119308486185e-01 -9.809395012456374463e-01 -9.374036352609204092e-01 -9.619099702807872854e-01 -7.027074207834025366e-01 1.279160647938406004e-01 -1.403376756104538214e-01 8.838917232436136473e-01 -9.098039644670830040e-01 6.742085564543742748e-01 7.184389894029190315e-02 7.118437042998496667e-01 -9.490007242707886315e-01 -8.368606906905847742e-01 6.770540856575686384e-01 7.683308381308238955e-02 7.308596240696035862e-02 -1.060547435788179227e+00 2.349787039490195406e-01 6.477252173655205780e-01 9.246850149234108196e-01 -1.856288033724602382e-01 -5.125323311671386994e-01 -2.868560596233167836e-01 -5.905126782162847254e-01 -5.636751731760587525e-01 -2.213415522078534259e-01 2.493299834744318322e-01 2.866938362334917056e-01 5.241718104454521354e-01 -6.884581220502932197e-01 3.712467741140302868e-01 5.263874164295326841e-01 1.036579231491661923e-01 -9.399691380519056838e-02 -7.609371250572419809e-01 -9.799057799779220534e-01 -1.960955614496216470e-01 2.623858406810844479e-01 -6.738169296417770848e-01 -2.356526124476384931e-01 -6.060023702909596299e-02 8.142641924068434456e-01 6.977835862659544919e-01 7.006935879774492948e-01 9.382434078539066968e-01 4.483898464189066124e-01 -6.469870897350900041e-01 6.227703371853712255e-01 -7.531718878801346717e-01 6.895202902681470958e-01 -4.293833906024446256e-01 -5.075395666859712218e-01 1.239001641130550307e-01 -9.407452908789130097e-01 7.517648259950330258e-01 -2.909021238209368865e-01 5.234308436776442530e-01 3.367263607364908151e-01 3.673599636334036189e-01 -3.328292925146798115e-02 -1.556954447665510333e-01 2.681052723066068011e-01 3.098538614143309111e-01 -5.591676465319497247e-01 4.354043158991011686e-01 8.109046323063842099e-01 5.474935918599831419e-01 3.522509193607651357e-01 5.500136114895002315e-01 -1.079063211332360606e+00 -7.041313723638406019e-01 -3.964708567785047433e-01 4.386135406591018526e-01 8.791703270560298211e-01 3.972802296605925099e-01 -1.235693045021960257e-01 8.156543058579810435e-01 -3.451278971366228410e-01 2.178401150325801339e-01 -1.036922491515009037e+00 -7.589454245662887732e-01 -4.720948154756462456e-01 -2.563922901496072382e-01 -1.426473611152050958e-01 5.001845547143314308e-01 -5.030955716160776525e-01 -9.037311513929386919e-01 -3.041050180068435513e-02 8.822806228795225802e-01 -2.681365255305409590e-01 -5.252940454698307171e-01 4.774573001271431583e-01 1.899787020779701296e-01 -1.010390795927867291e+00 8.898483203720423118e-01 -1.146013585035399462e-01 -4.953964474254211603e-01 2.301712156561052658e-01 -4.560264191621603014e-01 -1.425104893237004455e-01 2.243577454195696264e-01 -8.275477156208821405e-01 -1.554059065473054058e-01 4.162238284725992554e-01 8.413072093033222565e-01 -1.004358632288815167e+00 6.071241506468286753e-01 8.106254144316362709e-01 8.818373491341022774e-01 8.187068104337151819e-01 -7.942565602115319034e-01 7.250240726583866424e-01 -7.699958164419815621e-01 -3.334339857560353337e-01 -3.215679522804353874e-01 -5.025044219851618754e-01 -3.921019207841000553e-01 3.391752296380100284e-02 -9.113108853107073637e-01 -3.016560619399893950e-01 9.409473326833268925e-02 -8.228222305043882967e-01 -5.362007244540677453e-01 -5.243560157284147261e-01 -9.089951018386795978e-01
6.153672301243666709e-01 -4.730654542054511524e-01 -1.782500443110864585e-01 -1.885999411718689844e-01 -3.898365351103050269e-01 -7.445063107722582618e-01 7.871838890516276166e-01 3.637597307197640295e-01 -4.649227454445477026e-01 -8.139452681598108308e-01 -7.523846898728241417e-01 -4.460680706915049476e-01 -9.015805236854896876e-01 -7.098970601036272976e-01 -4.952194528951447960e-02 8.724799497969130124e-01 -1.318355206545535618e-01 4.192877383647422573e-01 1.406958597970285330e-01 9.527382337344625363e-01 -6.429298437071128136e-01 4.783362233464044655e-01 -2.984613635878006765e-01 9.828054019963969878e-01 -2.942805003393505481e-01 9.585672586757595370e-01 7.206967819827772015e-01 1.957194165599727975e-01 -9.441184515437059943e-01 -6.279009282000486136e-01 -8.865185472579645287e-01 5.853513106973280422e-01 -8.517328556295926667e-01 5.740738782731737988e-01 -9.439181560916750646e-01 -4.893603017219244622e-01 -4.046593697988766225e-01 1.296061341931457056e-01 1.252616807156131107e-01 7.746351878034725136e-01 2.759121794397990657e-01 -6.770570850016657261e-01 -9.459691554860927276e-01 5.241617764913389932e-01 7.229584935865931983e-02 1.571187282055283574e-01 -1.707147147527450504e-01 1.797341584573212969e-01 -1.881875878543566583e-01 -1.073795124133990198e-01 1.864524278809263358e-01 -1.532978529476478925e-02 -8.817382360633743144e-01 9.536117487796311742e-01 7.103929931506650641e-01 -2.414125134155142849e-01 9.328029482158649299e-02 8.663197264498083694e-01 -2.039194655335354045e-01 8.899149266875364672e-01 -9.390965746248973733e-01 4.917083203498990307e-01 5.941123774972091320e-01 -6.114871533822345828e-01 -6.740271932131827182e-01 1.831381295447217505e-01 -4.062797306895717803e-02 1.734304289345091066e-01 -7.354855042929235864e-01 -4.438231106643473201e-01 -8.604057052437390496e-01 -7.838621978762778664e-01 4.327782047782242070e-01 -9.467975929467777885e-01 7.977130148745485705e-02 -4.021535612566000673e-01 7.381168109913069930e-01 9.023258621653533484e-02 9.952285833567628970e-01 1.229056622463128023e-01 1.246143357362179405e-01 -3.292863189506501365e-01 -4.953936483194560370e-01 -1.445554437176169160e-01 -5.455367782230143847e-01 -8.570995918334518571e-01 -1.498289983542606119e-01 -7.860516973600779611e-01 4.472817433510387630e-01 -4.019169409841304441e-01 -1.799502041684055906e-02 -6.086030389668806162e-01 3.616470373616458844e-01 6.616222594071861085e-01 -5.590327432029945642e-01 -9.835187908574343219e-01 -4.982442426796963031e-01 2.553199725582845359e-01 -3.782665872480910352e-01 6.733882430387673201e-01 7.056682626823248539e-01 -2.560283744767454239e-01 -2.695265951699475360e-01 -9.669736564991007199e-01 9.938704224899937156e-02 -6.914488353531287324e-01 -7.746561889136189816e-01 -8.930262685022583025e-01 -6.413741894645964559e-01 -6.880798023731240498e-01 -9.288738356271560859e-01 9.649463768700394795e-01 3.168459327799831304e-01 -2.258552502114364313e-01 -8.748765167693904887e-01 -9.053811901147789110e-01 6.110484843095447260e-01 -1.535294577289958995e-01 -7.834051160384156720e-01 -6.649539681424871951e-01 3.605116031050250025e-01 -1.453148054669262668e-01 -8.066019403087911765e-01 -2.151605914713598522e-01 -9.103829547933757205e-01 -4.580526148922715035e-01 6.478140774936914405e-03 -8.376267927272587621e-02 5.372814596121302522e-01 -6.793518654735376527e-01 2.060109120560752252e-02 -7.162038987442992388e-01 -6.210235333900635535e-01 -1.793629381638004727e-01 -7.080978777380997347e-01 1.250997386740528017e-01 -8.953687976913449198e-02 8.843740369798371859e-01 3.403184566209109807e-01 -7.925311944799389163e-01 2.143938425789364832e-01 -1.593527748380925146e-01 1.891758129845639777e-03 3.120207161480205160e-01 -6.285277746361139783e-01 -2.807943685381971144e-01 -3.808868986786300564e-02 2.296176433586532006e-01 -4.288534277978525711e-01 6.471187954582399010e-03 -4.428880047536920550e-01 1.456614131059771888e-01 -3.152319748330119631e-01 6.784235968037537479e-01 3.719560404488919669e-01 6.335986836334682737e-01 -6.903554478367920355e-01 -6.294099988795384126e-01 8.535662995783042939e-02 -8.759310435110434501e-01 7.738362990704245048e-02 -3.281242494299295154e-01 -3.508680988960178326e-01 -5.401520378085951091e-01 -9.906969470499121799e-01 3.743123185218408810e-01 5.064907067616337688e-01 -3.233581207463667173e-01 -5.995999348013895253e-02 5.949086747406853171e-01 2.950728144673313014e-01 -9.539733118744188056e-01 -4.310465715158920408e-01 9.092455417338541901e-01 7.665124938384665354e-01 -3.493797445437298310e-01 8.218408604446082455e-01 -4.107033561812291345e-02 -5.958165816903131518e-01 -4.571840978963893076e-01 -5.168599340824697741e-01 -8.885540535767848525e-01 -1.251018284305498440e-01 8.093231031838811207e-01 5.150446412650047656e-02 9.109918164359072368e-02 -5.455700829058647283e-01 -9.074163021341151714e-01 -7.475603732437197113e-01 -5.690758610186371635e-01 7.471214347623817975e-01 9.768707906098568206e-01 -9.641305389559997607e-01 -1.131193848553658232e-01 -2.613732368722699873e-01 7.278573454682026045e-02 2.328755408872071608e-01 -2.067191042623671426e-01 -6.313587278144734416e-01 1.715350563259002981e-01 -9.330957631167611233e-01 7.890779129966942751e-01 2.889831016563511601e-01 -8.106254160621206850e-01 1.031153905513356034e-01 -7.420560131312381458e-01 -7.622410486272408470e-01 -4.686160447168664644e-01 5.264407318381976175e-01 3.967435047564613071e-01 1.185216013543601427e-01 -4.893721801386968218e-01 3.584287121104723361e-02 8.609234024874744540e-01 -6.289420072482292401e-01 4.693939685887802971e-01 7.446427051381008244e-01 3.390090765204611944e-01 -5.914416303638296846e-01 -7.416554046388337262e-01 3.017047214227058793e-02 -7.383778875114050955e-01 6.514963249079137597e-01 4.757988556663057811e-02 -4.158610554878237053e-01 1.361936706650427320e-01 -4.788403445950480952e-01 1.689557275942620285e-01 -5.356220084256061442e-01 -5.618086865581960465e-01 3.706099976690973435e-02 6.708803546325371459e-01 2.903809696079674985e-01 -8.115322638441756498e-01 -7.315674616526741669e-01 -2.192549256232746158e-01 -3.596227970869717017e-01 7.824279519593776433e-01 7.827186555088637698e-01 -9.404306788522293070e-01 -5.790368061637731767e-01 -2.232278087453935522e-01 -6.464750903097912227e-01 8.373560285374953560e-01 -6.205961287513720448e-01 4.684876215892484486e-01 9.141999236508536741e-01 -4.460711405467642637e-02 6.285440360603762322e-01 -1.435469388117402156e-01 6.268586862894052203e-01 5.246552668031028155e-01 9.193688277371147022e-01 -3.256233949448897325e-01 5.331564528258962987e-01
7.805410192685465764e-01 5.469351553744967731e-01 4.928943609061536280e-01 7.441308145897392867e-01 -5.526980413299052985e-01 -1.728677364200910394e-01 -8.260370921513382481e-01 5.531941357898070288e-01 -5.700057535273439502e-01 5.986154563300351006e-01 -7.199233208312438848e-01 -5.234725694566599863e-01 2.969067136413838792e-01 7.469752739852308920e-01 2.525927711045905522e-01 -4.069290116039453453e-01 -9.896604980923954242e-01 -5.335005526002576381e-01 -1.518344545796481426e-01 3.844667923516588703e-01 6.126631989697771674e-01 -1.043623284904177551e+00 -9.649099032616804683e-01 -5.135275216457290126e-01 2.030997616581313794e-02 -1.057001127088164488e-01 -2.032868768376362156e-01 6.826124443068609660e-01 2.865376915065651064e-01 -9.027815752057685161e-01 -6.334829421262287985e-01 -1.145199016109914730e-01 -3.750471938239645087e-01 4.229828367967150005e-01 -2.094454209774771758e-01 8.306970631009933381e-01 -7.145851537175522683e-01 -1.563991938585208852e-01 5.878653058668853459e-01 -9.604750061917206594e-01 -6.576075411315221997e-01 -6.709065812836632059e-01 9.061727020698329138e-01 -1.621921209000994901e-01 5.817139915566357233e-01 6.380834951372271746e-01 -9.429226876559811954e-01 -3.335852186582056733e-01 -1.300069533949846368e-01 5.616338593131741108e-01 7.972410798690039435e-01 -4.473941924666620107e-01 4.825581138210205401e-01 6.516915412286438114e-01 -4.865489739104847944e-01 -7.148112582042990271e-01 2.225572321292896283e-01 -3.821907029756073382e-02 -8.187059358707835521e-01 4.041853300525457549e-01 -3.260305659160296354e-01 1.084272217284922846e-01 -1.070191503077657869e+00 -4.217798110470978752e-03 3.643957066658251032e-01 -4.785833609756739992e-01 4.623510337054198005e-01 -2.793211548880716322e-01 -2.457428253211233482e-01 -5.901226772905356910e-01 4.170459819819030689e-01 7.925764483653428005e-01 -1.830060447276972702e-01 8.785963010140792617e-01 4.529351560576262425e-01 -5.413831382603536690e-01 -7.505774764818720080e-01 -3.156184573851694153e-01 -2.608312029554464284e-01 -1.666570871818062738e-01 2.911574552397267479e-01 5.334691479365665234e-01 -9.941892539015885211e-01 -2.806459528796293457e-01 -2.213579244138473290e-01 -3.532561898032972048e-01 8.936664107566262560e-02 6.746692715461546364e-01 -5.595429468308729115e-01 6.926027074732102884e-01 -7.177312994949288649e-01 -1.595021397582725708e-02 3.497496565770453758e-01 6.999476524100562980e-01 5.140025308760933775e-01 7.569594006784712281e-01 3.594384246520790360e-02 7.253675681967818312e-01 2.471871639212651628e-01 -8.512884879652403702e-01 -1.015499447948558176e+00 3.886338382238131994e-01 2.826603488371289274e-01 -4.806997232812636467e-01 -8.648194750883241300e-01 3.125860995246869112e-01 4.300192431740215149e-01 -5.855129382502541335e-02 2.774510352005423730e-01 -2.422781274094902848e-01 6.335409326439893629e-01 -1.414302314572673342e-03 7.370366335097154886e-01 4.088738384455438690e-01 -4.897514056015942613e-02 4.034549378498868411e-01 5.681461481197457308e-01 -7.480322210554228857e-01 -1.806509639727258421e-01 4.922693716784580231e-01 -9.954829286131327004e-01 -8.234641686916681635e-01 -2.936592368262178065e-01 -9.328349303627020417e-01 3.630783685394899374e-01 8.589680666387108365e-01 -1.196177359833099085e-01 6.741691277865831111e-01 -8.465285250012823948e-01 3.387708698078218950e-01 2.740213522822732353e-02 3.953999071001726429e-01 4.471644119456175299e-03 8.059638511242066539e-01 -1.603381917982051874e-01 7.483474052274072807e-01 7.347651194791811058e-01 -2.495151965865156363e-01 -2.719866361671593458e-01 -1.164172902289749123e+00 -1.565102171036677481e-01 -6.584963580782569048e-01 -4.596615869931383602e-01 -5.731340568294632787e-01 2.856623485576819665e-01 -1.725173963274329592e-01 -1.415304668529508009e-02 5.961061822156625833e-01 6.153477880807525224e-01 -3.199043170271422681e-02 -1.780095601368532066e-01 -4.201948495319246524e-01 -9.295120318725538233e-01 -1.125740550527802586e-01 -2.389267132050161280e-01 -8.382199761879521871e-01 3.799144469998558260e-01 3.336779067966143542e-01 8.806830446051915340e-01 -4.830955595848451800e-01 -3.875293636751968029e-01 -3.746008849553728731e-02 -3.712359100041280890e-01 3.876988484457467854e-02 6.869960902554381743e-01 3.760017815224684923e-01 -7.926186993096823175e-01 5.226184985975503849e-01 4.266135674342642625e-01 5.517845597154729109e-01 -4.443540860956660121e-01 9.987686722156430275e-02 1.244418658140507283e-01 -8.571153713175252431e-01 7.642621352611420615e-01 -3.779060449546173261e-01 2.593566571148830380e-01 7.117519564057851467e-01 2.689674983364013783e-01 7.712945590832203102e-01 2.061090331819323274e-01 -7.855731719115428557e-01 3.109676224608939887e-01 -2.761824366798019681e-01 -4.137245928629797453e-01 4.584574885221008866e-01 4.844284720158646418e-01 8.048528465357612793e-01 -7.408978423909938771e-01 -7.584972262062464332e-02 3.902222895118007684e-01 -2.120670158898885563e-02 -6.854801690370219136e-01 8.957663033800086216e-01 7.121262937174139829e-01 7.754425245938413591e-02 -3.874698013824641723e-03 4.304149856137763908e-01 6.303413742148787913e-01 4.462049361906786360e-01 -2.301797380564915840e-01 5.114636503866498707e-01 -6.141786119060944626e-01 -1.451270191190565280e-02 -5.176217101560206535e-01 -8.702764293312040822e-01 -7.503218529505251144e-01 7.393987198307920838e-01 -7.644906844060813667e-01 2.188560697293455704e-01 -7.112001791030001518e-01 -4.784110518988200778e-02 -7.918367292328790663e-01 -6.324530497486788860e-01 -3.288790472250102126e-01 2.684601438860501621e-01 6.835442732976058089e-01 -2.589603732843533401e-01 2.445134677289872160e-01 -8.372269853924606542e-01 -8.530992823515305412e-01 -3.109155163333900962e-01 4.820535910530424628e-01 -6.068782612733185644e-01 3.837775426015706537e-01 -6.113394477881513023e-01 -9.397600506711045742e-01 -1.138336107725417545e-01 -1.035493654993403956e+00 3.246743934594683023e-01 3.858193888965821827e-01 8.508657663307640506e-01 1.547817968422754431e-01 -9.489341567585569959e-02 -9.538056949475615109e-01 1.936542336769379175e-02 -9.424500989878944468e-01 5.430873389027904841e-01 3.572303983552304468e-02 -6.465502920297652167e-01 3.615329713173657811e-01 -3.931520306783151120e-01 1.657489323542395976e-01 5.118505958315787696e-01 -9.433966775009033912e-01 -1.119822129998302995e-01 -9.324718651340201392e-01 2.499941182843163356e-01 -4.393560478174365902e-01 1.917418027633159550e-01 -9.760948569723190138e-01 5.143707076513824861e-01 -1.022806398173824877e-01 2.978196129644862800e-01 -6.153866077125383915e-01
-3.156985536292409300e-01 4.574260531899918547e-01 7.512497980897804295e-01 -1.128156284571961154e-01 8.230106442911775400e-01 1.602989177787395580e-01 -8.844469297992458845e-01 -7.015841524418618691e-02 -7.504836957930461905e-01 3.877677533929111409e-01 -3.140203092639420324e-01 -5.937200364397881014e-01 6.334476998717275542e-01 6.713851990269804615e-01 -3.385677521475652929e-01 -2.385783894353988577e-01 -8.466817928081314948e-01 -6.618667197279594072e-01 5.030202782293404784e-01 7.233196110554043767e-02 6.638270876927372388e-01 -4.977973882206236135e-03 4.527293748104569415e-01 -8.231621979975173309e-02 1.638693043917903991e-01 -6.912761270481636577e-01 1.403810207109322250e-01 -6.307158330096795940e-01 1.008669850489752745e-01 -7.335462357150590584e-01 -6.759453929173369069e-01 5.145572600029676424e-01 -8.932274683592639208e-01 -3.084600376625530327e-01 7.381385382208924817e-01 -8.390742454203730105e-01 -2.658586639056993439e-01 -7.671115697853299054e-01 6.874375800024384864e-01 -6.864485206291331965e-01 -5.540862192308673162e-01 -1.619624554657682347e-01 2.942307498693011447e-01 -3.396163290579624627e-01 -6.150322468586977287e-01 -2.468436064721089285e-01 4.870755639638001816e-02 9.715554254460752048e-01 -4.613995184269772398e-01 -3.130657788164583066e-01 3.836212735192136014e-01 -3.299844942174980922e-01 -3.165602115247437287e-01 9.612676414003605840e-01 2.304930191344365387e-01 6.487056118201809385e-01 -9.864812018387583148e-01 -6.587662766228010724e-01 4.423213926603165036e-01 4.557145581619181235e-02 1.020685790925945247e+00 1.468762012803193941e-02 -2.668455711247449402e-01 -6.451595116125781182e-01 1.226693026907041961e-01 4.641764424169321779e-01 8.833873870233072134e-01 -7.289475412877344240e-01 -9.495335081948901301e-01 -2.601545376211178429e-02 -7.073345197176713617e-01 2.186447301876296156e-01 1.968380249946336258e-01 -2.286262079454420004e-01 2.873256618702562659e-01 -6.125443649722097650e-01 6.221305729713385579e-01 -9.230631556257397063e-01 -6.774527154454520472e-01 9.745002314338818694e-01 7.603113945050604672e-01 9.205103278829729341e-01 8.605698741773296634e-01 -7.222647366727773244e-02 9.096288359557070935e-01 -5.059619364734700975e-01 -8.838632832037047748e-01 5.934748245021728014e-02 -3.444779509256187811e-01 -1.687039780264885935e-02 -1.382214520127099389e-01 -1.498506777731206489e-02 1.671800773728773226e-01 8.653014087094959006e-01 -5.652707957934155480e-01 6.824787100130194073e-01 5.340813674316476911e-01 -7.876476253736055533e-01 6.389296461378696224e-01 -1.708961698843180221e-01 -3.303960759456051055e-01 -1.004085058131409136e+00 -4.382692063735356691e-01 3.846379403030863453e-01 7.544180429878843963e-01 -5.342104809673204890e-01 -2.080785619180161583e-01 -6.455925089551910467e-01 6.312592234201346297e-01 4.671395945120155879e-01 4.141705178653449781e-01 3.289215408773615290e-01 7.592692878220335118e-01 7.628878967011580858e-01 2.764012125555846411e-01 -4.348826996822471314e-01 -2.665895424774486488e-01 -9.993877011163685431e-01 8.548152225008575078e-01 3.587825739981874151e-01 8.165193921788226339e-01 -4.523891516819471548e-01 9.600680082329769993e-01 7.216257520416863303e-01 7.676908893122168509e-01 -9.767675803853230754e-01 -2.626772437923357573e-01 -7.925968505061455893e-01 9.056144807287616061e-01 1.257056024661909813e-02 -3.204681319450900651e-02 -2.367253610759879889e-02 6.846531004058452330e-02 7.259862412205357607e-02 8.397636383264741600e-01 7.986780521634797569e-01 6.706864870111965971e-01 -3.597421399336512282e-01 5.749956288717521513e-01 -8.016360795360953917e-01 7.421409768481773694e-01 5.243538208021956137e-01 5.023945980367540143e-01 2.536042327611875979e-02 -1.043953516062872677e-01 -5.571622996345352297e-01 5.952752718026556034e-01 1.002828452503184087e+00 1.102167457778504556e-01 7.454085696165062558e-01 -4.230819505166921735e-01 3.619775372276477776e-02 -3.610611707494059130e-01 9.725623571101433829e-01 -5.067348385770595875e-01 3.024471621436906621e-01 4.955536491599898952e-01 -1.003522671163289415e+00 9.909463880006540437e-01 -8.499202437642474628e-01 2.409549769180842349e-01 -6.279834640055180772e-01 -2.940150542131706162e-03 -8.185029234231775419e-01 5.750553435065546282e-01 5.613999483077490860e-01 1.993991568136132819e-01 -9.900784186421442978e-01 -9.259660214509481957e-01 -6.794857645806445801e-01 9.567849681203179912e-01 -4.522209148841053739e-01 4.905067434645276059e-01 -5.146989957557506212e-01 -5.539788578572376609e-01 -4.882060678800790310e-01 -4.440430461250066130e-01 -9.777640135580342173e-01 1.013152421852429041e+00 1.998381439080230415e-01 1.997400836924657641e-01 5.896992632668032752e-02 -8.946296639863809963e-01 -6.164735210974369578e-02 8.465307313028223868e-02 2.972584439160116943e-01 2.072716388222581741e-03 -8.307044379389021405e-01 2.349070279551158380e-01 5.811702131934456256e-02 1.582540954104437736e-01 6.705850258345842363e-01 -1.327707665005341264e-01 2.465089518174678473e-01 -7.403036089210642823e-01 -4.760449105441831308e-01 7.666313016904223732e-01 -9.783224864243963426e-01 -6.720245110494074137e-01 6.504492517567717069e-01 -5.502284531979705351e-01 -4.885323364700708271e-01 3.419342487151840748e-01 9.500756599709128114e-01 -5.859198176426861915e-01 5.268844318591023868e-01 -7.563440673537060732e-01 -2.187234426887535998e-01 -3.948466455428604194e-01 7.545543703616082176e-01 3.490664076961100815e-01 -3.488738338480227297e-01 -9.571126542841408291e-01 -3.210788185273739659e-01 8.891249537256190605e-01 -6.839718880455492207e-03 5.240037909276975547e-01 -2.988414034257113050e-01 -1.183118769083566640e-01 -5.421495706722982977e-01 6.905696767030061745e-01 -2.930219506293716414e-01 -9.013937588076805785e-01 3.527789448721604937e-01 -7.497271812366795851e-01 6.362558109764693270e-01 -8.885486779897483478e-01 1.954489021833892004e-01 9.496823818720770156e-04 1.054128848215405201e+00 -6.668553676757980053e-01 3.338203617126669909e-01 -8.155088164047448185e-01 -6.812943063724510306e-01 8.788908339812965265e-01 5.971599872563918554e-01 -5.351865594989541064e-01 6.999788014991765728e-01 -9.030486135744399956e-01 9.887519089121456217e-02 -7.400243672743433976e-01 9.764596324335773625e-01 2.008937401303444448e-01 1.094953044237558792e-01 -3.756761141308441743e-01 6.690125589952903296e-01 1.208966045621097732e-02 -9.394668235109920884e-01 -6.257658148292718492e-01 -1.058349854844112953e-01 -8.436797546474267273e-01 -4.917001184363448685e-01 -4.958254701151800781e-01 -1.009193629587906260e+00 4.012666066955293265e-01
4.777600736755404642e-01 5.159451284692193607e-01 5.997714095926468536e-01 -8.479733886614718719e-01 7.573994927214593442e-01 2.401654926819866143e-01 3.202974468002542929e-01 -1.825566210025943506e-02 7.356252360910506827e-01 -6.304150839416452490e-01 5.097493886511174077e-01 -1.843574486369422560e-01 7.110643324837787604e-01 -5.709204276326720340e-01 -1.069322596266650383e+00 -9.194925989740924122e-01 7.421056263682060949e-01 1.250681925944195916e-01 3.607502808276860096e-01 -9.979881109918259385e-02 -6.010495917766733864e-02 -3.463521147653903509e-01 4.508315147406544154e-01 4.133753684189740429e-01 3.368356154542894165e-01 7.738356228557871086e-01 4.807090826634613512e-01 8.421559658384564218e-01 9.239725488108110896e-02 9.580784727136598677e-02 1.701323751292518061e-01 -5.152020865390065651e-01 -1.027538427146680533e+00 5.084880652668571921e-01 3.574645094377076338e-01 -8.935566611748031463e-01 -7.652803182623594269e-01 3.029978359699342927e-01 -5.288128772179321452e-02 -7.340564105084156354e-01 -1.052461907558085885e+00 1.586592692764746404e-01 -1.000953763847826750e+00 -7.031624943139730410e-01 -8.498816159550433291e-02 -9.468543397022056718e-01 -3.403899807850546133e-01 -1.011816536755461460e+00 -9.327770980619097818e-01 8.366726010669345293e-01 1.617669118325743699e-02 2.642375895311983025e-01 -3.871649510398120220e-01 3.971917000131879871e-01 7.156470476832014205e-01 6.733070799115142835e-01 -1.042766373562157706e-01 4.095371374635695672e-01 2.514785412712679524e-01 8.337831854233892503e-01 -6.192199007480480022e-01 1.975104729854952612e-02 -1.013309589887422035e+00 7.350482406639504696e-01 7.715158538741799799e-01 -1.092954661629965407e-01 9.756541463538420667e-02 3.853117239245615888e-01 -5.955967560440420527e-01 -4.219780763054298278e-01 -5.171829577065676364e-01 4.594772100769376789e-03 7.904328361412962245e-01 -2.767068553481283333e-01 -1.093231899303844568e+00 2.313813972137481190e-01 -1.664346455321816798e-01 -4.566951043165580759e-01 -2.543079363904874879e-01 6.293208290507982250e-01 5.326504020087658997e-01 -7.988615639205258745e-01 1.951533750780484466e-01 8.173579631339384921e-01 4.950531047203395318e-01 3.667801966994620466e-01 -4.579077909906801302e-01 -8.228793003318748411e-01 6.004431248373408581e-01 1.003275957581069300e-01 -3.769591948248128821e-01 4.248191748467325390e-01 3.359370980274199447e-01 1.920471743633772876e-01 -6.732155858999119280e-01 5.896189036295221841e-01 3.503104394757866613e-01 -4.439438233672189926e-01 -9.994909443478886546e-01 7.146717756172488167e-01 5.432475486408308019e-01 -8.692517636210519982e-02 -2.698810427002777401e-01 1.235033400507711265e-01 -2.647247433275826123e-01 -1.018892400165192891e+00 -4.945046498705759075e-01 -6.550003471443770486e-01 8.779429449674550634e-01 4.917243088866667389e-01 -2.999232845133725789e-01 3.554045420457005999e-01 -4.554834462293389508e-01 -2.885938644316350318e-02 -7.226245640236345080e-01 -5.425444293219305880e-01 -3.396168731868628998e-01 -9.107718917400905445e-01 6.410693826015394503e-01 6.145389805837145891e-01 -6.321901255702493394e-01 -2.268368157640405225e-01 5.383353270765477427e-01 -5.858199424043361025e-01 1.127950863636040940e-01 -2.437605485535082328e-01 -3.180226146594462011e-01 4.138801098495462627e-01 -1.954857562872192589e-01 -1.316091090170606326e-01 9.076201279842931458e-01 7.512763818463965571e-01 -6.249039975589161244e-01 -6.610587215252874405e-01 2.868621384497427318e-01 -3.562189247587925767e-01 3.631036726712463247e-01 3.688664860468586770e-01 4.898101410726267702e-01 -6.439453386599655049e-01 9.356374312305489882e-01 -1.374172215853680934e-01 -9.419747869186678724e-01 -9.208537837255679204e-01 2.157571552315837304e-02 -4.862621795045870415e-02 7.303276634575912585e-01 7.431610940289549161e-01 -1.481661660234718791e-01 -7.291283561474881658e-01 5.156361364839787825e-02 -6.035352416730745961e-01 1.707463676245055406e-01 -6.347372266611590874e-02 6.218372610304888637e-01 -8.716187033511317850e-01 -6.885083242353176036e-01 8.297169133614219760e-02 2.012301877263997785e-01 -3.647746693044608968e-01 6.712657158778418953e-01 5.592785506900019854e-01 1.237962801875596959e-04 -2.312481289403586215e-01 -3.573043519939943513e-01 -8.725308883495536127e-01 6.772336692899781907e-01 -6.488739438142813176e-01 -9.182008766257601096e-01 -4.618121691782278715e-02 -1.836105098861874063e-01 -1.036421887558798272e+00 3.727181226040011258e-02 2.985496907354555640e-01 -1.154213355302612792e-01 -1.003657320089791360e+00 -7.613698261587080740e-01 -8.772442162407266819e-01 1.110653466039268483e-01 -9.475723139615189750e-01 -3.549893754461586615e-01 -8.219111887282234408e-01 -2.927032764085029104e-01 1.547635186935011620e-01 -3.836368608816497772e-01 6.416767556450917454e-01 -2.439295456313396726e-01 7.235320433452910871e-01 6.118528054511276348e-01 -9.574457596002982074e-01 -9.366117653094977458e-01 -7.457490196952224482e-01 1.094783746765878446e-01 3.348059062204059022e-01 4.825574614284111608e-01 -4.904604634284658038e-02 2.399766814734691778e-01 2.124931451334769461e-01 -4.730369877620335672e-01 1.588886979146998113e-01 -2.767301699535642534e-01 1.560727112742701372e-01 8.044209430853908049e-01 -2.688498415080349258e-01 -1.162049970905708052e-01 -4.733530578105222264e-01 9.842843194962873354e-02 5.255246787627176897e-01 -5.540035903378063287e-01 5.810747605758751488e-01 -5.345636655595822212e-02 -6.724034967838430354e-01 -2.227239787750954214e-01 -8.027048553587008417e-01 6.193801861909118411e-01 -9.375741364170161463e-01 1.151441561607695341e-01 -9.084118074706676316e-01 -4.847350265650028356e-01 -8.285266147402642334e-01 -9.353407177352611457e-02 1.793556408430884430e-01 6.060621977527056448e-01 -1.453629964138120345e-01 3.917546879600787291e-01 5.560444368738661630e-02 8.087628405370906881e-01 -9.385364722393737535e-01 5.675388519082136263e-01 6.256441847629304887e-01 4.962629465057825096e-01 -2.088559574324792001e-01 -8.792521362442969057e-02 8.653911480232329145e-01 7.529502386112014722e-01 4.711060937713721364e-01 -2.154149491275628991e-01 -2.631793420437150005e-02 4.829602156116961087e-01 -5.584288777156318773e-01 -5.894643623183886127e-01 -6.337567258459770869e-01 -3.439236339376017769e-03 7.824089136459440041e-01 -5.960591282946123837e-01 5.338881752276486425e-01 -1.136333384653717138e+00 -6.896852319779653295e-02 -5.167673236747525323e-01 -5.277283475300188487e-01 -3.421888467607313022e-01 -6.660173621593852566e-02 4.915536826068013232e-01 6.965846471774918003e-01 -7.963729600549689369e-01
-1.737923154729030528e-01 -7.102501364722264565e-01 6.871771360350426017e-01 -7.639801269099343317e-01 5.410845123855003713e-01 4.794761453033848375e-01 7.021784353588704786e-01 7.751813165152090512e-01 -7.618962477800347299e-01 -7.879202170606376329e-03 -3.745085768620535771e-01 -4.910089237958230601e-01 -1.130044804684829707e+00 9.621163056370828082e-02 -1.036620836806930068e+00 6.868333128060631898e-01 -4.072574413042907016e-01 2.026674110848037183e-02 3.620172985333869886e-01 -1.136925947879356968e+00 -7.102720661698759264e-01 -1.259648210414314740e-01 7.479635922667000891e-02 4.971012341839999849e-01 -1.362647668529164968e-01 6.938023288842026792e-01 1.855585834050902383e-01 -9.979628853550784884e-01 2.530792934615295753e-01 -6.793666138404812482e-01 -1.013303223097604233e+00 4.181464196190279314e-01 4.949062688639515456e-02 4.269235588633586431e-01 -8.504677206248837384e-01 -3.634888349476095293e-01 -4.081090636041133091e-01 6.972082909393199912e-02 -1.238922518445766813e-01 5.579316600435331175e-01 -6.896629152323150436e-01 1.936232277953505720e-01 2.634648609140104458e-01 -3.855288528553372368e-02 -1.658787686255084768e-03 9.786416439696581371e-01 4.377505788464389758e-01 -2.657966889710343672e-01 -2.103341624389719333e-01 3.489432208427418192e-01 -9.120997963883001880e-01 4.151461147140320107e-01 -7.645613006687173030e-01 -8.356108810300489909e-01 3.629102067540696530e-01 -7.137369575679851641e-01 5.067385327840642217e-01 5.235440588179673949e-01 -3.567214104882747705e-01 5.083641680772960775e-02 3.017221156187580022e-01 6.958358372178888862e-01 -6.502879625694080179e-01 2.265164007741180263e-01 6.224427547883264467e-01 -2.661502067164053242e-01 4.354121887498628440e-02 5.877037622194439953e-02 9.016470427521874331e-01 -9.220936867216863453e-01 5.905074855921458449e-02 -1.771228537029518116e-02 -2.993077226744901842e-01 2.952193864768005716e-01 4.734095208246944519e-01 -3.660079548293554419e-02 -9.728770889668649779e-01 -5.871017426631416347e-01 -9.989977855945779694e-01 -3.926782841081085662e-01 -1.423275572898719532e-01 5.089443527873183104e-01 1.335676366261244752e-01 1.692652218666199429e-02 4.553813758791131483e-01 -1.016851930713987162e+00 3.713457965957773776e-01 -5.170948822621348473e-01 6.875994078431303669e-02 1.089030772330415731e-01 -6.251958591615989214e-01 -4.787097389309009077e-01 1.737912555651032476e-01 -4.317620165862450232e-01 -5.637428866582130382e-01 -4.059805065621318598e-01 7.989651430377733288e-01 8.409693236354346402e-01 5.928742668647605032e-03 -9.524138848877834462e-01 5.515532438815601290e-01 -7.070497711425879350e-01 4.222870174640684926e-01 7.103743151674897227e-01 9.872036652631213105e-01 -7.149305783971070527e-01 1.162531499773080124e-01 7.465851542087806880e-01 7.280221557143631839e-02 4.187614562987422295e-01 5.499942368445285279e-01 6.264719980283782741e-01 3.036581693612618871e-01 8.327592199922727589e-01 2.688855142399452780e-01 8.544885880613913853e-01 1.153089240400063248e-01 6.318512547403443147e-01 1.875330479333950640e-01 -3.802903353828999133e-01 6.341155929899343624e-01 -2.082126930183463009e-01 -7.063695963550739032e-01 9.143203702667186406e-01 8.048004097669844148e-01 1.597307820098802233e-01 2.753430685750766771e-01 9.035365963206813955e-01 -6.504310256814807012e-01 9.848228699514453843e-02 -1.956549540362635675e-01 3.363705267895515660e-02 -8.688734106100528543e-01 -1.648094675534687303e-01 -1.916085739924680564e-01 1.804939807416306718e-01 4.077278469653443094e-01 1.711862986413049681e-01 4.190636270999262281e-01 4.068342608111993886e-02 -1.156691310120341459e-01 -5.517795631969976168e-03 -1.483156660863974019e-01 -6.525040701186741732e-01 -5.849295824722026138e-01 -1.287585333042797764e-01 -2.204752947534052432e-01 6.433521465383125193e-01 -1.405569465220257719e-01 2.408900047087788598e-01 -5.981649635524800557e-01 6.350118552759695945e-01 3.491007150384613511e-01 4.871802299751833987e-01 -3.509719798236752286e-01 1.588395906058615858e-01 -6.296002274685221778e-01 -6.971299221170436100e-01 -4.725601770193306184e-01 -5.540464983539318267e-01 -2.315131848886993748e-01 7.621959780945508633e-01 8.549962641440725930e-01 2.760589797405758050e-01 -7.349059650271153599e-01 -9.634154556565709127e-02 8.096810902879661986e-01 -3.259975100919847435e-01 2.513354864770154240e-01 7.069279611679798458e-01 -6.950745479483616540e-02 9.312411961336446165e-02 7.728016344055088638e-01 7.337220459593464250e-01 6.826292655591273961e-01 9.694724704696910944e-02 1.567542832052410962e-01 1.546944549268175484e-01 -7.183003466883465249e-01 3.419174079344828865e-01 -4.831268390980335004e-01 -7.272474393288448358e-01 -5.793159320181101579e-01 -3.742732812843099777e-01 8.356945444544087165e-01 9.304208093361688858e-01 6.012142765138034362e-01 6.297019935485424769e-02 -1.828382074207043073e-01 4.157225625759717325e-01 -6.985222117935394603e-01 8.647941233329115018e-01 2.848394729483593735e-01 -4.139054553114928647e-01 6.800726872857656424e-01 2.037398448023013675e-01 -7.140573176999591709e-01 -8.400099341855142843e-01 -1.004124096842160307e+00 -6.541077726993240748e-01 -9.774251315119200090e-01 -2.333001782821412032e-02 -9.371150436783239890e-01 -9.177895584972299570e-02 -5.506625005918168725e-01 1.657704955218562426e-01 -2.254903306602578927e-01 6.526494412177850091e-01 -4.120535395081728613e-01 -5.976705471265142400e-01 8.325029282778754203e-01 -1.616484682655515426e-01 -8.960866972059343682e-01 -9.763373318166574943e-01 1.837503104798107571e-03 -7.354999764860287170e-01 -7.055815185138171186e-01 -6.310270032899395476e-01 3.231012685726215028e-01 1.018035189907529947e+00 -7.118366688545819665e-01 7.368787376889962548e-01 3.560054020884383941e-01 9.486535011332479506e-02 -9.530138415221027781e-01 6.536003006110185920e-01 7.732453032795528758e-01 5.183436143311146438e-01 8.860302826907422158e-02 3.477717450385529596e-01 -2.281216127300922034e-02 -3.491016124066975146e-01 -5.959820147605128238e-01 5.169932947903885800e-01 7.215388919538340273e-01 1.589675270869211621e-01 -1.199231636103429213e-02 8.101210498650066594e-01 -8.159542415198356435e-01 -3.635954939476879200e-01 -1.411594578367600383e-01 -8.841237446537528744e-01 9.987427960427546630e-03 9.055755629839448151e-01 6.052191891951507197e-01 -3.342047665843354831e-02 3.439355113101076888e-01 5.893957465542546403e-01 -4.949649010857210540e-01 -3.832223194910434616e-01 2.567465649992130006e-01 2.530255804701581068e-01 -1.012342030804133319e+00 7.472030957968147646e-01 -7.292580050439435579e-01
-3.380025135859401897e-02 1.286789781833129753e-01 -1.481680797777467307e+00 2.630664773874370407e-02 6.414566871512212831e-01 1.199810522621767850e-01 1.107821808390986096e+00 -8.649087496246983253e-01 -2.893275890271266304e-01 2.861284758488428781e-01 -8.315458797018276949e-01 -3.700625205298332943e-01 1.678880787245610628e+00 -1.394137522217647529e+00 1.207842962027602995e+00 8.026816236268586868e-01 1.654755383659997636e-01 -1.735693910245259264e-01 -2.114663301161357201e-01 -1.324540837362960244e-01 -6.077038818405960940e-01 3.105202991898154408e-01 1.493532250109231185e+00 3.712511335650730548e-01 3.180772331969162758e-01 1.313104496949916988e-01 -5.107521345091057263e-01 2.050557153971060143e-01 1.044703169838310020e+00 2.108780055613183879e-01 -4.843758941802329132e-01 -1.097670715650009399e+00 3.162184818876050962e-01 4.980158899007885442e-01 -3.345544173152247835e-01 1.173533901399387069e+00 9.226029364202285865e-02 6.966571880297951491e-01 5.811811914530292666e-01 -7.944118169615785874e-01 3.395537588497836157e-01 3.234547301010501918e-01 -4.270288798610341607e-01 9.096891756077222224e-01 6.333038936589083789e-01 -7.416038632337286218e-01 1.818643516128129189e-01 5.797681567136834246e-01 1.002763185818965619e+00 5.403860007736046578e-01 3.864161450443073242e-01 -4.407569517210923049e-01 -3.164736367808461126e-01 7.276361987592825376e-01 1.217507420615279834e+00 -1.433955774533685945e+00 7.477650181249578809e-01 5.223939336023062374e-01 -6.653952788004722230e-01 -3.501519563442193617e-01 3.921723864640856427e-01 -7.691419864682537133e-01 1.129036444063749478e+00 1.801703633336103616e-01 -7.696384752599623180e-01 -5.650476487801707748e-01 -2.229959270559849216e-01 -1.308797416749296616e+00 -8.775555977700795207e-01 2.693337027701575570e-01 5.385452251013286284e-01 8.826905650697216554e-01 -9.109526957752408505e-01 8.036716994101429368e-01 9.483991312697135356e-01 -8.454918526696699743e-01 -1.900823358588671352e-01 1.137912655241988702e+00 1.095643239714482409e+00 9.314582857733342269e-01 -2.050159530331472912e-01 -7.140756651566722013e-01 3.084664514596748286e-01 -2.109973625054944457e-01 4.040846924143178809e-01 2.026137082209296392e-01 8.466615201339389163e-01 -5.131817892041101725e-01 -7.282711934180140512e-01 -9.231161236939972037e-01 -3.180234200424724711e-01 -1.009607736627034402e+00 -1.056898840830815312e+00 5.073102712025916450e-01 7.841986536006039232e-01 -5.529598744471648786e-01 2.501107248914313241e-01 -6.801053261188030885e-02 -4.706339007828839738e-01 -7.953564529443177822e-01 -6.054567798480344765e-01 -3.893419785568646430e-01 -7.277373062275430682e-01 2.824016488482501419e-01 -6.853027273151751642e-01 6.226369452849946917e-01 1.328830644566476038e-01 1.509232659564873902e-01 -2.204948743656859889e-01 5.438589735431557104e-01 9.171011633260235385e-01 -3.773585850875289527e-01 6.223606145263210071e-02 6.311546262587742762e-01 -2.723382160612788927e-01 1.059885702076146741e+00 -5.047666721243626586e-01 -5.644158656421336406e-01 4.497258223214748440e-01 -1.018905235821075950e+00 9.306499850681303199e-02 6.507616417719692681e-01 -4.968414072064113451e-01 -4.851291688870353336e-01 -1.009728625789382495e+00 -4.365173039245329178e-01 1.203822713557284318e+00 8.067120155043879803e-01 -1.140763372110277896e+00 7.159505361059320672e-01 1.554794751927169871e+00 -6.564363634903060962e-01 1.072209578787618023e+00 -5.861839345819976899e-01 6.995939709767896586e-01 -1.374279969737958185e+00 -2.666544015582929528e-01 -2.215966611410677134e-01 2.238708891981506521e-01 -4.555865256127284990e-01 -7.944486384068474849e-02 -1.200115312664141953e+00 -2.584573570019912947e-01 5.297335893510571325e-02 6.311637994661637441e-01 5.524831678436130655e-01 -9.435518974442597129e-01 1.525099329396918391e-01 4.416482109748902096e-01 6.315950284368516687e-01 -3.027221897380825630e-02 -1.226376424532892973e+00 4.546599893896821620e-02 1.049525466328654483e-01 -4.516378828913704124e-01 8.920739344704804452e-01 -4.990692149090908969e-01 9.568828005283365190e-01 2.753702896547757240e-01 5.142126483464905598e-03 -3.999009777204735050e-01 1.209257824597744363e-01 8.891279529854685393e-01 9.440141112246199784e-01 -2.901215313987762223e-01 -1.314901689224292847e+00 -1.071966134361738376e+00 -2.050436352998883105e-01 -1.721805578621748989e+00 2.056084830098240668e-01 -1.155250384328817992e+00 -6.013547471174051084e-01 -3.564019803269709019e-01 1.120944452187654372e+00 -6.554575746491606569e-01 -1.250940628731027848e+00 1.033433271959425692e+00 2.653605265547059888e-01 1.060571844479781367e+00 -1.432672780657394007e+00 3.371769036000095698e-01 3.980190362129269743e-02 -7.668534198862640983e-01 4.283087322188228012e-03 8.582990689665075390e-01 -1.106043484908445951e+00 6.733214712442309180e-01 -7.376248924228044901e-01 2.607665943016747034e-01 8.787274858143362399e-01 -1.213847727931430809e+00 9.752338512685134742e-01 -3.459613985150008508e-01 1.015432753439940550e+00 6.522309414867133448e-01 -4.590023143220607893e-01 -6.968513000909701827e-01 -8.025609557114515846e-01 -6.466544493246586534e-01 -1.680858149121378445e-02 7.896510213857755867e-01 8.409235061133014666e-01 -8.237105528197811166e-01 -6.252736441860379246e-01 8.917273822877594958e-01 -4.371257197145116402e-01 3.888553671004822965e-01 -6.584195459644432979e-01 2.665836149561784940e-01 -1.805904288704079097e-01 5.145814694338164685e-02 9.699201310653772501e-02 -5.729615262297180767e-01 2.489366397591610547e-01 -8.638067341963420187e-01 5.051577734829774124e-01 -4.669959004084420218e-01 8.826001867132802214e-01 -3.437929250286071992e-01 -2.691947394615296640e-01 1.116524504910737098e-01 -5.146402816182782392e-01 1.393356793436772711e-01 4.286762647888982536e-01 -7.535521979745843368e-02 -3.104456807287443998e-01 2.157885317265032799e-01 -3.408388773897091939e-01 4.465838722625751767e-01 6.314239129385242899e-01 -3.585038509890696723e-01 -9.536825726474905673e-01 5.243938687653882935e-01 -2.153128487081963360e-01 6.551395798581796104e-01 1.013907300300268544e+00 -8.886238162062475299e-01 -2.545443910597068871e-01 -1.122993597779024633e+00 4.210986199603504176e-01 4.764829976309420956e-01 -7.772041696024969970e-02 -1.631585635277670310e-01 2.480681764646924525e-01 3.815406455762236915e-01 -2.607712329986289213e-01 -3.817661306039155100e-01 5.953029268679829178e-01 6.730519203404418116e-01 1.057287181894076278e-01 6.865303405542091397e-01 -2.860468390279540252e-01 1.399899921976945683e+00 -1.033860856497138991e+00 5.040154022287500757e-01
4.273831589297722444e-01 6.325349727518130294e-01 6.205582915056335330e-02 -6.730305655245694130e-01 -1.798915438266661948e-01 6.705044767407404294e-01 5.456546680177292163e-01 -7.793894644451165865e-01 8.016119646352737327e-01 -1.116072644406900460e+00 -2.910727514826135787e-01 3.792382723927536503e-01 7.824657440224132010e-01 -7.800008622888100485e-01 6.936728425437239665e-01 -6.694535052737962122e-01 4.303824943041163753e-02 -2.447091741912701401e-01 5.485995668785432766e-01 -8.291618918430367913e-01 -7.464191758144708144e-01 8.126023424157007014e-02 -7.577329116537150355e-01 6.612715815607915770e-01 9.045222311787545766e-02 6.620974774098635773e-01 4.617937892108536224e-01 -1.612059124894457407e-01 2.294324906455319779e-01 -1.016804886356525772e+00 1.530980108634820147e-01 8.511368997370207801e-01 -8.442940233113268578e-01 -2.586413444090056024e-01 -1.022139756936251809e+00 3.042483684507980013e-01 -1.052742770720670462e+00 -2.421265688815081585e-01 -7.182834316914645800e-01 5.397708030420035330e-01 1.306045126409612622e-01 2.533411529754334146e-01 3.488558184746963498e-02 -6.026817230006334958e-01 4.755527647008843672e-01 6.954620492117341568e-01 -2.562987520170719735e-01 1.137816533331369867e-01 1.236148083787379365e-01 3.131134165497769795e-01 4.075995789385460782e-02 5.512654941110258777e-01 5.590159981922753207e-01 4.008251961404771246e-02 7.077422457100152053e-01 -6.551965504931667184e-01 -2.412646741112116910e-01 1.443407333429998773e-01 -8.718028337472398803e-01 3.384502871761961296e-01 -9.484729565085489589e-02 -2.956154685697914286e-01 -1.685080335465866386e-01 -4.179007037668888702e-01 -6.184274662960829172e-01 6.774264630506039442e-01 5.448716934490684949e-01 -4.168339722803504621e-01 -7.047543460417563521e-01 -8.985638541144874702e-01 4.992443359106060741e-01 3.548725987289275130e-01 -9.192758768857518525e-01 -8.857551797730938148e-01 6.740429840942915307e-01 6.064037039797485207e-01 -5.725845911043679903e-01 -8.459003645067012522e-01 5.378602280027682259e-01 -1.076192422207606691e+00 1.808158420801572464e-01 -8.040641379663033828e-01 2.736385907301756570e-01 -7.796290622937996906e-01 -3.568838836622791333e-01 -9.192945088257732378e-01 -4.888143372299103562e-01 -8.896084628326182964e-01 -2.253279697080104726e-01 1.341369758838091841e-01 -3.510824654548082013e-01 8.483370583034013368e-01 4.566234179270305948e-01 2.100359856328996508e-02 4.795031101713793931e-02 -5.166363628652420603e-01 -1.992466464190863207e-02 4.595010166817186104e-01 -1.056238401133344107e+00 -1.790426179817412589e-01 7.384827045859033712e-01 5.487921820373063975e-01 -6.201793778814145286e-01 4.084539129712273509e-01 1.133510467335448885e-01 -6.758533687562484973e-03 2.447518478960235278e-01 1.486395089439506989e-01 -9.161837440549880363e-01 -2.518670190136386156e-01 -6.980410472122080545e-01 3.473791978088024424e-01 -5.144846222339954922e-01 -1.863724458384991289e-01 5.563452710418163027e-01 5.078273533526466155e-01 5.380296187748443426e-01 -1.969715989699474534e-01 8.036241076945637163e-01 -1.081377993500883816e+00 8.158826715913113370e-01 -4.281577205096891436e-01 5.817163541131595839e-01 7.780958221725029489e-01 7.179097816850570357e-01 3.434463586668298207e-01 2.518135492691663813e-01 7.823130773362586554e-01 -1.421215213084899287e-01 -8.603416882729368886e-01 -1.089621614577845898e+00 6.047154385526266607e-01 -1.051743106035166520e+00 7.880572278270940867e-01 8.980697459707828734e-02 2.209534371262953933e-01 7.687545859961210093e-01 7.523128160328731440e-01 -3.008528084285301829e-01 7.159130716937896211e-02 -2.176099870427999558e-02 5.880265956924917159e-01 -9.968014568972652922e-01 1.146207831613529210e-01 -2.268887645063337732e-01 6.625136967283363765e-01 2.034708806697131389e-01 -5.233908072377113641e-01 -8.010301031741704492e-01 -7.349030711640505698e-02 9.034104557665447732e-01 -4.487352242343223829e-01 9.011282562591044210e-01 -2.643109404954703534e-02 -6.776940913728821680e-01 -1.109655605371970832e+00 -5.576785760693578897e-01 -9.927442394881141885e-01 1.210715234595592660e-01 2.531878698509116843e-01 2.109245007485920365e-01 -3.480372188840876735e-01 -8.349884196640888767e-01 2.131250543332879055e-01 -9.619298406946780178e-01 2.289569056472684772e-01 5.233809488146625721e-01 -9.470969392448583823e-01 -4.076822019020819865e-01 1.864596838941185997e-01 2.221474819221848918e-01 -6.855037706731423874e-01 1.073699155103302327e-01 -2.617758797083835978e-02 6.878768388452539684e-01 3.311600126052877680e-01 -4.255762643312049343e-01 -6.591960754074039919e-01 1.564775894611750429e-01 -5.314456572751332653e-01 -1.012793444478734539e+00 5.563313352702521364e-01 -6.572814288983772624e-01 -3.335485946949902081e-01 6.055014226205059913e-01 -8.790799336091593696e-01 8.328726326224519250e-01 -1.282763955968405090e-02 1.886353278248946164e-01 3.148625894255079327e-01 8.914683078417748874e-01 3.267286202310191318e-02 2.671101528027086114e-01 2.903625334128860924e-01 1.543939396378221918e-01 5.457416267506455254e-01 -3.691904246077998275e-01 -2.041822755895000285e-01 -1.000213044355743319e+00 6.726613173486043484e-01 4.768796502879406318e-02 -1.052557654713743851e-01 -5.416686574836543366e-01 7.204022231502418272e-01 -1.106105844062176269e+00 -8.667765425546082314e-01 -9.350510243704939217e-01 -6.300868136494619520e-01 -1.540862523486322966e-01 -1.808742984757579497e-01 -6.094609035638018923e-01 -9.370247784130762009e-03 -6.036356175057735474e-01 -4.245185098630648302e-01 -7.965277159635218984e-01 1.721549174545541072e-01 -9.531675026188786148e-01 -4.369871842989256905e-01 -8.633528286197414414e-02 3.447948623362248610e-02 -3.119896128851045169e-01 1.710616235559137832e-01 -7.290911672644126984e-01 3.746035170911743983e-01 6.690256049984989462e-01 9.214046153042413367e-01 7.116741630909205751e-01 -5.910577163115844357e-01 -9.724203143258897120e-01 8.867775271894635658e-01 5.963610305714018428e-02 4.180093071683994963e-04 -8.509741764389797680e-01 7.367703763430120123e-01 7.624354825657081447e-01 6.324174431582962885e-01 2.433691254426257611e-01 -2.902003849761498611e-01 8.063317886603825757e-01 6.531960195548310866e-01 6.235249839496875834e-01 1.191248850357235073e-01 -9.960892960665586049e-01 -1.003024131584604017e+00 -6.507472596397849696e-01 -9.664795436469779677e-01 3.819254450809894119e-01 6.364465849764880945e-01 -1.477460994717065199e-02 1.481810136364584973e-01 -1.200852795832077768e-01 7.120545596435243763e-01 1.540960463565768934e-01 4.700402000608004671e-02 6.622835332110200701e-01
