2.758992042298266112e-01 7.233238281787666146e-01 -5.963127645554074929e-01 -3.074907974034820635e-01 -1.269217275386176569e+00 -4.896749528726799250e-01 -6.676882880027851241e-01 -3.726539819280929033e-01 1.742817480667399888e-01
-2.873490241033759829e-01 -3.995807389818773481e-01 1.555345793201688975e-01 -5.000515080745528973e-01 3.443987990033669511e-01 -1.243603561527306001e+00 2.825929286698978249e-01 -3.521187949665627315e-01 -1.949307303403328695e-01
-1.241574016957224025e+00 -8.856529793046993282e-01 5.298787870675406575e-01 8.623732669875389112e-01 -1.531718977046754526e+00 -9.858013675166821255e-02 1.177297223250791891e+00 5.326419958518274766e-01 -1.004005053973578976e+00
-1.010847912298031837e+00 -1.111864957075030080e+00 8.277920913676397596e-01 -8.866523464570563728e-01 5.517112946372982885e-01 8.131405248011751574e-01 -8.607241299816630054e-02 3.645437618817922720e-01 -4.112650492650985479e-01
1.469390623289284492e-01 3.059455746222480288e-01 -1.798462882015869235e+00 3.809110403728768190e-01 1.431202694424303479e+00 2.883133097404571021e-01 -1.061042269497116886e+00 5.738094932904205248e-01 -1.260907526112935439e+00
-2.221210251796579827e-01 4.984296068267201618e-01 -6.431072960236683400e-01 -5.460346637140965909e-01 -1.315535149789321734e+00 -1.190993623012415847e+00 1.473545119126140335e-01 -8.423534417056549595e-01 -5.994657687025510828e-01
-7.547969473055695655e-01 -1.522763321680887794e+00 -2.079134654740218968e-01 -1.433131582942736459e+00 -7.741522321876975754e-01 5.999668650339264053e-02 -1.503778758772206015e+00 -7.083034866619246639e-01 2.074916804487169919e-01
-2.099052753625284262e-01 -1.231495456945970179e+00 3.754103238671975262e-01 2.186627224023133531e-01 -1.996096774180547706e-01 1.172921959850268037e+00 9.627521838327238179e-02 1.011112654724210413e+00 -6.733737922017645205e-01
-4.294158557697660417e-01 9.696535283264208216e-01 -2.762916003593764991e-01 -3.621812964957726311e-01 1.719190471252761254e+00 -1.899239697877067312e-01 7.236206138380598674e-01 8.457918991254057550e-01 9.258038199450435712e-01
-5.547023229258933597e-02 5.676660691224614252e-01 -5.480789667808174670e-01 -7.899327992157300082e-01 2.051021881477862241e+00 -2.201161101308067580e-01 9.802866183106739850e-01 2.281162128652542420e-01 -7.296773154201980716e-04
-7.673545016797359564e-01 6.636933239573143961e-01 -1.986729376394945623e-01 3.257623459627377871e-01 -1.507766382744986533e+00 -7.426655574167745355e-01 1.498148944325066179e+00 5.080318272049952899e-01 -8.207319349353426885e-01
3.343127341720265044e-01 -2.982127339445221903e-01 3.520791064825135736e-02 9.359828189578371926e-01 -7.836016386819348589e-02 8.070006016022407414e-01 7.161093157662995479e-02 -1.222079656947140158e+00 6.498061863220429002e-01
1.729678598393022404e-01 8.640459834201643652e-01 -1.631432111147345765e+00 -1.362895394065320120e+00 1.692660425216144793e+00 -6.705453023494976905e-02 -1.872633599897834511e+00 4.161678708917042335e-02 -8.019348948498631127e-03
8.533729534560460239e-01 1.945898117722922038e-01 -8.397033706116028284e-01 -5.141541746716442596e-01 -2.591930056490717060e+00 -9.060254184523459653e-01 2.740360296435525034e-01 9.224180507415500330e-01 4.022655712996250355e-01
-1.431609796953448033e-01 4.785066740552035292e-01 -1.210477295087697414e+00 -6.132676627960552684e-01 8.879061021028527012e-01 1.060383339516843382e+00 -5.887007493305933536e-01 -1.441139860008237017e+00 2.095006150828003233e-01
-4.053828955487074337e-01 5.836910334942937428e-01 -1.123511613643129459e-01 5.729274923395031305e-01 1.338507775446590164e+00 1.756979452478026615e-01 -1.433094607752778193e+00 -1.333782537583336092e+00 -1.273109847068365497e+00
-1.079569742945940769e+00 -8.448316035842297067e-01 -5.322475562718985698e-01 4.386400282646278348e-01 -5.656301894584812029e-01 -9.617681581648983569e-01 -1.098006005024140475e+00 9.868609816183497863e-01 3.630131090628769264e-01
-2.646652951523255082e-01 5.609940561899939143e-02 5.894568254288484743e-01 -6.081953956495871338e-01 -5.544108344010212353e-01 1.142982338208148763e+00 1.025198663366031715e+00 -6.977717637282171426e-01 5.987243299046103584e-02
3.628073506625118516e-01 6.535434086014034749e-01 -6.342537867174288801e-02 -8.556722582403532007e-01 -2.308686954170280359e+00 6.160231505272768526e-01 9.828157399836766339e-02 4.466937647494156338e-01 2.040624927309862835e-01
9.245777129476601131e-01 -3.078198354546125490e-02 -7.036943518579392709e-01 -1.814850186078611205e-01 4.907827686664164024e-01 -1.353039233951705556e-01 -1.101415175364142351e+00 -1.671322930517420424e+00 -1.030616526054440651e+00
1.788950243732043421e-01 -6.692118282656848161e-01 5.990154806165322032e-01 -8.583402975149718728e-01 -4.906701822205054575e-01 1.034797820790517076e+00 -7.481903078940367324e-01 2.841880136920775790e-01 3.265021743391380293e-01
5.589627001564885234e-01 -8.579844619963300500e-01 -1.354585658303109286e+00 -8.882401426139670264e-02 -5.220596518061825231e-01 3.241199488092078584e-01 3.392365110951204854e-01 -1.687717344312627432e+00 -1.168385611736441954e+00
-5.583082575017040972e-01 4.915575204423816014e-01 4.036248793957336045e-01 -1.075621175939857066e+00 2.036207643023326685e+00 1.868866992554469586e-01 -1.703890668699041822e+00 -8.721291121799734647e-01 -5.166287835800817962e-01
-4.399116908373876256e-01 6.504984672971777515e-01 6.653470074958263147e-01 -7.966460243723781920e-01 6.920772425820400642e-01 -6.627775707514745873e-01 -1.404730326495028825e+00 -1.011645909395779697e+00 -3.637712203815600120e-01
-1.088206359390366584e+00 1.126684253346598164e+00 9.129757460098335553e-01 -1.254067173141199198e+00 -1.457239278373802405e+00 -2.035326753186668947e-01 -9.402518412100555611e-01 4.684427006296699170e-01 -6.077601918455439733e-01
1.878201817303265519e-01 -5.978530094414890028e-01 1.365964497484324081e-01 6.691294552345460334e-01 1.795579119971068671e+00 -6.386742472721493868e-01 -1.835987027423720830e-01 2.075692945005727930e-01 -1.307990747226253303e+00
-3.809361493674311983e-01 -2.177185449198638933e-01 -1.611470775776815412e+00 -6.351620529333903628e-03 -1.177823670457081695e+00 3.265425228814781283e-02 -6.589117886541203672e-01 3.111707967509435013e-01 -4.315872092324069681e-02
-1.281482217552358360e+00 5.809360518379323990e-01 5.369078252875047336e-02 -1.530589131636285627e+00 4.949284946605788521e-02 5.882059189526468029e-02 5.323369861739171149e-01 -1.683019967615506429e+00 3.272767613506822326e-01
-5.782548700062744018e-01 6.720420112953117142e-01 -3.571861340621491077e-01 2.752221872482961684e-01 6.106548637021117498e-01 -1.798780966835366590e-01 -8.602879736750118633e-01 -3.567425939728032652e-02 1.698608248152546352e-01
6.054923370159041029e-01 5.737314793647431133e-01 4.637580306497612326e-01 5.829562478603453890e-01 3.607685614213699404e-02 5.972373244499262768e-01 -7.749836796685577456e-01 -8.194475495805936260e-01 -6.861536032739520286e-01
-6.234352941992925556e-01 -3.026810598309727096e-01 2.872202475261149690e-01 -6.649992150185426443e-01 1.059213984372364248e+00 3.729223679834599570e-01 -1.037742423161274186e+00 -5.110038459432744151e-01 -4.329697155218378279e-01
-1.208113251395378646e-01 3.230099562241477984e-01 1.074827137808450850e+00 -2.257905516254343770e-01 -2.477171366490571458e+00 -8.445641860190821193e-01 7.863503636235186223e-01 -1.526016101106376921e-01 4.916110331132959033e-01
-3.649921983525669655e-01 1.347282018677096738e-01 -2.647061681209438300e-01 1.729972976944825214e-01 1.197790574930260032e-01 -1.753415352536403238e-01 -3.683418654592948149e-01 -1.225192983788684797e+00 -2.667997299841354808e-01
-8.705839127728230986e-01 8.792603052742807845e-01 -1.037844319500777157e+00 4.769967865916746597e-01 2.228022651262170140e+00 1.279739225444603834e-01 6.165087356371444505e-02 -7.630706190678681056e-01 -3.280911341426218097e-02
-8.175281514406260719e-01 -8.726781832677626971e-01 6.428758563598722942e-02 -8.400129389743014041e-01 5.793899433911897656e-02 6.242008774060158194e-01 -9.565224570613706234e-01 -1.223684358365982661e+00 -8.787964867354915999e-01
-4.936529564625551370e-01 -7.265181134107041860e-02 -9.391524429909969829e-01 -1.098470507807955299e+00 5.062192950376313005e-01 -4.525098081858440202e-01 -2.817209512512025560e-01 -8.564538423748057072e-01 -1.254474618130977825e+00
-3.718862612769034404e-01 -2.964144421354255043e-01 -8.072319663611268181e-01 -1.291655702635266523e-01 1.997700733064096124e-01 1.087042695041009754e-01 -8.571518073763411127e-01 3.048268919124789145e-01 -7.597172072420573796e-01
-3.938259713889967761e-01 2.783093549730991101e-01 -1.267622138333514226e+00 -9.652956854879877202e-01 -1.031222882359845022e-01 6.012264157021084410e-01 -5.268350666188352793e-01 2.938454355831424114e-01 3.517597809986633406e-01
6.065912628685931063e-01 6.042773986903718919e-01 -1.381608354673969696e+00 3.689846771259765457e-01 1.355400880051901957e+00 -1.718287225110194383e-01 6.409742883222266929e-01 -1.016618502985029648e+00 1.085902337142245072e-01
6.441311916024716755e-01 -1.063446933074753353e+00 -1.280624712799872666e+00 5.214753284217201745e-01 -1.619387801608752175e+00 -4.707267882518989532e-02 -1.350756005036193586e-01 7.798856353462377267e-02 4.386470906412774928e-01
-2.759132554521959713e-01 -9.204786826432963531e-01 6.654043787557272216e-01 1.800223925967082139e-01 1.433913641094854086e+00 -2.486409451042234653e-01 1.395142769202965649e+00 7.266513993493681212e-02 -1.768781460902029978e-01
-7.592101976291251164e-01 -4.737016703711237620e-01 -1.107978329933406947e+00 -6.797626617579636266e-01 -1.330853054438435046e-01 -1.095976980416906166e+00 -6.212616540902329149e-02 1.158168989678032945e+00 7.967689727036046943e-01
6.016465172897256242e-01 -8.661837472976030572e-01 -5.854336153761114936e-01 2.145286329682677684e-01 2.527866632551077353e-01 -1.286750615499485217e+00 -6.657309867508094392e-01 -7.503440747101457475e-01 4.923394183118507961e-01
-5.165385390977926816e-01 -1.385510905535867199e+00 -2.881120742529059697e-01 -7.712642642498036549e-01 1.180265313077719203e+00 -4.460730678057323040e-01 -1.189790195153756835e+00 2.297533522474701217e-01 9.129731684385925528e-01
-7.423253079663559850e-01 4.105855640157502484e-01 -3.497760104829594208e-01 -5.315805489213484281e-01 1.683860863634545346e+00 8.216775012145619561e-01 -1.403336777513226163e+00 2.339665901727996100e-01 -2.998779466944885286e-01
7.504406491425322789e-01 -1.185067917382991887e+00 -1.023072210181794617e+00 -9.989446733359118591e-01 -1.420267894374284579e+00 -1.423686658880927602e+00 4.661838189687421696e-01 5.162097564042140707e-01 6.285633863315985836e-01
9.118816434319086950e-01 -1.252017314196324227e-01 1.155048292336956273e+00 -3.794041644523249435e-01 8.578096188930269816e-01 7.271705927998798336e-01 -9.303177189603465402e-01 -8.208104852804365414e-01 -1.090488305585247231e+00
-1.199669148826461251e+00 -6.645271349440737829e-01 -1.361420027283202883e+00 -1.513013911345343132e+00 -7.362371133410342550e-01 -8.344321882565287618e-01 -4.746804954984061575e-02 -5.994096379779288997e-01 -5.896047879985654161e-01
-4.922554119351171126e-02 -3.194754749212160849e-01 5.905249876807270315e-01 -6.730776594017667813e-01 1.126639866777759291e+00 -1.320956990348037152e+00 3.420310393346810418e-01 -1.293768870698960294e+00 1.547117611715148611e-01
-1.281896511189973165e+00 -8.629319032004242884e-02 -1.184508252956359087e+00 7.206388114281143675e-01 2.136719551570157805e+00 6.710618706314825932e-01 7.488144372140835836e-01 -6.545102474434970619e-01 -7.512788072582905485e-01
-8.498424026297106693e-01 -1.968114011186814782e-01 2.893146308160610136e-01 8.317097044458754418e-01 2.739961347998292052e-01 3.474173393270935106e-01 3.536752652195641611e-01 -5.742852662688743282e-01 -1.090590909186433644e+00
-8.649430219609673953e-01 -1.049458252419026794e+00 5.987329755972998768e-01 -3.847134933251041278e-01 -1.833151816642852650e+00 8.068698771912501400e-01 1.731811957359663812e-01 1.670977023188908284e+00 2.245736124050859983e-01
-1.460240135917084403e-01 -7.004511543561231512e-01 4.429305310038331722e-01 -5.909385168482782502e-01 -1.186504095578111428e+00 -5.867491203013935896e-01 7.036893424110006734e-01 -1.232631576004981300e+00 1.957646840468395266e-01
3.991113369683346734e-01 -1.406385063479852926e+00 -6.712231955958894991e-01 -8.422040195059138368e-01 -7.173740255425847812e-02 -5.577887287371149361e-01 -5.895241505041880214e-02 -6.354373182978118040e-01 -1.745929383291267012e-01
-1.016323205212216196e+00 -1.299537644331277164e+00 8.348050628858233804e-03 -1.075871622348660406e+00 -3.062919886039655593e-01 1.058707559794222597e+00 -1.016220267065860217e+00 -9.199514614081946151e-01 -4.001872636174275133e-01
1.558006419155500755e+00 1.344359695751727646e+00 1.170671471144810516e+00 7.713924838096769543e-01 -3.150329364276126753e+00 -7.343569157119022028e-01 -5.675921547077280582e-01 -5.698454346648028634e-01 -5.639743148423631558e-01
1.318676054910092876e-01 -2.355366374096559690e-01 7.205325730114403582e-01 -8.373595186820080860e-01 3.107111439133834474e-01 -6.725876210265873123e-01 -1.807229471276057542e-01 -3.125652126274092169e-01 -1.476367750687493707e+00
-8.632132387358094627e-01 7.819300219719382827e-02 -3.612478285544754031e-01 -2.044990975934079802e-01 -1.083061061973513262e+00 1.057758437758585662e-01 8.269615944403796437e-01 8.674988422990729253e-01 4.860801052989974780e-01
8.753768816370393058e-01 5.999553591374815475e-01 -2.927647918268424521e-01 -8.414864912324393487e-01 -1.748065546479814047e+00 -1.338179816585037152e+00 3.525906112422206862e-01 -4.296326154429307154e-02 9.790145956630266211e-01
-9.840937537522401746e-01 7.772362106012755678e-01 5.526994889303631364e-01 1.861041973594224630e-01 -2.187223266141448130e-01 1.869032519738786091e-01 -3.464157822591562019e-01 -1.602816307605035462e+00 -6.879049156022982725e-01
-4.466281408163252364e-01 -1.755853589020870686e-01 -5.317134473687016305e-01 -5.272790532686272291e-01 -1.972894870138004242e+00 -1.559333996807697131e+00 6.344294282232386395e-02 -9.541321677393634904e-01 5.483033628372943058e-01
-7.711903369703974054e-01 -4.242660259675989920e-01 3.147468881509914440e-01 4.792383911203086932e-01 -1.035384269270261282e+00 -8.118952978895513928e-01 -4.894624801717269436e-01 1.256524617802344361e-02 5.670054837733016218e-01
5.930498895662306147e-01 -1.249660300105363220e+00 -1.757962821671709586e+00 1.448386507076679548e-02 8.781074685666592217e-01 -1.556855997555472770e+00 1.718444254495138657e-01 5.834960092994516678e-01 -4.168891465834210219e-01
4.251391855141114506e-01 3.342912770165071268e-02 -1.192270701491732199e+00 -3.779985415949536631e-01 1.485847065558462354e+00 3.704421940103153066e-01 -1.804148131248946574e-01 -2.674007842397224111e-01 -3.617314682456539421e-01
-7.730649991632755347e-01 -2.744277444423544599e-01 7.568861630797864282e-02 -5.964596531102280830e-01 3.782252195954044494e-01 -9.186550293216352303e-01 2.506661254301498221e-01 -9.875362022032104781e-01 4.382093657612958770e-01
8.682211745327529304e-03 7.579096386028609800e-01 -4.893987063643702173e-01 -8.387872992710476705e-01 1.445853048754085934e+00 -5.995937479250567081e-01 3.148751600010417651e-01 2.622853604665515426e-01 -1.046684977974343456e+00
-5.172890699160493932e-01 -5.876307207307297498e-01 -3.370945169047899759e-01 -2.029671004076714358e-01 -1.446743957667975033e+00 -6.101299995000081244e-01 2.913362855161957810e-01 3.951979066809079288e-01 -7.120425706072947003e-01
-6.784990800820741574e-01 -5.323730909671609002e-01 8.941716353067176160e-01 6.030693618095835096e-02 -1.075373056326548671e+00 -7.016122293128701504e-01 4.568345515978309290e-01 -4.317453194715549225e-01 6.461950774140132747e-01
5.955690926940596652e-01 -1.061598375498270935e-01 -5.453311587911099378e-01 1.177647346411596185e+00 -1.485130101407203806e+00 -5.509279808044755811e-01 -7.796220536731657269e-02 -8.724786931660268030e-02 -4.758464553019836618e-01
6.345857279072689150e-02 -9.666961760045437169e-01 1.404071630907352541e-01 7.615399747021416310e-01 4.050957914453821584e-01 5.697633160518780771e-02 5.679704218847416719e-01 1.745102101103444825e-01 -2.616711574672730967e-01
-7.396595750004621994e-01 1.678690938273164415e-02 3.795421049449959061e-01 -4.787408076176847826e-01 1.930432507998751657e-01 -1.348795779646366322e+00 1.985208655759159446e-01 -8.101544820549750892e-01 -5.330640787332706632e-01
-8.773232798021004530e-01 -1.335182527989624335e+00 6.860115318769768322e-01 -4.741590956403740065e-01 -3.634873840459152405e-01 9.128563695951967538e-02 -1.051910087170236929e+00 -6.717545523092317561e-01 -7.006522015302383277e-01
-2.580095946030336873e-01 -9.456448199267738497e-01 -9.077139647380330079e-01 -7.962763179681117132e-01 2.537991962538176452e-02 -1.227969230989689686e+00 1.233689905945949183e+00 -6.928102033037281116e-01 -1.023680608218678449e-02
-1.171173961642376860e+00 6.314653631559693503e-01 -8.818602560721040540e-01 -4.065032488169144365e-02 1.261793518781576529e+00 -1.021209687064264626e+00 -1.328343522732068349e-01 -8.516763713893075183e-01 2.162259205726639252e-02
1.705338134065270961e-01 -1.224429200471162327e+00 6.417817583129785675e-01 -1.630271626249023109e+00 1.199432354814666590e+00 -3.256015464766236489e-01 -4.970220963989049334e-01 5.492039312127428019e-01 -3.959511583057307056e-03
7.904005188043721208e-01 -1.479141207194326846e+00 -1.694301678606546346e+00 1.084895723129589262e+00 7.351298221056422610e-01 -6.982981494507953801e-01 4.119990638406941796e-01 1.311347930474777435e-01 2.908877034484929625e-01
-8.815000586968259333e-02 3.927566581727917061e-01 5.469099803489279044e-01 4.962435858030228575e-01 6.448194566744369638e-01 1.582879212555069748e-01 -8.905031627752190149e-01 8.040760592192072176e-01 7.681671498373582319e-01
-1.042941075111169180e+00 -1.198179981299648755e+00 -8.612659958199445631e-01 -1.028900392872609038e+00 1.639508385861501161e-01 -3.232507579607311055e-01 -1.000293970149866984e+00 -1.207161148673737694e+00 -9.429717884836484876e-01
3.872601676710301088e-01 -5.448141457243887986e-01 -7.570956764273691908e-01 -3.172287028310062929e-01 2.139297544477288815e-01 -6.273309096668450158e-01 -7.271730867693140254e-01 7.013072117979347875e-02 -8.011096856194040994e-01
-4.263741834197261049e-01 -7.824211770083886464e-01 -2.317624097540753880e-01 7.401939939661106305e-01 8.859152604933300257e-01 6.040704515027018884e-01 -6.312926128334087617e-01 2.228708846467801208e-01 -1.119178563702143192e+00
-1.899336324170300960e-01 7.333254073674617679e-01 1.363865815546863036e-01 1.322074871233294702e-01 -9.818266853266197636e-01 -3.987845373115695424e-01 7.234734418734244388e-01 -1.201138778221988224e+00 -1.832657277477459656e-01
8.318132287691784033e-01 -3.586793892176941556e-01 -1.010615708367119225e+00 3.453760507342938935e-01 -1.163775731841190098e+00 -2.178375648722466751e-01 -1.824382965951164837e-01 5.482311861275838138e-01 1.151287670273126035e-01
1.903172124853912961e-01 -1.477367509910297638e+00 6.258112471067202032e-01 -1.141929769113794846e+00 -7.697675984748988398e-01 9.254093716886799825e-01 -1.222547130760048839e+00 5.391990629200744678e-01 9.108961544911159391e-01
-3.317265728035435068e-01 -3.767193025056855271e-01 1.294950437758258799e+00 -4.854998615891271685e-01 -1.371002217083410191e+00 1.236766658727084911e+00 3.839446445019812360e-01 -1.713617648375658220e-01 7.000831842407144734e-01
-5.020863062205941363e-01 2.719690195528477461e-01 8.552750963495626968e-02 -1.936693519733861113e-01 -1.291506039904360525e+00 1.324154102568563030e+00 -7.641088047613161516e-01 -5.467639420184513543e-01 -5.896277664141277297e-01
-1.441844032808978104e+00 5.687693345184844512e-02 -3.360766602817006343e-01 7.575920518254032343e-01 7.243601671194237479e-01 2.525199907610229388e-01 6.345630336917637004e-01 8.823827873552363421e-01 -3.082195826004033301e-01
-1.443853518013195059e-01 -1.242558968509465567e+00 -8.981594268291738237e-01 -1.223873716394848099e+00 -8.693326483350336531e-01 -1.089542820782879673e+00 -7.466017921074752373e-01 4.875378345007564396e-01 -8.265095773987466421e-01
1.406392373242126403e+00 4.696517678326744133e-02 -9.482966222513503629e-01 8.997503652711695832e-01 5.649289379031838809e-01 -8.823242021796914303e-01 7.091725361421031826e-01 -6.841548980221125176e-02 -3.760871802301521405e-01
7.409462988947015938e-02 7.265505990739127284e-01 -5.026233628953963306e-01 8.873139166499767194e-01 -4.835660115683030336e-01 2.325617175340878584e-01 -4.719293463922567822e-02 5.071340017040070203e-01 8.289608722585996015e-01
-6.754799522567749293e-01 2.689296426428955944e-01 9.990268092419504198e-01 -2.610249223876201508e-01 9.063577379023446401e-01 -7.649068495577004967e-01 5.560552196454907614e-01 7.686537131713344628e-01 -7.654230815983378289e-01
-1.024092341575988385e+00 4.170093941091561063e-01 1.773030856520256826e+00 -3.566340528980929681e-01 1.589166218616894000e+00 -5.168896877984133914e-02 -2.117159774444113407e-01 -6.182297753031108511e-01 4.880611115441297887e-01
7.793190914060785790e-01 5.629068487712094448e-01 -4.752633388097641798e-01 7.861176757839996032e-01 -1.983804082948043446e+00 -2.859461627796207328e-02 8.298153424683664403e-02 -4.390078747209595900e-01 -6.333401864298496831e-01
2.538374530454881595e-01 2.717520717778476036e-01 3.025290721957900053e-01 3.449821537124191373e-01 -2.409836226443492269e+00 -9.387809717024638845e-01 5.562440418596380914e-02 6.858214890596121549e-01 -7.524012477945180022e-01
-3.808059589344210960e-01 -5.493047334859807451e-01 -4.416991184072001086e-01 -9.770165741100326207e-01 -1.456174643292168724e+00 -8.791994802559474076e-01 5.921563313342277368e-01 2.974664089409781997e-01 -4.544946021367692879e-01
-2.830688608354636759e-01 -1.236870985354204366e+00 -3.869035911848578979e-01 -9.386567303072194113e-01 6.105591046191574112e-01 1.760353065623135316e-01 -2.599149069784248423e-01 -1.122702061236628079e+00 -6.030018275241459946e-01
1.008426131895742373e+00 9.028577019803073478e-01 2.232087584616566367e-01 -9.912983040768350573e-01 2.554862729365011687e-01 -1.586055182833367716e-01 -1.083851139707708855e-01 -1.010593786175733866e-01 3.843242892303654346e-01
4.718113431392265689e-01 4.180188036497333171e-01 2.854767428584129574e-01 8.457872001982023047e-01 -2.638022770306983400e+00 8.731193288456808865e-01 -9.517547082566242267e-01 -8.645470528288728973e-01 -3.576126322814041636e-01
-7.765755043570854443e-01 4.130561271202680129e-01 -7.292078209550583168e-01 -4.529067959138047272e-01 -1.752346970343009236e+00 7.937375660367840258e-01 3.372613750161208013e-01 -2.449875431691718453e-01 -2.246518810967867152e-01
1.314320330190453245e-01 -8.545359844234140523e-01 2.344095658637367352e-01 -3.642950817101115457e-01 -1.110827523967904407e+00 -1.506225981076479759e+00 2.068524657066545258e-01 -6.316351072503582076e-01 -9.544127731538447623e-01
4.651915415271165588e-02 -2.830184308660990133e-01 -1.963616215065387693e-01 1.247423658534322799e+00 -4.488000292038168970e-01 2.780108526777529399e-01 1.081756441933238028e-01 8.422894554388227206e-01 -5.318849949831848667e-01
-6.912546073674330493e-01 5.535622537850904967e-01 -1.212006556164333393e+00 7.039822897523799750e-01 -1.264534513051710940e+00 -8.074608161294116737e-01 6.748693025087634245e-01 -1.269580703819492840e+00 -5.103149132708969526e-01
-1.643520650911885816e+00 -2.957522989412072478e-01 -1.266214868416775552e+00 -1.825266923513814421e-01 1.310033256521584422e+00 8.433593208759833371e-02 -5.077611121467693334e-01 1.423143802208838848e-01 4.164346585488308827e-01
-1.944338811261158428e-01 -2.466101398136232858e-01 -5.380019321030575785e-01 -4.221792114109816363e-01 -2.081878737485396869e+00 5.720310271282506021e-01 -2.856634249483331334e-01 -1.520952262723980208e-01 9.935680686910706161e-01
2.070278415049955911e-01 -2.419535411258988411e-01 -4.568791536514846263e-01 -9.495891487843058920e-01 -1.104739200719872638e+00 -1.063167202318435978e+00 -6.534210635042040360e-01 -2.296124143745081614e-01 8.979704669370587311e-01
-8.942965229276970129e-01 2.796025965702543248e-01 1.037942174902473369e-01 4.313016815563293083e-01 -1.929723262020456298e+00 -9.628976358876571995e-01 1.672659030049925694e-02 6.925175117357085242e-01 -4.618367833760980701e-01
8.572631977031593964e-01 -3.583404433878224493e-01 -5.752718634627005390e-01 -9.456848996077888980e-01 -4.126198239112979227e-01 -5.508405540951783613e-02 3.685926174678436085e-01 -6.556359779508933450e-01 -6.148603244970163306e-01
-1.461081557184451540e+00 -1.155202952479963185e+00 7.730446002777255354e-02 -9.080462404496969508e-01 -1.373810855733983205e+00 -1.480332393949542746e-01 5.344068927719708428e-01 3.684456120944035185e-01 2.604988078331386125e-01
5.961640030454022909e-01 -1.549233771896676215e+00 -1.625684297371350118e+00 2.596047447415627540e-01 -9.198093836579118721e-01 9.402747790392809168e-01 5.059948781630499992e-01 4.705392174178129050e-01 1.602805716818192616e+00
-2.487558371117600253e-01 5.550196780976470734e-01 -3.539078058034111351e-01 -7.659904371502752607e-01 -1.619162839401438791e+00 7.479800324212790286e-02 -9.677738731928159366e-01 -1.156235282660502545e-01 -8.020730956785860899e-01
-1.182997405316870143e+00 -3.622969596183905905e-02 -1.332417097760186575e+00 -5.865945954481541769e-01 -7.022209723510198787e-01 -5.149213947960171733e-01 -1.458697864407123124e+00 2.384556201102331074e-01 5.873380418060504260e-01
1.301205673061653356e-01 -1.102899487760905961e+00 -6.222172251107040974e-01 -5.280287190219631333e-01 -3.606704959254836140e-01 6.056126285461553849e-01 -3.166474029022641190e-01 5.294710338789969661e-01 -6.265278203406077218e-01
6.715299903848140906e-01 -4.585302153874483699e-01 4.013728510049650033e-01 3.589022916553252229e-01 -9.693240812268452133e-01 -2.611994657969958777e-01 -9.131971872641931887e-01 -1.260734660196079826e+00 -4.320194801847198063e-01
-1.241146943114010748e+00 2.519752026515214571e-01 5.020777499765815000e-01 -5.290603229443245903e-01 1.833174371690210122e-02 5.875830035946964097e-02 -1.142062454039182828e+00 -1.010365566079662880e+00 -6.555892618472641820e-01
-7.133861386228176338e-01 -1.226149034364893753e+00 8.150401822547172215e-02 1.980329458280874824e-02 -4.098343279399710437e-01 -1.642104778943417054e-01 7.072015438153274047e-01 -1.850861220161904297e-01 -1.389490390616387794e+00
8.149133284597890325e-01 8.128806041929230453e-02 3.465332363538932148e-01 4.981571756577672372e-01 -1.398197932199734206e+00 -4.274009726556206035e-01 -1.516001972516750396e+00 -4.452339126777259404e-01 5.954594502904154707e-01
-1.510523582688174216e+00 -7.871778649265304129e-01 -1.148817234398113118e+00 -2.728985026270954739e-01 -3.850584182573376646e-01 -1.384407062890808726e+00 -9.499665731777876543e-01 -1.280707273426538340e+00 5.362386614794734108e-01
1.035461828185296085e+00 1.502632686451521038e-01 6.450580150096311138e-01 -6.472819410866369472e-01 1.357165903971882859e+00 -6.440332271838031808e-01 -1.208535115785773106e+00 1.621388318275634732e-01 -2.868654341006024455e-01
-9.381183975995390778e-01 7.670284817446717529e-01 3.515751974858560835e-01 -1.132306665197502921e-01 8.953829545727898243e-01 -1.204103583409781297e+00 3.857776978777935906e-01 6.606642045520184636e-01 -1.296200763005592282e+00
-1.024141245583484405e+00 2.861170916187442126e-01 -8.012372280815941925e-03 -3.775475313027155111e-01 -1.831833728327557642e+00 -5.753609584383666542e-01 2.312774481815738636e-01 -6.605213805461078724e-01 -9.791012563589209794e-01
7.737995378816362457e-01 -7.578267738726546243e-01 8.070100213903544928e-01 6.764781267940753740e-01 1.384148038582528606e-01 -4.349782753031705695e-02 -1.108654737878442403e-01 -1.028675117052150062e-01 5.706894107472615385e-01
-7.178060541123009175e-01 5.132584550167246240e-01 2.801100808097655159e-01 -1.156232854890104411e+00 -7.774295342196919645e-01 3.390918844780949071e-01 -1.124805386255939510e+00 -8.462341948722333917e-01 -6.599178329715971181e-01
-5.097176782493971492e-02 -7.933815866566192865e-01 1.609267971268753539e-01 -1.021432450118365365e+00 4.752195048336095295e-01 -5.457365064222953199e-01 -3.784912620367935077e-01 -1.226550742681645545e+00 3.622098323598381131e-01
5.689314751820486737e-01 -3.711550280539248625e-01 -1.023958954319756254e+00 5.778155136133413805e-01 -3.025389533928911856e+00 -6.431795708103977827e-01 1.132313630644189217e+00 1.647045687332932273e-01 7.486407917501707310e-01
7.990542570196949024e-01 1.263414624964188882e+00 1.345510736591357004e+00 -3.716723307798346365e-01 -1.815820357658471274e+00 5.919231627319933020e-01 -4.101505096700101549e-01 -1.370835087266308872e+00 -1.633119630265273126e-01
-6.774075513549702166e-01 -3.889326947842910442e-01 7.595021260152589049e-01 -5.971692349553672230e-01 -1.258325164942553087e+00 -9.651082961050102549e-01 1.414922083610502312e+00 9.084731488865172011e-02 -6.168844028798621260e-01
1.315337424088144136e+00 5.254344588208961081e-02 -2.577099073548300701e-01 5.494923721012662243e-01 -2.615470382858346099e+00 -6.413730898823205573e-01 6.184424149536683901e-02 -2.759502474879408918e-01 3.000471997154274262e-01
-1.945003605648627006e-03 -1.304604262769705203e+00 4.833643424209829176e-01 1.436715133897389085e-01 2.958352390933340348e-01 2.045710341117040199e-01 -1.455969987317518699e+00 -3.578731998571966777e-01 -5.438653609250438947e-01
3.111796149098473574e-01 9.422693374651217035e-02 4.174867905007323965e-01 3.836784164256679674e-01 1.731825210630819623e+00 4.743006254881547423e-02 -3.681971246602651626e-01 7.775438539250953962e-01 3.648987673941206933e-01
8.489414971693344247e-01 -7.876296741449103633e-01 -7.998734882292131143e-01 -2.199818008741387040e-02 -1.650415012236852830e+00 3.165272961802476637e-01 4.006409399672660188e-01 4.714604268989974201e-01 -5.034145496296886790e-01
-1.084308292675758789e+00 -1.036502060971804529e+00 -5.249145300993619534e-01 -1.105382360872942060e+00 2.179640558475575141e-01 -5.339889036170220732e-02 -3.379399455571277522e-02 -3.154434395500528288e-01 -9.355851784644063640e-01
-1.039834716746047771e+00 -3.241249800687411309e-01 -6.004032333588942283e-01 -1.325999667170643548e+00 1.523560117425374782e+00 4.781331504765047313e-01 -4.286791198880043341e-01 7.423107841199577672e-01 -3.499325969556059679e-01
6.074175552345943974e-01 2.732805166933615082e-01 -1.072106295653219021e-01 -1.282181873853423193e+00 -7.923936962249660265e-01 4.957506507182617428e-01 -7.855697736291542554e-01 6.026853148188798803e-01 7.757197625109665262e-01
-1.020291844992118557e+00 4.947561748553911190e-03 5.019720922678436725e-01 -1.700894454809805056e+00 9.069018505519971241e-01 -9.958203653121369126e-01 2.632630379373940843e-01 9.155161035084115329e-02 -5.665758481809245461e-01
-9.838804159012141115e-01 1.882912628092275609e-01 1.296738466425466640e+00 6.473372826738853503e-01 -5.022553513252553392e-01 1.002120859490047478e+00 -5.731131425196715756e-02 -1.209731723968999306e+00 -7.943783920579923219e-01
-8.476461877062340111e-01 6.389168875588240315e-01 -4.074617648571345896e-01 2.239777166514235474e-01 -1.061828453085454260e+00 -1.047694137747197329e+00 -1.628389060184783244e+00 -9.185100457181875067e-01 -1.315051242060712333e+00
2.734591388985035398e-01 -5.751997825121071273e-01 8.973062167952307044e-01 1.229137959749122322e+00 -1.650682679541543241e+00 -9.827268832763550455e-01 3.412529602620038571e-01 1.673389967817747737e-01 2.469922535225446136e-01
-9.520731789903744136e-02 -2.636247971886222508e-01 -5.051522574465283633e-01 8.524885769361904009e-01 -2.290728550945611008e+00 7.579925416538738636e-01 -3.005876694543533900e-01 5.456577068886641069e-01 -1.093881743907276077e-01
1.207573052891298238e+00 -7.354994956325333622e-01 -7.830805250026493525e-01 9.400454141319143364e-01 -5.009059141360229228e-01 -4.341583545456433324e-01 -8.677665816162639656e-01 -2.360915494820156890e-01 -8.791946807609781755e-01
-7.312821831979990916e-01 4.914546568432140439e-01 3.630753462531816633e-01 1.791473698767620248e-01 -8.229035133772668598e-01 3.957944232487433101e-01 -3.968320901679767698e-01 -4.445064663883465106e-01 -8.580167622987423526e-01
1.042561101142120972e+00 2.048584435783216973e-02 3.109627237443406411e-01 -3.194989425259542881e-01 1.026908273610387834e+00 -2.174457023920793874e-01 -2.641517967993058380e-01 2.282050722176193203e-01 -7.686932743015313374e-01
-9.811064426705283781e-01 5.896527446819022078e-01 2.312346614773765907e-01 -2.926581634717355385e-02 -1.628316730992433126e+00 -1.030721120033554761e-01 1.354762388821183043e-02 -8.637425753292680142e-01 -1.300568816050529763e+00
5.298894116869973248e-01 -4.630042861812822541e-01 3.169940238097456731e-01 -6.680390172477845834e-01 -1.742796101851346036e+00 -5.834925188986088695e-01 -2.190980935646082983e-01 -1.059041435068065695e+00 -5.067262587270024987e-01
-6.177749140124999538e-01 -4.352702652658151927e-01 6.217119273235724997e-01 3.016683128640323397e-01 6.307172389959316838e-01 -1.284520367083810344e+00 2.385709065768645276e-01 -3.364646540213159787e-01 -9.349555666079392147e-01
-1.316188043674820118e+00 -1.676867780592643520e+00 -6.753263829195298162e-02 5.856510010495806773e-01 1.259203248705351053e+00 -1.080165517253127261e+00 1.925209761309914780e-01 9.325465248615236267e-04 6.137593768185052312e-01
-4.134223168607992216e-01 5.746226283768572987e-03 3.955654376188706411e-01 -1.434071026096385371e+00 -8.653835558671431061e-01 -3.422068382778727380e-01 -6.616181009065996710e-01 4.379578131901797899e-01 -5.119091629607723792e-01
-2.272987725127987857e-01 3.977814360915931657e-01 -1.695641160972305482e-03 -3.798910583135058916e-01 -1.096239365456310066e+00 -6.865031728262389610e-01 -7.999356325128594847e-01 -5.640701538324287556e-01 -9.122994838717332078e-01
-7.933785373801126584e-01 9.877170715540662949e-01 2.146182110213162020e-01 -2.069188570674309474e-02 4.727730482962749226e-01 -4.481235710022110075e-01 2.405206212073124628e-01 5.176064866542985365e-01 5.467358695550530445e-01
-2.196737184283411581e-01 -2.733417061491474898e-01 -6.919734995207014183e-01 1.465489772175526006e+00 -1.377072531792237653e+00 3.204329771026721008e-01 -6.663812103532303910e-01 -4.112271667563039412e-01 -7.604012743653376996e-03
-1.361251945043646439e+00 -6.023000985427980902e-01 1.922410994306753690e-02 -9.981071837859548657e-01 -7.503176395898080164e-01 -2.776284091468971260e-01 -7.496277054097288950e-01 -1.454427962166903454e-01 2.649752511960336010e-01
-1.805706847360855904e-01 -5.931886094769723838e-01 -9.137761941173573321e-01 -6.673993904548501666e-02 1.487696300726584653e+00 6.116570003116722498e-02 9.461520897122711604e-01 -1.659834159724400127e-01 5.303303639123283508e-01
-8.706593551520047658e-01 3.192090077089371203e-01 -1.178966671968692675e-01 -9.957165433570298596e-01 -1.299907432946604047e+00 -2.616732990055425923e-01 6.812987257635796379e-01 -9.203550193366969445e-01 -1.252334255531390161e-01
9.932824075089199400e-01 2.898795043870270871e-01 8.914220042219761497e-01 -8.314668951314214684e-01 -1.329775445829150637e+00 8.498188355501083979e-01 5.857646664563931349e-01 1.811366516376032576e-01 6.340271339334901946e-01
7.961506707015295614e-01 1.038339327424697478e+00 1.619225137444622709e+00 -1.098268581311118597e+00 -1.564330122054344629e+00 -8.632079182452403465e-01 -9.601330583148366404e-01 5.620709787361213294e-01 -7.665203948266403611e-01
2.036098453456391955e-01 3.726316049861606167e-02 -1.160113995076965110e-01 -9.684098017315231344e-01 -1.424856907680518425e+00 -8.783215293947150837e-01 2.610362579709689726e-02 -2.702976134396196661e-01 -1.563799948923993766e+00
-2.710657910137812543e-01 -7.392302358975046950e-01 -1.452654038093534661e+00 2.124192200463433378e-01 -8.410862223612239896e-01 -1.211556324289773334e+00 6.547213431306320164e-02 -1.092591442497283571e+00 -1.012117749668645983e+00
1.025332790187976961e+00 6.772637900510656284e-01 -7.838804826023983985e-01 7.720538351950704259e-01 9.744316311567950972e-01 -4.560147366632630317e-01 -1.618723418874568887e-01 4.380230780484015707e-01 -1.958035072607723637e-01
5.005368152569977802e-01 1.151608409928564392e+00 5.531374159246361666e-01 -3.724997977890992518e-02 -8.448523661362571796e-03 -9.757107770893186371e-01 4.712945878482350248e-01 2.827883370044749767e-01 7.176398614449928104e-01
9.487563103245486573e-01 -8.602273613578448330e-01 6.403982423026463033e-01 4.496815116697315262e-01 4.159038170530090506e-01 -1.212752678824035035e+00 -1.484321924359637945e+00 -1.516841040775039451e+00 -6.520608082064348610e-01
-8.410978303185394633e-01 -6.480569367544828374e-01 -3.411588990861464943e-01 1.046594650726468956e+00 -9.057569786973174164e-01 -3.330168303166875510e-01 -1.459768240161954667e-01 3.973560344033578717e-01 -7.195227642922148448e-01
7.509819896066413092e-01 1.097436953762404688e+00 8.374686941672970786e-01 9.617712809227896287e-01 7.601578168747288311e-01 6.934658618271562214e-02 -8.636577860813423602e-01 -6.137479618816038540e-01 6.687238998987177219e-01
-4.359534515723025860e-01 9.719195045979059921e-01 1.126216342570166784e+00 1.234317926902871898e+00 -1.207505375863232588e+00 1.085339917769924112e+00 5.686021028103181996e-01 -8.338000026391010344e-01 -6.652225251596702860e-01
-7.426391488097245919e-01 5.730309314502486651e-02 -7.867606768742285706e-01 -7.649540599368982452e-01 -2.123472242930522391e+00 6.637039549240458802e-01 2.115242574613672433e-01 7.044227586141883490e-01 -4.874177767536994749e-02
1.935131187853812162e-01 -1.286796369370225346e+00 9.404292896670256308e-02 8.129893339353666537e-01 5.344678419527691959e-01 -9.344835328416327691e-01 -6.263823520195037631e-01 -5.592721776594646865e-01 -1.054168715345189966e+00
-1.334730598191582907e+00 -3.054848542536202083e-01 -1.374170389524614677e+00 -7.455600654504453972e-01 4.196541315368164105e-01 -4.831577041674477435e-01 -8.163761285504990139e-01 1.745439040791383345e-01 -7.268000971484281370e-02
-2.450648848256380130e-01 -7.926505238905208195e-01 -5.345545912366075347e-01 -2.872801522382395500e-01 -1.640366786240331498e+00 -1.638278457998213700e+00 1.194542758235312974e+00 8.305089708348590838e-01 5.989004806908263534e-01
-4.143567019694803788e-01 8.396674094021615575e-01 1.545989956786494979e+00 -2.911460479723533834e-01 -2.600692551658527751e+00 2.308277278136951216e-01 -2.813826209665907796e-01 -3.079849796017380403e-01 -5.784906455589778895e-01
5.449673402473875772e-01 -3.896621586849995933e-01 6.145986718305380681e-01 -9.934907041542156980e-02 -4.249533479039337980e-01 7.802927792539766649e-01 -9.309667709797001534e-01 2.627880262563936919e-01 4.984626129108646331e-01
-4.150639651955793097e-01 -1.114102127686721122e+00 -1.007817076233145370e-01 -4.449506184742249015e-01 -1.263984584206696016e-01 -6.819479792356788472e-01 -2.292083711615953145e-01 -4.939483678066736716e-01 3.497224280601261559e-01
9.991312139334834752e-01 -1.152465359062023298e+00 2.344298857238198419e-01 -1.314046512550066659e-01 -1.239665716073344193e+00 -1.253853478806622235e+00 1.568137536591918568e+00 1.068650784901880479e+00 -1.235794659909299348e-01
8.425633243900327862e-01 4.198316789705343055e-01 -1.032707503197977106e-01 -4.642071603560256055e-01 -6.862385986744210520e-01 -1.194090820912961926e+00 -1.522749072722808794e+00 -1.154237463579522283e+00 -1.472883228808443024e+00
8.374216289849960304e-02 -1.327258135993922838e-01 -6.160746194234483220e-01 3.039796289455605760e-01 -9.469023331089092554e-01 -6.014421048263246528e-01 -5.624113616423113138e-01 -6.687468275544078411e-01 -9.193049351808521008e-01
7.442668237125434905e-01 -8.281694888678212685e-01 4.868316350270367465e-01 -9.113322277759736689e-01 -2.244799486571539493e+00 2.137920961034479872e-01 7.863095056207494160e-01 8.589011188823615361e-01 2.514985088203758323e-01
-1.756554063164653234e+00 2.505587436492560660e-01 6.647487026454311776e-01 2.705206573430707917e-01 7.925104664361941331e-02 6.924441115020977255e-01 3.669513393124246847e-01 -2.675736924331604816e-01 -6.295345464655119350e-02
-6.727008979737550964e-01 -9.455476423405684283e-02 -2.822577975654184668e-01 -7.486048033717512817e-01 1.461059733130125826e+00 -3.765238752472351291e-01 2.408770574530612885e-01 -7.312812490865108206e-01 -1.040679346210713563e+00
5.860658862023560012e-01 5.293519774434616437e-02 -8.386072242446773739e-01 -3.052539527226094118e-01 4.750633774394517894e-02 -1.164509469918625806e+00 -1.073739249423514730e+00 -2.445335611015390931e-01 -5.037141585353628326e-01
5.240082387657430951e-01 2.900543535023347164e-01 1.002887772202090355e+00 -6.212435235996442984e-01 -2.190952454084181600e+00 2.392232602238433536e-01 2.499373453097617215e-01 -1.014206697096664334e+00 -2.688516301372207429e-01
-1.834425609975497487e-02 -1.377126042251346272e+00 5.055234940063154520e-02 2.917660929025421290e-01 1.553965488647429893e+00 2.900935426571504480e-02 -7.666588976863059068e-01 -3.301519934046708016e-02 -1.283841271349428048e+00
-1.036453995084755775e+00 -1.519595024541882389e-01 -3.295844359661995182e-02 7.303299848314492859e-01 -1.641319740657193882e-01 3.484035141654871492e-01 1.117637829394073634e+00 -1.134003468036945073e+00 -3.583211400670220925e-01
2.121399410654528084e-01 4.202706422671648734e-01 -9.476241119191063378e-01 1.040228078142752116e-01 -1.143389834650549108e+00 6.817931946459042658e-01 -1.635359845802043077e+00 -1.029071453593795704e+00 1.068016613986694896e+00
3.753266517071745523e-01 -1.099440113881292591e-01 -1.128542971720751936e-01 3.552846512512974897e-01 -3.121556869374411569e+00 -4.003939258557712155e-02 -1.297199255226163805e-01 -4.947246861771138760e-02 4.802940896482679745e-01
9.322603752879378147e-01 8.799112073790180677e-01 3.146276691210063425e-02 -3.569876559533076421e-02 1.073306453851567699e-01 8.350876720063964420e-01 -1.478490620961717905e+00 5.329799699497194121e-01 -1.147858081192443702e+00
2.808834780372514439e-01 4.259485519343915727e-01 -5.151197789972390417e-01 -1.042131067172642922e+00 -9.929822171809268294e-01 7.008623032387619745e-01 3.599391761169370985e-01 -1.091578499406786751e+00 9.896312387895690454e-01
4.960397812119962668e-01 1.113748825134575071e+00 4.622202536876096612e-01 -8.392131882762933204e-01 -2.180838269269016472e+00 2.749010721041170169e-01 8.807649768147819413e-01 2.922211569086889948e-01 -6.952919852532519762e-01
-3.406085936034218831e-01 1.692119329848981724e-01 3.579261643017662142e-01 -1.042941781559404646e+00 -7.242742304622010741e-01 -6.077242447886289645e-01 2.939177692480938187e-01 8.871979642742868766e-01 -7.839794979060330515e-01
-2.976294478090947271e-01 -9.182996469366208059e-01 -1.953038785899064989e-01 -1.026818877614680936e+00 -8.484219706724159815e-01 -6.851431107613522586e-01 -9.913708983941609265e-01 1.225488759741281825e-01 1.186809107003200664e-01
-3.630347326543471032e-01 -1.244196468538492972e+00 2.770789596182446912e-01 2.076621899461650322e-01 -2.593692390999911487e-02 -1.173960337406859233e+00 3.812464222191203622e-01 -1.067237621289859772e+00 -6.282856871509114038e-02
7.065214833868930233e-01 4.049052978040808548e-01 -3.986836828784073306e-01 4.496050804699573411e-01 5.446449144899538908e-01 4.556832276426723283e-01 -9.287969253287169380e-01 -9.250906071597171376e-01 -1.097916812017836197e+00
-6.306092075220099957e-01 -7.263144616706060930e-01 7.669726785066205421e-01 -9.924787841614886030e-01 -2.024964416337330153e+00 4.771880059721395062e-01 1.062179475618011848e+00 -1.773451272585827299e-01 6.702593857293314139e-01
-2.090779568631578655e+00 3.010633695731484982e-01 -7.881578867292940993e-01 4.632396503992334408e-02 1.673826429878177979e+00 1.596644814644135602e-01 -2.698901355059343254e-01 7.270941728101194546e-01 -1.111364819969043571e+00
1.265363376553727104e+00 1.062822001922379134e-01 7.360558523966265199e-01 -1.250497817966637060e+00 1.315840357592608978e+00 -6.354419920882971307e-02 -7.134583085141149583e-01 -1.062462205469865362e+00 -3.308985351954815690e-01
-5.772137282872448205e-01 -6.269952898215931381e-01 8.667574069744593546e-01 1.671877607248623832e-01 -2.230929005611419935e+00 8.611127606380936106e-01 -3.913147480834590526e-03 4.585263100755315180e-01 -3.508205402147829971e-02
-8.465094938103046029e-01 6.790546604737953684e-01 -1.248332722920755478e+00 3.127445339031904581e-01 6.293966448553442450e-02 -3.109942987174293405e-01 -9.724113215092845541e-01 -1.177189727717679879e-02 -9.912795910352599771e-01
1.499355244331775638e-01 -1.342436891428392620e+00 -1.374095002789717856e+00 8.315749552754381213e-01 4.482600988511744600e-01 -6.015192749082340917e-01 7.063001845731147199e-01 -6.270995523875826372e-01 6.134016905586455737e-01
-2.883073806341164280e-01 -5.043612672461892377e-01 -1.534560408594907832e+00 9.717873325356735092e-01 -5.042199294826920503e-02 3.788658435528354795e-01 -1.569550474595976519e-01 2.544052200159091504e-01 -1.443618323515883928e+00
1.657231176560562957e-01 3.308585242489766043e-01 -2.843521071881572326e-01 7.214880359417404077e-02 -6.634237065467470940e-01 -8.745174931492241677e-02 -1.095678074052875761e+00 -4.614307819630734664e-01 -1.085468004453640223e+00
4.851129447472197209e-01 -1.156896951501391158e+00 -1.341242897574814963e+00 -6.482690845834865323e-01 -1.288749909882402900e+00 -2.160960528031272143e-01 1.186556048018234444e+00 -6.713671007113043432e-01 2.902732510279577571e-01
-2.510399137300601408e-02 -3.707133180028162056e-01 -4.525115559300001977e-01 -5.207441162441370786e-01 -2.007573834317380346e+00 1.098297132736700682e-01 6.119210112580729666e-01 -1.003911954030318465e-01 2.465583122237452185e-01
-6.895821729014902646e-01 1.110634544231247078e+00 7.806374584315246556e-01 5.294617626847273328e-01 1.258335497934829350e-01 -3.299664975814879386e-01 1.022738343401258104e-01 1.046684340243572153e+00 4.655472891460946117e-01
-3.376338805941639931e-01 -3.687307026910009444e-01 4.166370970493146753e-01 6.902346993544472564e-01 -1.237362168686012148e-01 1.440166182925289584e-01 -5.820950750667294171e-01 4.567378650942343077e-01 7.108752523808959944e-01
1.894024939145828035e-01 8.504802817073701116e-01 3.551669998417655294e-01 3.797361495356749161e-01 -6.750413990912546014e-01 -1.313239765429794759e-01 6.568003572601300855e-01 3.016357438823069614e-01 -2.957049831767982750e-01
1.046260433225170150e+00 -7.595238814893144896e-01 -6.421655330985439614e-01 7.003541478883776872e-01 -3.159422118363383603e-01 7.535941909781164183e-01 -1.391988638279288981e+00 -6.149820269309309584e-01 -5.526005256181155678e-01
-9.879790280783031786e-01 3.291946293922198841e-01 -1.505670432293982341e-01 -3.891715657728839900e-02 3.407103893533293126e-01 5.643683381341225297e-02 2.202000390916593331e-01 9.499981719157941928e-02 1.722200503583060649e-01
-1.726402850988931759e-01 1.181171986848538885e-01 -1.052276955369684908e+00 3.813839177404071967e-01 -1.122458552472037352e-01 -1.687828885938291501e+00 4.681479274472880592e-01 -9.472226581417158009e-01 -4.090607975462907664e-01
1.457828678592515415e-01 -3.248174114979512361e-01 1.414164197968128978e+00 -4.104745383988123858e-02 -1.184874316633335978e+00 7.055943899224093041e-01 -7.820378045723335170e-01 -3.711405120421565895e-01 -1.056015047930350059e+00
-7.521171251250268197e-01 -1.437206756026789822e+00 -6.395132808314540895e-01 2.366674180055458321e-01 4.709594051896671685e-01 -1.696905844543287675e-02 2.762106262305653592e-01 8.958790800872782345e-01 2.325333188604589985e-01
-7.724925305751145777e-01 -6.613437833285383816e-01 4.299307560158798780e-01 -3.229548055888509239e-02 -1.872839488719650225e+00 -1.164165472992350486e-01 7.271289143082966255e-01 -8.707303007283625496e-01 6.700898728924561398e-01
5.072706704792859789e-01 -2.476267735765786959e-01 -1.223825804950269713e+00 -1.142689325137234535e+00 -4.689819949661109405e-02 -1.277735191859787012e+00 -6.677081489754077559e-01 -2.030685306448710425e-01 -1.093190647774549440e+00
9.320694287754331953e-01 -1.158606942920477501e+00 -3.006208978019089262e-01 1.684057289302269556e-01 -4.526190213103678528e-01 -5.000750227967788453e-01 -1.285147786073062293e-01 5.823611490459648099e-01 -1.952385597607501563e-02
-2.004786273454597367e-01 2.270911213580645849e-01 -3.990235709985510137e-01 -6.891523511952417358e-02 4.392992909024903136e-01 -8.093720370901724692e-01 3.822544956727598753e-01 3.406459505447086838e-02 4.562731086829108218e-01
-8.821343314462282148e-01 -4.014850900466434558e-01 2.697363661192287432e-01 -2.370841627351500114e-01 -7.494776076166361767e-01 -7.213915620616528912e-01 -5.661484138408327815e-03 2.769493337275282796e-01 -1.307605754992039238e+00
8.970324533052252969e-01 1.136270662994476988e+00 -1.010210635807772039e+00 -5.406466691208701159e-01 -4.750616437119649649e-01 8.899377181526544334e-01 -1.175789301799906150e+00 1.216739267283766246e+00 -1.556767838266447102e-02
6.247231356955408321e-01 -1.201258611695676937e+00 -1.381305985969123684e+00 4.410118991764719887e-01 8.068224862537302089e-01 -8.762545359170939019e-01 -4.705884523084672977e-01 -1.285789775726259021e-01 -5.266104127639185117e-01
-8.563317674487013198e-01 -1.008859668469102688e+00 -8.189833440102992634e-01 -1.116874197439317040e+00 -2.839677694567870891e-01 5.037455404986808105e-01 -3.293338266448428975e-01 -1.013780465046232093e+00 -5.090633057635232661e-02
2.009809773326597937e-01 -6.043311878128535680e-02 7.439291289685346920e-01 5.193999630538583823e-01 1.286491409281634635e+00 5.126715553107196177e-01 -4.368433387788245303e-01 2.254750146989380755e-01 -1.121381547582934957e+00
1.156552884175730656e+00 -9.934675516447005750e-01 3.080463270170782364e-01 6.668225635732081269e-01 2.158641790959732465e-01 -1.041441183867392040e+00 -7.264047287403532227e-01 -4.851929728797232388e-01 4.853262705572118363e-01
-5.265603933110742929e-01 1.012279756122399510e+00 -1.951849705559445536e-01 -4.850586635021168491e-01 1.373554558391910652e+00 4.816284322278496788e-01 -1.616222184023756281e+00 -5.643821206424448622e-01 -6.401748936730963235e-01
-5.917929355649802492e-01 -8.727748295526023270e-01 -1.246963707311341318e+00 2.184484307605948084e-02 4.507283605192240888e-02 8.542170450018643502e-01 -1.091459017420074895e+00 7.015332250501705724e-01 5.744051927435300797e-01
-5.830303971049185727e-03 -1.184574537296322783e+00 -1.560710058727266647e+00 -2.911038115314673047e-01 2.138593593434732487e-01 -4.039105592626521801e-01 -5.560138532785707799e-01 6.525247423167335192e-01 6.018193891520282612e-01
6.738415155654187139e-01 6.108118530526447376e-01 -1.320428325160627470e-01 7.334952832242244147e-01 1.723773292667014068e-01 -1.674134319918721969e-01 -4.023153748312280897e-01 6.960223275452886993e-02 -1.257196479352187479e+00
-3.001373800141602932e-01 -5.656261453727808863e-01 4.044767452752197623e-01 -2.535850151900843064e-01 -1.163609075330537479e+00 -7.254281589518825069e-01 -1.892162706066657374e-01 1.372372580325589952e+00 3.887742430213398936e-01
-1.168005876425673550e+00 -2.409575614546052846e-01 8.066624748122643851e-01 1.593585549373093269e-01 -1.474218679309374558e+00 -5.256585807017285505e-01 -3.158935757500019176e-02 -1.007814820456746308e+00 -6.928275377578376748e-01
-9.739776613817040518e-01 8.875134693304150835e-01 1.547340701041709787e-01 -2.201416928201431391e-03 -1.244579901346250413e-02 7.543752757916533103e-01 -2.877386555995263204e-02 -4.497549416051128679e-01 1.129491412327072952e+00
-1.770421658364829787e+00 1.387133706583525417e-01 -3.211182951486722392e-01 -7.018910641291094266e-02 -1.325805721881480492e+00 -8.456086165266211152e-01 -1.328301369350497474e+00 -8.156845100460479170e-01 3.982589209634919136e-01
-9.926100807213376065e-01 -1.515334078032317122e-01 -6.856693302003671331e-01 4.239276504751097185e-01 1.070888897514558957e+00 -1.628789583506432270e-01 -8.519526298889096294e-01 -8.610074731069746745e-01 -3.941003508549887346e-01
-4.110516135423415429e-01 3.435873502111381345e-02 2.920098441947529544e-01 -6.759502181134507959e-01 1.521415610137260233e+00 7.399784825885964701e-02 5.486947059107333269e-01 1.001561856830699204e+00 -3.559438043713375466e-02
-1.670814761090990419e-01 9.916413389595905847e-02 -1.322243116387425421e-01 -1.706095393552324938e-02 -2.503751367543566531e+00 -6.047893745030431534e-01 1.209895419421920693e+00 2.228169966092044263e-01 7.807941268412605940e-01
-9.387575548098518741e-02 -4.160044400666321196e-01 7.224300406551670273e-01 -5.946649560974307525e-01 -2.577632477434654845e+00 1.503926416902946928e+00 -6.553584811050338077e-01 1.564086933083422390e-04 7.810381259720116098e-01
8.926492175120965822e-01 -1.105039105244413511e+00 -1.069460035199748749e+00 -1.526484346721393992e-01 -5.296710470295667994e-01 -1.898031511078812072e-01 1.134072423022434828e+00 8.435146930478445437e-01 1.780750445625365885e-01
-8.152395409641355339e-01 -1.063935939994515412e+00 1.603513303807207191e-01 -9.061501232869882960e-01 -9.900641791679555270e-01 1.052575778903201177e-02 -8.643054059285221191e-01 -1.048447796547453237e+00 -1.155781052871840409e+00
-3.978131644343191886e-01 9.090594193365258979e-01 -7.350715654512818276e-01 -3.041886027880110754e-01 -2.190552465946304928e+00 6.919732587998586038e-01 -2.480250407994221140e-01 1.129397412954006863e-01 -3.586013673876513042e-01
-2.795783355524642522e-01 -9.199277601723393830e-03 3.053224322463601315e-01 -3.037069984811841539e-01 -2.372984008060807781e+00 5.484909655161447350e-01 -4.291320731345814044e-01 1.178286425545975041e-01 -1.924239611862041954e-01
-5.543830045031540310e-01 1.867441913368610429e-01 -6.108084878649021332e-02 -7.164422008535151765e-01 -1.060002840863457640e+00 -7.759477105670352648e-01 5.173185446926773512e-01 -7.294166865618563200e-01 5.225905154481724768e-01
2.446028202775994975e-01 1.764751037397778166e-01 -2.340477870409426731e-01 -5.470493569453953597e-01 1.075616382710139707e+00 9.744653652044038550e-01 -1.093649361354386507e+00 -5.657361112502203859e-01 3.176361034826247765e-01
2.633993193467261684e-01 -5.063602845839965116e-01 -3.953031075993498900e-01 -3.555138496743699972e-01 -9.495836588433470560e-01 1.333873176752427558e-01 4.711826672594116583e-01 -2.061565227300074798e-01 -8.316807662167058357e-01
1.293669938311901912e+00 2.873737637192519401e-01 -9.079451259851547551e-01 -6.625839907271579010e-01 8.224008659080315198e-01 -1.222164960350686336e+00 -3.231430526718016005e-01 -7.178844955317479348e-01 2.245608390184724856e-01
-9.108232833042086973e-01 2.309559536596001994e-01 -8.619312733271985438e-01 -6.329993886674766257e-01 4.194468611462947027e-01 -3.466645715592490684e-01 -1.503522919856753459e+00 -3.406894635526256376e-01 8.929291177382561728e-02
-1.633459796028529643e-01 -2.186280021215027125e-01 6.971310728948074686e-01 8.159994483645496288e-01 3.088916671993095081e-02 7.948022566625714824e-02 6.305890940637611797e-01 8.072369263049647969e-01 -9.468630958445071188e-01
-5.398485491943706416e-01 3.247005574606580056e-03 1.823008163384046143e-01 -9.563260667958629613e-01 -9.701548612575300323e-01 -5.655953395535542327e-01 -4.990286617419392723e-01 -4.614422955963728423e-01 -8.662344157815587975e-02
3.360329061542720597e-01 5.727676138788272420e-01 5.844336959093154871e-01 1.116771744560384194e-01 -2.940742010058253975e+00 -5.604512037340142472e-01 3.818235479551294609e-01 -8.967524313680408365e-02 4.652149743786314628e-01
-1.459013548536083546e-02 -5.751298260132576834e-01 -9.510295859852481160e-01 3.384615467241054443e-01 -1.660483454870774533e+00 -1.219292044175193546e+00 5.546672313335546667e-01 -8.633622963055986865e-02 3.300237949423216466e-01
-6.878597297092924334e-01 -9.677504130676783944e-01 -1.980672598480067159e-01 8.294018565106336949e-02 -2.170000779393105539e+00 -7.426415080355187603e-01 -4.724689390935737365e-01 -1.813413783360841303e-01 4.491723005720535955e-01
-1.113860536157614600e+00 4.032981678787561641e-02 -3.808628677577314825e-01 -7.147888739103135103e-02 -9.750480206997588217e-01 5.594405959531346256e-02 -9.257853001563374207e-01 -1.094055080685652159e+00 2.257562114912942397e-01
-7.943635835842326465e-01 2.714245056912294326e-04 -4.669373379685642367e-01 2.104693102854824360e-01 -2.913358964717107091e-01 1.075748154810837631e+00 -2.449482161530916746e-01 -5.708085040644507169e-01 3.761211478640288930e-01
-6.921613446061641861e-02 -6.959614579860931016e-01 -2.801076124311261961e-01 -8.103367479282116426e-01 -1.544783492796881319e+00 -1.171355042964542514e+00 -1.622795790985308018e-01 -4.098170091942940907e-01 1.354388370670379371e-01
-1.449636332739014932e+00 -5.804961830475191542e-01 -6.257437842244033543e-01 -1.926260917673561779e-01 3.549035211533751455e-01 -4.430275423014577441e-01 3.935363472864135681e-01 -4.084852682090665543e-01 8.636654767046261227e-01
-9.793954808791588418e-01 4.710711083219086270e-01 -1.609757029810601869e+00 -2.112698399020022377e-01 8.077446402860630759e-01 -1.096853874445554294e-01 4.367862825222590950e-01 -5.745592433787541919e-01 3.682188410395115935e-02
9.574306597821375941e-01 -4.584548079895321010e-02 1.180293561789280132e-01 -1.210238152779055554e+00 -8.626283602772397696e-01 -3.811332504548952671e-01 1.054560191036136407e+00 -9.177678353804514799e-01 3.003389056310514782e-01
-1.546884237685315355e-01 -9.711908519522355343e-02 -1.043938639604057306e+00 -9.218637061982415393e-01 -1.444200385335345116e+00 -1.261326613365543192e+00 7.967792005597496008e-03 4.342316053530083653e-01 -4.075453867571829369e-02
-5.529322714220017421e-01 -2.879955671093813452e-01 -8.511263211658989247e-01 -7.286615480026077396e-01 8.510753196438455848e-02 3.309434298358774340e-01 -9.883553709395466180e-01 -4.936774232146793340e-01 2.539268497855506346e-01
3.133574231018845108e-02 -1.083225842492839597e+00 -8.451645336935322828e-01 -3.879688498640967431e-01 -8.404245925766293812e-01 -1.150081045439663996e-01 5.250704023515256891e-01 7.062280038797003057e-01 -5.505800503623601294e-01
5.084392049642131317e-01 -5.633533376652809510e-01 -2.431655788575444455e-01 -4.072900522085068920e-01 -7.261658121195020410e-01 -6.634791891825488896e-01 -2.905299526119914377e-01 -1.046561953433477132e+00 6.180786883272122445e-01
-2.224980514283046718e-01 8.291916035871202961e-01 6.746718107833462597e-01 -3.931209134708423258e-01 3.279914835088905134e-01 3.418538229320996491e-01 -1.846994571603823854e-01 -2.530709184225812813e-02 6.611549580081128585e-01
-7.347579494493664543e-01 -1.529248890854415732e+00 -1.085375251685017695e+00 1.133702350626538957e-01 2.875053402710011641e-01 -2.632286556361495555e-01 -1.176148342155727056e+00 3.585263427911812850e-01 -4.498732311350459728e-02
8.247649434416352010e-01 1.037967617757995287e+00 1.198729729877285433e+00 6.536508489866826865e-01 8.149571394383711143e-01 8.234988582946280999e-01 8.789314854578927916e-01 1.162906897166045672e+00 1.427552222167574714e+00
3.254969213154473850e-01 -7.494078062771618587e-01 -1.492797612180656763e+00 2.084768466827520428e-01 -1.064517104528713398e+00 -3.956762376810661896e-01 9.777473319173500543e-02 -1.314857803466699115e+00 4.352764252512879573e-01
