-7.114160893485095283e-01 -7.259501985612240027e-01 -3.556836542756212638e-01 -7.377935776587536409e-01 6.357200068582171681e-01 3.479603330843624720e-01 4.622667354673455353e-01 -2.385438828865981409e-01 -5.790682792158291514e-01 -3.672967214656261969e-01 -3.039622375786794062e-01 2.502517919545305114e-01 -6.452870063726957595e-01 1.211339301607929769e-02 -1.665921112719858377e-01 1.251253889550285381e+00 8.910397803671388228e-01 -8.134996974466156550e-01 -7.598768162735338727e-01 1.503637982452828703e-01 3.585771260886933542e-01 -7.129358528210488766e-01 1.132341761447317241e+00 2.473948292771966095e-01 -9.482840215129124672e-01 -4.967717609738632745e-01 -5.866407880283008858e-01 7.371662953166862042e-01 -1.975459310346087682e-01 1.428535878898726068e-02 3.848957184674742793e-01 1.244646785314469130e-02 5.825712418502513312e-01 1.228817879528788071e+00 4.534413282814949153e-01 1.832765105908395198e-01 -3.551468387453239617e-02 1.183796802839080092e-01 6.641877058876299866e-01 1.241510334001119098e+00 -6.287784885278108193e-01 -5.302157319745626207e-01 -2.594662191008841878e-01 -5.666323039989482613e-01 -1.001702055522352142e+00 -1.793200060900257409e-01 5.254519097951022566e-01 -3.139900392600735168e-01 -2.064979691532990158e-01 -3.326353337697985912e-01 -7.444584808874857296e-02 -1.645797978967572073e+00 8.417126784620848623e-01 -5.267938667263970948e-02 -6.223096829895862214e-01 -5.932448485716980136e-01 -1.596937216265601756e-01 -9.724918962449516369e-02 1.240790240557972490e+00 -7.271544615890886964e-01 -9.114257570581001111e-02 2.825481825647366274e-01 3.943672138525727844e-01 -8.647996838960669841e-01 4.273441771860135296e-01 7.866510613434368748e-02 -2.315876974817436262e-01 -7.211924473433078964e-02 -8.564333452058123797e-01 3.981057918043490185e-01 1.182809763756685451e+00 -3.146072124075555698e-01 -6.273664251291652949e-01 -5.471293261691084764e-01 1.718415783136304775e-01 -6.751329341951471941e-01 -3.193139345493111181e-01 -1.439223593357674413e-01 2.683593267936028662e-02 7.312608890040004361e-01 -4.966055929777787314e-01 -6.880261095236829272e-01 -1.797258044988906123e-01 2.613063820954063532e-01 6.184971891500179453e-01 -1.640866662642042340e-01 -2.885890036951564014e-02 -1.115552929518625475e-01 -3.253141766294183612e-01 -9.452852691011114361e-01 -4.664798882476503539e-01 -5.311458065160986619e-01 1.727976916880385738e-01 4.398892747331961672e-01 3.872533629026778113e-01 -4.180079582790509063e-01 1.559049689143034989e-01 6.714878490550341139e-01 -8.972262017773101339e-02 -1.072784824537785092e-01 -2.487273855433519421e-01 3.170383350568046210e-01 6.291176044428574698e-01 -7.103605494691354882e-02 5.457439092110211165e-01 7.793059631320048419e-01 -7.115658289767493594e-01 -5.495977622750021219e-01 7.003192023127796650e-01 3.748977394033269350e-01 -2.675951784918235155e-01 -3.112527524727415895e-01 5.057408722192983097e-01 1.540172330917757293e+00 -8.303504038390790987e-02 7.341022431961746753e-01 -7.454597408302193751e-01 8.087322784043401991e-02 7.101312304990710089e-01 -4.457490322562583929e-01 -9.401198663846745962e-01 -7.523347809388939433e-01 -1.262637774565269710e+00 -7.880720358345614240e-01 1.672846434310752750e+00 -1.574521050083704798e-02 -1.018776234774343648e+00 -9.704813314304946981e-02 1.016042454288748509e+00 4.326838272386857587e-01 -7.018512551137622291e-01 3.463791093459554493e-01 -2.570214245268345188e-01 5.114928346763274458e-01 -1.243037697260094832e-01 -3.753552785139953607e-01 -7.456972203228847684e-01 -8.817309885850900253e-01 6.069930249896837715e-01 4.789384147595524555e-01 -2.301481258840991639e-01 8.512793668535766356e-01 5.696117583558498731e-01 4.496383610886739435e-01 -3.912246766964553452e-02 -4.488559658533408103e-01 -7.805440275687908214e-01 -2.144529659112992190e-02 -2.559186875583463472e-01 -4.285559105706896466e-01 -7.221528213874888191e-01 3.571864190723699622e-02 -2.685744589469614696e-01 -8.003982993617965447e-02 9.169168094296489824e-02 -2.334194511803396599e-01 -7.574569996208966316e-01 9.699176983357785109e-02 -5.719793142919584739e-01 7.460896444891914614e-01 -1.622046410645541781e-01 -4.412494072934957656e-01 2.705387975454453531e-01 -2.365247403374795832e-01 -4.900707985696975411e-01 1.615536662323460715e-01 9.654466783597327462e-01 -1.861214929677735552e-01 1.611740035475139332e-01 5.359468504078852558e-01 -4.690006960100904232e-01 3.048581365605260718e-01 -8.244019996716305254e-01 -6.965256743356452729e-01 2.861431442121336599e-01 -2.006719243364346039e-01 -1.924988985803093577e-01 1.543921930842779011e-01 1.458471978633069793e-02 6.494672395431704270e-01 -4.965400859046505827e-02 4.987345214500112367e-01 -5.232029161561062569e-01 -1.586387399333565873e-01 -3.355862367971342297e-01 -3.113113599148044086e-01 4.374507599770845467e-01 -5.362557394851897447e-02 -3.209712159345308735e-01 -7.039590055660102097e-01 6.677494941758246871e-02 2.637551161186819648e-01 -2.456675326285316652e-02 -3.948957913866993352e-01 4.101818991267656700e-01 -4.345700716870947722e-01 -4.899181116799453117e-01 1.054122796640614146e+00 4.969073980193792761e-01 -8.298397204819070172e-01 3.081992655164169648e-01 2.287533229565877069e-01 -4.164688892049115722e-03 -8.539055735475750697e-02 -4.994988094261699763e-01 3.798214240407538078e-01 8.002933734748570727e-01 -5.722061613020523740e-01 2.026220084442323377e-03 3.331183692054455747e-01 1.894827294622430103e-01 1.100110238393306350e+00 2.046332061057215268e-01 -5.470046881477788059e-01 3.775418772833127878e-01 5.117451023363412954e-01 1.814651463647976581e-01 -3.204703044917885935e-01 -5.999200554886492398e-01 -3.756108124809466875e-01 1.711274704407566571e-01 -9.894677119214237981e-01 5.175631341507364036e-01 3.446537870490318234e-02 2.417045998354761804e-01 2.673655081305806869e-01 2.210519007178135542e-01 -2.971005267011400663e-01 -6.612880562994771783e-02 -9.960054603455605060e-02 -5.692231695741904046e-02 -2.693643732914546840e-01 4.199875818326437305e-01 1.286123266076882321e-01 3.014375825761454464e-01 6.458793973707007696e-01 -4.547495676105136053e-01 -6.691291266822534112e-02 3.297212521594671264e-01 -3.318512340325019960e-01 4.315939241462678488e-01 3.824847557589545199e-01 1.201850010490481235e+00 1.159055373834271124e-01 -7.671257047591201195e-01 2.374850171459967907e-01 7.202195427611460810e-01 1.306317320927125603e-01 4.864455159156893527e-01 1.417988779123263487e+00 -5.323401764891959598e-01 -9.845024443768917166e-01 -7.479586427843483154e-01 4.471747548436573738e-01 -1.089076848947838697e-02
-9.369833854468548884e-01 9.249810953391741641e-01 6.286206505863842775e-01 -8.052237752497559686e-01 4.081370664233651691e-01 1.574118308381802500e-01 4.707003158984554569e-01 2.240317942823515096e-01 7.029475643260608697e-01 2.928887095141605862e-02 -5.323852689829210449e-01 9.223797732706477681e-02 -3.352444443360991233e-01 3.068113549844558863e-02 -1.106542746091628143e-01 1.972420850694373673e+00 5.337668352647568781e-01 5.186675291112151642e-01 -4.392093140821435315e-01 5.602339757791809927e-01 2.317832855068594974e-02 -2.995358057588053402e-01 3.788817410581341028e-01 2.218778822091978589e-02 -6.501499419902986299e-01 -3.276507684484631366e-01 -6.389464563788270490e-03 9.103305241552083205e-01 -2.980627731839728400e-01 -9.074259786735486832e-01 3.309781346928407086e-01 2.051567439931484826e-01 5.905130645451563964e-01 4.363039885400329942e-01 5.788931155834000641e-01 -6.035803132552954031e-02 9.689399494107703292e-01 -2.388481647988208861e-02 1.659664191168732095e-01 6.499965734188606348e-01 3.444845821583789602e-01 -9.294330007585539510e-01 -6.909344454724984930e-01 7.530180300407729455e-02 9.180906043098348013e-01 2.834646481771761484e-01 7.589273412787191087e-02 3.912359379221921896e-01 -4.817741783834025848e-02 -5.317800882426018116e-01 1.523464370338180329e-01 -6.863410290749069054e-01 -6.007104032746733990e-01 -1.204815867048178168e-01 -3.825246436392159416e-03 -8.008270489774033107e-01 3.030362233858694965e-01 8.181778830722205575e-02 1.462888954005955533e+00 -8.146242931721250913e-02 1.649916688818638399e-01 1.043677799855692312e+00 -2.896802879829440402e-01 -8.176003024248235107e-01 -6.975069037882187795e-01 -2.710175766999973757e-01 -3.566861604895398274e-01 1.578235348310536579e-01 7.612685239696503903e-01 -6.289648508693755913e-01 7.235184788532486033e-01 -3.009421554706688262e-01 3.008632293582580441e-02 1.930929062345301539e-01 9.283338252287602621e-03 -6.808271091172585221e-01 1.168546404695548213e-01 1.425819375739476591e-01 -7.424299217287618768e-01 -7.721690449450788751e-01 -3.284026857558449142e-01 -2.601240677669064971e-01 4.781564492186872184e-01 2.402945666831122484e-01 8.775644050327858769e-01 8.776263775005883616e-01 -4.963848622155355578e-02 -2.442900414794280939e-01 1.676886440171152792e-01 -8.983820145031358451e-02 3.992518362328341675e-01 4.351628814731489103e-01 7.082708584316227407e-01 -2.832144157403729268e-01 1.091969456964023255e+00 -1.302444884331047936e-01 1.246307258046303740e-01 9.112331836006305752e-02 -7.756370276627955196e-01 -7.718601430220729809e-02 -2.349415567890344447e-01 6.685450759491882167e-01 6.274293468590702583e-01 -2.697607723203437891e-01 6.794120856589894730e-01 9.992145237081924147e-01 8.711513600591477280e-01 -5.663807277977372934e-01 4.214369807331434514e-01 -5.322636983662182991e-02 -6.517270739554776871e-01 7.118331781886036436e-02 3.396286603247190006e-01 7.937127621857243964e-01 -6.943969735845643143e-01 9.034910443285723014e-01 -7.395091488568540372e-01 -8.441451112021759740e-02 1.507949844789230998e+00 -6.413275723163881503e-01 5.206144113620205793e-01 2.011751096619049939e-01 -1.888819954506852292e-02 -6.693582910851451073e-01 3.449243828106153265e-01 -1.976073373380191622e-01 -5.876296803938602098e-01 1.061490070585460570e-02 4.848472939968046513e-01 -7.907919679472095176e-01 -9.317195472126645894e-01 -2.287401341112420272e-01 -7.466893400905856293e-01 -8.978629723704393273e-01 -3.944917041957528014e-01 2.895076213470280102e-01 -1.664880601797453508e-01 -2.492577937624895212e-01 1.877036265266719128e-01 1.138172110309467522e+00 1.183371292205185749e-01 1.143872911345483745e+00 3.299869286042457772e-01 6.758981296868634692e-01 4.671246932388464779e-01 -5.445179432986613222e-01 -4.330963263764260884e-01 -2.085778765413267566e-01 7.391303797421129307e-01 -6.614332287614549388e-01 -9.087729746659107821e-01 9.651893084187525285e-02 -6.697784110067339647e-01 -4.302314217668524732e-01 5.474613289293153162e-01 1.187914102172527714e-02 -6.142012792921066611e-01 7.372146373965968724e-01 -6.412415186217209628e-01 -8.869467983925820587e-01 -1.355351430183965034e-01 -2.124276018407021127e-01 8.770743766209671000e-02 7.135777848227549125e-01 -1.940106410462400233e-01 -8.341914441676465120e-02 -7.883956185177685982e-02 7.516794264271192683e-01 3.439488625402538635e-01 -3.618807275049528704e-01 6.292409013823080377e-01 -1.651192813446601959e-01 -3.537550332976243106e-01 1.463189786683042337e-01 -5.872809624075284868e-02 2.243482373293780030e-01 -4.498478530843663670e-01 -2.073676719803124457e-01 -1.204166951680604725e-01 6.412289463938792844e-01 7.848678003546064597e-01 1.118094494567323682e+00 -4.492776107138524155e-01 -3.151961046274088241e-01 -7.931370025494222098e-01 9.363166002333115356e-01 -7.466887538381115075e-01 -3.833215098508848673e-01 -7.014158861368517961e-01 -9.125647669920537997e-01 -1.008616620548569709e-01 3.227486864331901573e-01 3.186793855384261603e-02 -1.928616323930734955e-01 -8.199377896527179077e-01 -1.606050474963752195e-01 -7.513855070775748990e-02 -5.340694769248206519e-01 1.122807793833688450e+00 -6.337780686907022905e-03 -1.769976766560017734e-02 -2.716164669783086016e-01 -4.531786096779428785e-01 -1.148198648798701010e-01 -1.529834472633812281e-01 -5.543349173518978823e-01 -7.650027896772858549e-01 -3.136997543745295713e-01 -1.981101028626001126e-01 1.978968179181345433e-01 9.327265735083736797e-02 3.968582177237434117e-01 3.195570389596165684e-01 -3.745138741533611260e-01 2.307255929232221447e-01 8.234421376389731151e-01 -6.674351472996113699e-02 -3.571466909189781602e-01 -1.399664527488710293e-02 6.935212762346211202e-01 2.681328940774168612e-01 7.437392195845569098e-01 3.214293658460666836e-01 4.650836282300176983e-01 4.359777584047309640e-01 4.140652287625264383e-01 6.280475817825419416e-01 3.996759792660435351e-01 -4.907827470487409194e-01 1.588721075028458329e-01 4.424342348726056223e-02 7.373947653957433346e-01 -2.717992308635630572e-01 -5.314291805654227513e-02 -2.212320769737391168e-01 -3.186852216482464750e-01 3.515038478097377156e-02 1.482061159625361058e-01 2.713909042838220098e-01 -3.882915097539153537e-01 4.571965135356187981e-01 1.671099071113150147e-01 7.339437982943497474e-01 2.911235763487649009e-01 -9.329511060961295232e-01 3.361014388809425157e-01 -8.387749437273778197e-01 2.143237135321812703e-01 7.695686043564473611e-01 4.236910750178106144e-01 -4.272517665933692199e-01 2.626784345022573630e-01 -3.577309276528014004e-01 8.130797005989249815e-01 7.398857210146656538e-01
-5.900729582446264665e-01 2.974567521389412939e-01 -4.176293292573501903e-01 -1.024955733684824871e-01 1.185577052567610812e+00 -3.880041696591192413e-02 4.124423632966182640e-01 7.830187823999309460e-01 7.379194156795451098e-01 -7.776247763745762834e-03 3.761857304143932223e-03 3.016367874862024845e-01 3.056071470805989954e-01 6.795472553799408733e-01 -3.399444575902916266e-01 2.184660605686116863e+00 4.150989671774515943e-01 8.832395709537727013e-01 6.633944560572367921e-01 7.524099955356604585e-01 7.365913211998977861e-01 8.163414704176126524e-02 1.037102368279300357e+00 -7.136159961962387777e-02 8.559027206197669102e-01 -8.735269120226739625e-01 -8.517177957370338781e-01 1.685353097072194162e+00 -6.340379986389405031e-02 -1.179723668649644563e-01 3.432986467940341013e-01 7.180721161562918231e-02 5.140321683987595369e-01 -7.781284250322932639e-02 6.611656801060317168e-01 2.453188088090666463e-01 -4.333592375547822700e-02 4.169554738376342606e-01 -3.674989102007208963e-01 4.305503856638243088e-01 5.527716946995430147e-01 -3.306879269229419660e-01 -4.327977207283416616e-01 1.387636628116806214e-01 8.259162830678434819e-01 -7.098101933522618645e-02 3.247766478327522299e-01 6.652269922719930006e-01 1.563777520954506561e-01 -5.826912236633717823e-01 7.050309568605338858e-04 -1.409321338484219810e+00 1.339769356750448448e-01 -1.288512987418528377e+00 9.554503963598200977e-01 -6.535109546927879431e-02 -2.509491153058810986e-01 -2.195835254439713891e-02 6.983275007114897459e-01 -2.188422580121647809e-01 6.187108795828764052e-01 3.100797542223051595e-01 -2.917626064079477666e-01 5.749054180070362063e-01 3.062788691639643512e-01 2.584189399649937657e-01 -7.282187147811157724e-01 -4.556766350333422699e-01 -5.663130309020705244e-01 2.919746697796118395e-01 1.272949260476639033e+00 -2.296378763885753571e-01 -2.331340709120157881e-02 7.990652137748296413e-01 -2.940510187500466888e-02 -8.255571566538115746e-01 -2.868594950278101074e-01 5.286719915527372526e-01 8.708974553272289532e-01 3.712162291758593358e-01 -9.096300779854837870e-01 -1.037956447015400574e+00 -1.045786296617855632e-01 -7.569223356978764528e-02 2.282023767983970275e-01 3.094889519552963542e-01 1.852267848690955857e-02 1.942659344774154417e-01 -5.895076868036589479e-01 -3.387435212629337777e-01 7.723380452431274912e-03 -5.209510231492315846e-01 3.986961647869048386e-01 -1.335068765083592401e-01 1.146320056400860432e+00 -7.082107765701360913e-01 -8.734139750409617431e-01 8.156927496451453763e-01 6.611076580440657102e-02 2.960552435161295515e-02 -2.120060048259157781e-01 4.326337921259517522e-02 5.119149610111640714e-01 7.281665004239065153e-01 4.394903992615480925e-01 3.521424356376589015e-01 9.178167949867946929e-01 -7.825365355718276739e-01 7.570816160793497618e-01 -9.857832514097089605e-02 -9.826939691511837882e-01 4.939316719073216233e-01 -8.230242412259541895e-01 3.176751321379059911e-01 -4.062944750219032453e-01 7.451454876843539576e-01 -1.255299196771126446e+00 -1.062483733506840028e-01 1.273441611087759551e+00 -8.463635086911026617e-01 -1.118023509612170729e-01 -6.037095277581002728e-01 5.829759644791332462e-01 -7.510816646945130126e-02 9.637787751578304196e-02 -5.342485099809238802e-01 -1.159298996975150597e+00 4.079196982721464693e-01 3.145709479129508712e-01 -6.963439682445093926e-01 7.489372352326452154e-01 -4.527290044308133754e-01 -5.272832271109532259e-02 -6.024398287603808244e-01 5.840165625067247207e-02 -4.267176669023480806e-01 -8.259646519769173745e-01 -4.182261147398421697e-01 8.748282998006469136e-01 7.313380154825780410e-01 2.921680830659044714e-01 2.820406076068039392e-01 7.762057752684724532e-01 -8.184502248020607551e-01 6.134696012630956596e-02 -7.198062519141886773e-01 -8.325951572816524537e-01 -6.327788729542309643e-01 -5.413921263050401889e-01 -3.292565336765000406e-01 -4.815202453494833446e-01 -1.285273321953054682e-03 -9.156686057466975615e-02 -1.093910252056645271e+00 -2.345358421246694289e-02 6.934619524963958614e-02 4.884119517834243362e-01 2.927464833434173519e-01 -7.353232047579745245e-01 9.122177243631613974e-01 -6.300961529439909059e-01 -8.736756178725172406e-01 4.988028414364996665e-01 3.112849250684291413e-01 -1.076675096630728579e+00 4.514285895323602582e-01 4.852498473321465444e-01 4.729322925834236052e-02 6.772056507828989602e-01 -5.749283846847483836e-01 -3.906883008103370081e-01 1.908331052197771716e-01 -5.866763475522395188e-01 4.009503333912770584e-01 -1.362612836949197437e-01 -1.471677187373919837e-01 -5.251969972083898180e-02 -4.429885171235521391e-01 4.365020748965693920e-01 1.110065145485221949e+00 2.152385610112631520e-01 1.553357667491078953e+00 -2.609932884758548455e-01 -1.343123229635141858e+00 -4.454252010540696305e-01 -4.268820301835655195e-01 -5.712306387001676589e-01 -7.826800474041659683e-01 -4.109413734018672604e-01 -4.541332612411572711e-01 3.186279573321694758e-01 4.403754609205531856e-01 -9.653005516271384590e-02 -9.160722033529893338e-01 -1.993450116288081331e-02 -8.384886933519096752e-01 2.730654744798484690e-01 2.490967776668355227e-01 8.566619210642913984e-01 9.181707229525533087e-01 3.950039556827014131e-01 2.587983991395606531e-01 -3.820422535580195733e-01 -1.119070606710382415e-01 -9.672816133229050761e-01 -2.457734671953887007e-01 -7.328733585740686562e-01 -7.824826143565037917e-01 6.641839151800794649e-01 -1.161189970061086152e+00 1.242479751663337906e-01 3.544421779799447059e-01 -5.967498743118333504e-01 -1.146794688631538328e+00 3.222355239478087441e-01 5.666846816433624978e-01 -6.671909209466846125e-02 2.180170865450891393e-01 2.932317154609087040e-01 -8.208605507964782388e-01 2.317815340930877432e-01 7.637236827916771276e-02 5.422371079789485293e-01 2.987165215601569890e-01 5.015167303109953068e-01 2.709846226346354081e-01 6.656564408536846944e-01 -8.356432733162698634e-01 2.961281617219919116e-01 2.705829530283111461e-01 -2.594556545898573097e-01 6.634327642208950326e-01 5.036353649989765424e-01 4.727632850831070543e-01 -3.003504430661792513e-01 8.038028264091826580e-01 -1.101208184210001217e+00 -5.393867130552705280e-01 1.245953114415684793e+00 3.210289333037129045e-01 3.573867262478220841e-01 5.699648003395468843e-01 2.098353615816075102e-01 3.812698005990750039e-01 -4.978560109927440136e-01 5.139602979967474589e-02 -1.105978018949880237e+00 -2.392431054559457371e-01 3.313485168084761567e-01 6.628674772521367942e-01 -4.474071930259882479e-01 -7.138565898399246157e-01 -1.226299918214750706e+00 1.995411424362177402e-02 -4.999680807443395714e-01
