6.813851681338056743e-02 6.405563934198016396e-01 -8.411221204348187097e-01 -1.178343563728422722e-01 -6.664215640773208937e-01 -6.443552201241883326e-01 -3.811616186438653853e-01 -1.056546906486894311e-01 -4.087584285902299414e-02
-1.326276036789015567e-01 -3.807484735184195612e-01 1.953579538306061680e-01 -8.210211072333536420e-01 6.391952885548783936e-01 -1.122454693790525759e+00 2.009473091079386209e-01 -3.200945480607564897e-01 7.252737273896373016e-02
-8.502007227417226476e-01 -7.610267110631541154e-01 3.712426354821286023e-01 7.367405878632133920e-01 -1.208135187859265436e+00 1.421767482853146802e-01 6.999045547439212145e-01 7.128201453712726954e-01 -8.588550390639931864e-01
-1.134012910789750084e+00 -7.643312649687217242e-01 7.634236522023755134e-01 -8.199474591999970086e-01 2.425050795152054739e-01 1.029377545303085340e+00 9.228285520581674950e-02 4.015730068828276544e-01 -3.135466754973558201e-01
4.097239336139563842e-02 3.767756304810939150e-01 -1.530970479923375871e+00 2.792723042522317067e-01 2.073983476099318324e+00 1.615403728093931512e-01 -6.391369469172671902e-01 5.044826681794100098e-01 -1.201838449117866858e+00
-3.809932811448132894e-01 5.618233720457433966e-01 -6.701293714747950103e-01 -5.967939052336816985e-01 -8.309306686641417805e-01 -1.095992118679082195e+00 1.145840492671712230e-01 -7.835781179440981514e-01 -6.659047428805632274e-01
-2.877316401197072548e-01 -1.208465592055556481e+00 -1.032681843793983034e-01 -8.641832446914043953e-01 -3.489630748946280225e-01 2.133151183394906003e-01 -9.369453961491703842e-01 -3.782970730025918549e-01 2.297785716462811545e-01
-4.717234385118976303e-01 -1.142717302190155104e+00 -3.280438711808830177e-01 1.212593067829503685e-01 -2.492858683528723918e-01 6.530713021266039142e-01 2.118141052606668795e-02 7.145782140355435574e-01 -8.845334573112980658e-01
-6.457432455836256135e-01 5.352609210488973313e-01 -2.536099207646450027e-01 -6.552422388489700378e-01 1.270921814602332223e+00 -3.900184667074835798e-01 5.934655768300270973e-01 3.247025983628138435e-01 6.844344628841343425e-01
2.416972600258208981e-01 4.026576932032607248e-01 -3.954190245343270349e-01 -5.807228343494936773e-01 1.127781131380537927e+00 -2.695854962004207156e-01 8.080648718722925894e-01 2.307929630803562948e-01 1.731933763472717491e-01
-7.030198457983274363e-01 9.026835215461556094e-01 -1.710209758106533695e-01 1.976872957605745607e-01 -4.165921541718703436e-01 -6.501738061380298861e-01 8.087971185473512570e-01 2.483662472858855219e-02 -1.123278497714568891e+00
1.790347367018683411e-01 -3.686896021280217650e-01 9.000505563808028353e-02 6.524049391603410353e-01 -8.260022371288726628e-01 7.896838618164294665e-01 2.758206178190098501e-01 -9.445422102925142838e-01 8.474312737110694105e-01
2.668425977417928086e-01 6.899839401663229177e-01 -8.265720556978999323e-01 -9.572711682944406997e-01 2.032753710560532667e+00 9.760971979027095735e-02 -1.120053843568295182e+00 3.098713979377113459e-01 2.338429910992986527e-01
9.650389660117918433e-01 5.211458882762440847e-01 -6.664886851562648040e-01 -8.601162350054828432e-01 -1.321774055379487445e+00 -9.142460179970970380e-01 -3.284934656341710335e-01 7.343887675584611641e-01 1.530655956575455723e-01
1.752494735454810104e-01 7.886234330789735347e-01 -6.483597239544937052e-01 -4.453748839641122892e-01 4.850864864218313866e-01 9.226503652601529826e-01 1.437613048926886239e-01 -8.778349248716310615e-01 6.961550402426993633e-01
-2.420188263112310334e-01 8.389312101174780656e-01 1.894963356809805377e-01 9.653959883714943180e-01 7.896752247751219755e-01 3.901344745679892201e-01 -5.019749481612487685e-01 -7.463678885472548874e-01 -5.664429330541641550e-01
-1.024169229531510572e+00 -8.634237076394194466e-01 -6.439650861799354198e-01 3.211495167624545677e-01 -1.363176791709372337e-01 -1.050564589175163155e+00 -1.034443837427365009e+00 7.309924631023583252e-01 -3.695620133490982312e-04
-9.498807348159081787e-01 -7.159157188740302713e-01 2.148155434626390359e-01 -8.309610990822609011e-01 -2.902400885344292858e-01 8.015699048039552910e-01 6.823656505694557506e-01 -5.170844572880533008e-01 2.633972270703304613e-02
5.022916899863495432e-01 9.564707453493149769e-01 -4.632776868941163584e-01 -6.801503692454472505e-01 -1.641051003132971919e+00 2.474524806698903123e-01 4.043009474575914863e-01 4.164903117151731449e-01 -5.157754433968129298e-02
1.142487431192715785e+00 1.501660255615549500e-01 -2.836738894718178750e-01 2.252548653327007475e-02 7.719074392275724339e-01 1.645462506864961982e-01 -6.505152707940703438e-01 -1.182934316435911626e+00 -6.415027823890930847e-01
1.075481931895432147e-01 -6.754025077766411256e-01 8.715162368472632870e-02 -9.342870445334539031e-01 -4.391634113190761024e-01 3.134423782096253941e-01 -6.524847462092658867e-01 2.308536717869728028e-01 -2.284210703127742548e-01
6.317212331307966444e-01 -7.148585825323218179e-01 -1.160844120764887188e+00 2.273281881678826388e-01 -8.770816333861664038e-02 5.001444449414161886e-01 5.537785292517124480e-01 -1.304410077700213000e+00 -7.835289891728977052e-01
-1.309982008385747743e-01 5.685060274209946529e-01 6.053274354426348980e-01 -2.629979922186285179e-01 1.143313723136528015e+00 -2.943062652215179889e-02 -4.932273927379422496e-01 -2.461900651935348128e-01 -7.754277889670678492e-02
-3.219156230971133570e-01 4.976810859243919194e-01 4.980022100014299680e-01 -6.622450364884026053e-01 6.410548335977597212e-01 -9.013451866001080948e-01 -1.167512482721113187e+00 -1.079309646016359592e+00 -2.365974226890370791e-01
-1.095727579060415291e+00 8.011538574430907556e-01 5.292413793144403744e-01 -1.010788081717395981e+00 -8.113314749214968202e-01 -3.983899249187904390e-01 -7.948488201802654807e-01 5.478253895752088765e-01 -3.637731573997864398e-01
5.141272366284009854e-01 -2.610566784437900467e-01 3.577201393668508200e-01 3.014270781626625650e-01 1.326694227600686560e+00 -4.849387928421595717e-01 -1.474478320389640551e-01 4.539617229902212503e-01 -7.508941037400577168e-01
-2.945362414221519565e-01 -1.769203705267916871e-01 -1.245771252969094078e+00 -1.316289589810998584e-01 -7.566852968405785029e-01 2.443161733212527997e-01 -6.423953659499174185e-01 3.709104055533322120e-01 -1.127935433482357697e-01
-9.234245382177042050e-01 2.875494943459173114e-01 -1.292055317022660355e-01 -1.057989121452502568e+00 -7.242916647398959240e-01 3.537942105361344125e-02 6.446002136919930514e-01 -1.249991562934160694e+00 5.968720119997191764e-01
-5.826256562229015223e-01 6.833273076135064628e-01 -6.864972633929723733e-02 2.142783263698847529e-01 5.907353265030861333e-01 -1.206962327260528572e-01 -7.800148770930570574e-01 -1.065777568088743382e-01 1.190800698248581646e-01
6.016404477085625091e-01 2.884835520879706072e-01 2.775678130230746499e-01 5.502651488818165459e-01 -6.631033141481079696e-01 1.582419081245414749e-01 -4.668542391879577647e-01 -5.920944480161516310e-01 -5.308437716946260432e-01
-4.515012535315032771e-01 -6.278141544016085929e-01 -1.249823182318464676e-01 -3.656713910050969907e-01 1.240065485804242140e+00 1.459297674328384475e-01 -7.904091545027748245e-01 -3.453365291616036781e-01 -4.876901395982746745e-01
7.767095878052510116e-02 4.591637446705211789e-01 3.540038877240120896e-01 1.137638738436556607e-01 -1.762113436740846417e+00 -7.292437064654871959e-01 4.139855694312447043e-01 -1.025394997980161871e-01 3.974491810166477235e-01
-1.635963579868271803e-02 3.080296313732660551e-01 -4.153058272326030087e-01 3.918914797500315239e-01 7.090866284930235075e-01 -3.600452953279281720e-01 -4.775522837165055989e-01 -9.774897751184465911e-01 -7.056368956925532787e-01
-7.465107052285541167e-01 7.984127437471248978e-01 -7.697484246295990262e-01 4.483290647456552591e-01 1.725611614943522110e+00 1.066517621663908844e-01 1.180338855456877917e-01 -8.473544398665866506e-01 -2.858831142230374156e-01
-4.144765704327789124e-01 -7.226886494372489755e-01 2.285778136866960936e-03 -4.973827662035089636e-01 7.133782132384537400e-01 6.826640108410673147e-01 -5.973431885821846032e-01 -9.458468872958193385e-01 -7.211684167966856407e-01
-2.866705999804171623e-01 1.312528295808187417e-01 -9.554243598426472861e-01 -8.019706308750323975e-01 5.960971146127700404e-01 -3.771793471682960974e-01 -5.305318459784875984e-02 -8.275908471416093537e-01 -1.097278945380462556e+00
-1.308540713400129507e-01 -1.874938310520981866e-01 -7.997568047891662202e-01 1.079386393367136460e-01 2.054947356073224263e-01 1.647447763780802710e-01 -7.939033652583777911e-01 4.458018300094284680e-01 -6.509598254352313429e-01
-4.937538607534209256e-01 1.150721250071492369e-01 -1.458277249605737014e+00 -7.128413696559823265e-01 1.322121639861564280e-01 3.459353443063627465e-01 -2.232643064336470307e-01 5.624851405776365443e-01 6.700333112640702860e-01
4.905436148705426547e-01 3.797990694419418611e-01 -1.170999264030322840e+00 1.911483918538577076e-01 1.000768922233103986e+00 -6.951242168269824995e-02 6.367763288062824323e-01 -9.340998906715803907e-01 4.328393498425915364e-01
8.955312576366486477e-02 -8.069216801774705683e-01 -8.000807037557073897e-01 -5.467250450143329443e-02 -1.441066449131642280e+00 2.995667691451909809e-01 -4.634382168350879017e-01 1.582507304736521792e-01 6.113581189981019959e-01
-5.300520909076518183e-01 -9.852185896845629953e-01 6.014020734084831732e-01 -5.968165669541728585e-02 1.186980266574241716e+00 -2.239731899692296371e-02 9.685272028824950530e-01 -3.286958383253107963e-02 -1.133348710105350488e-01
-8.707381960679023702e-01 -3.261218300442516038e-01 -1.005572053261700738e+00 -7.681204281853515337e-01 5.900161312345970632e-01 -9.141429277126740249e-01 -2.004652979885694353e-01 8.604890865977677938e-01 4.808359989099943443e-01
1.092186438612990571e-02 -9.988089414838265956e-01 -4.946117483979906027e-01 -1.613126236519146217e-01 8.609454152463620336e-01 -8.651371846607077698e-01 -7.077020845981882857e-01 -7.471490263634958939e-01 3.651986984277450499e-01
-1.645677204572936481e-01 -1.020412416251240684e+00 -6.414315949253063254e-02 -5.048611760747139243e-01 3.306646866820370234e-01 -3.607919441189872956e-01 -7.318340255696466068e-01 3.550893016815549474e-01 8.499214459758012152e-01
-5.018202617554453626e-01 3.440396496991233732e-01 -2.667996182716413367e-01 -2.672989610553866413e-01 1.794496584609946987e+00 4.222533767972813101e-01 -1.206098126480186439e+00 3.944059627436497517e-01 -2.822442656706651287e-01
7.430253365302852409e-01 -6.356246743747988592e-01 -6.917515140402925589e-01 -9.040526558675138213e-01 -5.078897052438129389e-01 -9.127153407894794679e-01 2.984488698864659062e-01 6.420284641381993618e-01 3.452715468846353497e-01
4.734894697423187027e-01 -4.958521071984155482e-01 4.837960014757374805e-01 -2.323727193086155274e-01 5.802526785162723799e-01 8.477271241123260359e-02 -7.670452951543375031e-01 -9.865053408757149533e-01 -9.635056096679842641e-01
-8.184543520675374717e-01 -3.596559476249126808e-02 -7.286707963608538563e-01 -8.745752372229703697e-01 2.772039908559780219e-01 -1.215723894845288644e-01 4.428519617825839583e-01 -9.140609227255658276e-02 -8.967698393039547078e-02
2.216680760333644695e-01 8.008889311632018393e-02 9.377631225137769144e-01 -1.191520768716165107e-01 7.852563607023123060e-01 -8.000729123096923523e-01 6.850585831605583431e-01 -7.577601662977533348e-01 3.216098123442975298e-01
-1.079500385187254885e+00 -2.777514434198117277e-01 -1.307811985898331697e+00 8.321683179642940242e-01 2.101608534028320818e+00 3.301482016466343317e-01 1.022522482714947945e+00 -6.704058813844843145e-01 -7.482813697760046789e-01
-7.797083013082797276e-01 9.641084427350124497e-02 5.538125731698531062e-01 7.386988889839616323e-01 3.981150526424767633e-01 2.420878586369316909e-01 4.796227527239768640e-01 -4.080246806225749090e-01 -7.621632260621949984e-01
-7.313741819256359689e-01 -7.904582919250991990e-01 6.638848508074496335e-01 -6.908637552145288074e-01 -1.038532712008544356e+00 6.895842014332120851e-01 -2.628265331053138976e-01 1.022207455501285001e+00 -2.926116725990197120e-01
-2.804891164032867201e-01 -8.203550152306685606e-01 3.847185020783308596e-01 -5.498526869498329139e-01 -8.049031501486137996e-01 -3.782227246856471048e-01 6.259260132281022626e-01 -1.367258860092356310e+00 1.004987191039154321e-01
3.668270729145567954e-01 -1.213404686945380062e+00 -1.945283419611087972e-01 -7.475046824803572854e-01 4.083898799707322280e-01 -4.529284686778279473e-02 1.386996384153104007e-03 -2.494340102128883019e-01 1.917868734649509077e-01
-5.960167658948992697e-01 -1.214594464032523691e+00 -6.464551425304605574e-03 -4.921830051300479791e-01 -4.152652748219460427e-02 6.916263062653851268e-01 -1.867687630831282031e-01 -6.932938947906418514e-01 -3.363448764911705635e-01
6.807453497953248611e-01 7.633936673868305656e-01 5.502197568309965536e-01 6.960316080905672997e-01 -1.175359901977970356e+00 -9.108990778583904158e-01 -6.696161830687558103e-01 -5.229278803970841549e-01 -7.499889983974896701e-01
-6.279471300699604117e-03 -4.515169476478745336e-01 3.496825594629167644e-01 -8.192104426516180204e-01 8.084067679565391795e-02 -6.983790478226823417e-01 -5.530680894083980781e-02 -5.833561153507634822e-01 -1.120317642378500844e+00
-8.723418780412629525e-01 1.438145716850609546e-01 -3.153076246716314257e-01 -2.194177278291865041e-01 -1.166056379165399282e+00 -4.508479185980332482e-02 7.383668075467312297e-01 5.907539045760452634e-01 4.807951853702987360e-02
1.294001365986964691e+00 1.165850756561810364e+00 3.752244273491286419e-01 -7.205165118991173623e-01 -1.630946512051844322e-01 -7.474079413129598448e-01 2.909697781578703124e-02 -4.314663617830711423e-02 9.767620454902525839e-01
-9.916285724920708144e-01 4.662032095848637203e-01 -1.842942253057493554e-02 3.421763920627864941e-01 3.934663824103782487e-02 -1.306980193306467308e-01 -3.408104724146338582e-01 -1.393436729240388861e+00 -7.934368688507537071e-01
-2.401828394224275742e-01 1.939775637947178388e-01 -2.664280741066901159e-01 -2.895937102399032681e-01 -1.491296092809732743e+00 -1.086373272895582831e+00 3.192411962423462590e-01 -6.343764184278435359e-01 8.334608433774118863e-01
-6.439568597506135639e-01 -4.697226508368907982e-01 4.135471631892465721e-02 4.027063487938996045e-01 -3.239977650796002084e-01 -7.393670485050363173e-01 -4.289403288027088257e-01 -3.401305518137257705e-02 4.939900589654147578e-01
5.237808609550133054e-01 -9.447517173186568140e-01 -1.162622403012178562e+00 -6.837931096778819551e-02 1.302924073326015897e+00 -1.139401152607063983e+00 3.974722805815424920e-01 2.948928540824872768e-01 -1.301317510013973722e-01
6.045083535575462852e-01 7.400978310650856151e-02 -1.190864178956294372e+00 -2.471595793383991324e-01 1.039316932332192245e+00 4.544526155983576454e-01 1.100468996900858532e-01 2.229297933524532205e-01 -5.092443969874214937e-02
-7.307399222263943894e-01 -1.369960366984750988e-01 7.732806824550164659e-02 -4.475726856170739731e-01 5.358839590306067047e-01 -8.562842559089715033e-01 3.366492306701699411e-01 -6.172068519398505870e-01 3.676404076823607814e-01
-1.101374982401396169e-01 7.091064558094589687e-01 -4.094494859433498446e-01 -5.980969259678048378e-01 1.627295400331911557e+00 -4.142626226447795323e-01 3.891301937958777657e-01 5.852741267822988425e-01 -6.442950212896452200e-01
-6.776869046127630414e-01 -6.869462949218791969e-01 -7.804634302865176565e-01 -3.511033944965252784e-01 -1.259591850433422922e+00 -8.391542352741994115e-01 2.229360564508126585e-01 4.464050090760135481e-01 -9.488233171426893042e-01
-9.530299630553200618e-01 -8.586483028276650220e-01 3.938161797919632057e-01 2.021690606652722100e-01 -6.374574723723548386e-01 -6.691684394623714782e-01 4.425118442179561962e-01 -2.545371918345031292e-01 6.365438930817923779e-01
2.765164567127781359e-01 -1.012953649137177947e-01 -8.603808481853020274e-01 8.965571997381343028e-01 -7.882108165276229261e-01 -6.683812985243461346e-01 -1.886660242650452790e-01 -2.085119446664333576e-01 -7.200450369252143767e-01
6.481137187649949061e-01 -5.027846052235169783e-01 5.110944568055806325e-01 5.146525679461273484e-01 -4.708047416636584326e-01 2.025681407442701809e-01 4.050589244908721631e-01 1.717919112261723780e-01 7.312673550853857063e-02
-6.080756668755891159e-01 1.695413325642993185e-01 6.512821606240811745e-01 -3.350474752355074859e-01 -1.160585853148344941e-02 -1.039830209349213330e+00 4.686284183029884032e-01 -8.502390641738062360e-01 -4.239806241956598498e-01
-5.213637940425392969e-01 -9.785810271440077424e-01 6.651798145644313154e-01 -3.741795500510650130e-01 -3.825685476241986738e-01 -1.699022931997071773e-01 -8.252538534984376062e-01 -7.134647711829023020e-01 -9.489077854160975489e-01
-1.921214641406163159e-01 -7.757350340290654067e-01 -4.970835759151481237e-01 -1.056521655005097760e+00 2.302642712626860044e-01 -1.026546725277198036e+00 7.587816974281136329e-01 -9.300571772822419092e-01 -1.546690211801784488e-02
-1.059530483975592574e+00 3.078537716511450806e-01 -7.821134313592236209e-01 -1.130971222937489085e-01 5.373653877678719049e-01 -8.875278699272358685e-01 9.538457039677783467e-02 -6.998736628828129414e-01 4.619417342073940391e-01
1.828645400345320915e-01 -9.912055438233772220e-01 3.537001135416892317e-01 -1.273852446945972439e+00 8.377735740588228008e-01 -2.383739317589785578e-01 -5.029625704928173402e-01 2.107287414959379268e-01 5.305057817427720479e-02
6.875022202778371394e-01 -8.766648018326408387e-01 -1.397955539835003869e+00 5.645058037801322648e-01 1.235234757565868202e+00 9.857138334466604424e-02 -1.008088217736337507e-02 1.810575739609001922e-01 2.742266616866227413e-01
-2.877110986465037934e-01 5.319095166680589681e-01 6.054019654046913779e-01 6.206689171534025828e-02 2.623597651636824235e-01 3.764928243756490711e-01 -1.131731369432495526e+00 5.564473165557043410e-01 8.855345826441911594e-01
-5.843437587188605731e-01 -8.151961751632610387e-01 -6.545498038356847292e-01 -3.518476913908563097e-01 6.072871653752351939e-01 9.782468783421424674e-02 -4.103047977666069435e-01 -6.729248211100864463e-01 -4.455780188168165790e-01
-3.913616876128435396e-02 -6.274689464588411036e-01 -4.208429316639966666e-01 -3.259389206812665640e-01 2.762804767692039754e-01 -3.754138388379231195e-01 -5.549942861354352219e-01 5.220946673957227446e-03 -8.550825065805705005e-01
-1.296058181852947216e-02 -3.460352998790614532e-01 2.082356105540427438e-01 7.239301621730013236e-01 -1.013958469801177209e-01 5.323021724903421736e-01 -1.892905920171691347e-01 2.936754719070759911e-01 -8.518118496092503822e-01
-2.280074762893367912e-01 7.493270427220560803e-01 1.255723294929546874e-01 2.725083443090163260e-01 2.428461777675679500e-01 -7.869340497373841781e-02 4.548266193558442860e-01 -1.042823876146192763e+00 -7.435825213716465605e-03
9.447884150121823588e-01 -2.562993313407804785e-02 -6.491285134477355889e-01 7.026423025512971154e-01 -1.039664211308102049e+00 3.051728273511915557e-01 6.814103208479173335e-02 7.521288623788680017e-01 1.829371029879303390e-01
1.650151044680176760e-01 -1.647667382226676969e+00 3.860401023412661226e-01 -1.280354411957528971e+00 -1.359262793344200970e+00 2.830001957411257263e-01 -1.312610020282202639e+00 3.903281386428631566e-02 2.026054052606920119e-01
-3.259439404408467356e-01 -5.188949417191318636e-01 7.050862802190392964e-01 -1.446315351419027728e-01 -1.713497925100661456e+00 9.438001991747361208e-01 7.501036554843473203e-01 5.281955143548424519e-03 8.286119194592135306e-01
-2.007835418797188631e-01 4.462612724577147971e-01 -1.029352950129144573e-01 7.413432888752242989e-02 -7.848333388093563512e-01 1.050463309176884463e+00 -4.327911523355015833e-01 -8.265958520761245154e-01 -6.755301645959846946e-01
-1.133264834708426871e+00 2.792915379635885764e-01 3.579161860348185897e-02 4.006484344183319224e-01 4.829820947045035950e-01 4.640828412921245705e-01 3.601981293153690977e-01 5.732130366947808531e-01 -1.106395120040350871e-01
1.894837134889114649e-01 -7.018479227366412054e-01 -3.921138202893951208e-01 -7.687206108987441056e-01 -3.158820539872795874e-01 -5.351697519739421205e-01 -2.777388168897892973e-01 9.201763055004517078e-01 -3.762658639778964087e-01
9.492733444851608748e-01 4.298473956882196273e-02 -5.613557249646020653e-01 6.685391204440617186e-01 -3.427787463211336427e-01 -8.406505749552530826e-01 5.299337069924608956e-01 -4.773831046614527840e-01 -6.603808598699034693e-01
-2.870574880384763050e-01 4.501582436734252735e-01 -4.033796168247444913e-01 4.714674296264440567e-01 -1.770815141010899429e+00 -3.303304366969886385e-02 -2.119615564118213780e-01 3.676172771480646362e-01 5.187174806847885122e-01
-9.461222811861484949e-01 -8.085395517454951886e-02 5.130532037462767203e-01 -3.470992965659642771e-01 3.763367566096368910e-01 -6.991953865175579708e-01 4.523018249057182000e-02 1.810290094847649689e-01 -7.549789378767888248e-01
-1.069530654451206875e+00 -2.188582579558509267e-01 8.933224855279459087e-01 -3.929357706968540365e-01 7.729313764059831948e-01 -6.909594077405861734e-01 -3.551997355133315604e-01 -7.022360987999787252e-01 4.685733365978808074e-01
3.966981817408326561e-01 3.918499985997896395e-01 -5.380034768146134683e-01 5.528511395248399962e-01 -1.105242068635644781e+00 -7.277494934650854952e-02 -1.069920072656220383e-01 -2.028662942180840256e-01 -8.499207874437346710e-01
2.118213604319150456e-01 3.860796286438188396e-01 1.741858790092808140e-01 2.430699614805811315e-01 -1.370415720445822494e+00 -7.362187278757865716e-01 -1.192361846511329343e-01 5.890536786715248052e-01 -7.709487070247045271e-01
-3.633939832031519712e-01 -3.773874568808557872e-01 -4.187203502639877950e-01 -8.147972316238198953e-01 -7.069855886115268273e-01 -6.871034990885368510e-01 5.540521836531703270e-01 4.750318504077658543e-01 -3.332229922750995499e-01
-1.951606734041210212e-01 -1.184648858223948720e+00 -4.461494142909955829e-01 -8.249694300336404273e-01 2.005796495133815027e-01 -8.058411412322764866e-02 -1.153388492903977824e-01 -1.195280990406595967e+00 -5.009890143832598230e-01
8.736786259962919798e-01 8.386655546248169557e-01 1.789895084817502424e-01 -8.906646359963097392e-01 5.466093720386635546e-01 -4.764780388315626586e-02 -3.667147064267953782e-01 -3.598934727577851600e-01 -8.523361076607890996e-02
4.301981257737799158e-01 3.525074541916005111e-01 -3.462023751374938840e-02 8.632114976135671913e-01 -2.319806036788812698e+00 9.747197338288288160e-01 -8.971715772124919663e-01 -5.985502224331568089e-01 -1.172604568423844806e-01
-6.956427699175792290e-01 4.862904539972820461e-01 -8.744856916146459547e-01 -1.233744973435711989e-01 -1.242175166754684090e+00 6.164032438399649205e-01 4.986045039284817681e-01 -2.752336671248659279e-03 -5.547561101314711918e-01
4.189588426230942408e-01 -3.188430539352324344e-01 4.883859667414890415e-01 -3.869660094860478267e-02 -3.865535985410706310e-01 -9.768031795113907290e-01 1.987670765330187550e-01 -3.900323958108357081e-01 -6.272272397184971426e-01
-3.260936917695577142e-01 -3.671044562734135375e-01 -2.798894610143470851e-01 8.030440958827134157e-01 -1.014881024520127850e+00 3.359590705878768291e-01 -3.093268579480625696e-02 6.528426211374050991e-01 -4.074632223133768383e-01
-7.192482380321700841e-01 7.409682599379654455e-01 -1.067345976183603273e+00 7.660355523560542501e-01 -6.832402729709471378e-01 -3.439100187961122157e-01 7.744789838356519462e-01 -1.001145322710014218e+00 -5.833469839087415676e-02
-1.366591046632151363e+00 -2.217045901496580984e-01 -9.386165462675497562e-01 -1.199955019101126286e-01 1.982708585701389969e+00 4.858374801065806214e-01 -3.526985159834168382e-01 2.347767830796859689e-01 4.026594745051931823e-01
-4.197766839428913183e-02 2.119086742283879388e-02 -7.559873036355226894e-01 -1.343518154633731310e-01 -1.586732416202625728e+00 4.005624232632059578e-01 -4.166362589945255684e-02 -1.318916455661680587e-01 7.445653947762053138e-01
6.880262572115759812e-02 -2.412645462576448463e-01 -4.919497574479194668e-01 -8.051268504744583110e-01 -8.349436283790226954e-01 -9.483351596656008908e-01 -4.196099729898699615e-01 -1.447315386122642600e-01 8.622155167440701540e-01
-7.685183811004401289e-01 3.253983556032568059e-01 -1.015418744570788512e-01 5.781875438074789431e-01 -1.067223467197558451e+00 -8.040498642174250810e-01 -2.007148259627944409e-01 5.396141163514525108e-01 -6.836673142500861999e-01
8.053889149257900115e-01 -3.469047709151612535e-01 -4.179867548428525814e-01 -6.558563969548826256e-01 -3.656127879955473614e-01 -5.619310313553896319e-02 6.554730579204286478e-01 -7.037526451980536946e-01 -4.588355571616489215e-01
-1.174264474717342965e+00 -1.009400972882406045e+00 2.487400504910325036e-02 -3.302538807090914519e-01 -3.019422603735379407e-01 -7.823410461416071410e-03 1.034218770815984456e+00 7.371950553618595858e-01 4.679986126507520439e-01
7.069033203517248731e-01 -1.160950755486355623e+00 -1.163802601554133398e+00 -1.543613512060337256e-01 -5.623865467173916333e-01 5.490505376005948568e-01 -3.539026066842815288e-02 2.493853912233374970e-04 6.093836365655805887e-01
-3.114649702334392201e-01 8.076180547630174011e-01 -5.992394221294888856e-01 -4.309267622858362623e-01 -4.429832975219629709e-01 1.954011066648255468e-01 -6.425234949685036945e-01 5.602658338577859443e-01 -6.825291221514291351e-01
-1.023895687235349072e+00 4.860777537656549296e-01 -9.103855837173903121e-01 -3.611387882880412459e-01 -1.297490119028781586e-01 -2.353417222789488394e-01 -9.930890308848197012e-01 5.030165894508052959e-01 5.968913926745347265e-01
1.839483653801802232e-01 -8.111757114905487898e-01 -4.028458922093762218e-01 -6.409961586759750363e-01 -3.019436586951686485e-01 5.819178853470508006e-01 -6.714751765060954503e-01 2.123361755949813509e-02 -7.867279063622281132e-01
4.105522359755923167e-01 -5.170879863629453954e-01 7.023314945765203321e-01 4.020057784810145973e-01 -2.571003082486504887e-01 -1.890493964663637061e-01 -6.993624834808844781e-01 -1.158783909608828377e+00 -4.173046907590431398e-01
-1.131920367672589522e+00 2.516451065314329605e-01 3.053641169844814041e-01 -3.343433893969500192e-01 4.219729648067504502e-01 6.267668715047094996e-02 -1.195518626290172248e+00 -9.434585592458363257e-01 -6.745082567204951918e-01
-3.454338754999377592e-01 -9.592607913239358242e-01 7.667458728962384118e-02 2.097971535006857430e-02 -4.182751717622538723e-01 -1.989340473496443995e-01 6.514814489568307998e-01 -2.360630524792394214e-01 -1.040586848151108912e+00
6.979868234026395113e-01 4.612862058984940061e-01 6.032882258470577685e-01 7.978373316724409747e-01 -1.391029760857398268e+00 -5.876642974404997499e-01 -1.199869463823640681e+00 -2.878500208077213185e-01 4.723897533178696984e-01
-1.121380262389033433e+00 -3.427553204290015310e-01 -1.077106592059997814e+00 3.120607894907370672e-01 2.232432318606298316e-01 -1.192857219234242594e+00 -3.424574642923107204e-01 -8.582375896113673130e-01 6.069716778704442595e-01
4.253720418126415437e-01 -2.000513784572314491e-01 4.642329384759330546e-01 -7.736689634704208007e-01 1.753361547563620393e+00 -6.604217395983301708e-01 -8.726731980780844111e-01 5.709766996968871355e-01 -1.540600592095228150e-01
-7.604389554225924330e-01 8.841460266173345461e-01 5.138529824871497231e-01 1.493244565941721780e-01 9.436230290650765573e-01 -4.455912935102569472e-01 2.668329586985562218e-01 7.914763321186862877e-01 -7.287897966212343315e-01
-9.155449354527942507e-01 6.064467146972011280e-01 2.263051426718140635e-01 -2.324046128038407752e-02 -1.139956004503795306e+00 -2.409193955882134308e-01 5.517344735842651948e-01 -1.274495828049544977e-01 -6.986619981190049788e-01
6.806879746072851400e-01 -6.620446014361802689e-01 7.118902987673612071e-01 5.010050242354283645e-01 -9.900881274044331937e-02 5.001121661429644427e-02 2.586812198951797537e-02 1.762439040689916248e-01 6.971990622170085583e-01
-5.401971421839200094e-01 7.192063593123054765e-01 1.332668885648902457e-01 -8.494968654307220035e-01 -7.576853698923526892e-01 2.514010277561931628e-01 -6.414614330941200704e-01 -8.513043759311560432e-01 -6.559338933767334678e-01
3.525633459465706832e-01 -1.404028087891386889e-01 5.686883714908302911e-01 -5.986013863318750960e-01 1.068477397478654334e+00 -1.666853453629350834e-02 -1.278701031821249945e-01 -1.091358925867751406e+00 2.214963163328338425e-01
4.913414154259502231e-01 -1.400265684238877761e-01 -9.156046777049928753e-01 2.349320731767428339e-01 -1.600267570113821147e+00 -4.921892054011954842e-01 4.539314275578174573e-01 -3.343390787796509528e-02 5.009218412598555048e-01
2.941369499305060975e-01 8.270616596064991333e-01 7.254686400557074366e-01 -3.013606402850143029e-01 -1.779234748966730839e+00 2.990766696524049251e-01 -9.778398770745544422e-02 -7.417576553841048748e-01 -4.378467545271271660e-02
-9.306599959952653878e-01 -5.962337960041794727e-01 6.080689617255937707e-01 -8.894258588352637052e-01 -6.600933746814255931e-01 -7.926668055697859705e-01 1.122802323495673660e+00 3.154307346347861030e-01 -2.042084489469595254e-01
8.529013770525323279e-01 9.797481470952395383e-03 -1.367780626999097193e-01 2.839136884759720370e-01 -1.639319771789367719e+00 -3.826939508601337470e-01 -1.424056454150173789e-01 -5.421478237543309042e-01 2.324285135247183276e-01
8.719357120849716147e-02 -1.315730377507458027e+00 5.140028250451031955e-01 2.295623881939415079e-01 7.008523436809455109e-02 1.559967357022748746e-01 -1.028324238263744306e+00 -4.176530801489916067e-01 -3.964708241981028669e-01
5.551968837113689936e-01 6.496880254636683283e-04 4.900673791670605017e-01 3.021987663594719042e-01 1.145376885226888852e+00 1.547056500143178248e-01 -6.880530255557678609e-01 5.159748117943995238e-01 5.560320407565579881e-01
7.248436588676584469e-01 -6.062503296679027098e-01 -6.854469040472980224e-01 -2.965175274044061227e-01 -1.296531828890195914e+00 5.660788606406580437e-01 1.382254418334600554e-01 3.828752099972110301e-01 -1.191243445454572419e-01
-6.710864819669940529e-01 -7.804531707998414447e-01 -4.104323896589523457e-01 -4.354853295594608986e-01 1.317873482405914176e+00 2.591044768456270408e-01 5.881307817929612991e-01 1.247917283399518767e-01 -7.172781815729623034e-01
-7.581000269549128534e-01 -2.330982053786917196e-01 -8.056914312728482574e-01 -1.063020304448369702e+00 1.177136308677008358e+00 3.762229339452190513e-01 -3.600773314627881971e-01 8.085663434332516220e-01 -1.803013378030526304e-01
6.512156646977547148e-01 2.974852592131370099e-01 -7.027900231741426862e-02 -7.726460995119066588e-01 -3.009717391879941362e-01 5.683441584691573123e-01 -5.439784188097707140e-01 6.808931947652786532e-01 5.686557890160381934e-01
-7.255771357707713198e-01 -1.076064190535754306e-01 4.928952872161171950e-01 -1.302914493704623089e+00 4.559187144101634059e-01 -9.489629104830661355e-01 3.745182379317686383e-01 -9.191522088121488465e-02 -5.519139120042794167e-01
-6.151113829000004474e-01 3.543231661876148908e-01 8.886985811722597495e-01 7.219354776597072254e-01 2.812237075121153396e-01 9.731620962136602326e-01 3.652377737931484791e-01 -3.424670204754193259e-01 8.606059182526902551e-02
-5.344316812857861088e-01 7.487181739501824751e-01 -5.113418405354832608e-01 7.908482310966916673e-01 -2.338741157965751327e-01 -8.929959541924511468e-01 -1.033296035721245509e+00 -4.658618162206181190e-01 -9.978428543250594807e-01
9.071588505803388977e-03 -2.431149075667196624e-01 9.404486107008276363e-01 5.765388542387520632e-01 -1.069174047008678352e+00 -3.855318570863900396e-01 -4.156357480647065450e-01 -1.112618344954066779e-01 4.037356058748782783e-01
-2.181244507354623829e-01 -2.085137478364652852e-01 -6.850715996256028228e-01 7.836496377439438055e-01 -1.334485972080240668e+00 5.343520382015214398e-01 -7.125435969109457091e-01 3.466717333329647488e-01 -4.243764296788727353e-01
1.192423671254996265e+00 -5.247825776405743436e-01 -4.741041717666397148e-01 9.430302055899694169e-01 -1.558853114720461230e-01 -2.641677119229956516e-01 -8.886870261064423460e-01 -4.565515583244943998e-01 -5.802817461810376720e-01
-1.041619285333213796e+00 3.699509069788305959e-01 2.123579873398568907e-01 -2.285797193726889220e-02 -4.235336798722172946e-01 2.769146685895652049e-01 -5.050463207720196079e-01 -6.918892764874706724e-01 -9.250418807762059714e-01
8.105469295458612722e-01 -1.847319736758361031e-01 -5.674276987448202691e-02 -5.332856228618132466e-01 6.600276287150403931e-01 -2.673920242452835216e-01 -3.856231289832033338e-01 5.359694110811795698e-01 -6.257526484542611511e-01
-9.713901117012500031e-01 4.572299503479633209e-01 2.586230864157326725e-01 4.645776690168323952e-02 -1.121472931640996595e+00 1.070606292868133275e-01 1.379685397040198158e-01 -5.170672403941721784e-01 -9.225723935627465622e-01
6.824047979884524384e-01 -6.178109551605076577e-02 5.093331193232703002e-01 -4.821672840385117231e-01 -3.126503613550427052e-01 -1.445237138900618834e-01 -2.849406961989995324e-01 -7.505847837502985787e-01 -5.958424988705492975e-01
-9.170951857876251667e-01 -4.214633877933082751e-01 4.582488130301794471e-01 2.778471921243969578e-01 2.962322587966059045e-02 -8.876787625018126571e-01 3.669396959217413601e-01 1.743716442965553837e-01 -3.854799735388647619e-01
-1.137047677485046204e+00 -1.140118891640450993e+00 2.039785409740406674e-01 6.074763955489829170e-01 8.123524612840624659e-01 -7.045180262950175853e-01 2.065454888994147364e-01 -3.222630875812302342e-01 2.086167557803514094e-01
-4.062397954528570998e-01 -1.538011416753628791e-01 2.762602050697213762e-01 -1.130760770365508927e+00 -6.882353504545647427e-01 -4.732006811213856912e-01 -1.161516823959999611e-01 5.971992206941886261e-01 -3.789587070381319478e-01
-3.383947372798771225e-01 4.070729657581710903e-01 1.445405400698875908e-01 -2.096141353318366207e-01 -3.274836781179543133e-01 -2.582135815433733717e-01 -6.980904222977459828e-01 -1.492230926982021644e-01 -3.454267011228501216e-01
-8.016121947465487674e-01 6.517279717444560694e-01 1.009956666276927845e-01 -7.831367742749821559e-02 5.561842857014908104e-01 -2.825274905582348950e-01 2.018492368308806850e-01 6.787128166745434177e-01 4.698689292454772404e-01
-6.629514383427871360e-01 -4.792393146971747897e-01 -8.906258467971230885e-01 1.054836259951068778e+00 -4.347881091817454302e-01 3.936833989912172926e-01 -6.352936541432019357e-01 -4.493709840000468247e-01 1.987466484197326078e-01
-9.618001832004556828e-01 -3.721449213279155455e-01 -1.446818811095669510e-01 -4.971983165335928656e-01 -3.144666446993430453e-01 -1.031797773127541423e-01 -3.940103017183392287e-01 2.860665776669432669e-01 2.997181708605123895e-01
2.101187293828159497e-01 -1.663336977283147097e-02 -3.512882794594154867e-01 8.881974741179946009e-02 6.680768158707204307e-01 8.797135721165501299e-02 8.648172314295964336e-01 -2.531561020871033185e-01 3.804587980208286035e-01
-8.864291929720445884e-01 6.479546551228004825e-01 2.142963188682470502e-02 -9.423257701146970922e-01 -6.111646351771715668e-01 6.142579168373296650e-02 5.611151070219010384e-01 -8.078614626435766111e-01 1.536037287593428891e-01
2.742285827046775926e-01 3.832511794772494595e-02 6.024337931845440419e-01 -1.172209275040182241e+00 -1.323765014910966098e+00 4.931384574165793011e-01 2.277048058349867010e-01 -1.733641865438521334e-01 3.984310410476204489e-01
6.041428965881485702e-01 7.468257601753921504e-01 8.343692041722647890e-01 -8.262757121315752462e-01 -1.270243743438238537e+00 -9.821002179710589530e-01 -1.052306548336642056e+00 7.864202417792485189e-01 -9.354675493945381337e-01
3.725872373487698619e-01 9.921999900185864141e-02 -2.875337865116640024e-01 -5.574495107490516910e-01 -8.128666164194668919e-01 -6.539339830515966678e-01 5.361059385209607786e-01 2.522463487968975571e-01 -1.164336231335690863e+00
-2.938849564557992622e-01 -5.699664122175639447e-01 -1.027176294133007373e+00 6.711961645877919658e-01 2.283631872920166839e-01 -3.749058966386938918e-01 5.195287704899030912e-01 -4.677458531176852952e-01 -4.690729596654658051e-01
6.088206837650217418e-01 6.660674919860987142e-01 -2.338534796849051633e-01 5.734848840925533819e-01 8.474171215192437545e-01 -2.878739162599112666e-01 -4.496073369206646242e-01 1.864721353146135685e-01 -3.608383045046724136e-01
4.515261777957562672e-01 1.201296207808129957e+00 6.614954663499341692e-01 -9.981638984515393831e-02 -2.412914866332900310e-01 -5.187082755041521054e-01 3.131521238336145707e-01 1.651724505921361302e-02 7.014884644164670613e-01
7.445195768116049662e-01 -7.810299366544216637e-01 7.008058839930276784e-01 7.347220755341392628e-01 4.273256990184810533e-01 -9.969628155201791797e-01 -1.016646995264407716e+00 -1.160477192466410568e+00 -3.980164521034755265e-01
-8.830984396914880463e-01 -3.051846957323857135e-01 -2.996066749933691264e-01 8.296657377430307623e-01 -3.786933076540325294e-01 -4.133044190000645379e-01 -1.024773437565959511e-01 2.852095094095385974e-01 -7.973676652656473962e-01
6.303336818239937411e-01 8.489518172899607196e-01 7.306251616874165355e-01 9.009728878694229781e-01 2.725480526969294437e-01 -1.011103158666248891e-01 -6.959392143928930796e-01 -3.466026712324358772e-01 9.902068425335414092e-01
-3.314867546624179484e-01 9.430802688722911276e-01 8.677777584484358542e-01 7.144986082807728289e-01 -1.188846157321400865e+00 5.867544041805804467e-01 3.652692844670442363e-02 -7.992491235990801801e-01 -6.720753301300820270e-01
-6.406466145740230544e-01 -4.855799703111031256e-03 -8.872142803599561978e-01 -5.316831062189858459e-01 -1.001700126153371562e+00 4.352716942830909819e-01 2.359446020419069812e-01 7.679265697845727434e-01 -5.425574909298636062e-01
-2.278567507184863644e-02 -1.173165010402168473e+00 -1.411249604435040883e-01 5.367857258195398718e-01 5.815837571370763293e-01 -1.105231221024934429e+00 -6.573701222947826439e-01 -7.325491227157373553e-01 -1.013090240426855582e+00
-8.354396293377329696e-01 1.233743276590202609e-01 -7.868219906882115700e-01 -2.758320504037015120e-01 7.957373812667830615e-01 -1.721220528786003845e-01 -2.612356031983001370e-01 4.629278095722563213e-01 5.688966353728158731e-02
7.429288836634199457e-03 -3.333245962839017640e-01 -2.116890700383326773e-01 -6.212602881842997915e-01 -1.303364500475809207e+00 -1.127094864541431374e+00 4.862057188342434610e-01 2.268429804452277709e-01 4.100151478893886425e-01
-5.913273085196313339e-01 9.781937590638610791e-01 1.004740100163433736e+00 -2.452734450312507586e-01 -1.566506565224957237e+00 3.375151618954844168e-01 -5.252972376177572622e-01 9.796225336237368575e-02 -3.537126151004914565e-01
8.447793212833512033e-01 -1.353033785892570895e-01 7.746074155110226345e-01 2.668582589266072502e-01 -1.031385504970520894e-02 8.418264439363628560e-01 -5.876771137401863854e-01 2.289576156832803799e-01 3.280575224574924786e-01
-1.218393644664590020e-01 -1.031585608100342499e+00 -8.550722601178270543e-02 -8.255283212648439894e-02 2.068369672484429989e-01 -5.381357591797126805e-01 -1.068647226787722421e-01 -5.857427937782825333e-01 4.681197551582318983e-01
8.383834819286046791e-01 -8.043715876752731697e-01 5.086232476252725565e-01 -4.833334924165932911e-01 -1.593759333624437780e+00 -8.548793875573209577e-01 9.072255676627650756e-01 6.399803070692385853e-01 -5.253731346052985529e-01
6.760373358882597605e-01 4.564799699450563519e-01 -2.678266124145290972e-01 -2.703073724069363082e-01 -2.470518507922990770e-01 -8.804671138602683245e-01 -1.122602721549658122e+00 -6.982120899305142014e-01 -1.109775093702794813e+00
2.740208599417762181e-01 2.790177644994938297e-02 -5.134807206382534517e-01 4.501253644194746495e-01 -5.704144615785852190e-01 -5.936429280476638315e-01 -5.516901475085409512e-01 -6.798971012951525728e-01 -8.894773503847722695e-01
7.958170572539527976e-01 -7.505176443317047585e-01 5.582314276116071561e-01 -6.933743125161178078e-01 -2.242745753454207236e+00 1.996998084635258353e-01 9.798474251718061190e-01 7.192364833026828608e-01 -1.015044441366003969e-01
-1.119312435368404302e+00 4.869112603289903474e-01 5.736526759145504917e-01 4.559925212299049124e-01 7.323272629333935080e-02 5.752730849887862652e-01 3.806944276349974454e-01 -2.968470404590971556e-01 6.796901721866870083e-02
-3.333751898526203239e-01 1.094851694125017517e-02 -1.806312804321407173e-01 -3.186255359197921466e-01 9.056807464289777787e-01 -3.654811232399803878e-01 2.444159321207645119e-01 -7.399858092299970158e-01 -1.172023893603415079e+00
7.710786037419919969e-01 4.317376500856422439e-01 -7.458519304204231926e-01 2.569330000464064429e-02 1.093620924302154851e+00 -1.023455637263279705e+00 -1.079812986554343324e+00 6.253257355763121306e-02 -8.437996186248613029e-01
6.877835364307379740e-01 2.603453887166202185e-01 4.643473872198063401e-01 -5.104073575168285304e-01 -1.460955101927331246e+00 3.447809511761014134e-01 1.046223832566110928e-01 -6.164560449624887362e-01 -6.489593324503667437e-02
2.045538269752597282e-01 -8.181076046001166668e-01 5.852634213869218893e-01 6.295992181893573791e-01 1.604606940349994293e+00 2.237532063968163953e-01 -3.944745402936037371e-01 3.965182809508372430e-01 -6.128982976600069188e-01
-1.337595194477776417e-01 4.786575369687807724e-01 4.757375192536935082e-01 9.252623139585987033e-01 -6.131227516226895879e-01 6.220653490744783021e-01 8.653740144109755006e-01 -9.470799871166031281e-01 -2.089038234402248312e-02
3.255828180386125537e-01 7.064552994642075978e-01 -5.586879976709153706e-01 5.352847711894904714e-01 -8.532948313867393386e-01 7.195491523160872926e-01 -1.175507443020375353e+00 -1.007296742030962866e+00 7.886532998921549353e-01
1.323628601743940258e-01 -6.511324609560499577e-02 -6.660088110517834448e-01 3.735871164587417637e-01 -1.317211449171447946e+00 -2.930007520274630628e-01 -3.419726865017495010e-01 2.433805371671795836e-01 1.947705989942513372e-01
6.784147467947054810e-01 9.095218816876764478e-01 3.340305187061477499e-01 1.298921453119562530e-01 -1.254517558408806688e-01 8.797057789116562443e-01 -6.704405541458343665e-01 9.021205597662389497e-01 -3.998894096760251538e-01
-3.852783477843215593e-02 2.306989602751153279e-01 -7.343052443923683281e-01 -7.896941468828717614e-01 -4.537680544896491308e-01 3.990114581074106215e-01 3.061607603022172275e-01 -8.756375492302873598e-01 5.533685063094253564e-01
-2.519170979364054874e-01 7.443346699151021095e-01 -2.077733821530000913e-01 -9.270555989096206373e-01 -1.058139849557784951e+00 4.503623918565909379e-01 2.410901406954978621e-01 7.811367579313418519e-01 -5.095694973721774934e-01
-1.877899098086715790e-01 1.284149517915197936e-01 -6.116628130141078812e-02 -6.387510580529853765e-01 -2.955594075753137720e-02 -6.713725922610347396e-01 5.138098842129558141e-01 8.636978304769864501e-01 -1.063325278341365587e+00
-8.687107175944988602e-02 -8.457528490321031267e-01 -2.875853924942569639e-01 -8.887773496532662687e-01 -7.759444354473775673e-01 -7.889532517900122999e-01 -8.249428842474786361e-01 2.688879931933330081e-01 2.813270385859910627e-01
-3.385551012412796323e-01 -1.236365661885029166e+00 4.106061391157890816e-01 -1.976867918992609996e-02 -3.397214475044695314e-01 -1.086435026957366601e+00 2.619198201285788397e-01 -1.128636440967205390e+00 -1.312846075516602429e-01
3.320569629281888702e-01 2.763489751096482316e-01 -5.156079177900574351e-01 3.559751689261071994e-01 4.186075807412081851e-01 -8.776652474870710874e-02 -9.511951934553939392e-01 -9.977234261612395461e-01 -1.018281198542986488e+00
-9.244697183382245553e-01 -1.038477458235803841e+00 3.766471282597911308e-01 -1.112199829655024175e+00 -1.083246417788350291e+00 5.333850505945362253e-01 7.463291403164089566e-01 -5.566164416020876610e-02 7.828720778958003779e-01
-1.278843190329170598e+00 5.243102620060434704e-01 -8.705192485292339022e-01 3.015398222047077637e-01 1.890136337285145407e+00 2.768851520225901752e-01 -3.673165240101000095e-01 7.168095704865631301e-01 -9.834068322563676023e-01
7.901039583422536650e-01 3.284907519373424928e-02 8.490012539647071588e-01 -1.087108434169276938e+00 8.616572746801165472e-01 -1.458945883068822891e-01 -1.581101615692602769e-01 -7.605004046718423227e-01 -6.118985875409826969e-01
-4.798344677009858672e-01 -4.035836483140651798e-01 5.501110274082591234e-01 -8.394671994407756910e-03 -1.158679492323432703e+00 4.988047287382856854e-01 3.930580588066889813e-02 6.577415512541106013e-01 1.222829183030550299e-01
-5.789809535920499295e-01 5.731507840855464275e-01 -1.407592152239721006e+00 5.502829085714117108e-01 6.117804735551141126e-01 -4.848572186720123134e-01 -7.755748913431625979e-01 5.685882294007409132e-02 -8.503267242929839487e-01
1.755541942140335654e-01 -8.617508377352010029e-01 -1.009052534816920144e+00 4.944042684163090229e-01 4.342034450761751985e-01 -3.470483508678675055e-01 4.181626951399227687e-01 -5.837194135251561056e-01 5.676192970531489523e-01
-3.149512642551305364e-01 -6.290908788306625032e-01 -1.318158107320506423e+00 8.381938175611872710e-01 1.731998129210706935e-02 2.343446625046721743e-01 1.977065562790065179e-01 3.343246279730285320e-01 -1.039993307746240880e+00
6.305413658574635649e-01 7.528756378700394158e-01 -1.881901150198261041e-01 5.303868474109157960e-01 -4.537718993903723796e-01 -1.605647257247060644e-01 -8.273561851178543591e-01 -1.931749413067149757e-01 -1.020110088828175110e+00
7.530963128433352249e-01 -8.740471364885257222e-01 -7.561448116117645002e-01 -6.771154187083981979e-01 -1.254547207213217552e+00 -2.139655570309559676e-02 1.199958368645144491e+00 -7.095612779819636673e-01 5.969277421515939430e-01
-2.354137674968452207e-02 -3.944164895788637715e-01 -6.403461420238567570e-01 -5.768125291991149650e-01 -1.690722957921822589e+00 3.864846397472779804e-01 3.362434110701281731e-01 -1.819699305737628170e-01 4.138047590850421065e-01
-8.766161008631782048e-01 9.597888351127660256e-01 6.745600487408154322e-01 1.993533392588524855e-01 -4.948868344871096281e-01 -2.268179648875056076e-01 -9.962159267388820405e-02 9.913646668306960175e-01 7.280830142130654270e-01
-2.600667480150836708e-01 -2.320181321857709908e-02 3.433486573733954272e-01 7.825482974786764911e-01 2.007652648387552030e-01 1.574606661473110236e-01 -5.589154591718175080e-01 6.592115445758213177e-01 2.379813864991064398e-01
-1.429403072421535081e-01 5.704552336705651649e-01 5.803439771223944943e-01 3.822782352874890544e-01 -1.636496761758566398e+00 -1.076771308555631440e-01 5.501203531794679469e-01 2.970623896072622783e-01 -3.665946951788816577e-01
7.378621962260548672e-01 -7.478296451841880410e-01 -6.310368065883896760e-01 7.562517752056089337e-01 -3.419629216956469597e-01 5.046629184542245072e-01 -1.167759842730070829e+00 -5.496756079275607609e-01 -8.997723805535320363e-01
-3.349707666020283470e-01 5.367099910622664671e-01 5.898424608501112720e-01 -5.338869893819259485e-03 3.206893936224559927e-02 2.195166933307164392e-01 2.506175036455106642e-01 3.082817355413871030e-01 4.412434051274679581e-01
-4.529151941468654852e-01 3.019259197005594864e-01 -8.131758720035222598e-01 2.096522588466232240e-01 4.615337923685355892e-01 -1.148905609386619453e+00 3.569882109418250349e-01 -8.898539799899820579e-01 -8.103682172468114342e-02
3.870402765361692365e-01 -2.359770151278545447e-01 7.413474575392361432e-01 3.016808508618120110e-01 -1.075355327363516134e+00 4.791017354189855415e-01 -8.935341744853392276e-01 8.508594874255509533e-02 -9.858999391172913462e-01
-8.164799829644812934e-02 -8.210208470633993949e-01 3.330141867807755868e-02 2.052861572889350950e-01 -1.927557211982265928e-01 2.520242713516641225e-02 4.105002466410086481e-01 3.398269478798636167e-01 -1.520331825353521751e-02
-4.302431174370809353e-01 -4.820904101147743259e-01 2.595207373293612618e-01 1.984608205097926625e-01 -1.327512267117172851e+00 -1.794497779301649498e-01 5.878795712918485350e-01 -9.393011075730786086e-01 4.080519207878215981e-01
3.576059744981704980e-01 -3.595273864544590303e-01 -1.236436978204530357e+00 -9.469419495620947647e-01 3.928661573095066917e-01 -1.198506521761590671e+00 -4.748380079376276486e-01 -9.501428165366682110e-02 -9.099222895729496274e-01
7.524218222459523320e-01 -8.440643087304369185e-01 9.968718596237974294e-02 5.340961531810042850e-02 -7.314126940169130009e-01 -2.261776692443111941e-02 -1.396988726296131689e-01 4.693756698954567597e-01 3.516929484594920607e-01
-3.722445276072543496e-01 4.824856900566270625e-03 -6.563972555474479886e-01 -2.068569233464774004e-01 -2.171157375076124274e-02 -1.148735330619761408e+00 3.358632714805377950e-01 -1.681077316119994891e-01 4.360210112276323713e-01
-1.022576597685355804e+00 -3.338240680943187488e-01 1.723495464954438172e-01 -1.141610755124084359e-01 7.131635800445396134e-01 -5.969850784749118899e-01 -3.683469064942875015e-02 6.603237343452904584e-01 -1.056755263405660727e+00
9.123686636991239496e-01 1.307655810859636780e+00 -7.129615447166122166e-01 -3.008183394320765869e-01 -1.224985012357407532e+00 7.451475016238603422e-01 -7.238586094782908376e-01 1.163807595422451158e+00 -8.504345967581510013e-02
4.850010483893664182e-01 -1.096469110637267930e+00 -6.578165014945306366e-01 2.921135043297919953e-01 6.915170985829306449e-01 -5.378415846894406549e-01 -3.215369006422680309e-01 -2.944734119910720760e-01 -5.684964181373187708e-01
-4.580111729223259043e-01 -7.184065953342186894e-01 -7.404492032734121265e-01 -6.384305126878406789e-01 3.832010592550598171e-01 6.908022927637120780e-01 1.483931429033308195e-03 -6.291218148237660568e-01 4.499509093858939345e-03
1.409742367888514869e-01 -1.770109573459397456e-01 4.710820174812301864e-01 8.247785102668231394e-01 1.241691822326574934e+00 2.816496337932709593e-01 -3.014847734314401659e-02 4.790262151012688041e-01 -9.750680554648517573e-01
8.229174769624003627e-01 -7.836933686473617211e-01 5.760122294335674464e-01 4.501822757327010871e-01 3.771414069880135167e-01 -6.352238634220068736e-01 -7.429368390925403798e-01 -2.850985473921004432e-01 4.803078449729895061e-01
-2.434709309637504426e-01 7.072677871443224795e-01 -4.393982674769380536e-01 3.256249137437785407e-02 6.896391738037737085e-01 1.097196020196976041e-01 -1.219361863502696153e+00 -3.427151655009234021e-01 -5.988017027730376807e-01
-2.475079307695346176e-01 -6.642467338171039737e-01 -9.470265174928600427e-01 2.450477557302793361e-02 3.607763631843542984e-01 5.640583666122925832e-01 -1.034089992244858314e+00 3.271238126313410488e-01 6.101426162751550919e-01
-8.647213459118228973e-02 -8.921721974129710464e-01 -6.927493448661823372e-01 -5.516466366837285973e-01 -1.572506984946781539e-01 -2.405789902940881075e-01 -3.480923155128460844e-01 3.969091877067261187e-01 5.691887026252828718e-01
6.141338486726368728e-01 8.666747627162539880e-01 5.179772947610307432e-02 8.682134177837655953e-01 4.542462093670814327e-01 1.377586738286898649e-01 -4.899829701863996911e-01 4.606570011832991640e-01 -1.080456346617577390e+00
-5.487545858931236475e-01 -7.360955691310291371e-01 2.680296125884346070e-01 -5.451335653011137872e-01 -5.610135899874875154e-01 -9.296552760786801484e-01 -4.173599621986323061e-01 8.949766248320962791e-01 4.155585211928778527e-02
-8.679884983616475980e-01 -1.392143578824000527e-01 8.630907040607690428e-01 5.348381792124826672e-01 -9.120654926068375579e-01 -4.718827663884148094e-01 4.011480744715715807e-01 -6.910185777735212698e-01 -4.399416768022771373e-01
-9.723563449483825227e-01 5.310830292742616532e-01 -2.674347352506241116e-01 -9.134864863995371953e-02 -2.369203363666192164e-01 3.162150370130065724e-01 -4.004670836821336288e-01 -9.948533548190036102e-01 3.089419446450646367e-01
-1.402552836482314547e+00 4.969773092482243637e-01 -2.436320598426525152e-01 4.869496142874395472e-01 -2.243301683311392514e-01 -7.163460823118410481e-01 -7.231231804481805803e-01 -2.249084295474659545e-01 6.832147981651034430e-01
-6.901278725764704580e-01 -4.162720446209468989e-02 -5.219474398635545187e-01 6.109678473724049486e-01 1.257444386549394277e+00 -2.376501256250991845e-01 -5.200200225478446292e-01 -9.052830534728201206e-01 -7.431089702699255062e-01
-8.763972746621404575e-01 -1.111734871763248034e-01 3.197226774114462211e-01 -1.132782454776822822e+00 1.234368914766273306e+00 4.268421457406998409e-02 1.555193845496956884e-01 8.180556320029974682e-01 -4.146549895596440272e-01
-3.438532993917696179e-01 3.624128280699722565e-02 -1.609975580801829009e-01 -5.177470506117920479e-01 -1.801796266614566600e+00 -5.440860323991331127e-01 4.649377620447707748e-01 1.668714480118869137e-01 5.309772682480317085e-01
-8.796229146036174673e-02 -6.453996327845485936e-01 6.899124200830739073e-02 -3.983508822669259430e-01 -1.668814251190400277e+00 7.396295536737811371e-01 -2.100937118630271383e-01 -2.545081859849786521e-01 3.509450668976648036e-01
9.817310555316377529e-01 -6.820936314744207030e-01 -4.754554334859862896e-01 -2.036207497145877121e-01 -6.644951093138187215e-01 1.033821467092019136e-01 7.426177934788681378e-01 8.223851017767832561e-01 2.430057700537839871e-01
-6.643662521626655382e-01 -8.315419494009612666e-01 2.186109561008971469e-01 -5.314590686289791810e-01 -4.063015573027029537e-01 3.481998048668172308e-01 -5.255988061784839793e-01 -7.550591358636467021e-01 -1.058924029359712859e+00
-4.313429840996637066e-01 9.820544360998634259e-01 -6.370577831842513250e-01 -1.798468875384707233e-01 -1.109557277525873076e+00 5.940150782902759996e-01 -2.640397433386069692e-01 8.921593080963825806e-02 -5.961406101185118267e-01
-2.062031523881541484e-01 -1.456422553664767916e-01 -2.425994833889369706e-01 3.990615242226092790e-02 -1.206947084909265833e+00 5.675769154731796773e-01 -5.227347738681051847e-01 -1.910637992659274323e-02 -4.432310751345422961e-01
-7.042900999443307830e-01 1.304494958720616160e-01 -1.424799062571466268e-01 -7.790599957161984390e-01 -1.038182572390527886e-01 -4.316330225395112463e-01 3.761702512174526225e-01 -5.556485734311058522e-01 7.762672533761377780e-01
-1.451471892229320992e-01 -1.695862723640828296e-01 -4.438938122383931928e-01 -8.410566914870225563e-01 -1.342379456162897666e-01 9.286213815482896594e-01 -8.305343745805668920e-01 -5.355106767684274516e-01 6.842535557829236836e-01
5.299883834594269760e-02 -7.051671899125603327e-01 -5.650495097556705870e-01 -4.163513889741866647e-01 -7.393976599522023019e-01 2.130401892274455256e-01 5.107680825474730790e-01 2.315412262371492613e-02 -7.147025244160790658e-01
1.036955594545166948e+00 6.163387476724828673e-01 -4.097532504731912772e-01 -4.129495964765899085e-01 9.103853255918583631e-01 -8.690750577332080340e-01 1.277265203805974247e-01 -6.141226843714852057e-01 3.840599799533726544e-01
-6.352666350834912379e-01 1.781862754789908798e-01 -9.416196246108425871e-01 -3.353042512923303242e-01 6.454380073681138530e-01 -4.170916300284561173e-01 -1.010571123467255417e+00 7.615725092737288260e-02 2.187487760982341489e-01
-3.215021349760251446e-01 6.958794580138942532e-02 9.079266542007506935e-01 6.476742904860455230e-01 9.353952119088428940e-01 1.389321873894597825e-01 6.233106831847435858e-01 8.289427868176630909e-01 -9.593147731310964765e-01
-4.843843764222943160e-01 -4.465022092866793163e-02 1.862439241067566920e-01 -9.725487632087446155e-01 -4.960015226837967139e-01 -5.890428128243507810e-01 -3.544871546125907824e-01 -1.297333434742688751e-01 1.466970860802312426e-01
2.966380425575955715e-01 4.331965265181361158e-01 4.051352971225409272e-01 1.486495044382705744e-01 -1.561621106052129226e+00 -4.177435624939853098e-01 -1.584325347928374206e-01 -5.199212548326717087e-01 4.636035588376092864e-01
1.477692829072842495e-01 -1.112965013616076665e-01 -4.821151258601734657e-01 3.499587941788013801e-01 -1.409194075967081350e+00 -9.685452325965384635e-01 5.595318048424348101e-01 -7.539705849439023999e-02 5.103472782235278782e-01
-4.622291880675401532e-01 -7.722737938197187235e-01 -1.457683998067585140e-01 6.335216523724022109e-01 -1.346415591282193125e+00 -5.003245706076897559e-01 7.124585086749482543e-02 3.313777393306478469e-01 6.033253394214361798e-01
-7.346674631925455001e-01 3.063524924028256380e-01 -2.030190637650070018e-01 3.405994822636134178e-01 -5.043320155092491097e-01 1.570986922242599004e-01 -7.690025946396069623e-01 -9.662907249265862974e-01 2.051483707516624927e-02
-1.068362772378296688e+00 6.538108396035956227e-02 -2.602388978613220383e-01 3.944863299529902112e-01 -7.079751943399691383e-01 8.961932404291593768e-01 -1.221506408513400449e-01 -9.061854865212022950e-03 4.155927687733489972e-01
2.969631095751914529e-01 -1.930243845471908970e-01 2.194040411484592806e-02 -4.061517877332698756e-01 -7.213439518791747718e-01 -8.623082575816514161e-01 2.018094274963620760e-01 -3.977187408165850369e-01 2.006703963544138603e-01
-1.255647529110016203e+00 -2.587059075107083217e-01 -6.865224505553971790e-01 -1.189540025927071087e-01 -8.602589694685824906e-02 -3.566388797694663992e-01 7.876296501770221892e-02 -7.954058384059257136e-01 7.221913664532633170e-01
-7.420664779784928999e-01 6.766187218735003617e-01 -9.884061576660044812e-01 -3.766808997176033236e-01 7.660480151010076177e-01 -1.623137911239420569e-02 -1.277852874373394954e-01 -6.134747259769329775e-01 -1.056260887398473847e-01
1.018767080595924135e+00 4.228793009432421646e-03 1.924377175784810767e-01 -8.874275312426483930e-01 1.771228322463170440e-03 5.150397484499204780e-03 9.776866762099620800e-01 -6.767976248937298545e-01 6.234985595317622531e-01
-9.799349979856843140e-02 7.461235803676070921e-02 -1.106403864418193717e+00 -6.447024935696530346e-01 -7.508655558217621762e-01 -9.368435635207270629e-01 3.848990782720959070e-01 8.337560508340755572e-01 1.871201567161963619e-01
-7.892679094145635399e-02 7.825382129995336888e-02 -5.823366801887257527e-01 -3.406135054916751836e-01 -4.084758302309178246e-01 3.947530637833244205e-01 -7.594752597173640707e-01 -5.005991283873051367e-01 2.490852482011625957e-01
-5.030214782997807221e-01 -1.133019926714986969e+00 -9.252447820206323170e-01 -7.153994990905323537e-01 -7.438350134942089964e-02 8.728717138736899472e-02 6.435748004450663196e-01 5.532946647060054124e-01 -6.695377839889118388e-01
4.833839560964691695e-01 -5.137431640511483932e-01 -2.776630558081926714e-01 -3.195211236331836901e-01 -6.100531246855084300e-01 -5.627283466305181836e-01 -1.863254570964105461e-01 -7.032440479360172469e-01 9.380505984699663014e-01
-1.250116178851068127e-01 7.955471671403419043e-01 3.072062472902034602e-01 -7.438709817739395935e-02 2.307646846653139960e-01 1.420699727347840002e-01 -2.581849222917247388e-01 2.109782831206034048e-01 3.962912347650621725e-01
-8.115445865996123720e-01 -1.304712263377001413e+00 -8.190431672033982036e-01 3.901386926078018735e-01 6.500328543303284246e-01 1.074549115987683823e-01 -8.399119464218781639e-01 4.440107138270121268e-01 -1.169092263625038514e-02
5.716079244241829560e-01 8.024893645017079358e-01 9.571612725833628099e-01 3.639787201938830541e-01 8.766730941388003462e-01 5.220742447120388929e-01 5.391527374500506564e-01 8.330003497638067689e-01 9.262303059106955505e-01
3.928571288102229997e-01 -6.125360871266279927e-01 -1.179003319109405812e+00 2.882313167561257883e-01 -5.921454187412210635e-01 -1.016383441059554721e-01 2.566725305501725840e-01 -1.254167700669132524e+00 5.315284520151670744e-01
