-9.329465497168103472e-01 3.804510604850355193e-01 1.679724346552885217e-01 2.772194264650347240e-01 -2.653995325049314791e-01 -4.498115049469350590e-01 1.752151004646806953e-02 7.665086791912800734e-01 1.148479136150325486e-01 3.104234474009557321e-01 -1.229354390978071171e-01 9.331620444983783624e-01 4.725629926247268964e-01 -2.919104726615022183e-01 2.947900089358562736e-01 7.205238874406830196e-02 7.664371324676123587e-01 -4.553108561366757678e-01 -7.873386192759475044e-01 -6.279513565398192609e-01 -2.289878196364513174e-01 7.034420510661503201e-01 -4.732899996417342381e-01 2.490070125679854363e-01 2.457905224465288807e-01 -1.997049881235618551e-01 -9.003725018219101983e-01 4.856637888041693274e-01 -4.179538049426149149e-01 -2.121124753431341825e-01 -2.516615999924688984e-01 3.225099473421036977e-01 -8.352884193259118017e-01 8.565973226198270174e-02 -9.730838067491681675e-01 9.637423482512167405e-01 1.932532114417640778e-01 -2.408718726097928697e-01 -7.201650306389932865e-01 3.920612587421089534e-01 7.958638395185154701e-01 -3.682774357314824165e-01 5.287384490404589688e-01 -4.308723077079191777e-01 9.009296265602747544e-01 3.991080870143348669e-01 2.448168302511019578e-01 8.572860252591855135e-01 -4.774739111236845357e-01 8.334360726049143686e-01 3.425321953035048161e-01 5.396491028664548439e-01 1.409543987004845678e-01 6.612917226072428933e-01 3.939650169345356168e-01 -7.101025119418331588e-01 2.219203725098327362e-01 -4.452241923935381651e-01 8.187286358378402795e-01 -6.071595033294989729e-01 -4.300536073459673703e-01 -9.081570915161657487e-01 -1.125727495256570454e-01 1.014579525882979977e-01 1.421462313473336458e-01 7.953787510168907060e-01 -3.057234713424185069e-01 -1.101488977067945768e-01 7.001978172627512098e-01 1.406550909489070189e-01 3.029832510351722075e-01 -4.443726252592955506e-01 -2.755081051592923880e-02 2.373535317194107042e-01 -7.398019598102171246e-01 -9.472710213904325105e-01 -7.850088925788794025e-01 -4.744569407578089898e-02 -9.558132180538660982e-01 2.429176722901148222e-01 -8.147812241623767493e-01 -5.097890485494884771e-01 -1.474860072143602818e-01 -7.783424144681178047e-01 -4.619027813903023860e-01 -9.720560115317683492e-01 9.671504255049375720e-01 2.127654335823217224e-01 -2.498011693094133734e-01 -9.528868595175863376e-01 -2.267876123759434148e-01 -9.810575523203959869e-02 8.588236832522552211e-01 -4.462455656880585653e-01 2.273438855588064411e-01 3.198920337773082379e-01 -6.296057031385771108e-01 9.450038534567200416e-03 5.678042533644156453e-01 -8.129840865269984951e-01 2.074898756341196915e-01 -9.591308500865695086e-01 -9.876335767118386011e-01 -8.829330508605476302e-01 -3.953586049017795284e-02 8.473585947076642810e-01 -1.945669881849924343e-01 -8.547952075192444266e-01 7.198090732864936836e-01 3.562401646982157194e-02 -3.647834262324010646e-01 9.221399452312878386e-01 8.739216863861001272e-01 -4.837243190151301331e-01 -6.017196940167576225e-01 1.755593603883298104e-01 6.706999817723990898e-01 -3.420922942318442850e-01 1.695598035846384855e-01 -6.900491942858514305e-01 -6.119449892434980498e-01 5.109417587395741478e-01 -7.019755513785113088e-01 -4.728259944763402722e-01 3.755444012592186187e-01 -9.723049027112992126e-01 -9.387488825506703494e-01 -4.407306400725398143e-01 -3.302800513462873511e-01 -2.826873431069310549e-01 6.074752776135201593e-01 -9.392286569082332059e-01 -2.870028813830828862e-01 2.615491060568816972e-01 -7.156292623336398817e-01 7.059272900403968931e-01 2.895110457858199871e-01 -7.748064851108127371e-01 -5.862403882926449095e-01 4.783159517479818601e-01 -1.955028340915877794e-01 -3.575049453131429189e-02 7.697435745802461149e-01 -7.327710615409035455e-01 9.259829393068985670e-01 -9.180867418341212005e-01 -8.159406072859911596e-01 -5.562438824314143160e-01 6.101352710114279487e-01 -1.036115919947676184e-01 3.037009696074278731e-01 -6.601025702830833897e-01 -6.684685070353793002e-01 3.786857228634933625e-02 4.762019565838731538e-01 -9.056003668893100600e-02 7.240694622681344006e-01 3.166293747313039808e-01 -5.060289780934785764e-01 -5.458720418919640327e-01 -2.623251649781430106e-01 5.110103216247224855e-01 8.731820167796692234e-01 7.187083057560248456e-01 -4.803234007335668854e-01 -1.785162999412672757e-01 2.077545308887365494e-01 8.928822574044151250e-02 -2.265229251804442567e-01 -7.987008931104774279e-01 4.227824090578635730e-01 -8.266069380737380845e-01 7.195887809828526160e-01 7.193312854829447822e-01 4.101951781335669844e-01 -3.001727432780455090e-02 3.818550208561029558e-01 -2.223672810689008295e-01 5.894345585728296699e-01 5.708664049928291462e-01 -7.018673482184831780e-01 -3.701402494293355439e-01 -3.176292136790195286e-01 -2.765294784076502976e-01 1.321216510326904681e-01 -9.192175505059029250e-01 3.146168578219618595e-01 -5.991895402314806329e-01 -1.794224804363591386e-01 -1.072354800671376368e-01 -3.080417934115636247e-01 -2.377552480022957770e-01 -6.512307789908979849e-01 -8.686105271260147198e-01 9.436420648497050034e-02 1.888444581717050874e-01 -7.105420084743223619e-01 -5.516230545709799316e-01 -4.410861075830574962e-01 6.523421878336791435e-01 -6.962973164794609149e-01 9.040243792655376642e-02 1.307175628375523424e-01 -3.174480470064736659e-01 -3.085668706381324844e-01 9.161519224507387316e-01 1.050588326624790764e-01 2.961882574160952242e-01 -2.444350864106231702e-02 2.849294630241311355e-01 2.010839581502921469e-01 -7.148182009818646598e-01 -3.336780074769436499e-01 -9.590502517201013322e-02 -7.571723501239941978e-01 -2.822302915183476646e-01 -5.508437399062832140e-01 6.899664771449980361e-01 -3.316835432053294452e-01 -5.487729516497374949e-01 -1.868045460350705733e-01 3.623508413262015448e-01 -8.717168841816635982e-01 -6.435590511202725628e-01 3.751176585572333910e-01 5.030291590918707367e-01 2.345318537395001124e-01 7.476019805544656949e-01 -6.637296332360224094e-01 4.047621483738437775e-01 8.326060347133994455e-01 -7.029616428251652671e-01 -5.162576086822988630e-01 9.048045791566222684e-02 -3.246863194939261787e-01 3.777215869646526336e-01 -9.016637276017929192e-01 -6.807231695077815559e-01 4.300280523821367051e-01 9.384031034832115425e-01 8.566307620839771486e-01 8.006211525001414309e-01 -7.523420376641711815e-01 -7.114082040464796419e-01 -8.581628800876798246e-01 7.733126886762689556e-02 7.523212595974569927e-01 6.075109304499241164e-02 5.601675617141167463e-01 -6.264699304517887812e-01 7.234561343050369686e-01 -6.379760597889702067e-01 -8.953479823065433330e-01 -1.752544180886171921e-01 1.067771028528581856e-01
9.179671089497090097e-01 -8.444096757303563017e-01 -4.956052089416164153e-01 -8.226514137794385118e-01 -2.884135476447008961e-01 -4.413706099933417670e-01 2.354210272076436017e-02 -3.310231000317784833e-01 7.733473334734538573e-01 4.964150736923712559e-01 6.841673674760256896e-01 -8.002553492856486761e-01 8.502608360141319932e-02 -5.968236677973162152e-01 6.734815055229185221e-01 -1.030740443689073471e+00 -8.000989609613951004e-01 -2.672857126368693992e-01 -2.311524567004880348e-01 -4.908588403187727489e-01 -8.312858486003987801e-01 -7.850980673065776072e-01 -4.395861112990763209e-01 8.841701196665107121e-01 -5.994378315925292799e-01 4.187145975944334131e-01 -4.997057187047574955e-01 -9.634766730587219774e-01 -1.031141670097886820e+00 -7.550321015224170651e-01 -9.784066455817867769e-02 4.613112834166985254e-01 4.098329232000416100e-01 -3.672103879532084836e-01 -4.783049071251521678e-02 6.121586856388253617e-01 6.522534412476654886e-01 -4.238604298647604685e-01 -1.061933697835748536e+00 -9.357679157700290462e-01 4.117170619054199565e-01 -4.833528269021182822e-01 -5.380396629846714851e-02 -6.423466516149333172e-01 6.280760404453704648e-01 -3.544668106429261362e-02 4.247638004891028662e-02 -4.443184116932153427e-01 -3.920183120233024926e-02 -1.058894448323356441e+00 -5.098999363593926804e-01 -3.190026490199329157e-01 -4.566063976628189081e-01 -8.623954919236251904e-01 3.618064984488025132e-02 5.516013737801422900e-01 8.699706131647557683e-01 -4.925949010129705707e-02 1.019100946697206744e-01 -4.444803960582686120e-01 -7.320307668822289004e-01 -7.622168347229809626e-01 4.283270317675028638e-01 3.957876864373872650e-01 -6.715891755703859989e-01 -2.538306940279228541e-01 1.789869432127176030e-01 -7.861594318423358319e-01 5.472419990771689724e-01 1.619559537053056608e-01 2.025883363855208175e-01 4.020818486900992195e-01 9.582378524201478065e-01 8.890454502019624894e-02 6.942646597054130675e-01 -2.353532003942745143e-01 2.346062102383291714e-01 8.454732814431534793e-01 3.083799349301359904e-01 -4.443513387740846698e-01 1.816469901105695894e-01 -3.708084012344509128e-01 -3.597769690012505017e-01 1.628939620531932309e-01 -6.968308961708853388e-01 -9.938640093418604771e-02 8.680264067908228798e-01 -2.912102887698337916e-01 -6.818387416792358602e-01 -9.275738230351401881e-02 6.532510819629382404e-01 6.605145638230449645e-01 6.266933562933555413e-01 -1.007788346740941865e+00 -4.766459462124066904e-01 9.377035401178270835e-01 -7.779674835651088083e-01 -4.118469326281341131e-02 5.499119560501450898e-01 -8.012354383153966753e-01 2.916700160286365140e-01 -7.799632000584938440e-02 -6.371217659472605543e-01 7.375638839668926527e-01 -6.625046088254764598e-01 2.586202269166362755e-01 4.456675129614092179e-01 9.068433720666774223e-02 2.301553546288519769e-01 -7.890193929331448253e-01 -4.055778978217838282e-01 1.595378765912476848e-01 -2.171116206025000273e-01 3.101589743068655092e-01 6.513988006218707216e-01 -6.356868566390398989e-01 7.331391484300339156e-01 -3.086023366397384615e-01 8.607258303154737833e-01 1.580293344288212776e-01 5.711914616144739831e-01 -2.646605053521057516e-02 2.712068151232643193e-02 -3.802674960880876309e-01 -7.619926180176871400e-01 -2.552156812437275102e-01 -5.794433111264001290e-01 -1.014824990914086511e+00 -4.798850406769272769e-01 -6.604488261976952934e-01 7.122368894025048469e-01 -9.054750825024580063e-01 -6.554174778723986794e-01 3.405152836280979645e-01 8.191334008652735310e-01 -5.624048906610572551e-01 -9.820014001663844860e-01 8.969496183415909263e-01 3.419497692337217232e-01 -4.315206942162433390e-01 -7.560642300899239610e-02 1.792924026012317484e-01 -2.801496184730783434e-01 7.087193420335432537e-01 4.260267505184401338e-01 8.914871250258495916e-01 -3.814239909447701415e-01 8.578956073750723110e-01 -6.355864836837275822e-02 2.072750587956478652e-01 4.502386215798839242e-01 5.578651301542254526e-01 -2.326120645825711375e-01 -1.330258713880400900e-01 6.132419129416373238e-01 3.458332738522775784e-01 7.893630786700372992e-01 9.398778527389861637e-01 -6.644212879023274620e-01 -6.307232952672151560e-01 3.691766631598245585e-01 4.754427805375639471e-01 1.958700618312070318e-01 7.275917837487293482e-01 -5.437045410732250783e-01 -3.378503017260327534e-01 -9.396891682540829682e-02 -3.852949180067100077e-01 4.717519170932731043e-02 3.477209190800384930e-01 -5.798689601164865870e-01 -5.397352924782694572e-02 9.162014951690036213e-01 -3.979042518098701575e-01 -9.669731366564066066e-01 6.135620217321176018e-01 -6.336026087884541469e-02 -9.633160956538121544e-01 7.295912041183315599e-01 -2.177866678155756797e-01 7.863788765011155979e-01 -2.348238708602429226e-01 -8.947082870732698812e-01 -5.459206942583194611e-01 -3.157231522337837215e-01 4.793098708279408537e-01 -6.508314455337468329e-01 -1.616199427822684054e-01 6.781264891486086244e-01 3.120932998038439612e-02 -8.363782314829321107e-01 -9.782704298336938331e-01 3.481216969881772982e-01 9.302886357858666244e-01 5.088225119225691095e-01 5.076065451764937286e-01 3.248891098047148041e-01 5.080167753340613102e-01 -9.990382715678698400e-01 -5.371761669911689907e-01 3.775392797717053717e-01 6.612228817345191523e-01 3.154061505665677334e-01 -6.753981353683305988e-01 8.113813656002912822e-01 7.748957804423207696e-01 -8.378810091084655243e-01 -6.725818396644802633e-01 -4.972855626687655017e-01 4.313442879188009726e-01 6.542544151613558512e-01 1.190205965660411647e-01 -6.077827036115552861e-01 -2.413439642713606503e-01 -7.846039276001520735e-01 7.894890568273668086e-01 4.917524924263396158e-01 -1.995348085895618656e-02 -1.699998910460440160e-01 -8.219970716101434594e-01 -3.830630498877584666e-01 -7.888368296472246799e-01 5.341617154822786429e-01 6.625190314831606864e-02 -6.094479222722896106e-01 -5.819133991576721510e-01 -4.940991795073144677e-01 -4.517215660859574822e-01 -2.252221668157023959e-01 -4.262416159550161954e-01 3.437522400546832446e-01 -9.622817897436068968e-01 -3.627073271840227098e-01 4.704420570319429173e-01 8.164630884025059210e-01 5.737915955130175050e-01 -6.009866732423460034e-01 -5.530123938291523489e-01 -6.444447482512952741e-01 7.329199034040223548e-01 -5.476979070624001800e-01 5.007173188762353844e-01 -5.288055184453024360e-01 -9.536111142024148446e-01 4.456098309657098300e-01 3.947421758496481026e-01 -8.841567836764349098e-01 -3.757492151982918527e-01 8.721873836448531536e-01 -6.948170296436239068e-01 -8.504253791150372388e-01 1.234416850433214530e-01 8.462503340707853150e-01 -8.384710433116787653e-01 -8.046251447716857436e-03
3.487973777194665614e-01 -6.997947283371750427e-01 -1.041212509966760402e+00 7.019369370306373090e-01 -1.058584877076528707e+00 -4.906380167682242721e-01 2.870782194906331131e-01 -4.802953814547176736e-01 -1.145700641289189692e+00 -1.087126012823082764e-03 -4.155215235308368782e-01 -7.943952259383032510e-01 7.856340587817943755e-01 -6.812978653678932739e-01 3.245678041541853465e-01 6.391137274296178061e-01 6.968958455882104941e-01 -6.846458364426354359e-01 -5.522733959458115960e-01 -1.071150502213359834e+00 8.092125961961398328e-01 7.511872703228398285e-01 3.923668319570158824e-02 -8.226497674760752110e-01 -6.700123822788961458e-01 1.457381340888084381e-02 -5.080410922194913415e-01 -4.527870596388220981e-01 -7.643552571709719690e-01 -7.036211320144286629e-01 -1.526666982116607896e-01 -2.267262598201288948e-02 -6.526423480890992945e-02 8.537012628968730921e-01 -7.816209144792737318e-01 4.849518659851103086e-01 5.512140580043317639e-01 2.960724778997325668e-02 -2.034241593001268056e-01 7.681127881886739006e-01 5.125143151239701655e-01 -9.407213382891788100e-01 8.865517390545911702e-01 -1.058056458184390092e+00 2.236376623260929401e-03 1.012016634207247578e-01 6.206995064018120400e-01 -2.623144958626454359e-01 -9.468475631977076867e-01 5.125886424489484172e-02 -1.070775670239581201e+00 -3.019610321326933189e-01 9.614586752013130067e-01 6.806935410204986159e-01 -7.188481624837022022e-01 5.905180956763439459e-01 5.994143106368947649e-01 8.303821004977598452e-01 -6.721623407422728791e-01 -4.733547453476028705e-02 6.598875110558672930e-01 3.112190517124708289e-01 1.560239741531610491e-01 1.800688482337001184e-01 -5.545609251443864851e-01 -1.095932087357743390e+00 4.686453203207594509e-01 -3.867523295283603613e-01 -2.506511889146986194e-01 1.159556722245863591e-01 2.866513158983419740e-01 -6.079413349459101834e-01 6.379112765672046992e-01 -2.854772522830622550e-01 1.878509135464998536e-01 8.011015863846209228e-01 -1.353547315002723642e-02 -3.075312728718576083e-01 1.907323481594412062e-01 -7.742271876892528604e-02 -1.638915960219325674e-01 3.507474016660482308e-01 8.375242250448748926e-01 -1.365986710908466961e-01 -8.538960761292363477e-01 -5.956732637773671721e-03 -5.335221724549045197e-01 -1.012205627776672445e+00 4.647577359567585109e-01 -5.236709201235829614e-01 4.829958778759852467e-01 -3.879818019643566790e-02 -3.713768792528731044e-01 -3.941917229127253064e-01 -9.420254812880647366e-01 -4.607943311841831285e-02 6.396311185874051786e-01 -8.451425610771082786e-01 -8.168824069582584224e-01 -1.982067853135632829e-02 3.025121631345113471e-01 2.602080602311432345e-01 -3.888057763038425541e-01 -9.464959209355532366e-01 -1.795932817861259634e-01 -5.687469855792440798e-01 -1.019487359202435606e+00 3.305963152264316807e-01 8.779515790665228803e-01 -2.624979650985330704e-01 -4.362575291703179037e-01 8.816385948405335016e-02 6.728661129157574861e-01 5.739410307482031293e-01 3.334865104410429937e-01 -1.536225786566098594e-01 2.294908443202740844e-01 -7.151833348487957043e-01 -4.386556334042980843e-01 4.320019278583376865e-01 8.419303124295163254e-01 -7.354514763594510729e-01 -3.943489302017020859e-01 -1.028686765082884369e+00 -1.499159990451926772e-01 -5.865946156869571437e-01 2.654679160475118538e-01 2.625798674659676757e-01 -7.915325617148744053e-01 -8.767361388442294068e-01 7.281686098812955032e-01 -3.397694353793285771e-01 4.407216369894687708e-02 7.967766244228884354e-01 5.032117775527624737e-01 -4.545040265008171154e-01 -8.388244290884545595e-01 3.863722407965430178e-02 -3.543016994207258130e-01 -1.092204201699049859e+00 5.218216972923471753e-01 -2.506173330999830751e-01 1.023371072306175911e-01 4.426249162676047511e-01 8.496750124158357620e-01 1.933368035571078614e-01 -5.220866902870775483e-01 -8.016691459769723638e-01 -8.795715938241135401e-01 -4.932149845360918605e-01 3.045582015729626502e-01 2.631321565971788679e-01 -6.109284978410052247e-01 -8.485274428160574089e-01 -4.078337504206853148e-01 -6.245896589587163206e-02 3.644497800552045086e-01 4.038210582510097513e-02 -4.451840899563414000e-01 1.058037116119305288e-01 -5.800593432706083741e-01 2.875572054803436362e-01 6.582073540050419336e-01 2.381820964287933440e-01 1.017989652462545080e-01 -4.123823653609794970e-01 6.001339122941730109e-01 9.471258792462530218e-01 5.035774288739995885e-01 1.289403444460557047e-01 -7.282076962615009474e-01 -3.737676398620149998e-01 -3.856565164711239779e-01 -4.948938829824497398e-01 -1.681261187166089022e-01 2.006341071106748086e-01 -7.265491259377108157e-01 -6.009840934336304619e-01 -8.342741812011361668e-01 -3.903334379942679511e-01 -1.364474145037151420e-01 -7.970052674039850016e-02 8.939605477200422978e-01 9.276871700337114834e-01 -1.423295731951982612e-01 9.336262450624999154e-01 -6.231635292294931405e-01 6.741318930325171377e-02 -2.226525124360038410e-01 8.557765574347216964e-01 6.289187271313367855e-01 -6.037156618901524663e-01 -2.317962722389823038e-01 -6.887406417852142138e-01 -2.117273411829273880e-02 5.789446716691081241e-01 -9.393139003943242749e-01 -7.598828593395119402e-01 8.214583277915439297e-01 8.324501380626493363e-01 8.953595208062731237e-02 1.529482274957962018e-01 -4.937545846054667287e-01 8.618340005957608740e-01 2.469187691681445362e-01 3.408251155402817756e-01 -9.966529265906708401e-01 6.160774197361517102e-01 5.060225388293981830e-01 2.710529440547218560e-01 3.677854283457583917e-01 -7.398531966651730185e-01 4.063244995219310041e-01 -9.557152790610958792e-01 2.968238591090875400e-01 -1.126396445330293039e+00 4.422381851482807824e-01 -7.758944914435675355e-02 -7.253707506836324370e-01 4.321323031070043452e-01 -3.719208882443863495e-01 7.128221411332512636e-01 -6.627929133773072801e-01 8.344165921580273260e-01 7.894296737424209010e-01 -3.913819005067842305e-01 7.269001612461580830e-01 5.916727590041513940e-01 -1.703367824695922461e-01 -2.935423094907797514e-01 -4.531753243241847806e-01 9.434072759192317914e-01 -5.476212570821579195e-01 8.255770838701118608e-01 -2.514365988986457245e-01 8.309761206994235039e-01 5.346910803721306449e-01 -7.092554234507865152e-01 1.434405940255929213e-01 3.490266757334171688e-01 -1.958071104094967763e-01 -1.001577557276425390e+00 -4.369528990843808969e-01 6.587282730156389654e-01 -8.938746503819322564e-01 -9.032237813510683999e-01 2.955501849041835549e-01 1.425579818826947301e-02 -5.930807504011122860e-02 -2.824956016396223957e-01 1.905072832001606375e-01 5.774655973758824334e-01 -4.839490039919851494e-01 5.199652387366902051e-01 -1.796020060448449418e-01
3.401421516816358764e-02 4.388332107059103038e-01 -5.148692803212874258e-01 8.495581124865407840e-01 3.268478632297853181e-01 2.661223841207202012e-01 -4.208116650656433810e-01 3.853158927988163951e-01 -5.882593794099421070e-01 5.204038752719025718e-01 -9.728746005089300430e-01 -7.405173236761218858e-01 4.601319960372204920e-02 4.506773377570706951e-01 -7.913428861338707432e-02 6.966321934023476103e-01 9.868609294225683115e-01 -7.145889107502184645e-02 5.598129033847675240e-01 -8.135049456262039014e-02 3.367542909264858442e-01 -5.540019616649626277e-01 -8.809339280050880738e-01 9.416680132561929817e-01 6.681688840286025277e-01 -5.344196409721652108e-01 1.997498792951244440e-01 -2.691675918301248416e-01 -7.132235178820411914e-01 -2.327155094134837343e-01 -4.200445262806072333e-01 -1.034530550424441309e+00 -2.764521848683510474e-01 7.603969018661934642e-01 6.766826771011423824e-01 1.629659045455072452e-01 -3.278329441771988262e-01 -6.189550929884687358e-01 8.191768297809018939e-01 1.224882315971028424e-01 -6.701772336814404429e-01 -4.866537553428305074e-01 9.192901855849161530e-01 -5.192137349037723171e-01 -8.604321934718978104e-01 -6.447028595311704580e-01 5.435959484887020743e-01 4.344786730341604897e-01 -2.161006358350889833e-01 5.335725731681019157e-01 -5.591416725226849155e-02 -1.369573304987289075e-01 -7.802113515598484428e-01 7.175710677304460994e-01 -4.173824561392629473e-01 2.453082468060723831e-01 9.765872357965809103e-01 -6.394237636985238282e-01 8.469356464012289809e-01 2.941711749738145643e-01 -7.319251341472906569e-01 5.652874954435678223e-01 8.924114059115518804e-01 3.716167145762282881e-02 3.606356610179019540e-01 -1.041797539604812917e+00 1.019880952857133094e+00 -4.066293197584047170e-01 -9.248590279837145545e-01 5.309240978400588951e-01 9.362329158954006969e-01 5.146693547767475785e-01 -9.902060960778488186e-01 -8.792828991493888413e-01 1.296672754554105411e-01 -4.220569951080326287e-01 6.999235986142926524e-01 7.760744145359969037e-01 9.676678384255550380e-01 3.885480988101181477e-01 6.943855532164826538e-01 -4.322356299815427461e-01 -7.500562668233107244e-01 6.650153443211920257e-01 -3.530756419952360559e-01 -2.370282638232812933e-01 3.146075344591668932e-01 1.250997244953392928e-01 -2.135933614372688139e-01 -2.590969576385693807e-01 -7.718240679131448401e-01 9.399130979885583770e-02 -5.119248697294507267e-01 5.147162018060305044e-01 3.495870370488011747e-01 -9.353137592327045446e-01 1.010893011247098627e+00 6.013093216663774054e-01 -5.544931812675409910e-01 -9.678635382848804758e-01 -4.675705412630431351e-02 -3.453320055349791140e-01 1.256435314490353672e-01 3.413357028259819126e-01 6.270481386836971316e-01 -9.582855118998644395e-01 4.324446637027559159e-01 -4.129971102750288336e-01 1.004683457517588474e+00 7.145686824482478938e-01 1.047999879836337411e-01 2.065073567554619183e-01 -5.845696406862731509e-01 -5.380278799734566908e-01 -7.220208397711651571e-01 -2.327670257807145648e-01 -8.758171198214650399e-01 -5.958419873571384889e-02 2.972978105954675598e-01 -8.533659392307281211e-01 -2.708383942684625678e-01 -9.467211252306064750e-01 5.307504510005497250e-02 2.863106085354312214e-01 2.487296852518421919e-01 6.427071873890123355e-01 -5.135192817497562512e-01 1.434859880258337606e-01 -3.923029616095620731e-01 -8.090782116446966210e-01 -3.868016095259453890e-01 -9.354449780190651209e-01 9.099870085747802095e-01 3.790511314854092539e-01 -7.681848707284520961e-01 4.986457195111214658e-01 -2.557967989389463570e-01 8.386025931871158301e-01 -7.751525108813686789e-03 6.753414735619671649e-01 -5.388078729790370947e-01 -2.561395723819154258e-01 -2.676842291036334864e-01 -8.651960572556319784e-01 -3.449946924009288374e-01 3.424018568304462162e-01 -1.642729234355782553e-01 8.042544760913878932e-01 -4.376375670600798351e-01 -4.001889454461795004e-01 -3.369398134512303078e-01 1.797162097930923505e-02 -6.036472672857843280e-01 -6.576127447150353911e-01 8.923315130267258644e-01 -3.556389705166271842e-01 7.749426222491843930e-02 -8.908777222769936888e-01 -6.944185077898707981e-01 -9.005384042296561420e-01 5.564623225280684871e-01 -7.557535228150965567e-01 4.405036212949742930e-02 -6.610326604685679008e-01 -4.857477286362072988e-01 7.976189804172932885e-01 1.628140488932750263e-01 9.384000419426604678e-01 1.478318768081839651e-01 -9.613531558881420747e-01 -1.307179641525045011e-01 -9.357390540071114371e-01 -4.529015821894105120e-01 -1.115682203717733856e-01 1.346184062948452553e-01 -4.976626986324191315e-01 1.852958632049064164e-02 -2.797514136724248979e-01 -1.185422468996027816e-02 -5.762986038562782909e-01 -7.568040216975371326e-01 4.836999248124287387e-01 -3.745305406774751544e-01 2.821762125326283122e-01 1.368934579942102936e-01 7.761336552091886443e-01 7.658170100688089788e-01 -9.642166725800069282e-02 -6.526244704948792608e-01 2.282552791292434269e-01 2.718745286307019393e-01 3.936327663177285885e-01 7.099428749641616410e-01 5.769370644046833974e-01 1.903738088578441068e-01 2.199310905829746365e-01 -5.425674160499270871e-01 2.206615364211803598e-01 5.397896697395399013e-01 7.753479397097287062e-01 8.532146058644056730e-01 4.621246952106521089e-02 -5.032534197127235265e-01 -3.366021526032089706e-01 9.231958929968396843e-01 4.239703931828114891e-02 6.454733326599603194e-01 1.400159904177503689e-01 -4.332492020264812338e-02 -3.620236414062530383e-01 4.259474244881128469e-02 -1.034616775005861689e+00 7.905396382764026120e-01 3.471815353087861350e-02 -1.047829707400733001e+00 5.805445168352045826e-01 -7.596418439591547944e-01 -9.732275513806009082e-01 -1.656525666747180603e-01 9.531756240114463985e-01 -7.967792734800689392e-01 -8.812624066685198487e-01 7.552994107930007806e-01 6.629552859712565249e-01 5.424209406866966621e-01 -5.652673423754580456e-02 -1.078212583750544767e-01 -2.582480947141340133e-01 1.990640364333583767e-01 5.009317922061713446e-01 6.104240749893173890e-01 3.067174308165098173e-01 1.519120459203746609e-01 -1.696580051642574971e-01 -4.591106286152394356e-01 -4.272960461963539736e-01 -5.055506537056325689e-01 3.875869921707152388e-01 5.507722612809723417e-01 2.071995613510392298e-01 -5.210265513088128131e-01 -5.662702282505850393e-01 4.836682847890598214e-01 9.727669641123197763e-01 -9.586163141131353038e-01 -5.724980069522390691e-01 4.977973691219678143e-01 4.582090538899450949e-01 -5.029475064480584123e-01 1.329890577627326764e-01 1.847804505721162560e-01 3.563264535411602707e-01 -5.142399919846966927e-02 -2.994892467996732588e-01 -4.143200920973645340e-01
-6.897143014690956253e-01 -9.301524463027400769e-01 1.941315008163328470e-01 1.590663488527631897e-01 3.771258580395907556e-01 -1.169484748067318280e+00 -2.809863918510580039e-01 -8.588990936200245896e-01 1.612632959269735822e-02 9.424026561381614320e-01 -1.446245308613669789e-01 -3.041433542435613147e-01 6.016617218542329448e-01 7.570448492499446402e-01 -4.746062106418628690e-01 5.367851801947053358e-01 8.230679093684143410e-01 -9.115850860405858569e-01 -1.329374172968668666e-01 5.899629636059453563e-01 -4.114413004845093869e-01 -2.263548067992254276e-01 4.947097204135847415e-01 -8.891642018187205787e-01 -4.474037726229309064e-01 1.261248434214418956e-01 -6.515377121609325917e-01 5.298078682457967314e-01 5.105719152233857416e-01 8.784566300544502937e-01 -4.408272776614507310e-02 -8.551513528321521562e-01 7.860945156979336490e-01 6.382595011475098445e-01 -5.730101976973208527e-02 5.279989314047015547e-01 6.054111700074544800e-01 5.070169684815490907e-01 1.246251726640300733e-01 1.171557472372339731e-01 6.911266785813259261e-01 6.602183381844521637e-02 -7.212158660066217974e-01 2.026798115102057540e-01 7.056655974812817145e-02 -6.541485271398118639e-01 -1.102515986549326810e+00 -6.918503093306218599e-01 3.012448264193296477e-01 6.963602705909401891e-01 6.653870260159715500e-01 -9.551921274900025960e-01 -9.860619128977908820e-01 4.432924617432421610e-01 -6.007142422705876728e-01 -5.685015422958357156e-01 -1.137430689671686368e+00 -9.314070276881544208e-01 -8.243966909722360015e-01 -7.720834892970765972e-01 -2.979371915280581429e-01 4.520240225916984378e-01 4.978598209514066286e-01 7.974771743579104344e-01 -2.351075895038713948e-01 3.760800640174337683e-01 -1.842790559112499615e-01 -9.940528098316770977e-01 -9.978562697556262462e-01 -5.781124994904119907e-01 8.393094631804560724e-01 2.284167354797909111e-01 -6.205687744876338119e-01 2.508789445235545812e-01 2.396091928589637043e-01 -9.288633773263045290e-01 -3.406469594124277855e-01 4.011229412613421808e-01 -9.534323218767880581e-01 6.887715810587845544e-01 7.896936169578386844e-01 6.682602505907541124e-01 -9.024233253134918975e-01 4.264590838989364141e-02 2.277656457201925611e-01 7.443524443420909131e-01 -9.915159676604529126e-01 6.022320450563858341e-01 -5.461239827523010071e-01 1.210650829732713568e-01 2.916456606034661392e-01 4.000646397253472819e-01 -5.665100646345868629e-01 3.771433304411411780e-02 -5.543844217254407791e-01 9.554326322012848260e-01 4.956128094726332534e-01 -3.609339492685659234e-01 6.125232419252292226e-01 3.734405476443667382e-01 7.338001787453676261e-01 -6.986462001334510230e-01 -5.919526747439168846e-01 -1.004078948064546228e+00 -5.328399689390064253e-01 -3.952825092534483220e-01 1.056139308317010223e-01 -2.053820268046294695e-01 2.712225721791059474e-01 -6.095682155410634406e-01 -7.404024929852113246e-01 -3.610821279189951327e-01 -2.721244898365244302e-01 -3.084201195443564414e-01 7.027744668278282925e-01 -6.149673295509776594e-01 -3.054779429790698275e-01 -5.798963883055953117e-01 -4.129262175637190557e-01 -2.513164051256038811e-01 -1.930402226423714312e-02 -4.757547915272538064e-01 -6.160711934621797559e-01 3.248275144514675139e-01 6.305251699548554134e-01 -9.086496547188888107e-01 -7.336696469273954468e-01 -7.669664283842710928e-01 2.424273582793552428e-01 -7.182002011909354167e-01 4.905848731023710468e-02 -6.399103021383307777e-01 5.165821438881053052e-01 -3.828627387418828687e-01 1.937205731488944871e-01 -7.638803116503939394e-01 -5.650749673789737804e-01 -5.424691997665267440e-01 1.728760213586005567e-01 3.185070490957920275e-01 5.485616394771012372e-01 -7.650351423178048949e-01 3.652693886090939146e-01 3.573504331929261424e-01 -9.017130756686735776e-03 1.690718543628008108e-01 -8.531095196144073967e-01 -8.841852491228197053e-01 -3.368509043695721572e-01 3.988097245605879970e-01 -8.556249579317403153e-01 -2.798559018929673847e-01 -1.497843051284351579e-01 7.433610739563845105e-01 -1.032389116673862572e+00 6.363484399236263300e-01 8.956517407810868914e-01 -5.781935780777101019e-01 6.240429787666522676e-01 -4.564718921201130208e-01 5.633591169166664026e-01 -2.556054411685790839e-01 5.615750214491017911e-02 -6.918508557848461749e-01 2.493960512149020203e-01 -8.590683408493338113e-01 8.230214344440729690e-02 -1.645502656399464581e-01 5.587642370488791199e-01 -1.668890467777420228e-01 3.821457335911335185e-01 -3.766711061806830574e-01 -4.194717060656606433e-01 5.129979996358933203e-01 -2.372329340886470961e-01 -1.909851540733746578e-01 1.644626884998594829e-01 5.756375976028221819e-01 6.197614077842735630e-02 -3.770308421653343345e-01 -6.925216159824695294e-01 2.916844378521928349e-01 6.625437830572179498e-01 -9.029723592760799944e-01 -1.803512554512629318e-01 7.738629563675845091e-01 2.594789871201051007e-02 -7.912395227950068388e-02 -8.926359898768480017e-01 8.036012093443388807e-03 1.493714033494454863e-01 -8.032634871003770938e-01 8.810903944754552297e-01 -7.354313335869663293e-01 3.096279224164534272e-01 -6.528974163938151554e-01 -9.973606321726905533e-01 -5.332521014627120692e-01 -3.717475424431299635e-01 -1.359357582188888414e-01 -6.445659951487037187e-01 4.033372449115916747e-01 4.992232718644609712e-01 4.474303979929856179e-01 3.614317354254751868e-01 -6.032700046857163434e-01 -7.154377522813681889e-01 -8.515743333931872217e-01 -2.843472302275172336e-01 -8.721168131090931697e-01 2.123180697221268287e-01 8.161645666472007177e-01 3.434074884737706168e-01 -7.454894730449279638e-01 -9.780792323291529478e-01 -3.617729960586869575e-01 9.085958448949577049e-01 -4.831661092185188244e-01 4.686508552481405965e-01 2.544177949557053231e-01 -4.744121032769325029e-03 -3.788139674950259939e-01 -6.853361731956305603e-01 8.061273333956535669e-01 -8.824799730116298369e-01 -6.824397723723667486e-01 -5.576159617122914414e-01 7.022906754142506092e-01 2.762826281100820291e-01 -6.375227527738942523e-01 -8.431965918908967961e-01 6.116238771955648801e-01 4.185722053492134664e-01 -1.049225725697556566e+00 7.311125625505814352e-01 3.806857912835841240e-02 -7.482949360348722934e-02 1.732747153450185651e-01 -1.102339920111194527e+00 -5.142874825383965121e-01 -1.016046316534176874e+00 1.802349811126687240e-01 -2.763634840114227997e-01 -2.027830084318576476e-01 -5.736570204840546472e-01 5.059417289351375580e-01 -9.638941609275721856e-01 -6.182046252984914059e-01 4.160644571196085717e-02 4.085892055177768323e-01 1.817789073181306017e-02 4.527806422826894939e-01 -1.082451107705923787e+00 -6.130392396552067913e-01 -1.013370101424365233e+00
-7.630824758545952380e-02 9.366580298597668719e-01 -1.010631748986531298e+00 -1.835496859805404724e-01 -9.908753490286521526e-01 1.588469196577000919e-01 -6.960906318484280098e-01 3.871251139603102409e-01 -7.099131136710299383e-01 6.371347251419459123e-01 -6.390082684343646457e-01 -3.379716623204678250e-01 -5.523673680882100756e-01 5.402638842024437560e-01 -6.541948247102526148e-02 6.920461315804813385e-01 -8.029386925050293611e-01 -5.775956618500578676e-02 4.751312330678592044e-01 9.322005511830296909e-01 2.793588500530708174e-01 -6.682022630482093994e-01 5.010724110716472390e-01 -8.719306372556250295e-01 4.605576676736997110e-01 6.398124596284076038e-01 8.534222064127967855e-02 -5.425864075238782946e-02 8.629174026819189658e-01 -1.021907467181202289e+00 -1.014748560243599718e+00 -5.041107923263484780e-01 -2.480850711500005509e-02 5.353458260020481363e-02 -3.119374481330288718e-01 -4.660320847054688076e-01 -6.524580748045580858e-01 5.945541020721754055e-01 -3.960779498191936976e-01 -3.853077553836214975e-02 6.004978870276141967e-01 1.592573414293933787e-01 -2.310905007838758851e-01 -7.131003802592685847e-01 -2.110573163934301721e-01 -9.107874596359202823e-02 9.233814789228445008e-01 -4.928123337110294488e-01 -7.167875334615696481e-01 -5.982979918470814340e-01 -5.899931504262899695e-01 -9.164239621439773664e-01 -3.052502080884064717e-01 -4.478377357432131167e-01 7.048332884409994614e-01 5.096812313320178145e-01 -8.351827164714035190e-01 6.677342298439925550e-01 -8.432327067128032594e-01 4.193811600982444987e-01 8.986930827452535575e-02 -8.892351577378054817e-01 7.607800055430323782e-01 7.391212472150874291e-01 6.585417484618165673e-01 -2.889111202841726511e-01 -6.266843597725310078e-01 9.703832108480653362e-01 5.666934130505648648e-01 -9.537674507186681971e-01 -2.915669199170462522e-01 5.526425631371416625e-01 1.479063193092403907e-03 -5.512737768976133657e-01 5.622379152601645336e-01 -4.928231031178040844e-01 -1.039073400584390461e+00 -6.019065747875074202e-01 9.519216126484052465e-01 2.719794890973134538e-01 -5.854362341870197328e-01 3.367809340030638587e-01 3.267020664983016354e-01 2.319538434328934084e-01 -9.328698999927729218e-01 -5.507090747986108648e-01 6.753457711906301064e-01 4.477285452635306195e-01 -6.987326205925039613e-01 -4.218951305398948026e-01 6.859562708331971848e-02 5.846856943582146027e-01 -6.542451032267911915e-01 -8.502326284053605132e-01 -2.755372604187107943e-01 8.040369135289301417e-01 -5.329884300457863322e-01 -8.597171861030026285e-01 -9.437420640662020910e-01 -3.329146107128536647e-01 -9.581350674726565320e-01 1.481903345115220261e-01 2.801518975262202171e-01 -1.498992945494570239e-01 4.147402069830925520e-01 -7.550390594630262964e-02 3.505843086934298802e-01 -5.907931352038132689e-01 4.272636293237815908e-01 -3.829378042792064285e-02 3.925374169620687304e-01 -1.533594562706197262e-01 -4.857295671444574608e-02 -9.732390781962035886e-01 -6.149767818740799197e-02 -7.593947008150330191e-01 -7.295839214551033125e-01 -1.686946540070881906e-01 9.587474675522419942e-02 -3.478408280889023763e-01 -7.514157168811096410e-01 4.547749280529217453e-01 8.866313761210941058e-01 4.148014610753089637e-01 -9.209157981490467826e-01 6.191274567325267819e-01 -8.983293865915118470e-01 -1.622943206519901760e-01 8.117273840497712944e-01 -5.360165010458236567e-01 -7.955906071886206243e-01 4.978016115179754175e-01 8.328788996976643766e-01 -3.844836492275395257e-01 -5.855343070355251145e-01 -6.751991668915630074e-01 8.618456567641257227e-01 8.112170435349665143e-02 6.976342993986824892e-01 -4.268694705243585852e-01 -9.404931954979856012e-01 -1.505928748571890852e-01 -6.398608745148124388e-01 3.268954735858851240e-02 5.067355375732865430e-02 -4.647074486871229926e-01 -4.062597918411476883e-01 -1.034430808519082978e+00 -2.120439033085720903e-01 -3.655075569308364192e-01 1.678907012147385358e-01 6.905114601450452749e-01 -7.357202235106281851e-02 -8.734912327303416824e-01 8.167358345740862724e-01 6.002224201490128364e-01 -3.234162668357876136e-01 -3.843477887544871074e-01 8.119533871654044388e-01 -2.909891049278003350e-01 2.349835668621193252e-01 9.025138475500146251e-01 -9.836270778814342197e-01 -4.413567344926022651e-01 -5.600797952590204076e-01 7.829099772017947823e-01 6.870503692667041806e-02 -9.565287859253649438e-01 4.623871196649486093e-01 3.137013604006744227e-01 2.463046169406725994e-01 8.427165749036792386e-01 7.353125505517029703e-01 5.056355353438179989e-01 -5.809425153306286838e-01 -8.012376619243049003e-01 -5.784482426994852489e-01 -6.348568897441946302e-01 1.085945914400850837e-01 2.558912849826120439e-01 2.757116339691609644e-02 -9.280428551673425286e-01 -3.112887941696764749e-01 8.974817250118160006e-01 3.669619568887609873e-01 -2.761973050051516609e-01 2.979567789473422934e-01 -5.195321133413138837e-01 -8.477557511575728455e-01 1.574317369700913710e-02 -4.801832350887039191e-01 -6.313606487251985366e-02 7.923126926472905396e-01 2.547287957343395415e-01 4.316033421871250386e-01 -8.806428880505693391e-01 -1.145519499942756758e-01 -2.267345606521047607e-01 2.745230991573762158e-01 -4.557227692609324698e-01 -2.722814828131328024e-01 9.128636062839764476e-01 -7.991715477083481955e-01 -6.501912406753083129e-01 -5.396247381496429574e-01 3.630793507423289990e-01 3.769413350904866622e-01 5.156896327870937879e-01 -2.498827137325995706e-01 6.945239937247703610e-01 3.351890438207815182e-01 4.059779188167386699e-01 5.673360349690874660e-01 2.323574097988377329e-01 -1.821362481552857571e-01 -9.478174503226409753e-01 1.540800864195136233e-01 9.746738730795791172e-02 1.811482761538310837e-01 -4.314571096924959548e-01 5.493709980333123105e-02 -6.766909762382431470e-01 2.830573911194119718e-01 -9.191001527147352190e-01 7.404976546463204468e-01 -6.071682659812754901e-01 -4.771962185920050614e-01 7.116249196089996509e-01 6.969272344426766796e-01 5.951161425246909165e-01 -4.211135202596293370e-01 7.452993074076582625e-01 4.733482917199605677e-01 2.809125071630207970e-01 7.786790431207589736e-01 5.405988192683581772e-01 -1.749211832552151347e-01 -4.119721400191502236e-01 -2.896035666822108223e-01 -9.390300226003112094e-01 -3.508559368828600422e-01 -3.665437781416800433e-01 7.040022409556795369e-01 7.014848803650475251e-01 8.883001683413257465e-01 -3.479692460939051712e-01 3.288219019544868504e-01 2.035004964776471748e-01 -5.601708613595305364e-01 6.785603857952412499e-01 -6.441422448628764119e-01 4.825311517302271480e-01 -7.602502691389502187e-01 -8.380440294236286558e-01 4.235632564975571612e-01
-1.744493264608248592e-02 -1.299390371642777930e-01 4.621837864732093459e-01 -3.744995498380172538e-01 7.380761893176644994e-01 8.641213464406157785e-01 9.104351754770997340e-01 -5.097669157828756958e-01 -2.153031947568745663e-01 4.077319455258584524e-01 7.336979891960699884e-01 2.970769043000613396e-01 5.057155408684960163e-01 6.708506098583073562e-01 -3.452635074555802097e-01 2.939848590470146503e-02 4.458113988547456052e-02 2.125322395845605228e-01 6.618413975596081356e-01 1.656499968370217790e-01 8.288801737035966788e-01 4.404742085204573221e-01 -2.339778096372537308e-01 1.408561788108740054e-01 7.585887585509385467e-01 2.094576130949273307e-01 3.773441259645175516e-01 2.136961907953971729e-01 -4.062944934605406955e-01 -7.249082986519324034e-01 -1.910864711752243150e-01 -8.326173620104312390e-01 5.934950329521595513e-01 4.038293117162500834e-01 -2.259154063292029002e-01 -6.685870716804557246e-01 7.065165740941439232e-01 2.404689239321512184e-01 9.484257343658505368e-01 -8.906752761931354678e-01 -5.323261116620866540e-01 -8.388836519979100403e-01 4.822304497823637348e-01 -7.176499184334871329e-01 7.447653673919303330e-01 -8.888117570064732464e-02 2.209330435892047778e-02 -9.331771969199134098e-01 1.814613015656659778e-01 -5.223513873238391225e-01 -6.416555986816467883e-01 6.975080477419278724e-01 6.922514238898093142e-01 -1.019962137754269138e+00 6.053488530233506193e-01 7.037023541132449989e-01 -1.177931390631616233e-02 2.104428237429725734e-01 3.734097629443596800e-01 3.145597596488453052e-01 -1.877618401156864458e-01 7.755028644984184039e-02 1.655449942658016316e-01 6.739437366896500192e-01 -5.422346901212790060e-01 4.915727811866387742e-01 5.820506311251661957e-01 5.207779967454032599e-01 5.569192494303251140e-01 5.324959595732485784e-01 -2.035609101351238404e-01 1.963238881469078490e-01 4.973266843029017226e-01 5.170171473017657338e-01 8.801557110789208771e-01 9.357613148807177872e-01 -2.249885817834969097e-03 -7.906491930244204103e-02 6.544123228585894125e-01 -6.413610775150528909e-01 4.414778288861247457e-01 -7.344637291936343404e-01 9.284632549658668188e-02 5.141563935751172765e-02 -2.352955241546497434e-01 6.508519004313110257e-01 3.182421697012397660e-02 -6.476741335536068123e-02 -2.824755354439234534e-01 -8.836005312798241862e-01 -3.177068126663142866e-01 -8.926442121698052734e-01 4.180515933379788662e-02 2.103492018447694623e-01 5.158413643169118545e-01 1.841096422585212500e-01 -7.775129982754815927e-01 4.095730882156491393e-01 2.877190959534266235e-02 -8.863504712112250106e-01 -9.848041228704772498e-01 -3.786519620340705883e-01 2.673135186804532215e-01 7.926852231580669983e-01 8.571985912255196682e-01 4.711007417600353020e-01 -4.896970443909038351e-01 1.547577934661206189e-01 -6.160449194591232080e-01 4.499626977040560583e-01 -7.276469655425540362e-01 4.635251975999528096e-01 7.025165650954584562e-01 4.740778743582984428e-03 -1.041259736184486639e+00 -1.065424024773372891e-01 6.223266267941963692e-01 -6.856788576637126154e-01 -1.002382268949156163e+00 3.556576334117773075e-01 4.502038561200260441e-02 -1.010216668583799882e+00 8.679896578461203660e-01 -2.921069400498896990e-02 1.023810198074426442e-01 4.729977990801421672e-01 7.626794417357115607e-01 -9.648332718901247995e-01 -3.899700353063039748e-01 -6.143350939670728650e-01 -9.502361874106318718e-02 -9.317411548279752598e-01 -8.856341801375052780e-01 -4.888237997947725844e-01 7.687794950282148543e-01 7.970722566874941517e-01 4.148066569610450727e-01 -1.040022940470858970e+00 3.904252657310121055e-01 -9.771444592422168229e-01 -7.609341692710601679e-01 -1.043797073218145410e+00 -7.367916789216424345e-01 3.650293006175987509e-01 3.429782189230902167e-01 -3.125540686868902296e-01 3.805998870620592167e-01 6.170383825696598157e-01 -7.969075044723098467e-01 -8.564140560534621027e-01 -3.435258597574640249e-01 -3.520142861030602921e-01 -5.772040752013094522e-01 4.492479855224660867e-01 -3.636907444923807575e-01 5.257127504690450870e-01 6.693631891521485411e-01 8.096642514741117166e-03 -1.777479304759208567e-01 -9.555707245569314834e-01 -6.071191279894827542e-01 7.023261033107667251e-01 -5.019870518614405475e-01 2.137265444272463955e-01 -1.227093742617656330e-01 -9.300635461243542679e-01 6.581842533745390078e-01 -8.953537045374776460e-01 2.330056841575434412e-01 9.168316068834622135e-01 3.446866239062625348e-01 -4.809402390839971897e-01 -9.380121357554919159e-01 1.499059493271668320e-01 4.762893148516044173e-01 -4.206428434589362664e-01 2.685206194504107802e-01 1.259704719191971547e-03 -1.058366971227435505e+00 7.398684753899950062e-01 -3.610037219867833769e-01 -3.310271474016245330e-01 5.583437172232540435e-01 -8.613184307445283239e-02 -1.425513315785977841e-01 2.461712238992350976e-01 -5.937646865758067216e-01 -4.078027124569601203e-02 3.347174892041363536e-01 9.734926774927096099e-03 2.586872260138275426e-01 1.963846383238860294e-01 6.600475771526248536e-01 7.213246390632065408e-01 -9.213019516121175867e-01 -5.652211457163048847e-01 -1.019034616257660231e+00 -6.725912287667581424e-01 3.456955676457102999e-01 -9.908929870367565451e-01 -7.224966411971099900e-01 4.272395793909520845e-01 -1.053220410990776817e-01 -5.448756091519604272e-01 2.108778452078257093e-01 6.556761535097430649e-01 -9.199305656333278680e-01 2.652827326464480273e-01 3.008279390776821827e-01 7.113003487776660139e-01 -7.490879160617498478e-01 3.926786399543483186e-01 -8.326405588430270122e-01 -9.289452884870320615e-01 3.011825093235017681e-01 -9.725237000581029578e-01 -9.519405844138506545e-01 -9.790052153405637281e-01 -1.432311966084227894e-01 4.496135233235506456e-01 9.088893280575133238e-01 -6.104544124809323513e-01 5.328167415916750249e-01 5.731186785852629972e-01 7.104385715644389032e-01 -4.717866293020409607e-01 -8.508610193539906108e-01 4.941107830067882345e-01 8.730180318628966152e-02 -2.715398003027701401e-01 -9.956032765815878705e-01 -1.064273826324251493e+00 -4.542294912674021967e-01 -4.973031549641664939e-01 -6.887409338766849187e-02 8.261329794350583677e-01 -2.322749069978887193e-01 -5.083389244679490382e-01 5.632733686273342366e-01 -4.790890795396492985e-01 7.314531281942850960e-01 6.423563705251902345e-01 1.759263158259515014e-01 4.264660299326661907e-01 -7.178264442498484277e-01 1.796554980561769210e-01 -4.549395555318355155e-01 -7.602142179121090804e-02 -6.179858146268469854e-01 7.643252114289019739e-01 -2.570042177670239236e-01 -1.177647670917547351e-01 4.392510839084516894e-01 -9.140605299564017461e-01 -5.093321682738422701e-02
5.900128153660558761e-01 3.130091409061221408e-01 -4.145517725335097214e-01 3.629268315304582382e-01 8.280982406983181665e-01 7.474636809821354477e-01 4.466883437648393462e-01 -5.132850517714389049e-01 -3.208735729402227288e-01 5.393097903099540458e-02 -2.866393287203920504e-01 -1.515680515584030552e-01 5.431298320143884695e-01 -8.377717071361158174e-01 8.937614151987690603e-01 3.543890968927155272e-01 6.906576797458522377e-01 5.127546839697603165e-01 -1.886730170083886771e-01 8.406589912156023914e-01 -5.466175933577468449e-01 -9.494948408483058211e-01 -8.671533023239813565e-01 -6.298223547421920587e-01 3.734922136098638851e-02 -6.094716196061403801e-01 6.335839498346327314e-01 -1.043978399902979692e+00 4.390573534500917807e-01 8.758197117676416177e-01 -5.041092532953955763e-01 1.914936665543362782e-01 3.790130722822111498e-01 -4.000066885788723936e-01 -1.720079464033660299e-01 4.319245885277688268e-01 -7.788905882210889198e-01 -7.731262641440815875e-01 -3.038294649006747505e-01 -5.908350985378946207e-01 -4.442964329945764401e-01 -7.442536459168703766e-01 -8.456988521947106374e-01 7.792430431076480257e-01 -3.539232579085614949e-01 6.989667585386752369e-02 6.361996991715195005e-02 -1.397002575382731426e-01 4.378497598722093098e-01 -3.906080348551955184e-01 7.271422057041566633e-01 -9.099938896023871404e-01 1.011592076374332322e-01 -3.671348400817686097e-01 -3.157056381966296121e-01 -4.259132641929077590e-01 1.677888518003996798e-01 -5.850245115639354232e-01 -4.858733017147039979e-01 -4.706752633082053605e-01 -1.041717416160325316e+00 -3.062179206285588484e-01 -9.411599418750531409e-01 6.979789186467988404e-01 4.007781948099967129e-01 1.333219949234194512e-01 4.541413942776092449e-01 7.503049900871604505e-01 3.471636564792188739e-01 1.082311193531550059e-01 -7.925902774450744870e-01 -2.229621263211968019e-01 1.158636376278258523e-01 1.554688384541626778e-01 8.763095746107952833e-01 -6.467473045680431909e-01 2.608071560565389246e-01 -5.176709223709543561e-01 -2.027366744620339722e-01 8.927881753900434036e-01 -3.924950402460239962e-01 -3.402836176400442225e-01 -1.632782639393935697e-01 -9.898997624557065445e-01 -2.529295091086136704e-01 1.733139188121814445e-01 1.082501390060433555e-01 6.952904419950647341e-01 2.119413016415232498e-01 7.806262346665536478e-02 2.302742706704425657e-01 -9.460945833382389258e-01 9.458125244148337663e-01 -7.521178722572018360e-01 -2.032763546805701205e-01 -4.581312391460033440e-01 1.100541616387800958e-01 7.316357529433867302e-02 -3.463812038066633181e-01 8.965555533231716057e-01 4.596948144065080566e-01 7.349745067233037776e-01 -1.416060274331229774e-01 1.498439990927402377e-01 -2.181754611423165069e-01 -4.290048692365555638e-01 -1.919808771568657767e-03 -6.734486835939036409e-01 -6.137420918138671855e-01 -2.269230745895247162e-02 -1.011738356466076683e+00 -1.429236749087710867e-01 9.598594558561535095e-01 6.011880771781515920e-01 -8.924225401136759439e-01 2.699202517388633038e-01 -6.085393232773292915e-01 -8.168347516751126580e-01 -3.475671324643053173e-01 2.856647942218146219e-01 6.284628467365981075e-02 -9.697207535048031346e-01 6.659504001314434651e-01 -9.586297742419605528e-02 6.654535049706618022e-01 -6.708058049808385270e-01 -8.634640524579638710e-01 -3.306129328933145317e-02 -1.372769204257732745e-01 -1.011003134592330488e+00 -9.744057041483924486e-01 -8.733180804353019022e-01 -9.575096332748355143e-01 -7.049937315185470510e-01 1.152198262313730570e-01 -1.178210163082694523e-01 9.072402689317734525e-01 -8.942692497656520301e-01 6.945169144890011026e-01 1.076988178655035600e-01 7.071051375564133545e-01 -9.246419128270112475e-01 -8.507004966587158323e-01 6.785783507108331669e-01 9.625900986152519101e-02 8.106977365510927014e-02 -1.046356343262349053e+00 2.407938801151715547e-01 6.482135454360024029e-01 9.288027587687920361e-01 -1.833858542502121436e-01 -4.540198686721823584e-01 -2.352250186486386230e-01 -5.875737402516856278e-01 -5.869509149323796082e-01 -2.057263435552985076e-01 2.921508811820824336e-01 2.908611708782388727e-01 5.023343143338403483e-01 -6.348353963204843575e-01 3.919346828832448448e-01 5.463235963592800726e-01 8.970593383880688665e-02 -1.058388566905908851e-01 -7.451885547619988559e-01 -9.498232991871916608e-01 -1.486958064380148881e-01 2.677215372144391980e-01 -6.343663573896672903e-01 -2.300127939449056191e-01 -4.729685402245519671e-02 8.565671210292782334e-01 6.918869726951989430e-01 7.016676078590512455e-01 9.611536369243314226e-01 4.958705797227991319e-01 -6.493321413848248680e-01 6.133241831438795977e-01 -7.230662598152224341e-01 7.262217065573248753e-01 -3.790994187912422597e-01 -4.789929081122338839e-01 1.551454254758098950e-01 -9.234786854420233837e-01 7.752581601550029289e-01 -2.777006909290530290e-01 5.462692070630513763e-01 3.666711679792697409e-01 3.584599032761280890e-01 2.530728995297003986e-02 -1.299538053421729344e-01 2.601392610904330049e-01 3.220744597674374265e-01 -5.709371037288649697e-01 4.497579493926504024e-01 8.214492373385350321e-01 5.692088223640017208e-01 3.880223493621599018e-01 5.708734761219974585e-01 -1.051940668695982017e+00 -6.832266618200367736e-01 -3.811107881555203525e-01 4.259378111122993360e-01 9.062941042533877445e-01 4.029667769146800249e-01 -9.596361561687090369e-02 8.110089355098745179e-01 -3.031889931759982337e-01 2.362649464934918342e-01 -1.046046849088703823e+00 -6.995567615063650324e-01 -4.535236107896270519e-01 -2.606966937768163128e-01 -1.302869210504657982e-01 5.393783025677710841e-01 -4.821521246011442052e-01 -8.804676916919241814e-01 -8.601470547258453780e-03 9.045027351443120089e-01 -2.426451234718681738e-01 -5.306587190573880397e-01 5.045696764003074763e-01 1.920150261095497635e-01 -1.024429617245163016e+00 9.130112492187645312e-01 -7.357996343638621706e-02 -4.388004798867948808e-01 2.630991829337265830e-01 -4.636319693128759245e-01 -1.119312540990897720e-01 2.569088374941684294e-01 -8.058621626491986323e-01 -1.137665479811778013e-01 4.301906281389534792e-01 8.738096262557423222e-01 -9.995021978857664413e-01 6.068927739827389978e-01 8.298625656942810735e-01 9.246840352575238509e-01 8.255005755096140874e-01 -7.928770783034237990e-01 7.300752888163245524e-01 -7.517988203393654034e-01 -3.208461405806822819e-01 -3.233178953542608092e-01 -4.971745761188156587e-01 -3.507126206056047635e-01 3.896612707739374737e-02 -8.898182879787652766e-01 -3.021947998481855358e-01 1.171740227718388455e-01 -7.813796460633702923e-01 -5.504933105260937376e-01 -4.784145760408845538e-01 -8.968056368897967534e-01
6.154483945103924603e-01 -4.728533922765056907e-01 -1.780679778098266108e-01 -1.887697188976346085e-01 -3.895894209977061595e-01 -7.445011839033868206e-01 7.872060756109613422e-01 3.631870785665546331e-01 -4.648186515539379782e-01 -8.136902572492733521e-01 -7.527136192680337068e-01 -4.458711386300286961e-01 -9.007438681873362052e-01 -7.096444062529750907e-01 -4.866180109028413886e-02 8.732149067634243922e-01 -1.318071956099760855e-01 4.187140428035405759e-01 1.409038566010775984e-01 9.535067424760935717e-01 -6.432200579642718408e-01 4.784595487848194439e-01 -2.977533232622670001e-01 9.827340037055922739e-01 -2.943156607135683500e-01 9.589975346960707414e-01 7.208321071090884047e-01 1.958850657325620082e-01 -9.441901313837652854e-01 -6.279775399672767877e-01 -8.865100511016958951e-01 5.857582411480336537e-01 -8.512841856952159114e-01 5.740749062768921718e-01 -9.438454443345536404e-01 -4.894361702692946459e-01 -4.046583146059254954e-01 1.303256160661719620e-01 1.254689287863653135e-01 7.749524714620296129e-01 2.761369805535132116e-01 -6.770060314553373315e-01 -9.457929255607782082e-01 5.243519339600045681e-01 7.219444838045872836e-02 1.575375475907365708e-01 -1.713509738178535247e-01 1.797844635927458024e-01 -1.873870702433282909e-01 -1.077620660799243346e-01 1.868225006012257106e-01 -1.516745405420778098e-02 -8.816402868827549755e-01 9.540961168693775640e-01 7.104175361225987251e-01 -2.415587059892689847e-01 9.320778612074498426e-02 8.660630731431837592e-01 -2.027693687406900425e-01 8.898868577838100480e-01 -9.390071023342919654e-01 4.917518836852283748e-01 5.943117119220127087e-01 -6.111816367904030489e-01 -6.740365600671082147e-01 1.834150401115429152e-01 -4.061550752997819536e-02 1.735497516113246042e-01 -7.353378579454358244e-01 -4.432525270423534614e-01 -8.603729740011863969e-01 -7.838865934415697456e-01 4.328479593121928870e-01 -9.470107926902540108e-01 7.975204904197910616e-02 -4.014867598868231968e-01 7.383151176071021116e-01 9.022564103890787224e-02 9.953658259834459177e-01 1.230623548919110993e-01 1.250692531638250282e-01 -3.285325747793095830e-01 -4.952612374541556228e-01 -1.440533671039395669e-01 -5.453873802775244251e-01 -8.568468843244689825e-01 -1.498189906040486852e-01 -7.861056168169151537e-01 4.472779055353192090e-01 -4.027470315864177808e-01 -1.880755440344951401e-02 -6.086274494183809836e-01 3.618047283075584986e-01 6.617521215161275006e-01 -5.590211449074562466e-01 -9.832323190571112814e-01 -4.978802753581916263e-01 2.553200932827697223e-01 -3.780069052825709708e-01 6.732643739359992496e-01 7.057368426809357276e-01 -2.556981755111013555e-01 -2.691871868206920371e-01 -9.668035715322702561e-01 9.943427740553972827e-02 -6.912300806109764606e-01 -7.743460577960308289e-01 -8.929321945884335365e-01 -6.412702840514111768e-01 -6.880017824870666709e-01 -9.287661818197088248e-01 9.651368059907837749e-01 3.167897796198042015e-01 -2.258455161960608859e-01 -8.743745957632529375e-01 -9.054157079381115469e-01 6.112154103318824250e-01 -1.530475066645820004e-01 -7.833231703250659317e-01 -6.644926814023826012e-01 3.605055291739663326e-01 -1.442738636945062602e-01 -8.062277278047973450e-01 -2.153880097189750931e-01 -9.103757298354723249e-01 -4.577534808250955933e-01 6.362372334650218814e-03 -8.353824667384246450e-02 5.375685905476388360e-01 -6.792153368869805474e-01 2.040746862201346656e-02 -7.157556641612904391e-01 -6.211328785275402886e-01 -1.788047897117465423e-01 -7.081631294948158573e-01 1.257882270723480467e-01 -8.945580205238738702e-02 8.845712949467483543e-01 3.402093252738457863e-01 -7.925764297738379094e-01 2.144152009879428389e-01 -1.590240074835923834e-01 1.579129981042362661e-03 3.122406814356887828e-01 -6.283840084924980918e-01 -2.807070982212680477e-01 -3.785256122609758495e-02 2.297396425080019400e-01 -4.287796115333616931e-01 6.890848024684633442e-03 -4.427857826341373704e-01 1.459389785241560766e-01 -3.151853049324523925e-01 6.785127034790816580e-01 3.720263124606585925e-01 6.337345306050685689e-01 -6.900707479387554466e-01 -6.293350997602047414e-01 8.537410363528633028e-02 -8.756852177912155533e-01 7.734494100550817763e-02 -3.279552916781860450e-01 -3.509134291909359882e-01 -5.400757096004009661e-01 -9.902608646430488548e-01 3.744248055482441995e-01 5.070950879954546631e-01 -3.232159102650873916e-01 -5.967486162613531292e-02 5.949293003728550744e-01 2.950579487548068980e-01 -9.538450708378751752e-01 -4.307627401577921455e-01 9.094362112058234082e-01 7.666697933675974408e-01 -3.492467228650825151e-01 8.228311954132765393e-01 -4.031961464748823332e-02 -5.952362643794762986e-01 -4.570551914833984042e-01 -5.166360898934367896e-01 -8.883379118605543301e-01 -1.247964381487462748e-01 8.094595587619884958e-01 5.158280380829809858e-02 9.106816262279335272e-02 -5.456033238098981775e-01 -9.071248125226125669e-01 -7.474924680499867025e-01 -5.690004112678328507e-01 7.472835734148831621e-01 9.768689514400417107e-01 -9.633362292264154858e-01 -1.130843349486949784e-01 -2.607755721215432310e-01 7.305686867812528906e-02 2.330965804092461624e-01 -2.066054111042336383e-01 -6.309214601046048143e-01 1.717690323874844771e-01 -9.331759149066891634e-01 7.893717987527884006e-01 2.891153131334456838e-01 -8.104512339428742163e-01 1.037121277291617322e-01 -7.419621980797478367e-01 -7.622531812232622439e-01 -4.677936644869474248e-01 5.262542274441952550e-01 3.971586109271600384e-01 1.188055386772568639e-01 -4.890458543901006760e-01 3.589537762711715596e-02 8.610301013262179337e-01 -6.280748178901945922e-01 4.693460947949836259e-01 7.452436144882950142e-01 3.393033538527830961e-01 -5.912014136799673691e-01 -7.415952175834280569e-01 3.022692247467504215e-02 -7.390781017302640032e-01 6.515715228657300573e-01 4.753851235938471448e-02 -4.159369547170531090e-01 1.362973724195607472e-01 -4.787036897327495155e-01 1.699557653498963428e-01 -5.356245532033181433e-01 -5.617485631432794779e-01 3.714244373712436570e-02 6.711515244764835186e-01 2.898643429941352712e-01 -8.114716847249680010e-01 -7.307618047403440231e-01 -2.192657344890191207e-01 -3.594171044154447214e-01 7.825476486291293998e-01 7.827988069712350505e-01 -9.402170100155524679e-01 -5.788662867481485508e-01 -2.231991607528739374e-01 -6.463764501539740470e-01 8.375450782060044341e-01 -6.207036074979466189e-01 4.687773808079144788e-01 9.151527370818381968e-01 -4.452335562293260190e-02 6.287952834637517974e-01 -1.434617063311162954e-01 6.270440323891962597e-01 5.246514247157817445e-01 9.194024117931862694e-01 -3.252502301571597032e-01 5.334440990721108777e-01
8.400532526223083440e-01 6.174844841393426487e-01 6.230753424395945039e-01 8.913945771054432310e-01 -4.264985251768392271e-01 -1.216099999947655441e-01 -7.899101549247958820e-01 7.504085023676562161e-01 -3.226103738803190457e-01 8.007419785506807441e-01 -5.967833760562480938e-01 -3.093403873825848471e-01 3.728055215215004270e-01 8.420676990494196934e-01 3.670746883926280790e-01 -3.286262793097445289e-01 -9.220472694470478459e-01 -3.408732697039043580e-01 -5.263020052747822974e-02 4.541671904837147333e-01 7.836073866558378453e-01 -9.909697151028339368e-01 -8.562070282276225131e-01 -4.394375994456940493e-01 6.860160503090198536e-02 6.200262163867791693e-02 -1.517524135523213580e-01 7.629389009078431094e-01 4.475989828830332362e-01 -7.355701719808780403e-01 -5.337275516146157139e-01 5.233584539727558979e-03 -2.805873511538535814e-01 6.086911616435159988e-01 -1.643892088530525264e-01 8.801288369370091624e-01 -6.387275300847869985e-01 -4.108994256315774696e-02 7.798668316720380744e-01 -8.719632464936319938e-01 -4.504155393696139265e-01 -5.980279002503512409e-01 9.664039397337191861e-01 -6.771664210864881961e-02 7.680015510966050618e-01 7.031220650319022214e-01 -7.956884487247375404e-01 -3.034359329922666215e-01 -1.590683127912712047e-02 7.502807627292207293e-01 9.552756744693886581e-01 -3.298378599388122612e-01 5.609385590375707276e-01 7.128035674122570331e-01 -4.402855564061093352e-01 -6.059922580598980923e-01 2.906727736270808271e-01 1.237271041174565489e-01 -7.010116369992278607e-01 4.809859451721986146e-01 -2.831001884340925701e-01 2.054703665855419359e-01 -9.917586295183238310e-01 1.723036882696772354e-01 4.630077294246783826e-01 -3.177540116048768182e-01 5.171167262669809084e-01 -1.503381649793603114e-01 -1.565534199388480818e-01 -4.108772825401856843e-01 4.783520754360168770e-01 8.325545702593214470e-01 -1.160403957734191666e-01 9.700551928288044801e-01 5.940551289710633842e-01 -3.857812184045849579e-01 -5.434003216170341100e-01 -2.842857368329617662e-01 -1.937340933240014329e-01 -1.515305615226275431e-02 3.957101214861417082e-01 6.728007516825752488e-01 -8.839131079990530937e-01 -1.023013686440129161e-01 -1.489298581962211487e-01 -1.615561784205579166e-01 1.241492175877996207e-01 8.727389021312345063e-01 -3.459024533363030396e-01 8.939155249838773853e-01 -5.128755806515835625e-01 9.319043899997418723e-02 4.228953921881374312e-01 7.579387959868640889e-01 5.612901093210509451e-01 9.236459547757905897e-01 9.826293268792908597e-02 8.076607133954180062e-01 3.053004557870458435e-01 -6.676513356562180368e-01 -9.426717844165045657e-01 5.148870452848668400e-01 3.514131565625285836e-01 -4.263242082727776716e-01 -7.911614553803383298e-01 3.752520902400433567e-01 4.939975614048520147e-01 1.117348776943543204e-01 3.266213871399473168e-01 -1.954818570287456259e-01 7.290365057038230567e-01 6.132050780009854624e-02 7.870553518858803832e-01 4.764366707512155963e-01 3.966996294374861703e-02 4.370839770428138205e-01 7.646496849901249782e-01 -6.204298997833109786e-01 -1.440918064142915067e-01 7.084803817592799646e-01 -9.413538569877214490e-01 -7.416472126055788650e-01 -1.931081308808935970e-01 -7.808665619264500979e-01 4.490983731103477261e-01 9.459967764048716754e-01 -2.488953430807363393e-02 9.098337046587913202e-01 -7.327210834165752695e-01 3.965554757567161248e-01 1.607763726165278018e-01 5.746333425288037144e-01 7.230860693803918549e-02 9.496032890548217198e-01 -1.230722194769067190e-01 8.925076419300289610e-01 8.330262885383025173e-01 -1.565656646008671271e-01 -1.820993925627023557e-01 -9.676734791746309794e-01 -1.062309920051472817e-01 -6.052297991921308240e-01 -3.319448929572275664e-01 -4.398095015683590736e-01 3.371507919207945569e-01 -1.230163401190734612e-01 1.905713766719418778e-01 6.835270754403899307e-01 6.621169419756902652e-01 1.614783639062357667e-01 -1.223941218115383728e-01 -2.067076222927805296e-01 -8.612939279709987961e-01 -6.874725603771129900e-02 -1.971851574299893217e-01 -6.071609371883586181e-01 5.943761060890497827e-01 3.930153475210974579e-01 9.473124523073662706e-01 -2.402627144999761877e-01 -1.745026811969421776e-01 3.646611295193590702e-02 -2.955167836581334972e-01 8.628479956052481636e-02 7.752449527773809246e-01 4.569377570237110886e-01 -5.980021347707399348e-01 5.967961542587126855e-01 5.856792770703133089e-01 5.961379075308861353e-01 -3.690955754531262678e-01 2.216310052648847728e-01 2.956766646455040171e-01 -7.643529901826783268e-01 8.329352937789715750e-01 -2.679297947748754960e-01 3.668761131909147322e-01 8.474887638811081647e-01 3.432184713931583642e-01 8.734480263498431984e-01 3.884102801000622329e-01 -6.636093332090454711e-01 4.520988329059708599e-01 -1.926820970391979193e-01 -3.649475128642962751e-01 5.587052364825990658e-01 5.771391675720954906e-01 8.944926401225015145e-01 -6.010619580190728062e-01 5.914401475472706032e-02 5.382111395753778060e-01 2.924399239184639551e-02 -5.495038303689336878e-01 9.866193470603280558e-01 7.717684521549118548e-01 1.507280062782524466e-01 7.259306544576606124e-02 6.699259409472891891e-01 8.195466052444158045e-01 6.312731685280027483e-01 -1.374001964824415889e-01 7.014945901159713726e-01 -5.525693234606238180e-01 7.631399166713226379e-02 -3.768628642671866258e-01 -7.641017127807123721e-01 -7.106998842655077864e-01 8.653949029831092821e-01 -6.145955042428913329e-01 2.947163676610700112e-01 -5.303693588223545863e-01 4.702091263085618478e-02 -7.416051958997862403e-01 -4.312088927134639649e-01 -2.072186952354507783e-01 4.074868898397368544e-01 7.966197769145446639e-01 -1.473298333598785093e-01 4.178161490987384874e-01 -7.247874832121279365e-01 -8.022800537970611323e-01 -1.077694025876550360e-01 5.173453966370862300e-01 -5.405060289380476668e-01 6.104298073440368455e-01 -4.985269743567076195e-01 -8.353498668641172742e-01 1.774240923542746637e-02 -9.998297185227791317e-01 4.125718153370067087e-01 4.748629064073435768e-01 9.423119335851869449e-01 3.220008251134092170e-01 -1.462346780047625409e-02 -8.608794877408637580e-01 6.494972855067962514e-02 -7.271078221862322666e-01 6.018022017407173019e-01 1.480702896455544648e-01 -5.780353007935445930e-01 4.105031650917659314e-01 -3.368431213746649888e-01 3.315767652540268506e-01 5.557178355565043359e-01 -8.296926637425972029e-01 1.566164377621088663e-02 -8.014637354157548854e-01 2.956790663862670088e-01 -3.727352900230107569e-01 2.840104043735983685e-01 -9.064306784539514217e-01 7.251843541789650960e-01 -4.718609025786336952e-02 5.740614768220960729e-01 -5.503809417949429017e-01
-3.376672101983202445e-01 4.732816658358779405e-01 6.905027231182027103e-01 -1.279484096162777640e-01 7.897202199273439804e-01 1.522152320254095414e-01 -8.980168574685436500e-01 -1.083795983915281091e-01 -7.429586254045920102e-01 3.900709595457899637e-01 -3.320110499421615735e-01 -6.222754186375791807e-01 6.257037397442040128e-01 6.318197160885417052e-01 -3.485177207857484416e-01 -2.487484862370899219e-01 -8.822515155961437872e-01 -6.525363578349445692e-01 4.711238286471259307e-01 6.058489086828782594e-02 6.462440329441476727e-01 -4.147076561481476131e-02 4.677336763898527483e-01 -2.174736700134513243e-02 1.517383538781782171e-01 -7.167843186932021382e-01 9.185342272301803834e-02 -6.094952555848150988e-01 8.168900792137835654e-02 -7.457105705101317872e-01 -6.728942888833364666e-01 5.078130617985638917e-01 -9.145578660382076563e-01 -3.218621650053412053e-01 7.291534914560915404e-01 -8.197317748854083819e-01 -2.973750663179527964e-01 -8.167447759322964407e-01 6.830207534298721184e-01 -7.373870229832532042e-01 -5.625807454156593890e-01 -1.824116192532334035e-01 2.846081424567487583e-01 -3.425989873635824079e-01 -6.227757993787639279e-01 -2.877676264367736714e-01 9.585694525063030713e-02 9.583483293519797774e-01 -4.320454931926968056e-01 -3.403696683656640687e-01 3.593824253029269666e-01 -3.870962315328254633e-01 -3.176266085617981960e-01 9.370011193547205242e-01 2.033477979222214072e-01 6.336487312778792402e-01 -9.708516931298672992e-01 -7.029198071322598773e-01 4.141012252433750040e-01 5.737465439906096198e-02 9.891082405361697472e-01 -2.191338268114209967e-02 -2.939980863333644390e-01 -6.754015444135312851e-01 1.396576292944265996e-01 4.641852856239698233e-01 8.586126176631440066e-01 -7.479879354661522761e-01 -1.002114375158429604e+00 -8.526940339371051614e-02 -6.792264160929343264e-01 2.192471511814308160e-01 2.084534261120302434e-01 -2.132459781098718921e-01 3.021494216791511533e-01 -6.762065173511973004e-01 5.984075675698483643e-01 -9.162912439260348929e-01 -6.915741933785816142e-01 9.330803075440913252e-01 7.550846670021356122e-01 8.494423619868899378e-01 8.391582641269318410e-01 -1.203999392544926467e-01 8.811113722284186212e-01 -5.544545077696886315e-01 -9.179652918011533824e-01 4.824524028764048955e-02 -3.920861485333534402e-01 2.115687177076132700e-02 -9.604873230670253614e-02 -5.221489020029918687e-02 1.279650452791546433e-01 8.348303947487132337e-01 -5.517998827725064670e-01 6.936717367935183454e-01 4.842969296519855638e-01 -8.297716241038340934e-01 6.241017455376156597e-01 -2.176952912522311656e-01 -3.520047079015232172e-01 -1.048582451570398977e+00 -4.918230818406388871e-01 3.678486978651144823e-01 6.996795916700914164e-01 -5.530930686749333525e-01 -2.617319017965793471e-01 -7.108973427329875472e-01 6.034523715612355454e-01 4.380827217402532003e-01 3.859494763175156939e-01 3.190465916532111978e-01 7.724585680066499149e-01 7.354985172215472433e-01 2.417628663437030312e-01 -4.446407330696343640e-01 -2.673338265386099311e-01 -9.980098004653615851e-01 8.271132594200220067e-01 3.232065620249439108e-01 8.201986821405464756e-01 -4.534323379562366085e-01 8.889212562347468261e-01 7.313100197387131240e-01 7.596992475634647413e-01 -1.014611441307384121e+00 -2.658795146259612108e-01 -8.163630019073679911e-01 8.573488314832186097e-01 -9.393257638435020471e-03 -4.691581729961171593e-02 -4.918772524833663756e-02 1.064516252448049066e-01 4.801533512131343079e-02 8.159793738133446217e-01 7.462730951714289240e-01 5.838469255289924220e-01 -3.977558944650695927e-01 5.666075267730215081e-01 -7.825291992200517077e-01 7.251344544682331028e-01 5.061795266148452210e-01 5.200845520297369129e-01 1.991695361957514666e-03 -1.116931284745124875e-01 -5.655875443260257596e-01 5.751626552859098185e-01 9.376177183346607880e-01 8.526748780243656456e-02 7.299667762325311449e-01 -4.386315197064644678e-01 1.343779758068686624e-02 -3.478415725062118935e-01 9.564682672961944965e-01 -5.359617572127270968e-01 2.823301524029732668e-01 4.830217952815121785e-01 -9.921680359460810505e-01 9.443273097186132281e-01 -8.701178371717355198e-01 2.117319995161344170e-01 -6.910351739768322288e-01 2.364980576911424482e-03 -8.326401370568135007e-01 5.505210019664035226e-01 5.537357175342617621e-01 1.470434919457046241e-01 -1.004383036939190399e+00 -9.438397554011840329e-01 -6.741111237604353601e-01 9.267865763683086344e-01 -4.886276477028407283e-01 4.642796518065384626e-01 -5.053655241009350485e-01 -5.539447477854213542e-01 -4.922807138915893943e-01 -4.851194944900752426e-01 -1.012028515583644150e+00 9.665076515631531029e-01 1.368178871325367307e-01 1.766818639586972273e-01 5.365946365437376797e-02 -9.156611921760343664e-01 -8.571833274083687226e-02 7.611571825859476947e-02 3.124561197837174009e-01 2.260276209762554500e-02 -8.749628128877812161e-01 2.018849292423812170e-01 1.011399738923670771e-01 1.060149320176585058e-01 6.560959470530625115e-01 -1.813779103192377506e-01 1.865464980256503758e-01 -7.813939782975581894e-01 -5.073916740639247136e-01 7.196785579913795861e-01 -9.885049869627561270e-01 -7.251818302267555305e-01 6.330178313731934514e-01 -5.707696845442269407e-01 -5.119925337263357967e-01 3.459670160934882888e-01 9.236535723998299252e-01 -6.431368291459294007e-01 4.924505455808480536e-01 -7.479816917414484623e-01 -2.683584683599399279e-01 -3.930807293484581688e-01 7.191964421306973332e-01 3.159250430887953764e-01 -3.808155216557392864e-01 -9.646756181567739397e-01 -3.374484213191934479e-01 8.705874615096587110e-01 3.436575477079612667e-03 4.550366401619633239e-01 -3.315507173581827560e-01 -1.414203895519629828e-01 -5.772398966320244629e-01 6.552183077693973789e-01 -2.921700141835419928e-01 -9.309464947573150573e-01 3.387805824512121200e-01 -7.465507323301173725e-01 6.090409842162840537e-01 -9.493648596300626741e-01 1.339644428426770562e-01 -7.965362364698060083e-03 1.005736036719650395e+00 -7.177668833416672722e-01 3.301369865307792195e-01 -8.090902754828237509e-01 -6.965719416584122969e-01 8.926897515503882108e-01 5.884189256430628623e-01 -5.779976356182289221e-01 6.887036286619815373e-01 -9.309158286973160390e-01 6.031631567704509589e-02 -8.081941813621602577e-01 9.455392033897584980e-01 1.683031186144396951e-01 8.699359272821921563e-02 -3.767209403764327780e-01 6.465724603181116636e-01 7.445494657823875650e-03 -9.753304927175362460e-01 -6.400923148805092167e-01 -1.466110258803126065e-01 -8.580366752034755962e-01 -4.801955514860812291e-01 -5.251511001850384108e-01 -1.075493345471706608e+00 3.582147516359483475e-01
4.965803219040763605e-01 5.906622350556924861e-01 5.656987757367575309e-01 -7.796595471375341591e-01 7.127903525881074120e-01 2.671967699642617822e-01 3.559673237299366688e-01 3.868646479908979807e-02 7.382288760458990406e-01 -6.412703498923125744e-01 5.063290968917294466e-01 -1.771639817069544376e-01 6.942561882094216985e-01 -5.177369271582554777e-01 -1.093805082904716786e+00 -9.754143083409743120e-01 7.644563988894984563e-01 1.974207217622467314e-01 3.700111078417275268e-01 -9.197109890523473552e-02 1.308449442620897643e-02 -3.260541078008094562e-01 4.323019662765504312e-01 4.787976522084732567e-01 3.551191892885416368e-01 7.947989054382330609e-01 4.939156564180580689e-01 8.441469638980065859e-01 5.648611843415848877e-02 8.946888836246023879e-02 2.332865667850783920e-01 -4.991467055820583143e-01 -1.039903728620950263e+00 4.688886605201465496e-01 3.935273289889935633e-01 -8.664289144731418535e-01 -7.460348913523613401e-01 2.384796529670231702e-01 -6.883203057941512937e-02 -7.147625656880680634e-01 -1.018488675289263456e+00 1.891240016901607479e-01 -9.321251565536040617e-01 -6.333416747023090654e-01 -7.634534381101214240e-02 -9.066012073110878422e-01 -2.180563415755078227e-01 -9.906116983068499193e-01 -8.835282971359560422e-01 8.029158105411547952e-01 -2.490330862718324184e-02 3.152034559289718652e-01 -3.296435108282729787e-01 4.486419232114858269e-01 7.470562084755038024e-01 7.485238921256227584e-01 -4.694367052863620410e-02 4.118360408809857431e-01 2.378610747028571393e-01 8.329083001479239412e-01 -6.016552593363987400e-01 5.949505164695519099e-02 -9.508982536659413842e-01 7.420338791867099326e-01 8.429899525892950995e-01 -1.126988723012978810e-01 1.318607466951126350e-01 4.307841554611183121e-01 -5.572272225324839123e-01 -4.201521713787776391e-01 -4.758870113265029622e-01 4.911344583217646526e-02 8.599911014665152509e-01 -2.796000702434220941e-01 -9.779943588318691372e-01 2.290005099140632328e-01 -1.679472646606597064e-01 -4.250910059480586534e-01 -2.161709608651825876e-01 6.078510356219712918e-01 5.203855888368141835e-01 -8.312052022606577495e-01 3.036091542475330973e-01 8.115687303484495629e-01 4.981654033973673679e-01 2.983396259128699990e-01 -4.326154860539814240e-01 -8.156602168291411381e-01 5.529421029541349286e-01 1.650858232179058804e-01 -2.816222349706985484e-01 4.494644703723926771e-01 3.662191923259360826e-01 2.184162754481287494e-01 -6.282995100759432017e-01 6.506319675347870257e-01 3.437226060001721817e-01 -4.557242076602504577e-01 -9.527526896716191906e-01 6.872228789775869373e-01 5.255667917897925978e-01 -7.711736891274449668e-02 -2.539974379994666687e-01 1.689309093087176805e-01 -2.638743418390435136e-01 -9.717467788457653244e-01 -4.794152056517008709e-01 -6.131152264186703338e-01 8.967161302969706149e-01 4.820963199908748775e-01 -2.599734578475224600e-01 4.326244023161861518e-01 -4.139158788599046623e-01 7.608363275969870151e-03 -7.321549889748072415e-01 -5.227858271421461644e-01 -2.636313891574924573e-01 -9.572287341111809233e-01 6.482363551085127407e-01 6.591926992818669673e-01 -6.163392563781413536e-01 -1.917303600844608713e-01 5.831420764954241553e-01 -5.472668114066312484e-01 1.597036645280055789e-01 -1.979917576044906979e-01 -2.442410718699515315e-01 4.241138541964861730e-01 -1.606529561989790689e-01 -1.000226471359896147e-01 9.333046222113978718e-01 7.791211110443932997e-01 -5.655137578985353075e-01 -6.820006993605315371e-01 2.932525454118177222e-01 -3.607454010354267382e-01 3.526170102683477414e-01 4.160602209543597385e-01 4.982792879170875877e-01 -5.733819745341909302e-01 9.223889734639564297e-01 -5.676333678715617809e-02 -8.925486646858259432e-01 -8.674415698881284831e-01 5.834268129915629736e-02 -1.991780002943732350e-02 7.076485933923110094e-01 7.386114859637887831e-01 -1.176882921389023201e-01 -7.148543022130504632e-01 6.980990438034097301e-02 -5.690946599502246794e-01 2.209394111522833271e-01 -3.903171412916118382e-02 6.495484363577552767e-01 -8.976096547452736552e-01 -6.904823890107892881e-01 1.659133250409678684e-01 2.026424811283944749e-01 -3.539607082200321719e-01 6.276246395144677859e-01 5.678494389812993592e-01 5.936809267428168335e-02 -2.219059210913378322e-01 -3.413784806594852839e-01 -8.341089001181527518e-01 6.904969401307043952e-01 -5.746899266271865425e-01 -8.518451943940238413e-01 -4.469411171324347461e-03 -1.469224692625007711e-01 -9.490845043791044100e-01 1.292158073930227066e-02 3.164077680670410175e-01 -5.159955041370237194e-02 -9.400146626605088152e-01 -7.746031318820257860e-01 -9.324259170748504522e-01 5.542147313102567530e-02 -9.069907136190435981e-01 -3.785115732360139762e-01 -8.066709294073279857e-01 -3.263895104419102244e-01 1.817399296633450678e-01 -3.348104854970904709e-01 7.275477243026329255e-01 -2.015380060181503619e-01 7.888786880547927760e-01 5.550880947450718139e-01 -8.421087269824335531e-01 -9.211841982556305819e-01 -7.585272545002695876e-01 1.322154334377933782e-01 3.079970124159063238e-01 4.408461425979798842e-01 8.165442888902659999e-03 2.572487071613115961e-01 1.954884787390964718e-01 -4.796766866243029059e-01 1.215539830460786730e-01 -2.308281765956065323e-01 1.170202447450885003e-01 8.282811327171282212e-01 -2.343624849630238927e-01 -1.295858467217646803e-01 -4.381733161073750327e-01 1.429715667260212375e-01 5.672387187614709170e-01 -5.274018166898246651e-01 5.705069288711562825e-01 -1.017211811681677652e-01 -6.442910708382371121e-01 -1.936033221732193221e-01 -7.885213530125719794e-01 6.873607719148729922e-01 -9.609373994144416731e-01 1.034769611576455139e-01 -8.882179277938619943e-01 -5.118002039189274432e-01 -7.711146390220889879e-01 -6.200011517175046255e-02 2.020811234953564239e-01 6.023361203219166349e-01 -1.283111796163834140e-01 4.149348129027787269e-01 1.084928680353534486e-01 8.776493313611603009e-01 -9.144395104215088388e-01 5.968491762463552508e-01 6.125426795543057468e-01 5.128463033758347001e-01 -1.744084499974113411e-01 -1.579838092613957898e-02 9.168208076623318714e-01 7.827821192634987213e-01 4.897507130438621403e-01 -2.226427149373094438e-01 1.834435472603770934e-02 5.323605107024994565e-01 -5.269195263303514398e-01 -5.672989226974741728e-01 -6.228966032062525082e-01 -2.747394720352023048e-02 8.417781339354942771e-01 -5.711386002755668434e-01 4.940217047272498219e-01 -1.097722909764071053e+00 -4.165075486682628253e-02 -5.048403216386341263e-01 -4.921263164185674110e-01 -2.852350801572914318e-01 -4.615370750762814306e-02 5.171253874224605029e-01 7.118292151057639128e-01 -7.847946358638167030e-01
-2.340849361224000003e-01 -7.282573983523583649e-01 6.008363305591907233e-01 -8.799331582232985394e-01 6.431959596341719765e-01 4.472541708066494204e-01 6.931404991112035674e-01 7.261180472691793897e-01 -7.859320559413707219e-01 1.847958141336683568e-02 -4.364597213661057240e-01 -5.446536144496809673e-01 -1.045224242142275273e+00 -3.135144528465577153e-03 -1.032285093231983364e+00 7.372031257262536830e-01 -4.845149556495639276e-01 -6.354379244592621434e-02 2.338440478222580943e-01 -1.064242047872484109e+00 -8.216693120092382063e-01 -1.130863000025364995e-01 1.476589411418401110e-01 5.795792457348247773e-01 -2.007410239166994292e-01 7.567075138314425242e-01 1.565838661325207326e-01 -1.066708758927960021e+00 2.735663319331998466e-01 -6.620067241351841325e-01 -1.019980157237469820e+00 3.633452976328817030e-01 3.508199843513528510e-02 4.961038324831682500e-01 -8.537115471920605492e-01 -3.230206182729993269e-01 -4.309595192879273062e-01 4.202287487738171762e-02 -6.054375870063417181e-02 5.006450686671530814e-01 -7.153698265428597436e-01 1.280494340311334744e-01 2.451335153728744221e-01 -1.210675882363796696e-01 3.813806250406016896e-02 8.992340130287557187e-01 4.620256481825198991e-01 -2.649736146386998392e-01 -2.086318736681455344e-01 3.771222058642547670e-01 -9.066271371002425639e-01 2.404997683478783954e-01 -8.365878116947691456e-01 -8.719369580019783461e-01 3.069689953415218886e-01 -7.216136230839182986e-01 4.863631538172555335e-01 4.324169892673345728e-01 -4.631236039151481187e-01 7.901075374352592440e-02 2.362527835714472724e-01 5.824156975417124071e-01 -6.285607849671046576e-01 2.713086233174989426e-01 5.865085173946512631e-01 -2.491569030552857333e-01 -2.856437784512160308e-02 -5.164535916742019755e-02 8.475233861617871289e-01 -9.862613687798410522e-01 8.302783951358920500e-02 -3.807035064772396754e-02 -3.501045893403449405e-01 2.967351203155725869e-01 4.688746170183655249e-01 -3.997050357053597881e-03 -1.008334253690563953e+00 -5.473372332943027274e-01 -1.006998760736760534e+00 -4.130547339893843595e-01 -1.434323942031499877e-01 4.864817333105348474e-01 2.485177521653970933e-02 -1.372484892683254742e-01 3.658851265174231093e-01 -1.043746366974207085e+00 3.570772803969287090e-01 -4.551151469236713876e-01 3.009364948709973564e-02 1.465163883901159925e-01 -6.888447374397778100e-01 -5.338753821490033191e-01 1.122895717151840556e-01 -5.217049633838816147e-01 -5.639344048221679451e-01 -3.752973640405306566e-01 7.562911774358790362e-01 7.155188089418981212e-01 -2.640151194402363954e-02 -9.736377846552204396e-01 5.509684531659423401e-01 -7.064733937902797356e-01 2.974455937032157160e-01 6.361193076847579952e-01 8.958697812548628292e-01 -7.761988186212523955e-01 -5.533931278674352437e-03 6.502664148439999403e-01 4.133016347754570746e-02 4.199709242913764462e-01 5.102610496106284588e-01 6.211111260340976825e-01 3.060138230552098548e-01 7.574478060936398194e-01 2.123510151831283777e-01 8.545974499983894912e-01 1.612205082810078405e-01 6.661792789444714868e-01 1.487401515753797032e-01 -4.096325458605254988e-01 6.002982317535324741e-01 -2.302062963994081779e-01 -8.086177987700241543e-01 8.705771464072135091e-01 6.701752585458815581e-01 7.347784891397309004e-02 2.896383556970260620e-01 9.040667650161409163e-01 -7.291698864621128928e-01 4.265087146043493316e-02 -2.560777004281781788e-01 -1.223103666061427751e-02 -8.510286907217691210e-01 -1.987584574688866512e-01 -1.144224225703026065e-01 9.529302428251862356e-02 2.908453346244611604e-01 1.508181381838575308e-01 3.965242011527442823e-01 9.503146887082973560e-02 -1.578435255248288038e-01 -5.365933957330034504e-02 -1.870820739307669511e-01 -6.638160120439327017e-01 -6.077290393188485851e-01 -1.274044698867824454e-01 -2.291119123917226830e-01 5.391564342197301407e-01 -1.983664117834166019e-01 2.534702302936410745e-01 -7.029934756171597465e-01 5.417652549990997768e-01 3.186964790215206511e-01 5.271269179370753344e-01 -3.143143378184029557e-01 2.233259578933848855e-01 -6.597048293458261936e-01 -6.111150257157721422e-01 -5.430011349869163784e-01 -5.706723402979478887e-01 -2.702730783396875003e-01 6.341845673620321033e-01 8.621197711647934359e-01 2.439278310186717702e-01 -8.149426501688432634e-01 -2.009836276281855572e-01 7.675657782171125820e-01 -3.946435718000968484e-01 1.578333984082955221e-01 8.278819662333947171e-01 -1.094319173280085128e-01 -4.878626175501612344e-02 7.395230889822224096e-01 7.761038837467427731e-01 7.594941308062083118e-01 -1.442344356104676220e-02 1.888010598800696493e-01 9.675813074366225452e-02 -7.529297150081250001e-01 2.132409263423096502e-01 -4.513272459946795490e-01 -7.992967524148471004e-01 -6.530440187382884343e-01 -4.286250313548735646e-01 8.485881897933087448e-01 9.112439196677258879e-01 6.904033889168940119e-01 -1.274173436533716786e-01 -1.409338654799323076e-01 4.614871557976978900e-01 -8.632374919723596607e-01 9.472738277714232158e-01 2.900102888429773595e-01 -4.359478845456605800e-01 7.375703235358024301e-01 7.595984146702020046e-02 -8.660877884906393875e-01 -8.826128438045384161e-01 -1.034947554359045840e+00 -6.665321476720947880e-01 -9.434076720709215769e-01 -6.392396680530108843e-02 -8.885106129249595863e-01 -1.695459571159605994e-01 -6.173145155680730412e-01 4.866219439791884954e-02 -1.518594801501650660e-01 5.960183452355104494e-01 -4.063623581572243793e-01 -6.206553545543316286e-01 8.197526864753809095e-01 -1.413478230958670756e-01 -9.573904493690803541e-01 -9.243591054947554175e-01 1.509484339319715207e-02 -6.519088529007064370e-01 -7.692398241855986640e-01 -6.736035081153480819e-01 3.995835188028817320e-01 8.713510203308558744e-01 -7.915599447872719852e-01 6.975856489248175585e-01 3.628077977673941357e-01 8.586192454994773238e-02 -9.635981468826745333e-01 5.194989623611145912e-01 5.839287156765141651e-01 4.393234968737377844e-01 8.198967345028944365e-02 2.396854825541433753e-01 -1.554117943599208351e-01 -4.379199242492456401e-01 -6.201543705470154988e-01 4.927830793557162470e-01 7.850667954402497095e-01 1.949596393199672373e-01 -2.145142065842946602e-02 7.249948773925628531e-01 -9.528892141788708470e-01 -4.420762588477857302e-01 -2.653916381835288996e-01 -9.646644204761568586e-01 -4.284209286561897062e-02 8.454926034031583493e-01 5.512780951502024296e-01 -1.658696641879024714e-02 2.723013227115524404e-01 5.384873815640450756e-01 -5.281309449661120148e-01 -4.759197021586836773e-01 1.681635503157803968e-01 2.541557079091554261e-01 -1.025008822347174053e+00 5.950082930573412643e-01 -7.806047366864270476e-01
-6.106976183712859232e-04 1.225821748255747773e-01 -1.038778995790056392e+00 -1.537108598960169048e-01 6.198182375970821834e-02 3.667202619267286856e-01 8.370783977672680010e-01 -8.556998934546717894e-01 -5.369550008211368963e-01 -4.486404150062131557e-02 -4.521140045323019385e-01 -2.648489283459624088e-01 9.438847696551871946e-01 -9.393684613300192776e-01 7.901744325302523242e-01 2.692021158035426409e-01 1.994972631786265035e-02 -7.549440257232206686e-02 4.426772186713228557e-02 -4.470460516008796792e-01 -6.778794477193665902e-01 2.693307154611455645e-01 8.958807359718402585e-01 5.671850191570622368e-02 3.220654396897287830e-01 -3.803922118654409767e-02 -5.697825485688547964e-01 9.858385761973283146e-02 8.650138485534373256e-01 2.879065201577538646e-01 -9.044350265512688392e-01 -3.854014728207481033e-01 2.269915824359269030e-01 8.184863605088245342e-02 -7.022473276663384611e-01 9.009424516228010660e-01 -1.873739127263291948e-01 4.109974935376672356e-01 4.965429135136452121e-01 -5.908109760725137605e-01 2.690381995044885399e-01 5.222432553684228790e-02 -6.093661685495610492e-01 4.316005109882892765e-01 6.003304946340531911e-02 -6.243015155224094226e-01 -1.229188181029169935e-01 3.717755454975272822e-01 9.014977699325325000e-01 8.710341345340716357e-02 5.154097281215958004e-01 -3.492156888320021024e-01 5.239204958163887552e-03 6.692767227987286294e-01 9.675918736788076124e-01 -6.870231161872865089e-01 7.115808032174968378e-01 9.149883997863990093e-01 -2.750093101330306489e-01 -3.775295499041385616e-01 7.635457130888034794e-01 -5.822836824346140361e-01 9.922385200459460375e-01 -2.436662365981112077e-01 -8.134515711301133489e-01 -8.102221775988194263e-01 -4.015952219093736619e-02 -9.190410479157857804e-01 -5.065887748736314089e-01 4.672734109970083094e-01 5.591742600874503033e-01 6.566007272434895015e-01 -8.966281214571043545e-01 5.263377756916931549e-01 6.250428900425788470e-01 -1.011255171131369091e+00 -3.240374107723672514e-01 7.792514022628408421e-01 9.434832960450423300e-01 7.850405825529784831e-01 2.857137552997375887e-02 -4.938851898835480703e-01 1.949736727836343941e-01 6.577987431597269452e-02 3.191473788758132368e-01 8.642643910719234601e-02 7.276261610296399507e-01 -3.382828693674353460e-01 -6.182357038425206897e-01 -9.558255877371285569e-01 -5.477519091388670658e-01 -7.004364343177806873e-01 -5.685467000509196733e-01 7.286022798452157501e-01 5.019428828335981141e-01 -5.900098441065937394e-01 5.507000900992187198e-01 6.159228690086244323e-02 -2.200908376398016952e-01 -6.376382432859205585e-01 -3.929384141271506370e-01 -8.128727381235041349e-01 -5.669640215021397589e-01 3.069396877986040884e-01 -3.307282999106694876e-01 6.261252274105515436e-01 2.904870895146824950e-01 2.341078771664673874e-01 -1.745078449655828867e-01 2.972313257263617392e-01 7.664667063794453616e-01 -3.567290638327652030e-01 -2.778736991078210594e-01 7.028719287955665918e-01 -4.502196800069484944e-02 8.719290125499374877e-01 -6.876272592703316366e-01 -6.617250902941361757e-01 6.850272370430385838e-01 -9.195854551549279554e-01 -5.914405436525830423e-02 6.039550702257528991e-01 3.388124599010405857e-01 -1.580777238167419552e-01 -7.090129843185564162e-01 5.650185285874211732e-02 1.020710238517037460e+00 5.124694340026137995e-01 -9.082476218797650436e-01 4.466304487230439713e-01 9.670321255682190476e-01 -7.174407424029225488e-01 9.228399047614838091e-01 -6.205637501214859020e-01 6.488842150261885378e-01 -8.252371117464123440e-01 1.244095424321012971e-02 -2.627941665273944571e-01 3.432145388068604808e-01 -6.965256384727178673e-01 1.388788791490312424e-01 -9.998417832427652918e-01 -1.642218257734124331e-01 2.932384616712024536e-02 6.607709167608263323e-01 5.146776183419338180e-01 -9.306819720527899076e-01 2.527243155116997153e-01 3.229432131063021960e-01 3.810174023609910199e-01 8.041150204845481930e-02 -9.082309557968336611e-01 2.262361269201723368e-01 3.141079348939481708e-01 -4.767976297434842747e-01 7.935441019499367421e-01 -2.706844043429514346e-01 7.615434049785704262e-01 3.099458171879807544e-01 9.112301465323525973e-02 -1.550647602875469995e-02 2.828982086114797956e-01 7.284391192380592628e-01 5.607663191498866162e-01 2.666432270941967442e-01 -9.688610376320336837e-01 -1.112422576619335191e+00 -2.724769329289861153e-01 -1.041371316334095853e+00 5.864725432117865594e-02 -1.000302777467565241e+00 -1.017070704667434461e-01 -3.261356934310579159e-01 8.958882379550318076e-01 -8.619909377076213630e-01 -9.187299792035976687e-01 6.488569319396484403e-01 4.732510932890029998e-01 8.266061707825064220e-01 -8.834315117083826330e-01 1.349823475192530042e-01 -7.014531371490537182e-03 -4.402799390496847654e-01 1.994828514291472621e-01 8.536802694437231054e-01 -8.612678444168535563e-01 3.489967497990864587e-01 -4.511015968746343585e-01 -2.024221692332569822e-01 6.836129510443287316e-01 -8.219255323221368315e-01 7.201086542773624810e-01 -2.476579898862283080e-01 9.814109784586926288e-01 7.586426475430213534e-01 -2.272174845372549323e-01 -4.506536472390249570e-01 -7.074886982822876647e-01 -6.654010216987562565e-01 3.935898739499139043e-01 5.610314717803368545e-01 8.332090077892910784e-01 -8.350719603711649341e-01 -5.940950680259793337e-01 9.023039741173769501e-01 5.172756551167446981e-02 1.444897282037099218e-01 -3.975446840872779997e-01 3.659750222202565739e-01 -1.886938022617479921e-02 -1.784885823689485451e-01 9.393278402221962031e-02 -9.151826848547764959e-01 2.928823277346759377e-03 -8.100364352751823205e-01 -8.674877596056736195e-02 -8.294569352171825560e-01 7.581565308657124413e-01 -3.352087633340330997e-01 -1.529511836271252312e-01 4.624555036033933808e-01 -6.871266971482699049e-01 1.453989724462735611e-01 5.499212727887610452e-02 -3.147980997627621291e-01 3.146903742970152407e-01 5.653168007659153949e-01 -1.726401497201928703e-01 2.838742403971318828e-01 7.976533688945099954e-01 -1.043964527259804986e-01 -7.632688722557280370e-01 9.457192636879342695e-02 -1.265723783977221184e-01 4.596143623866238981e-01 6.187817965495475692e-01 -7.463735975684850921e-01 -1.412537509761426502e-01 -5.286982341795820606e-01 8.504521095086028382e-01 8.371806902384157922e-01 -1.320684291737154459e-01 -2.077515780889816754e-01 4.654629959937837680e-01 2.034408113286444442e-01 -5.069493123789027278e-01 -1.580867864207508022e-01 7.446667138676471565e-01 3.629619703688754528e-01 1.429532718241332268e-01 7.229977089101796706e-01 -5.358709856150870587e-01 1.042822616208268993e+00 -7.710004742261027388e-01 6.674370244774513461e-01
4.560899616992490913e-01 6.624192254502201394e-01 9.746123915347444655e-02 -6.015383031546086556e-01 -1.627065674998836864e-01 6.972738626992643907e-01 5.623299559557923821e-01 -7.188000205583642277e-01 8.520194068289664857e-01 -1.071011779427600841e+00 -2.599099893590272603e-01 4.087017597728240803e-01 8.091400568358091405e-01 -7.434684881525659428e-01 7.301102355825249690e-01 -6.812136662560046574e-01 7.275213962504854803e-02 -1.873213299695940803e-01 5.881338549569119500e-01 -8.490752795787742668e-01 -6.815518969264197091e-01 8.728111725043362357e-02 -7.221848394973570118e-01 6.901799666562632440e-01 1.261822812308794062e-01 6.820712160181641170e-01 4.909132313178850016e-01 -1.170237403107484975e-01 2.706307673180793349e-01 -9.841640030319750432e-01 1.798826947453656122e-01 8.836081277157783465e-01 -8.621598609622039833e-01 -2.210607759632175207e-01 -1.015630870163280131e+00 3.288274895027860634e-01 -1.007639035432490671e+00 -2.080918004302248492e-01 -6.873442252501344996e-01 5.599305075340216264e-01 1.614952204613867015e-01 2.879036100551040089e-01 4.529229532056484875e-02 -5.566451986825823317e-01 4.996128873732554876e-01 7.150942797302103360e-01 -1.916508556767321791e-01 1.321718181325348129e-01 1.442108078392725645e-01 3.537686955584409820e-01 6.371823532123563338e-02 5.799747164632764740e-01 5.981297451297862278e-01 2.967023657209732004e-02 7.251741988425096652e-01 -6.314185712147283303e-01 -2.185266805045523175e-01 2.052670844861927135e-01 -8.974284890168696682e-01 3.661212632353632590e-01 -6.438226670445763855e-02 -2.758044511198686211e-01 -1.515587444370382897e-01 -3.903217048990635929e-01 -5.781946604027635717e-01 6.987293889573717998e-01 5.778431368834492377e-01 -4.025621503267145518e-01 -6.933892546587786532e-01 -8.744611308152526741e-01 5.380700637885854620e-01 3.709012868485130343e-01 -8.912991868101296511e-01 -8.245877842323008355e-01 7.379885159348958945e-01 6.132837109398305842e-01 -5.364258526280094586e-01 -8.357334883333743525e-01 5.563030035991337607e-01 -1.046055050789046259e+00 1.906321374057563800e-01 -7.799798287682033759e-01 3.450013689183357712e-01 -7.520925731704792838e-01 -3.408453334358646503e-01 -8.801004030828890601e-01 -4.628022346770970241e-01 -8.494608302843239533e-01 -1.615194208394661046e-01 2.121021401745754875e-01 -2.850054879909111882e-01 8.713000980703482501e-01 4.808354620350606679e-01 4.990889173468995854e-02 7.319823121772973951e-02 -4.827889798920632636e-01 -5.039663419801678444e-03 4.933361038533192744e-01 -1.047510577208291327e+00 -1.230623391860023869e-01 7.632811989990491153e-01 5.874065532084684627e-01 -5.880845258735761805e-01 4.401398890170420963e-01 1.433312694698965495e-01 1.260413064650811946e-02 2.848236011810013624e-01 2.074482782976324602e-01 -8.963272988024810761e-01 -2.143188922262450891e-01 -6.782347731512510247e-01 3.543615699242500527e-01 -5.006838156010767760e-01 -1.671565242172951549e-01 5.733413234708714112e-01 5.262870772946831588e-01 5.644550458511798929e-01 -1.670758959517433806e-01 8.269729548775656136e-01 -1.057361114216284648e+00 8.417468666450080850e-01 -4.256636411101416551e-01 5.923773314662234002e-01 8.312142433315010681e-01 7.558801773031171845e-01 3.671891046920619517e-01 2.935195022266224307e-01 8.101597921539850367e-01 -1.219292744135718615e-01 -8.413089731496737889e-01 -1.020851601758629323e+00 6.464194891972577794e-01 -9.950513564178219417e-01 7.862393271417189577e-01 1.043336805858244981e-01 2.120717272016497401e-01 7.874152454919579602e-01 7.525467821770901455e-01 -2.769295523931027958e-01 1.069033564917786783e-01 -1.813110628217208010e-03 5.905254605594697503e-01 -9.418909680487151936e-01 1.602151361117231110e-01 -1.958079891725704458e-01 6.787488943658391838e-01 2.473900500689655835e-01 -5.111061190372578888e-01 -7.720608671899872322e-01 -4.253941582270365229e-02 9.301467987233973389e-01 -4.137136721705220732e-01 9.432848106011204603e-01 -8.885998460873602289e-03 -6.604901604043688090e-01 -1.081000270513179151e+00 -5.147474417247996925e-01 -9.841012558125132870e-01 1.439538035122218118e-01 2.773774939743465229e-01 2.349308469825999168e-01 -3.127893340266045819e-01 -8.235566834090897181e-01 2.389722702421173406e-01 -9.324105717434655327e-01 2.563662304037970241e-01 5.357453536002760863e-01 -9.288879261273760291e-01 -3.667914873028774725e-01 1.954710389456847663e-01 2.440207393098927924e-01 -6.225935603374177507e-01 1.347540153198667212e-01 1.629038597066677753e-03 6.975412060947514536e-01 3.588116421629274910e-01 -4.131881233505491080e-01 -6.500109514794527588e-01 1.484441002742628024e-01 -5.111528659719767331e-01 -9.719195029470985014e-01 5.845560104890712427e-01 -6.295971932045771879e-01 -2.943019864229711180e-01 6.502291168606429972e-01 -8.499276279101204423e-01 8.691935311160857713e-01 1.709549653626634899e-02 2.212273561705536684e-01 3.703413792382236891e-01 9.082838024493086193e-01 5.287909539999168657e-02 2.830602571192896155e-01 3.113618691946685169e-01 1.594329779516375778e-01 5.728132879248999387e-01 -3.319125930456896523e-01 -1.528938156103981372e-01 -9.682353351649659601e-01 7.235908257822174505e-01 7.259317034805913560e-02 -6.600331140439864852e-02 -5.272436544698728689e-01 7.295861506020109299e-01 -1.073583426044923961e+00 -8.456156850210195808e-01 -9.186402148749700514e-01 -6.074169122592404380e-01 -9.237041825268577089e-02 -1.749835869799823973e-01 -5.558535208148159823e-01 1.108222857724593287e-02 -5.842957049367807354e-01 -3.991395160113397900e-01 -7.863652877625002535e-01 2.149840239968623945e-01 -9.361164283566749678e-01 -3.928084974857833367e-01 -6.583986831741742152e-02 6.782292747292861801e-02 -2.931941489479793495e-01 2.254158745961467314e-01 -7.249377979240518854e-01 3.933053470934316787e-01 7.152300943272608125e-01 9.526167063204454832e-01 7.369824262192248288e-01 -5.675906545255855473e-01 -9.591532474027100186e-01 9.201667070905353851e-01 8.656253729677367004e-02 2.710796991069385625e-02 -7.618533990554717805e-01 7.807131128578896906e-01 7.927247835658174369e-01 6.600814335367961583e-01 2.575554466811619814e-01 -2.642428858629364274e-01 8.298545729418619343e-01 6.867473652560225350e-01 6.551560304103649646e-01 1.401495093563868144e-01 -9.549094246645117856e-01 -9.832311905876246483e-01 -5.918051712501446460e-01 -9.292788812902427198e-01 3.864919542700879784e-01 6.740618244208398391e-01 1.653398685764490006e-02 1.835696523794441426e-01 -9.054963579974147081e-02 7.487955147238840592e-01 1.764454076137899896e-01 9.108582570975203019e-02 6.553253513343044734e-01
