2.240855873531980014e-01 3.979398537999222496e-01 -1.536053975262440474e+00 2.595982277723236642e-01 -6.653026415320357767e-01 -9.908716663027933302e-01 -3.160919869418461481e-01 -3.585374179831344876e-01 -6.790955183092222125e-01
2.869864277088634563e-01 -5.571462096200885394e-01 -6.956502285648292760e-01 -4.049354506641560936e-01 5.759218698228433242e-01 -1.824055668648257855e+00 1.910444471159435664e-01 -5.534419790344956569e-01 -6.955464541628961772e-01
-8.564312927968825706e-01 -6.355633566988753147e-01 7.973239576703385900e-01 4.883081567930674938e-01 -1.358704041794940531e+00 -1.375385650975543828e-01 7.134239983057124590e-01 2.393219728871564811e-01 -1.358256789309822743e+00
-1.970654482363348059e+00 -1.307293727607484302e+00 1.328693321399959437e+00 -1.333733935124022052e+00 6.140526009528466389e-01 1.445206062014473769e+00 3.504720153931208393e-01 8.204095861977462878e-01 5.249331478741843249e-01
-2.865552218181098287e-01 -5.973163327982276838e-02 -2.564953273534308575e+00 4.186695312393282076e-01 2.196246312009829005e+00 2.702365682929575574e-01 -1.311278056236964806e+00 4.816849816207331991e-01 -1.135968192792451203e+00
3.065817191797813868e-01 1.204953440038094126e+00 6.867582773614769320e-02 -5.052777344845046370e-01 -1.073520054255291400e+00 -1.046825809108038907e+00 1.149201180339146505e-01 -1.247880958610337876e+00 -1.024966005079173570e+00
-6.153039002131944768e-01 -1.234128133302191621e+00 3.555574604557679708e-01 -1.285896562222557327e+00 -7.062027072143498563e-01 3.443924705715357693e-01 -9.377037909981739139e-01 -1.642594182133917946e-01 6.556707322829308238e-01
-1.055689249873886348e+00 -1.298656335039910736e+00 -1.166496750056318921e-01 -1.004131860817287641e-01 -6.095279307011329528e-02 9.503512432607990057e-01 -4.878853347039113775e-01 3.717499968017615175e-01 -9.984528559180619878e-01
-1.925890432688242671e+00 -4.040407469209446045e-01 -3.271045262137626808e-01 -1.383336287871751669e+00 8.966051827685499465e-01 -4.530745227651859497e-01 9.275650503978440931e-01 8.176652890675594199e-01 1.261770543780541765e+00
7.691361060239548797e-01 4.765381527462791977e-01 -1.131739215512212349e+00 -3.835508247898083978e-01 1.331379119408505840e+00 -1.189345701147344947e+00 3.826465875924564553e-01 -7.310387313522705988e-01 -1.434156608475087635e+00
-2.816127848385976962e-01 6.555744027623248149e-01 -1.036672335322438965e+00 5.881576574643877509e-01 -4.352254358072120688e-01 -1.283185725680422884e+00 1.009151907539336479e+00 -2.889980406782113320e-01 -2.043738837502754979e+00
2.782712198274830406e-01 -2.639582512222176103e-01 4.732845807504660329e-01 7.630228276732011761e-01 -7.760535559314826193e-01 1.105891392276678209e+00 1.135398266266856721e-01 -1.538633718805684003e+00 5.890838305784275031e-01
9.920904705384829825e-01 1.241621715291666650e+00 -1.631025522571627473e+00 -8.278718949519872083e-01 2.597639846443578815e+00 -2.811689942208293602e-01 -2.544204177067780570e+00 -7.654151997507475658e-01 -1.086768961907338626e+00
1.851355431400647067e+00 7.526820839335236490e-01 -9.990660028127722470e-01 -6.683122352046847459e-01 -1.475981436624561161e+00 -1.644262438067823462e+00 -4.778062535800943755e-01 2.723348935433507201e-01 -7.178634510449476425e-01
-5.323959158148507953e-01 1.417406618130004903e-01 -1.367287592547697495e+00 -9.728499834662960311e-01 1.678282628535473775e-01 7.721397214569644118e-01 -4.263562764092574953e-01 -1.052696095774078966e+00 5.551185521042418802e-01
-4.403977284099374612e-01 1.190151066613168052e+00 2.192894355709472942e-01 5.904708765436041951e-01 1.306030199318939378e+00 4.427029696859985930e-01 -1.844486140248858153e+00 -1.920036426903031890e+00 -1.537621532058779605e+00
-1.606375871384130960e+00 -1.587887556160883396e+00 -1.448472246506496752e+00 5.747885381675545968e-01 4.112574688234931219e-01 -9.253686114990831157e-01 -6.790481021836219933e-01 1.767332242547382748e+00 7.305326919116863493e-01
-1.771869049470003565e+00 -1.288458453288149119e+00 -2.036709435505170973e-01 -9.499817569295906372e-01 3.099724401352518255e-01 1.101692654925715109e+00 2.667295378843816955e-01 -2.795859659338685854e-01 4.110457314280278052e-01
1.913387562389676777e-01 8.202236378561491570e-01 -5.353407186055363365e-01 -9.105194845647235358e-01 -1.833157867841640698e+00 3.426500979016113835e-01 -1.168013437976237745e-01 -3.602659373583638192e-01 -6.336064589521469559e-01
1.725928495218240100e+00 5.001548366180093019e-01 -1.015505226641531866e+00 1.600082047898974680e-01 9.372149553312055792e-01 -1.821140772438505639e-01 -1.395583761939159340e+00 -1.773034285364154083e+00 -1.531268879959253093e+00
-2.635217970184239866e-01 -2.023709655960085618e-01 1.322907369559576773e+00 -1.430231779045490148e+00 -7.592949764861874895e-01 1.238460025146525423e+00 -1.766493579642691047e+00 -5.401915795340123116e-01 -1.666520449491386280e-01
1.415141427395146145e+00 -6.906649428478172092e-01 -1.736773193886673283e+00 5.652037264198955802e-01 2.537523714153324117e-01 -1.702115753598173742e-01 8.350471672446331262e-01 -1.455112203690187345e+00 -1.543533904343002305e+00
-1.705439745602163881e-01 6.053880848002370918e-01 2.424662136790470546e-01 -5.214819150674161463e-01 1.264861694901169953e+00 -4.869250360790611798e-01 -1.226672934054606534e+00 -1.202445044722030731e+00 -1.116637419233195150e+00
-1.092840100880486887e+00 5.955570708833606286e-01 1.097483520971151760e+00 -9.286289295299576807e-01 4.461444004629687710e-01 -1.893240372076905598e-01 -1.727450165695094242e+00 -1.217961405672663755e+00 1.314140264373655775e-01
-1.649512486105036535e+00 9.386229587045387124e-01 9.404691352627578826e-01 -1.505677078174975314e+00 -7.390580930903554169e-01 2.944741865626664956e-01 -1.494880045318656592e+00 4.875535293365882983e-01 1.064232722250711416e-01
-1.675156764896096676e-02 -9.500083712084979037e-01 -6.545370896213743572e-01 1.289353837934417157e-01 1.560350283581385833e+00 -6.760059220011688241e-01 -7.941811676527061881e-01 2.031092190113285012e-01 -1.124371917326916437e+00
-1.871898986307933832e-01 -1.851574339222665233e-01 -1.606873478712558923e+00 -1.591397867053231663e-01 -8.040780507466267490e-01 8.794185740256353981e-03 -7.336769503225524236e-01 3.640299544183944747e-01 -3.639139912406051947e-01
-1.531029086559222652e+00 1.486289442720959038e-02 -1.308894759253517170e-01 -1.467864563862783189e+00 -8.697414303485263565e-01 1.955030504915847844e-01 3.441364962560054530e-01 -1.307289258278930388e+00 7.537289777786254641e-01
-2.199512065739494746e-02 8.379632492775275221e-01 -5.163727761579264275e-01 9.806261411841160625e-01 1.209915304053984508e+00 -1.654845387372343990e-01 -5.441539790452777359e-01 -4.146361778460460612e-01 -3.637589119361571144e-01
1.142744352778837236e+00 4.973664515579093170e-01 -6.554070961629487879e-01 9.658773234631380378e-01 3.751741899894847077e-01 -4.090446871116334426e-01 -1.038194817390185154e+00 -1.297052975718685053e+00 -1.826425017579150323e+00
-2.025897356138708361e-01 -6.438652844740180292e-01 -7.900764093382661724e-01 8.906931905218071210e-02 1.713053561081407494e+00 5.066843281594650417e-02 -1.240422456330354084e+00 -6.339532853398488488e-01 -1.112795887938645256e+00
4.710189827856263167e-01 8.081884377526329377e-01 1.796810957929588115e+00 -2.555032139206376840e-01 -4.100852192947063379e+00 -1.186733978127654909e+00 1.761240414809750687e+00 -4.562524160235096882e-01 2.654864514755254090e-01
-3.423024549480598311e-01 9.662380090628039375e-02 -4.088496554493488144e-01 3.345891832678639100e-01 5.646755724245939856e-01 -3.604346439437712823e-01 -7.465892315189780470e-01 -1.294106974921043429e+00 -8.819398265471998233e-01
-1.187632044303744694e+00 3.766805304477479632e-01 -2.009741281305422067e+00 8.093460784150100507e-01 3.323049077379117922e+00 2.125305552597020475e-01 -1.074421964192476375e+00 -1.374850675518786147e+00 -9.883348523328324697e-01
-8.622463993722278008e-01 -3.263527790881067259e-01 9.127752833238907959e-01 -1.137387129299896937e+00 6.764667443934985203e-01 1.215981876641021531e+00 -1.405457318952219481e+00 -1.392760133578551107e+00 -6.662732601783437625e-01
-4.000685991459065338e-01 1.676290033533978444e-02 -1.238643250222455139e+00 -5.131322333430505811e-01 4.918445019459180556e-01 -3.270346686112408086e-01 2.135332300598193622e-01 -4.549405751898595862e-01 -9.918009250546950817e-01
-6.336550036665450358e-01 -2.964746222198809678e-01 -1.020997624304059714e+00 -4.858367789340466841e-02 7.904811755237055593e-01 2.382945256405100964e-01 -1.480474351427163437e+00 5.832712000572459754e-02 -1.077251839911718578e+00
-1.490967952477170844e+00 -7.991434819769410725e-01 -1.690481676193188898e+00 -1.456135278149338852e+00 -2.098472887066294701e-01 2.412681285875679094e-01 -3.279597769671077634e-01 7.586146560044554343e-01 1.185262330185196111e+00
-1.079163625914335151e-01 6.100444265981774805e-01 -1.361240990064089829e+00 -9.314932603990082327e-02 1.694434691400759530e+00 3.613322687961343371e-01 -9.427951994412103742e-01 -2.145232632939556350e+00 -5.073639977984257809e-01
2.820255371697406033e-01 -1.050415022168305956e+00 -1.408575999819513980e+00 1.959244470016725803e-02 -1.124056731022404332e+00 -5.817947648206131528e-02 -3.982325720181753570e-01 3.621012277980856231e-01 5.806034944414072418e-01
-7.233110320322805320e-01 -1.536991014910912945e+00 6.083121563402995591e-01 2.141261216513694679e-02 8.171912905515935632e-01 -3.549090833655041410e-01 2.082945391699442705e+00 5.677033069775890839e-01 1.788389731121747817e-01
-1.298707395856587343e+00 -1.116121649216681000e+00 -1.988168049928205061e+00 -4.685442672869556402e-01 5.696857619212266632e-01 -1.206016826242779283e+00 4.088631152875513708e-01 1.552448258068757525e+00 8.013775454618763394e-01
4.116261517965033589e-01 -3.383568986052084560e-01 -2.046653185504960226e-01 -6.641901282727910583e-02 1.197454803817709301e+00 -5.739031661911888627e-01 -1.496212554281671103e+00 -1.325080980499740102e+00 -2.164043237843655265e-01
-9.001078430262050567e-01 -1.979203473418823300e+00 -1.034691252689615704e+00 -5.416540517580117342e-01 2.952849897329322126e-01 -7.707913829639252423e-01 -4.836522588098611797e-01 5.989431463765182428e-01 8.528825819226901750e-01
-1.386679801772237708e+00 -9.305710566764229252e-01 -2.280992890855840116e+00 3.824531536902253115e-01 3.624677913832139886e+00 5.339000128622100050e-01 -1.641631874068852914e+00 4.919142298637961264e-01 -4.200548132644622012e-01
3.869833879324016124e-01 -1.371264356040505783e+00 -1.208579352531517381e+00 -1.191455028347468970e+00 -1.028323437834304688e+00 -1.470155641899361987e+00 4.775501436332207361e-01 7.168226986774041132e-01 2.436526137396221592e-01
5.135111977076665946e-02 5.271924718861202563e-02 1.143797199818302301e+00 -5.972692500430968332e-01 1.701614438219522185e+00 9.721855894013911037e-01 -2.078278219494271273e+00 -1.838994281914950735e+00 -1.312282926317738685e+00
-1.108018294742293852e+00 -4.545986554671985203e-01 -1.410061163942449847e+00 -1.030152095576646998e+00 5.313924481328676785e-01 -5.403076195887199784e-01 2.261216817102851273e-01 -2.516202843842903492e-01 -3.454331990117762707e-01
-9.924497218392059894e-01 -4.678342041871247359e-01 5.972321483885607574e-01 -8.465657306856175790e-01 3.728606151226889209e-01 -8.627401490109084525e-01 -2.198016453128489867e-01 -1.398928695010970946e+00 9.687617564179860918e-02
-1.692154162322860644e+00 -1.437328176061198892e+00 -4.074230864515167028e+00 2.041771305901551425e+00 5.095380826668580276e+00 2.540247426714349888e-01 7.304567865697892959e-01 -2.564269284249571235e-01 -1.222458119018793310e+00
-1.521008775027267612e+00 -1.312585287661607036e-01 6.166096106742806615e-01 3.618186033217136721e-01 8.609830056512581820e-01 4.677526871118076190e-01 -2.141604318495752557e-01 -8.894702431053017611e-01 -1.018607130899454649e+00
-1.888094691638394051e+00 -1.455483938772287100e+00 4.751399108885770439e-01 -1.267874482907245026e+00 -9.907962827054571653e-01 1.115417827056061517e+00 -4.452076799700435683e-01 1.582529442098253192e+00 4.168497975841968795e-01
-1.902826482480806380e-01 -8.124049773634057781e-01 7.748009744542527777e-01 -6.792665827532272660e-01 -2.072024318028060641e+00 -4.227726440084125792e-01 1.174076059430879670e+00 -1.103140288143457770e+00 3.012433631473572238e-01
2.520145650919430325e-01 -1.489249753377637431e+00 -8.432488408989131656e-01 -6.572008634842879671e-01 4.025064316788827257e-01 -5.876725869424447302e-01 -2.215251259685147023e-01 -6.658416307947147006e-01 -5.050399445653929176e-01
-6.811173213499177592e-01 -1.135853149912112503e+00 -7.558668964098390342e-02 -4.225918111479010086e-01 4.130090470635096322e-02 6.906591070623008255e-01 -3.642226246742117368e-01 -8.488422498961961660e-01 -6.017734159541103800e-01
8.836599828520433908e-01 1.109989147093282780e+00 9.161691758640850836e-01 6.500118455542008844e-01 -1.526534933332788224e+00 -1.044343757225461244e+00 -1.016001177100431585e+00 -1.527046204204683955e+00 -1.558046747482691341e+00
-6.225587338674860582e-01 -6.558957107354443927e-01 3.210893021124670565e-01 -8.295759738029266916e-01 4.089562919149176690e-01 -3.117978182550765753e-01 -2.400198314057130911e-01 -5.133235196656084076e-01 -9.053972140981585426e-01
-1.418915510086657061e+00 -6.679864627262100951e-01 -3.806912048192112596e-01 -4.860525119470584521e-01 -2.608687158113918159e+00 -3.688795471688255945e-01 1.255921027449928395e+00 8.529047094662113304e-01 3.116073770456277425e-01
1.586638741149978715e+00 1.317759793369503107e+00 4.121634339610065201e-01 -1.067165010168717787e+00 -1.691263410102416209e+00 -1.196271845917781462e+00 -7.312679494796473501e-01 -1.186020455252842387e+00 8.955227035604897134e-02
-1.165240130721310274e+00 1.169685439005702099e+00 7.161341563901091334e-01 3.040263788008585322e-01 7.937806436958141365e-01 6.949065098164114440e-01 -1.379972611302620278e+00 -2.261823828173672890e+00 -1.224925449033845704e+00
3.661979499614070321e-01 7.537319105267605845e-01 5.162899146334452016e-01 -2.797687365810700433e-01 -3.138723992848274857e+00 -1.695806721727812327e+00 8.758692371135387011e-01 -9.072605381020263371e-01 6.057638003704924889e-01
-1.496724443986213959e+00 -7.448682716489061217e-01 3.188934296110056965e-01 -1.094575193463731416e-01 -5.435881857466934308e-01 -5.690972709339597868e-01 -6.550561940914817471e-01 -1.570330153413459495e-01 5.562186114461518116e-01
4.498245393231669609e-01 -1.519359729020674621e+00 -2.268498633968650591e+00 8.967184929672487870e-02 1.008504937324315121e+00 -1.669163115574032075e+00 6.244306245676652933e-01 7.681592898090860988e-01 -2.219256130838007379e-01
7.803702880860654556e-01 -5.639451584226768954e-01 -2.663580689820787661e+00 4.793352792680145025e-01 1.455501523401229846e+00 -1.783116831926637169e-01 5.756104799565733288e-01 3.925143211287207001e-01 -5.004703087596285016e-01
-1.586757429839893208e+00 -5.483879321841392818e-01 3.510811289523672607e-01 -1.152521153646280938e+00 1.003911177633130425e+00 -6.126569255453144791e-01 7.266775012373853648e-02 -6.791636336541388985e-01 6.626276693925815531e-01
3.186828185637591848e-01 4.974100995393662128e-01 -1.104390665917382330e+00 -5.854209540288116687e-01 2.105208634405485224e+00 -1.088283237046919982e+00 1.468864977999160548e-01 1.813595839553553413e-01 -1.300647543152881003e+00
-4.958523676886542608e-01 -8.655648098069572416e-02 6.809044022732681223e-02 -3.587501375795977832e-01 -1.451835621535981335e+00 -3.015854324130782804e-01 -1.122456879578931505e-01 3.695748641948630175e-01 -7.471991788954486235e-01
-1.647476928929787032e+00 -1.345750384221116258e+00 1.034590682859628963e+00 -4.884544704822809669e-01 -1.597514332251704250e+00 -3.531629721614479855e-01 9.198664907423558246e-01 4.576245751620978686e-01 1.651288180450690257e+00
1.209644627159791735e-01 -4.809418934911797172e-01 -1.441700870321198646e+00 9.856194910141865551e-01 -1.303160775429833329e+00 -8.359578742359456971e-01 -1.324724035934582433e-02 1.104114403565010921e-01 -7.781926740996987224e-01
4.794779175959567041e-01 -5.920791260322889604e-01 4.477838073773499628e-01 5.165558892312416273e-01 -7.939176991366113656e-01 -9.335845041277471279e-02 4.778173413535785063e-01 -2.300760604369537776e-01 -5.719254599621298452e-01
-6.757499686767564073e-01 2.884625199108669658e-01 6.327732300267477905e-01 -2.229090675385948517e-01 -8.573708626189524909e-03 -1.056966172299181439e+00 2.194174910702245962e-01 -1.258821446052181825e+00 -8.753768341132521780e-01
-6.255191065093818059e-01 -7.188620325817656198e-01 1.012073272242132838e+00 -3.085907329179458647e-01 -3.497802947178266786e-01 3.029864898167804466e-01 -1.121160484665896684e+00 -7.888079788478976617e-01 -8.585419312999820196e-01
-2.035986167324993212e-01 -1.027828906648307949e+00 -9.091741587844144323e-01 -6.858453693200395884e-01 7.266710814092628423e-01 -1.210821633684841636e+00 1.327152427997368545e+00 -5.281711884441921967e-01 -2.491659315950850093e-02
-1.736775907372622774e+00 2.266490761824087319e-01 -6.165374172481871140e-01 -5.547851262431959807e-01 4.424712247415701905e-01 -5.500393916711248110e-01 -4.458374492378649467e-01 -7.516613162932221925e-01 6.324115895471584814e-01
-9.189288254769716335e-01 -1.035447411119071237e+00 1.072660764159245161e+00 -2.256854750574881496e+00 4.818631435674105012e-01 5.320692392929822212e-01 -1.562177038379923610e+00 -8.515549663861292362e-02 4.826790811723594699e-01
2.562941572091870235e-01 -2.221897057145906018e+00 -2.818848173429536086e+00 9.224293734260463618e-01 1.106424612644365757e+00 -5.960399555181937759e-01 1.025145634797612670e+00 1.269820601187512388e+00 7.154857458230164946e-01
-2.075890972143171975e+00 3.785463846435154212e-01 1.385662764902590993e+00 -1.224276792742281295e+00 4.695821977963305360e-01 1.532404091588959183e+00 -2.772101971862138914e+00 7.395807215116913247e-02 1.465308105658106985e+00
-1.088421827299588918e+00 -1.363881456226982314e+00 -1.570890812610157727e+00 1.624253399101411406e-03 1.504927309993096873e+00 3.507307099526514316e-01 -4.608449391868903455e-01 1.675112813152875024e-02 1.176285369386199375e-01
-6.346482228151679728e-01 -1.128597913923440776e+00 -6.516448430685065629e-01 -7.398331759981984224e-01 -3.393882782622590494e-02 -4.817331815298115383e-01 -7.170046984719394834e-01 3.863564672228482488e-02 -6.868925348198350322e-01
-3.841214649110455404e-01 -5.704214030811785019e-01 -1.119109389848398500e-01 5.578331281760247062e-01 -2.600963125914179663e-01 1.909216964849801967e-01 -8.219096506195239238e-01 -5.166986446861747684e-01 -1.643169467839279196e+00
-1.196059786381268086e+00 5.768744335825495284e-01 6.332717461765403621e-01 -4.086710721010613501e-01 -4.505324840054864555e-01 2.238828116103882826e-01 -2.618112205424191763e-01 -1.815949368970492639e+00 -1.734161224766421483e-01
2.407114249440405196e+00 2.696086056658998920e-01 -1.399984460736885206e+00 1.189438741034807734e+00 -2.082579786081335982e+00 -1.164804423551526025e+00 6.771947676728859999e-01 5.597397856534388483e-01 -9.390621806649332992e-01
6.316965176236246649e-01 -6.613679853807992171e-01 2.017961248173788746e+00 -1.335784937711742115e+00 -1.054493679366124592e+00 1.066172477569107491e+00 -1.211059171409435864e+00 -4.798805613291126648e-02 7.298818378781672944e-01
-1.703215234575610415e+00 -1.073630600976465344e+00 1.261074261173510402e+00 -1.192333892863026046e+00 -2.771366328810333179e+00 1.157238755268025221e+00 4.987089377144951485e-01 -1.934726213006401074e-01 1.144561317894729591e+00
-3.611471511744416274e-01 5.783614650085954212e-01 -5.002141517417615368e-01 9.019743793253506836e-02 -5.898516784176991434e-01 8.147447245719140474e-01 -1.172838550642041122e+00 -1.546894411011201731e+00 -1.541281739033673048e+00
-2.712624478195620359e+00 -9.688692961812197524e-01 -1.219583708865060512e+00 1.979299084230386196e-01 6.728960262558270067e-01 5.324686360069267321e-01 -1.006189139295923102e-02 1.060545580812004118e+00 2.037787200205730120e-01
5.104170164497549844e-02 -1.350354623966198542e+00 -8.526506141158979313e-01 -8.556556208768146821e-01 -9.440467691000059558e-01 -8.220080885357101685e-01 5.215892691009883508e-01 1.629392408700290229e+00 6.669986936166311109e-02
2.256424995477235740e+00 3.942416997521986932e-01 -5.845398373564519856e-01 1.369491755245116682e+00 -5.552661482025035289e-01 -1.484425098870867377e+00 1.495231930308181356e+00 -2.241907189773269804e-01 -9.776837244096596713e-01
-1.090574649621864012e+00 8.326657872529676097e-02 1.945316755499832545e-02 -6.335218050197956308e-02 -2.167567364022775056e+00 3.739807199460262188e-01 -3.692524728955161595e-01 5.369314952846364619e-01 1.099727636144653076e+00
-1.688694303449678635e+00 -5.012386188703503720e-01 8.896749048383474356e-01 -1.202692889458109038e+00 2.011986656686492458e-01 -7.516824887350423978e-01 -2.308820562330150539e-01 -2.322695849814319230e-02 -4.855281048027647595e-01
-2.066575332027568379e+00 -9.790059608047788076e-02 1.836254824462378199e+00 -1.303603839034586542e+00 1.294137363006879538e+00 1.676797895310028763e-01 -1.351978468700858915e+00 -1.407859446131688674e+00 6.094198891649699190e-01
5.194723653461008617e-01 7.583757389296055251e-01 -3.467310302837063318e-01 7.083655096636792825e-01 -1.203130431292776858e+00 -1.447002163592013835e-01 -4.788222850440319034e-01 -1.038164582375734613e+00 -1.702997849066639313e+00
4.505391302455198921e-01 2.114024734622182156e-01 -5.566107492657608180e-01 5.331456372952914080e-01 -1.298402021614485369e+00 -1.353284438505080400e+00 -1.257802055817527076e-01 2.686557785506023532e-01 -1.566462829960817649e+00
2.317981007008064476e-01 -2.313100960350152335e-01 -6.221125353510712497e-01 -3.818148616703184173e-01 -1.023460489997198852e+00 -1.233052917076429722e+00 7.789167598261858005e-01 1.805004862438173430e-01 -9.589543918918757015e-01
-6.149510855187215741e-01 -1.181239366665115975e+00 -3.586301530310884167e-01 -9.288219840548331829e-01 8.773655881273942914e-01 5.545889621976207717e-01 -3.963610953831666617e-01 -7.547452882616286773e-01 8.751989130072874989e-02
1.751081892061665757e+00 1.549549657859046858e+00 8.381942501738915974e-01 -9.767415691532984612e-01 -3.439850698630937398e-01 -4.923727188638486463e-01 -1.022599150497631171e-01 -9.349961822771547526e-01 -6.360097556682042796e-01
4.019073659301494184e-01 5.600373857696407942e-01 4.333966016933843424e-01 4.652014632384613990e-01 -2.731720589495882923e+00 9.166066912383991072e-01 -1.180973761362683394e+00 -1.207923097433112991e+00 -5.206344578194160855e-01
-1.610460449107906200e+00 -5.681413705424728233e-01 -1.628430400190734373e+00 -5.159890619649218912e-01 -1.102598572501089391e+00 1.811900158195038635e-01 2.039966883606822434e-01 -7.633611289394787169e-02 -5.776131821886640871e-01
1.795376372733390458e+00 3.947932130809712614e-01 3.743804902649968680e-01 7.748497230819813009e-01 -4.511593141300686005e-01 -1.919521169477654166e+00 3.912022474195555599e-01 -1.441630530803294175e+00 -2.430505301682969410e+00
-5.176562229405446969e-01 -9.406773545590345620e-01 -9.215037778269149493e-01 1.046298278473923649e+00 -5.416122761887499637e-01 6.284745467135624888e-03 4.730021041250891400e-01 1.083687131715562968e+00 -3.655951432471073459e-01
-3.098526410869717820e-02 4.543522255097179885e-01 -2.490869702328120994e+00 1.963675777167674719e+00 4.022581255085420082e-01 -1.232627550430842822e+00 1.729023161083645510e+00 -8.068885180910384536e-01 -1.002760494578142314e+00
-2.609614549448377563e+00 -1.289595150797205658e+00 -2.081755831542593249e+00 -2.719436587342183853e-01 2.424565831212361466e+00 6.678587003127064436e-01 -6.571670029022878001e-01 7.972789749385209568e-01 6.929648324955595129e-01
-1.313684130220384549e+00 -4.239779552843356281e-01 -5.201885943279459523e-01 -1.074198885861332275e+00 -1.534434800666323095e+00 9.550845253173952942e-01 -6.095527042047106381e-01 7.982006658712903491e-02 1.359092721166323736e+00
2.025289556139542591e-01 -1.342544527578821700e-01 -2.956287303494440355e-01 -8.945721591127013816e-01 -1.078342339400828909e+00 -1.013029582670628148e+00 -4.394331352392488177e-01 -2.351620154824810571e-01 8.526458539452161922e-01
8.006702632260062624e-02 6.390181389136735390e-01 -2.251925513155010050e-01 1.079318049093006993e+00 -2.313568840732626697e+00 -1.440454999202089859e+00 1.033708549774866037e-01 2.497364365534836539e-01 -1.423376320882629109e+00
6.850260746050148564e-01 -3.082400554440118956e-01 -3.797870198643159001e-01 -9.293609796537675161e-01 -7.593146099997493126e-01 -2.126917709761483311e-02 3.900530424420884934e-01 -9.445371460820426446e-01 -6.828577806486378909e-01
-2.548630492316676932e+00 -1.930653323542579347e+00 -2.702289413510867710e-01 -8.324477113321181454e-01 -9.685907062403109613e-01 1.669413634275712377e-01 1.369116393529627995e+00 1.587813558869495045e+00 1.358296932513009203e+00
-2.794107169502975663e-01 -2.062763816083433177e+00 -1.855462806827617328e+00 -2.754631194986730813e-01 -3.681074027071918470e-02 7.224309077342724317e-01 4.599911555223161475e-02 5.196015077308143715e-01 9.571446218305712517e-01
-1.086094890076950259e+00 5.956114960025398197e-01 -5.607240645161711834e-01 -1.021764629745113284e+00 2.607769366559338775e-01 6.359266953695072999e-01 -1.473114998182440960e+00 2.213195355072085091e-01 -4.196388496286517222e-01
-6.787118953519822862e-01 4.879592931423615276e-01 -1.591247697898280133e+00 -1.476816604991439130e-01 3.724585912873029092e-01 -6.429749895075017596e-01 -1.469965573123151126e+00 1.650642843901275192e-01 -2.812824238881506383e-03
3.277731521890948074e-01 -7.440366361379611160e-01 -3.591213097808277910e-01 -7.262210647167192112e-01 -1.070961657397380584e+00 6.233520113102984928e-01 -5.420292604629440847e-01 1.874224637152153428e-01 -5.959361215488322427e-01
1.048240114630522912e+00 -1.449483989437605758e-01 4.657254310713017098e-01 5.159245924549601403e-01 -7.233104004794652098e-02 -6.828596891066925911e-01 -1.083716951350172542e+00 -1.927880100505774186e+00 -1.487982094584624937e+00
-1.649892300711279347e+00 8.560579834053312354e-01 1.625572346620334008e+00 -8.826307247731096650e-01 4.429211374080498920e-01 9.403875616041496022e-01 -1.730595552606798648e+00 -1.402775161261964110e+00 -5.091871481885459350e-01
7.921405820124635677e-02 -8.814252402688443899e-01 4.291947821519915274e-01 -1.186722628113731914e-01 -1.216655992524747099e+00 -6.646738170640439369e-01 1.031942536901059526e+00 -5.088359975778684596e-01 -1.454225697167514708e+00
1.267479275655797544e+00 7.342418031043531634e-01 8.438354663202347616e-01 7.201745340154066533e-01 -2.874696359535457990e+00 -9.368479515097973831e-01 -1.013200150436689650e+00 -5.775042714659121001e-01 2.233118918873357173e-01
-1.104670580436657890e+00 -4.532898515463905098e-01 -1.293803997225941860e+00 2.126988671883434934e-01 5.789325674754669526e-01 -1.217648099904593550e+00 -6.241856987930067824e-01 -9.534876648455891113e-01 3.266415929581054090e-01
1.312336329299530924e+00 1.102963662415161888e-01 1.891448441085212817e-01 -5.273579795904201895e-01 2.012280889403717410e+00 -7.224302478106425784e-01 -1.321797704129374251e+00 3.718513312094482437e-01 -3.697513498893231776e-01
-8.745973730785858713e-01 -4.102310129119073057e-02 -7.490322414228630654e-01 3.292671197701321217e-01 4.398211969874506466e-01 -1.521231505961874619e+00 8.260914174979057112e-01 1.045564493127393302e+00 -1.357969812255408915e+00
-6.614377450477747500e-01 4.632307217745293970e-01 -4.011871472353966128e-01 3.531690557611837922e-01 -1.657943461793297990e+00 -1.023143976039839309e+00 1.056382944421837555e+00 -3.490348190313629639e-01 -1.490109214861615294e+00
1.320620323531245033e+00 -3.870865427691055904e-01 1.126575577919821880e+00 3.674238444989125774e-01 -5.292752081587549506e-01 -3.383949805561047297e-01 2.023599085920198097e-03 -4.187640129845965897e-01 5.797561054954595422e-02
-8.419084682556681187e-01 1.489587454164377212e+00 1.165900159397179170e+00 -1.272572077550746084e+00 -8.720062879878621720e-01 1.206798461555684820e+00 -1.638147116425468619e+00 -1.545156528111584882e+00 -6.609702176649365768e-01
3.767788341479235692e-01 -1.858923735988798343e-01 1.105757242947398966e+00 -1.038773344248723030e+00 5.433195945183273423e-01 -7.888499572343787847e-02 -8.714049538974433240e-02 -9.405120464774114897e-01 8.257493564512158324e-01
7.753464450406484243e-01 -4.369818344874917826e-01 -1.070680037428395570e+00 3.976589310524357712e-01 -3.109390896226479573e+00 -1.298781819740562948e+00 1.261029579106976994e+00 -1.435442561726117117e-01 1.219059882193756356e-01
-4.897817996101384019e-01 1.243195800751204505e+00 2.312716969949834223e+00 -1.351977664448553051e+00 -2.782949081884218856e+00 9.424232281367699304e-01 -8.598528781975648405e-01 -1.965937650186738939e+00 -7.097357266824499966e-02
-1.379466394527549822e+00 -6.071871964943078570e-01 9.606497020915079066e-01 -1.227095257799655448e+00 -1.106221871190522954e+00 -5.832519443207938581e-01 7.968392354051778703e-01 9.734348452528194043e-03 -3.067785250767720573e-01
8.456708106125224722e-01 -4.978373228515732829e-01 -5.462447715057346942e-01 4.088266968094505516e-01 -2.635907346478262525e+00 -9.112828807588717606e-01 5.481529080133199505e-01 -2.977006409179853708e-01 8.268150989284878127e-02
1.692404585328798894e-01 -1.269946719120008005e+00 2.278867294667387688e-01 2.738847797863872557e-01 8.912446197578971496e-02 -3.493331603274962838e-02 -1.389365314218911074e+00 -5.855009378856821378e-01 -7.452355236050864917e-01
2.028565467396060695e-01 -3.116785484512027971e-01 3.150034985607857996e-01 1.051173352004742129e-01 1.601895827642826342e+00 1.271069738489693790e-01 -1.095523390666633068e+00 -1.117147720539432149e-01 -1.262950369114709259e-01
1.140165186475576187e+00 -6.765975304669979984e-02 -4.586710114199216703e-01 -4.786823311106819245e-01 -1.031718189376530592e+00 5.534670299084957223e-01 -7.113663973133483864e-01 -6.074617248636815514e-01 -1.135902529068453903e+00
-1.121907274659483811e+00 -1.220066415405381965e+00 -8.157593114312308158e-01 -4.805497041136420067e-01 1.146682957343921005e+00 2.834279696409647831e-01 4.736476463242262902e-01 1.591280145543906288e-01 -7.127069143040990484e-01
-9.964568958013731992e-01 -9.892497034237817122e-01 -2.215356363959379404e+00 -2.491413961541748268e-01 1.585017953160210435e+00 9.244539121376985080e-02 -2.845969764772374733e-01 8.814451939423746385e-01 -5.594846173105597620e-01
2.846946970670303223e-01 -1.140664286782408672e-02 4.891362578858209353e-01 -1.464666159402102430e+00 -1.717430540698550168e+00 7.540335994920246421e-01 -4.532717567671284975e-01 9.056572727594743855e-01 1.476472203303777375e+00
-6.793761212064722832e-01 7.885949714752903128e-02 6.942577949376123048e-01 -1.333878907267672664e+00 1.884923266762774385e-01 -1.046650363438703435e+00 3.800751339388975247e-01 -2.638731486464362952e-01 -8.443626067800540369e-01
-2.179347843174134436e+00 -1.880056678085205990e-01 2.712151429681941006e-01 7.289268355441493041e-02 1.634871627600328114e+00 1.376930369719974845e+00 -1.138075850557704216e+00 -1.290156159161027327e+00 -4.665459681202954734e-01
6.071588163443934066e-02 1.431087554747684676e+00 -1.219985790501445233e-01 7.705482144685183998e-01 -3.309140486666477254e-02 -8.381741418541922561e-01 -1.672394425918275251e+00 -1.162256611136673889e+00 -1.605419395017443795e+00
-8.820969258047706152e-02 -5.239948744043630702e-02 1.209927556456627196e+00 2.446196240615669537e-01 -1.429638014584811989e+00 -2.655931064831456578e-01 -1.299075488225498010e+00 -8.491992444263661843e-01 -5.706622439945648224e-03
-3.327749610924084500e-01 -3.110986746168802330e-01 -1.077733462144945253e+00 8.624096978768490684e-01 -7.466117226946608065e-01 5.883739970260927210e-01 -1.193908616290175306e+00 -2.026721286852444306e-02 -8.487560675626636408e-01
1.779744764836870941e+00 -6.711001345996809864e-01 -1.585912335465543332e+00 1.553253539083828683e+00 9.538180612034634354e-02 -9.366806152766671278e-01 -9.424395660319314638e-01 -7.386012620713253707e-01 -1.682909214690030852e+00
-1.633427849960966016e+00 6.696422201830326548e-01 1.176666867697386598e+00 -6.659809729230947717e-01 -9.988632293661671158e-01 9.039768813969424333e-01 -1.160235718053733489e+00 -1.016601584339037467e+00 -6.508055836650823434e-01
3.160986861719495417e-02 -1.090893998232542073e+00 -1.193795311536628212e+00 -5.713338397175183880e-01 7.636054161866103751e-01 -6.798172740833090533e-01 -5.740948239608704151e-01 4.127522921294404235e-01 -8.575493591760335876e-01
-6.366416259027692925e-01 9.801107918063253210e-01 7.263623104672031761e-02 4.478977172619060254e-01 -6.008301954065595751e-01 6.377629843699564316e-02 -3.153312563952834768e-01 -1.110251800249170584e+00 -1.876055095855841071e+00
5.872286183316419717e-01 8.475362006187792119e-02 1.322384017888418972e+00 -1.100534382836732217e+00 -1.775070694193737308e+00 -1.739713282712648246e-01 -3.721808394595534364e-01 -1.266538577337286586e+00 -5.354335828792271545e-01
-1.552386813837682622e+00 -6.623476821074034682e-01 7.402674708841716633e-01 -1.331906924905946754e-01 -4.795054680289186910e-01 -9.087426422668913872e-01 3.675469134956922956e-01 -8.791708487755578449e-02 -3.258081353831728810e-01
-1.614627197535591474e+00 -1.457756283597731795e+00 6.777663599570087072e-02 2.903811210621630168e-01 9.082172647835291546e-01 -8.981932128104925805e-01 -3.487874443593090290e-01 -3.601559722629594229e-01 1.668279095041082793e-01
-8.506525853574722351e-01 -5.055948577602911165e-01 2.785092601972591689e-02 -1.422772548861967357e+00 -8.263280050597457960e-01 -6.270932931624628726e-01 -3.464810458982762742e-01 5.144737096025668865e-01 -4.692282362869112378e-01
-5.694548585295169940e-02 3.635625284768851939e-01 -2.628872905262167881e-01 -1.042465797822479251e-01 -6.993930948397649727e-01 -6.531907982769670218e-01 -7.837595836678671324e-01 -4.636008000080090730e-01 -8.760288435064411683e-01
-1.024403527211061427e+00 4.559276369229436909e-01 8.164559664313628118e-02 6.453491249294542043e-02 9.754359017415085154e-01 -1.984893194809193295e-01 1.792304174526218596e-01 1.645390988068904936e-01 4.595874016659382694e-02
-9.086623848355874777e-01 -3.211715636993515699e-01 -7.246712917050860403e-01 1.001210446181324487e+00 -6.424434956478579650e-01 5.542748115879436721e-01 -1.156162163883098781e+00 -8.912386774119136490e-01 -1.482553969607684763e-01
-1.640492355952723136e+00 -6.356385979353275095e-01 -6.611420300396091132e-02 -8.076360863448385219e-01 -1.683078750958712788e-01 2.374365858631275750e-01 -7.131393045771720063e-01 3.370423765446259878e-01 5.389352809484635465e-01
-4.642953990471703207e-01 -6.711696604420601675e-01 -7.870884241201492326e-01 -5.169868533604827787e-01 5.038857194672426154e-02 -7.156552177782771196e-01 6.350358552891498531e-01 -9.560189842886520628e-01 -3.861160879999668283e-01
-1.108514625191358238e+00 3.455322875977875352e-01 -1.906042386228474217e-01 -1.194446611052760732e+00 -5.978594282302367446e-01 -1.054392801088822884e-01 2.680465010305201345e-01 -1.098506612962067752e+00 -1.466038176671352888e-01
-8.047794747389001024e-01 -2.179921498129116786e-01 9.862083045637511924e-01 -2.006181159020155480e+00 -1.259328680742371143e+00 7.339948573724830450e-01 -5.566778143257949951e-01 -9.049590267982834391e-01 1.724181164121041110e-01
8.670193482391465034e-01 1.431141642544116133e+00 2.022560719146622610e+00 -1.363238433323037180e+00 -2.076565900328704029e+00 -8.441827011576503725e-01 -1.264304824864579624e+00 3.275526838913573324e-01 -1.003951573607616332e+00
1.635003195256772512e+00 7.243356202934531085e-01 5.753962201451424258e-02 7.607731339863357811e-02 -2.404415144560073880e+00 -1.503494613440019778e+00 1.407298622522834108e+00 -1.194232734317325906e-01 -2.028374044044451097e+00
-4.095953574280493115e-01 -7.467927394958562282e-01 -1.419866288672799515e+00 5.199278855382252207e-01 3.683313706899449258e-01 -7.506392029477387817e-01 2.241617981125863246e-01 -7.817695301102383088e-01 -9.653900049178554266e-01
8.283572051519235702e-01 6.597973575462900975e-01 -7.315049694287031334e-01 5.225749288006744653e-01 1.561128996356041965e+00 -3.170477375868711589e-01 -1.202157243317167223e+00 -2.785564046034958996e-01 -7.528767639941746914e-01
1.226209245306279172e+00 1.767259653936213981e+00 1.505315553059285882e+00 -1.967247848870856408e-01 -1.101515349964739210e+00 -9.401964450288897712e-01 4.826010439338243030e-01 -7.753266236634799302e-01 -2.776139477049131138e-02
6.091233731060043954e-01 -1.011972779904657838e+00 4.784420876875671302e-01 5.702199658328073184e-01 1.699267937212520507e-01 -1.301445438014614320e+00 -1.020905989453667839e+00 -1.122301726650140719e+00 -5.168008854306475053e-01
-6.138830042768961270e-01 -2.151348091669597062e-01 -8.219536074781723656e-01 1.386189978273390633e+00 1.450855999664314999e-01 -4.837559165965402141e-01 -4.676432860632724897e-01 -9.485354903290446615e-02 -1.470740891911609838e+00
4.005302226471634669e-02 5.511808656181449440e-01 8.606899044105804641e-01 4.027681405825522254e-01 4.579338610041316371e-01 7.298871174943824362e-03 -1.386330960533346479e+00 -1.279721712879948958e+00 6.881377122394548573e-01
-1.255006592612877059e+00 1.137232710333268448e+00 1.057319090589643240e+00 2.907997601842748359e-01 -5.009088216936709997e-02 1.167406588299056969e+00 -1.657125501360199094e+00 -2.163788734233980993e+00 -1.422547536816601177e+00
-1.344905976238840895e+00 -8.420206658796822730e-01 -1.547901474202852068e+00 -5.923254866208917946e-01 -1.213694875061172684e+00 1.243092332066660366e-01 5.320164145188233107e-01 1.087705193047814323e+00 -3.472671914210735955e-01
6.180982044868896796e-01 -7.987917102838966166e-01 -4.475151511881979016e-01 1.084987719660529537e+00 1.043650502712907491e+00 -1.210655790006541332e+00 -8.244769915899549106e-01 -9.392588782807860248e-01 -1.550697271027071222e+00
-1.583099299162227247e+00 -8.125522791079661244e-01 -1.587125186108365948e+00 -2.618501032136531514e-01 9.356419015719369403e-01 -2.237656739118088212e-01 7.100883436399611781e-02 9.528850775746438018e-01 4.313452603507749172e-01
6.833003843267417832e-01 -4.773073760398680032e-01 -7.099223114096078202e-01 -1.654232239764932555e-01 -2.110889583268121594e+00 -1.824543676716189333e+00 1.555725086615037389e+00 8.996558615275925819e-01 5.285137351132774830e-01
-1.027466724780006890e+00 1.439945362677028884e+00 2.168408668798364580e+00 -1.114411299671548727e+00 -1.526159948096648789e+00 9.770985407343615314e-01 -1.449908777175641594e+00 -7.614238974155721484e-01 -2.805362567435896737e-01
2.166215553911934044e-01 -5.929172720245987765e-02 1.721820364087091715e+00 -7.235429007794155210e-01 -7.865566385556101991e-01 8.803026258102202295e-01 -1.036217434551700789e+00 -5.370499861849353102e-02 6.069680793870780855e-01
-1.082927703092832150e+00 -1.630312158635676134e+00 -3.747637792122473499e-01 -4.042260475459605318e-01 2.178364343017748783e-01 -4.048327051684116884e-01 -2.145882732622660383e-01 -3.411027274755188965e-01 6.922150211112817475e-01
1.653719476189813298e+00 -9.837341659782474768e-01 6.014964823671598015e-01 -2.987406759941103607e-01 -2.870596703217891843e+00 -1.906635148749162401e+00 2.853314235241359853e+00 1.658223028782165098e+00 -1.668138497289925193e-01
1.523057405372110873e+00 9.693428888210330330e-01 -2.366358066568597096e-01 2.523996011612464341e-02 -3.993137312169850461e-01 -1.202092744328079554e+00 -9.387522127499972058e-01 -9.282938135579815730e-01 -1.746316366453376956e+00
7.661972228130490281e-01 7.353252407751430519e-01 -1.741082898531581546e-01 7.694760644834890417e-01 -4.964745597796547116e-01 -4.945250172017456314e-01 -1.082794137185529859e+00 -1.639930863701456243e+00 -1.839769488650768503e+00
1.723287362523855393e-01 -1.383485663342657990e+00 9.503949356099435919e-01 -1.406229559432625731e+00 -4.524421062578120711e+00 -3.153332037505309771e-01 2.567069242327162826e+00 1.993296125496671900e+00 9.935157711831652527e-01
-2.220143514290339404e+00 5.738591272384811065e-02 8.921307557977506963e-01 -3.782602995337104312e-01 1.024931679401363260e-01 7.950480874274279408e-01 2.319406110557583472e-02 -8.778926756242392271e-01 1.336015332306841191e-02
-2.706424870711856556e-01 -4.192530609513809292e-01 -8.909865028935353148e-01 2.888577807915321261e-01 5.686630567808079184e-02 -7.167076579491601374e-01 9.253248578421227055e-01 -3.167962991272583739e-01 -1.145796091622566015e+00
1.250226530475439191e+00 2.827158925072717488e-01 -1.545885219993156534e+00 4.978891860146535953e-01 1.953143980857696693e+00 -1.494855116643833526e+00 -1.107466641228932236e+00 -5.168494956322357003e-01 -1.812608580164529526e+00
1.106507893415999422e-01 1.082435285298229133e-01 8.490700577472543031e-01 -1.186737454796501723e+00 -1.833088355753712761e+00 3.972202512585163992e-01 -5.104554417393802890e-02 -9.775499908556508633e-01 -1.982532692327620139e-01
-3.917932441423481738e-01 -1.636062323127703610e+00 -7.579466741227668392e-01 5.780556683080383396e-01 1.770020175715552258e+00 -3.324674497900618197e-01 -8.572031075603612216e-01 3.033788331930797333e-01 -1.008739822564705735e+00
-4.923560201269869818e-01 -4.244609706915800085e-01 -5.042558917303299193e-01 1.174120399106335810e+00 -3.166747670433867068e-01 6.939100002477791018e-02 1.524345126600993972e+00 -8.319840022006643743e-01 -5.324957291884210298e-01
7.151956051358935307e-01 1.293526014066438412e+00 -4.250466744829575205e-01 5.898342792975552751e-01 -9.265844137199289454e-01 6.205761667988936026e-01 -2.076070221203308197e+00 -2.121042993337831639e+00 -1.810053460649002077e-01
-4.403510858833882269e-01 -2.088182838654451812e-01 -3.263572891470914450e-02 -3.055784612613997586e-01 -1.674161349036882518e+00 7.181896413753179054e-02 -6.959438833257934887e-01 -4.040701230158420809e-03 5.248781115042655543e-01
7.672437049677904852e-01 7.426285171929256634e-01 3.029806921382791618e-01 -2.844867292259966041e-01 -1.046864085159872726e+00 6.771451005395917599e-01 -7.053609104081980385e-01 5.750735052690083560e-01 -5.577831639564714283e-01
-2.455734660519382218e-01 -6.810401577404517903e-02 -8.948248829550676797e-01 -1.032198144260036088e+00 4.097074253972088180e-03 1.962035316891696801e-01 1.290633090878992584e-01 -1.041996418815474224e+00 4.418646743716548309e-01
-5.879012603978153173e-01 2.936876197518111797e-01 -6.084872950102817590e-01 -1.243462852222082970e+00 -1.272410359498412635e+00 -5.046453317135496039e-03 -3.487321409125321292e-01 -7.940102584307676126e-02 -1.264893947522200301e+00
-4.333755241155699822e-02 1.960730745288025434e-01 1.679863082771516636e-01 -1.128163445179322766e+00 -8.458815997802117126e-01 -8.023750066435197947e-01 1.363038091327362783e-02 3.921648321694027328e-01 -1.315775209878307095e+00
-3.162916406515912104e-01 -7.107511471422690574e-01 2.056442362705537819e-01 -1.084375736779822574e+00 -8.963151433370285526e-01 -6.096658468104162454e-01 -9.760398156669767289e-01 8.714647912121543938e-02 2.664473769615007259e-01
-1.337188722693668508e-01 -1.102414753964042760e+00 3.741080086575439556e-01 2.823280386426454402e-01 1.348519204579326503e-01 -1.330101874540331686e+00 6.301352233021900728e-01 -1.072731868753910245e+00 -4.476049738509055298e-01
4.199276458867646777e-01 4.878587476798440514e-01 -7.434958863843629251e-01 3.862251940452720023e-01 1.280657769872056706e+00 -1.033402143177559601e-01 -1.734156545868671628e+00 -1.543789728237437098e+00 -1.806669216336424411e+00
-1.687682487607955029e+00 -1.291314007724911672e+00 4.040429614745219000e-01 -1.467698592090809662e+00 -1.074787387374451342e+00 6.343467691533281050e-01 5.388642747042404757e-01 2.316155775048046872e-02 8.620730072424839241e-01
-1.829349044090760934e+00 3.008677094488769466e-02 -1.356866438456879376e+00 8.635500168024606849e-02 1.306192674520696650e+00 1.068825797967798003e-01 -6.833661274365900873e-01 4.535681290716451763e-01 -1.139722549423229703e+00
1.003403315201340185e+00 3.743050195627544152e-01 7.588219444886361575e-01 -9.253198571502240233e-01 1.670748817429815292e+00 -1.503465313871494013e-01 -7.069671564923073470e-01 -1.250494947102217314e+00 -1.256843923753908188e+00
-1.956736754478065166e+00 -1.304784110653175233e+00 -4.080483621952419315e-01 -1.848375076264967554e-01 1.263450612815692486e-01 8.089307096998914481e-01 -6.894992910843127376e-01 4.870497304450256415e-01 5.179981665656537004e-02
-8.421839273301517936e-01 7.682288628148529197e-01 -1.376950619284204036e+00 7.217707221125462258e-01 8.343009689264579976e-01 -2.341693737314100854e-01 -1.286834289278618204e+00 -4.377533886642819838e-01 -1.262185113955449633e+00
1.866651831574031306e-01 -1.593650873343287255e+00 -2.056268826037196185e+00 1.251691447819445857e+00 3.856029381869361949e-01 -8.682095045078920270e-01 1.273798538197811414e+00 -4.392712309017642036e-02 3.731847769927923442e-01
-3.958216732351613754e-01 -7.800517495774660359e-01 -1.879215739485560199e+00 1.137456046597408399e+00 1.299240859636364986e-01 8.291410698811822744e-02 -3.184992631195864010e-02 1.375338724459401474e-01 -1.589456895932323643e+00
5.385136466472567607e-01 1.852159090859533674e-01 -1.346798895315677758e+00 1.108612821401728565e+00 7.724098226708603354e-01 -3.708607794807270985e-01 -6.604817806087061038e-01 1.108347285031172635e-01 -1.294554554024921034e+00
4.717111885962540496e-01 -1.377709139083262979e+00 -1.067485221961768982e+00 -1.046948980641083216e+00 -1.912721770223709372e+00 -4.404885836860248927e-01 1.680095306270944722e+00 -2.938857743377803478e-01 6.145372934665269682e-01
-2.334172122765313384e-01 -1.933740681507230275e-01 -5.838259420869681277e-02 -7.597246299804518710e-01 -2.170293340528702597e+00 4.183227947913540912e-01 3.143292723238629294e-01 -5.434343879919852904e-01 1.323574043168552761e-01
-2.259300755204108224e+00 -3.100495723870391185e-01 -1.084569872907920757e-01 -4.107594381048318977e-01 -6.396184413980198213e-01 -2.086728099395923353e-01 -4.212414247358664543e-01 1.120465485418657980e+00 1.154958654034864196e+00
-1.099716385779991645e+00 -4.860122319973112504e-01 2.062692028847704917e-01 5.715318851689965562e-01 1.221266862850894919e+00 7.893571116843290936e-01 -1.206884382281813162e+00 7.322955822126769876e-01 7.171779495346273237e-01
-8.131572446545244359e-01 4.255814556559580630e-01 1.075186574517319249e+00 -3.258204077011334632e-01 -2.716630023242823100e+00 -1.473542080382309605e-01 5.285188989412175076e-01 -8.154170840314341195e-02 -2.729612273703715952e-01
6.260663673661026607e-01 -7.015234127376019924e-01 -6.613547865824581651e-01 6.648432905164429751e-01 1.299424115810741687e-01 4.722177090639935737e-01 -1.602423844271088527e+00 -9.712289204888929772e-01 -1.252600091456675724e+00
-1.919453511575084093e-01 4.491842942853557230e-01 5.328664543889343186e-01 -3.025371443626148071e-01 1.843667595076849408e-01 7.167729071675338348e-02 2.646091152186612616e-01 4.726986574314479550e-01 5.165886238615808868e-01
3.996102750026460093e-01 3.448087248008624983e-01 -1.943790122586142699e+00 1.006409148906473483e+00 6.434153281206760333e-01 -1.778050038348994111e+00 6.283409181400778643e-01 -8.039351716545011239e-01 -7.554668400920608873e-01
3.660656958009317341e-01 -3.914591489487937587e-02 9.812885492330174486e-01 2.282270633226037293e-01 -1.421320471847839162e+00 5.099460733444620697e-01 -1.544019073650257035e+00 -9.337799411535341321e-01 -1.722859243834683474e+00
-7.448866549285461103e-01 -1.781690843906838406e+00 -1.013933550734062550e+00 3.198305751410073228e-01 -6.983504007689721460e-01 -3.912640051119195550e-01 8.652474555091288488e-01 9.372826776463466514e-01 6.981680594863204359e-02
-3.623392844377500976e-01 -6.455371229507370634e-01 2.102870617109884321e-01 3.108737051076753688e-01 -1.374442525450080943e+00 -5.144451415708659603e-01 6.646367979066465370e-01 -1.451082376161491716e+00 -1.703432878874613365e-01
4.880260376997754834e-01 -6.803857783161816331e-01 -1.984196261952768436e+00 -6.073158026812300880e-01 5.443513113094202716e-01 -1.415309128834084884e+00 6.682521396841731298e-02 7.031643442058191917e-01 -6.121096457872300389e-01
4.831824797072505895e-01 -1.796324541041724787e+00 -1.144039941127294568e+00 -7.011902895963005589e-02 -1.119201299272746697e+00 -6.680380850802409842e-01 2.506368317891757846e-01 1.033573263948182275e+00 4.790247193329457143e-01
-4.356100671756308884e-01 -5.483029060314891234e-01 -1.458888362824071194e+00 -9.066211785651788480e-02 -1.338967724207727472e-01 -1.606720730628409921e+00 4.262886491999259286e-01 -1.302328952905511539e-01 7.461635410475490893e-02
-6.765060827436385482e-01 -2.501563793089319199e-01 1.596764649682400894e-01 -3.046856983271380437e-01 6.538044221533819700e-01 -7.640257273628896506e-01 -5.118241536966195993e-01 -9.039893448203102644e-02 -1.643378335219719322e+00
1.279630073804706170e+00 1.376374869285772240e+00 -5.783730200148751166e-01 -6.160810541727382850e-01 -2.414075984780405637e+00 1.336606251700056813e-01 -7.565589702282928819e-01 3.996950392484603376e-01 -8.961477165769322628e-01
1.454510740907556166e+00 -1.204171362111603250e+00 -1.980091140858172727e+00 1.227098935920949874e+00 1.072337950274684371e+00 -1.313182502480912950e+00 -6.165196082218477730e-02 -7.694197177481422456e-02 -1.321419052847933262e+00
-1.265844098352367553e+00 -1.494724306199166852e+00 -1.483020193964829980e+00 -8.001352154995519106e-01 9.111680781007874819e-01 8.512086902032608426e-01 1.125172750306933089e-01 8.625343909005880882e-02 5.601847557596993932e-01
-1.017371662895297568e+00 -1.155451438959514521e+00 -9.911308345899142447e-01 6.813192079370484766e-01 3.013304847252582075e+00 4.758127616188372322e-01 -1.173174059208745179e+00 -9.926977748137605362e-02 -1.418196493847159179e+00
5.295143429709254779e-01 -1.021892376512238521e+00 5.986570264079154047e-01 -2.751861000536007934e-02 -3.297880602784575288e-01 -9.889461497878251350e-01 -1.042136062108340200e+00 -7.289125180548399197e-01 2.693415864946033245e-01
-1.022776441364861011e+00 1.385973299703951445e-01 -6.694117169187550065e-01 -6.087275373855136618e-01 1.466343413905266402e-01 -1.076641343343329726e-01 -1.471490460218260576e+00 -5.690065121560373695e-01 -6.348972694859010835e-01
1.506607695236797211e-02 -9.253631712000485177e-01 -1.723468917955646607e+00 -1.303729474416146471e-02 3.020689575355627321e-01 7.862856378171448335e-02 -1.340335131831893678e+00 3.090433816707509052e-01 1.312930208678286803e-01
2.387921326197092187e-01 -1.349777312833861931e+00 -1.397287377168806799e+00 -3.857199800612903240e-01 -8.870389648076024702e-01 -1.002118904096140461e+00 3.093955544620650699e-01 1.037493233343407706e+00 7.496867868706721394e-01
1.072907832037447218e+00 7.295900621603826908e-01 -9.477519933307957389e-01 1.046936948470698514e+00 6.708344550265753492e-01 -7.359120491809806319e-01 -1.268179504565915661e+00 -7.389002450169607217e-01 -2.511089580322818815e+00
-6.353553317539104572e-01 -1.290076715890005499e+00 -5.080106484529495203e-01 -1.110474597692626825e-01 -8.168671661669022477e-01 -1.400774261760422190e+00 2.724747974566427700e-01 1.542408628230466761e+00 6.611162698187798663e-03
-8.394897742708773425e-01 1.788991943340528246e-01 1.141215251991362312e+00 5.108968902512052157e-01 -1.543682881142179442e+00 -6.210374307821281414e-01 2.282201723610998434e-01 -1.276286858207666963e+00 -1.060845142603810132e+00
-1.544709416996488782e+00 5.257355807802555070e-01 1.868459395671824910e-02 -4.546179018963887319e-01 -2.344971764849706486e-01 5.448045632533849991e-01 -8.473091014965951073e-01 -1.352030543612734892e+00 1.563800966980452845e-01
-1.728912676496591194e+00 -1.978613758049092008e-01 -1.361815549315863239e+00 5.688165698821794347e-01 3.627600111616545719e-01 -9.844575868181467682e-01 -6.701204103632304454e-01 2.015668189817323985e-01 8.722311490150191915e-01
-7.236026549096218341e-01 -3.561466037896303671e-01 -1.237429872506504935e+00 9.004719127648710408e-01 1.821622968047149849e+00 -2.668222978058257810e-01 -8.000951533539440996e-01 -8.131527617524668683e-01 -8.222320986176220314e-01
-1.971772778896979661e+00 -7.587615144433172976e-01 2.715776575855735619e-01 -1.675626023508625995e+00 1.479612171963994527e+00 5.052435023882348997e-01 -2.716400397888051321e-01 8.189549513325202756e-01 -4.849139386404568292e-02
-1.019077804589383351e+00 4.147149428576072522e-02 1.192263587876866149e+00 -1.507529211473223052e+00 -3.458741527921617820e+00 -3.116533096046711360e-01 9.333035271097308572e-01 4.138577319441720248e-01 1.458970357866362866e+00
-1.150404096317462432e+00 -1.377062390418213766e+00 -2.927097467372186679e-01 -9.279743735709942154e-01 -1.527108229451759058e+00 8.410801074764127083e-01 -2.151652991339535470e-01 3.612507365074633103e-01 1.016844301445067211e+00
5.837508912855218224e-01 -1.250207871121127079e+00 -1.365316784203170819e+00 -4.622924134436000032e-01 -6.755377709121447305e-01 -3.253518317771433854e-01 3.330379734772430655e-01 7.357619362071492475e-01 -3.420248571727724229e-02
-5.269185724062298570e-01 -3.090894317896359933e-01 9.039957188190783643e-01 -8.351533008650596779e-01 -3.622547055963877827e-01 7.437532391019139322e-01 -1.146248286157362406e+00 -1.013373675089233039e+00 -8.545634117583581491e-01
-3.174532538959162209e-01 1.338615482977644433e+00 -6.256777705587941441e-01 -1.680065670472549733e-01 -1.026617829668803994e+00 6.923730096307322279e-01 -8.055244866515975932e-01 -7.476293271762907144e-01 -1.222187124245427414e+00
-1.052352982890361277e+00 -3.579447212326120065e-01 3.946254972232846048e-02 -3.251566981463352990e-01 -1.358998567449056338e+00 1.242716117345657123e+00 -9.295143607908181727e-01 1.274721149166411216e-01 2.453103917735518016e-02
-3.031815620164672320e-01 3.041230961933413107e-02 -3.604153158142300306e-01 -7.569142022252832724e-01 -3.636242924758752437e-01 -1.152094915964068322e+00 4.953169892445962730e-01 -9.688669235883500264e-01 5.153414977304172917e-02
-1.334664128029252328e-01 -2.392685163558329609e-01 -9.993536431385160457e-01 -7.815556120552306085e-01 9.626325520206554520e-01 1.036817423841955410e+00 -1.170684936711921642e+00 -4.347827214352353864e-01 6.882909732292803451e-01
-3.128731814180629178e-01 -1.228338808147739547e+00 -9.834636940627885515e-01 -7.372501233159090006e-01 -8.225233064144702455e-01 -1.382997052587448539e-01 7.118783657897803652e-01 2.467512491142710707e-01 -6.283805293771547174e-01
1.674678425126328030e+00 6.390264665522690235e-01 -8.327575432937096567e-01 -2.191083432023674671e-01 8.058700216939271854e-01 -1.584335525288102620e+00 5.995107990595890390e-01 -6.521485872594460220e-01 1.018484539027897234e-01
-8.717969051363486654e-01 -7.427250244678615387e-02 -1.157310644845046088e+00 -5.535867567285231994e-01 2.179910024555204440e-01 -6.429195933147242581e-01 -1.137153739174385558e+00 9.311809430384723751e-02 3.225016634357893430e-01
-8.098166936513053749e-01 -7.701875544822369690e-01 -2.614200751576287174e-01 8.768894441904830916e-01 1.831402207529496007e+00 -2.152548013116306058e-01 6.932359669473202590e-01 1.078790353501875465e+00 -1.404137270407585625e+00
2.993261764168644867e-01 5.310951615426872108e-01 1.292475634525756534e-01 -6.985252404502551027e-01 -2.193085848551436512e-01 -8.272557246560661159e-01 -9.042675338399166485e-01 -7.746151130206239133e-01 -7.248212569881510303e-01
-5.093591176361296213e-01 -1.453854269735659621e-01 -1.583798243463399869e-01 -1.313051830140973542e-01 -1.494616606409543635e+00 -3.403959086608542295e-01 -2.994411853273615254e-01 -3.251380122030931297e-01 6.432434948091877436e-01
1.723185503668262647e-02 -3.440779478178964679e-01 -1.097561121123378891e+00 4.786072944234935345e-01 -1.649250810546605273e+00 -1.346353400249471477e+00 5.869325064627566313e-01 3.647505373814164537e-02 2.707007891332267602e-01
-1.442085062236869053e+00 -1.499513235413008516e+00 -1.517701513397951285e-01 2.005762409850525910e-02 -1.744697597857134630e+00 -2.851831150426555328e-01 3.019932998785058165e-01 9.568743985989504042e-01 1.494928117837297066e+00
-9.023552162552566092e-01 2.272769432924112432e-01 -4.144988201600099953e-01 5.406704696269348798e-01 -7.592063035786247305e-01 -3.458772321134873096e-02 -6.631203196768586938e-01 -1.187121267716091388e+00 -2.918663206266016164e-01
-2.108071587716503714e+00 -5.466306432759492351e-01 2.345451954390452010e-01 -6.474367752541859700e-01 -1.594351513900728490e+00 1.198397599431572758e+00 -1.461075539811777235e-01 2.733004608720202566e-01 1.399690076744059652e+00
-2.790850680026428846e-02 -3.112455741203492554e-01 9.644561891616414140e-02 -5.511370503306088908e-01 -1.187513537156744015e+00 -9.538828072773282152e-01 1.216793349361279392e-01 -6.187718575651052211e-01 -1.730932736629139240e-02
-1.761837454680974080e+00 -6.104766961905370160e-01 -7.808287169180789800e-01 -3.691570306855417316e-01 -1.590689053329846503e-01 -2.985331203409219980e-01 5.183964186345816488e-02 -6.441881373531307409e-01 1.003955722019946872e+00
-7.489367827316891768e-01 5.745905453232790228e-01 -1.430843283666488164e+00 -2.513321139246991742e-01 1.149872716709098519e+00 -1.207947994137661962e-01 -5.219593058169254007e-01 -8.987247139306157040e-01 -5.716397074143871881e-01
1.531579181199760109e+00 -1.413972248744902738e-01 -2.721554829011320065e-01 -9.116190606376426420e-01 -2.127504704056940366e+00 -7.735261358105114393e-01 8.587753093999064280e-01 -1.368353559111457507e+00 -2.965829527887378636e-01
-6.584010332261311937e-01 -5.689195643358376797e-01 -1.589512006860876570e+00 -6.108605241539923902e-01 -8.781359393668815017e-01 -1.233360421576244592e+00 5.031022826188894514e-01 7.323035282441662241e-01 -1.355830348683591813e-01
4.144215462112701975e-02 -3.718842161223019915e-01 -1.330487116981596163e+00 -3.493905389556750674e-01 -4.434670609027086541e-01 -3.311471322112972682e-01 -5.004464440036433537e-01 -3.850455844437801201e-01 -4.263880988939827872e-03
-3.173469268147243727e-01 -1.044675761888224308e+00 -1.471491678805390890e+00 -5.136649631337981692e-01 3.162374744042624197e-01 4.431554162370213157e-02 3.069167992742024564e-01 6.872731297700149788e-01 -7.362459683213599115e-01
-2.752474525697121144e-01 -7.609704335426034083e-01 1.917428081149220309e-01 -1.074032435668286434e+00 -1.105706904211405384e+00 -3.221977444042635752e-01 -5.385034885050494768e-01 -8.485120161091851410e-01 1.228314284888927022e+00
-1.097084764679111979e+00 3.313496170937101915e-01 3.114105654995577566e-01 -3.772388825590661798e-01 1.034276656886787160e+00 6.159000571517314615e-01 -6.777764636061868186e-01 -3.735390561169137785e-02 7.913982956174652195e-01
-1.689938954006387606e+00 -1.737180516502385252e+00 -7.549035715611353003e-01 -1.926710879459270498e-01 8.599949626804542779e-01 3.244211464824781066e-01 -1.028760728608390851e+00 7.969674244735497348e-01 4.794958580077257615e-01
-9.837397221573880579e-02 -6.209933969090275507e-02 1.546740960852943936e-01 -2.287313608329786252e-01 5.676072245876445654e-01 -4.354289698408457532e-02 1.845250350776925508e-01 6.090666174082983719e-01 6.504176786041140357e-01
8.824709994978064964e-01 -7.840650368339761034e-01 -1.743759175980941212e+00 7.091540112489331804e-01 -1.232845065294670306e+00 -1.062102294842174111e+00 8.257354240030693182e-01 -1.430811279667325797e+00 -2.891010365406908589e-01
