-9.427507543302876547e-01 3.677386755937758767e-01 1.440580801316677373e-01 2.431557589329041424e-01 -2.731000674718218613e-01 -4.571568913127591061e-01 6.489816860932920255e-03 7.532724489046437322e-01 7.731669748154167132e-02 3.015218010564679751e-01 -1.346640188218038714e-01 9.131447151112527250e-01 4.703858815248747605e-01 -3.001968566233491065e-01 2.808359322546744585e-01 8.016646412540749667e-02 7.464543131405945164e-01 -4.705833413244607244e-01 -7.909865042729266049e-01 -6.237887943214599495e-01 -2.339791934865195211e-01 6.888281470989787714e-01 -4.764981613543682326e-01 2.421048898134647298e-01 2.348786073489502191e-01 -2.167755901529541673e-01 -9.077139164970419172e-01 4.777045854041431783e-01 -4.437551851361711264e-01 -2.125730129484620090e-01 -2.624585955145481431e-01 2.953695574702638882e-01 -8.404697528873430468e-01 7.805086988200936327e-02 -9.815704710724527660e-01 9.560638945220264473e-01 1.797297411322608396e-01 -2.527802972962829853e-01 -7.205852719549696861e-01 3.758804610520743439e-01 7.560052842405563522e-01 -3.923921286832328104e-01 5.207027886477224587e-01 -4.461258923414240241e-01 8.816568446815562510e-01 3.929681372117110882e-01 2.394580523957270946e-01 8.480446316256118333e-01 -4.775513688593553963e-01 8.038332163422967636e-01 3.321030501721290440e-01 5.221553958567954901e-01 1.210764422395911449e-01 6.551025260601164302e-01 3.844765648937782943e-01 -7.105506820724959427e-01 2.141586482576737782e-01 -4.627609019302545423e-01 8.286556213288533979e-01 -6.090613020806628919e-01 -4.430926118707820827e-01 -9.204665795221838032e-01 -1.293543421170654240e-01 7.221266170306939181e-02 1.217669695522470008e-01 7.780429322801323266e-01 -3.152696215596949014e-01 -1.433042242931029941e-01 6.852449341946182937e-01 1.176337491774935018e-01 2.972200497060858426e-01 -4.537973741765536362e-01 -5.367352601351077501e-02 2.292656002809971005e-01 -7.488520957600524053e-01 -9.962185534805126919e-01 -7.965869316258057387e-01 -6.813020113828030522e-02 -9.618630712674406391e-01 2.419738916063163547e-01 -8.141694296189997404e-01 -5.320825148778617342e-01 -1.742083315370841767e-01 -7.847948884420823390e-01 -4.638330118823678072e-01 -9.968007045162929902e-01 9.453252217197887219e-01 1.824923553871854731e-01 -2.747439834812984705e-01 -9.763419786374009091e-01 -2.480098207673107902e-01 -1.010779171954301753e-01 8.524104092681658029e-01 -4.576409618943637625e-01 2.142377963368030380e-01 3.080046173850971569e-01 -6.311429490191122760e-01 3.976262726514420177e-03 5.603290122562945008e-01 -8.479372184699459636e-01 1.706293967978653459e-01 -9.851960794772374186e-01 -1.002792830954313930e+00 -8.951156591524436212e-01 -5.254642027918792618e-02 8.385013443205053818e-01 -2.203125039238117977e-01 -8.727578405875726641e-01 7.121143582252859039e-01 2.642657272708090824e-02 -3.746117241549512533e-01 9.183791529798343012e-01 8.648940311203842102e-01 -4.972804948992227692e-01 -6.124988495765090191e-01 1.644312751758087165e-01 6.511935303849186729e-01 -3.680454695001277865e-01 1.590835724318258593e-01 -7.119986904837187769e-01 -6.165921914722047870e-01 4.817548905697390804e-01 -7.195479715440455948e-01 -4.740132257434007124e-01 3.675434491266182380e-01 -9.847259037607050125e-01 -9.469444608822976672e-01 -4.559125979806276097e-01 -3.357286758755856915e-01 -3.001270673530556654e-01 5.894333840969484539e-01 -9.655481149218060333e-01 -2.939889869450338367e-01 2.570102932167317444e-01 -7.192885534476759490e-01 7.096407214700053423e-01 2.798794159550189176e-01 -7.850763462335735854e-01 -5.931545855515337751e-01 4.746039917961905052e-01 -1.989759269044751866e-01 -4.064079054339449909e-02 7.526895991361911564e-01 -7.504024291019514292e-01 9.207885661173881298e-01 -9.254660053817723719e-01 -8.377921007655694252e-01 -5.645676682875139241e-01 5.980568917023625364e-01 -1.135016866226949694e-01 3.003046208596890088e-01 -6.727145445807281021e-01 -6.714039313401737319e-01 2.359627211911748818e-02 4.656426548515451569e-01 -1.056989800364150911e-01 7.078762678182249912e-01 3.081610143261972468e-01 -5.180038011094066919e-01 -5.605906539832201663e-01 -2.570215467527208753e-01 4.989406121211564793e-01 8.612220704363022783e-01 6.929949805101601745e-01 -5.058500209919520874e-01 -1.803900852797688803e-01 1.907661224417116774e-01 7.862940171706862824e-02 -2.696497550402120469e-01 -8.067606943211116377e-01 4.206184576175725498e-01 -8.693070919264926921e-01 7.067205360901734901e-01 7.087872767925335049e-01 3.954269118059693389e-01 -3.619420209756381290e-02 3.671833131290404006e-01 -2.436858298872859596e-01 5.938013151904492082e-01 5.609537521560820084e-01 -7.244893452444817195e-01 -3.788922292321474372e-01 -3.190403291915887007e-01 -2.826075909250305718e-01 1.238808018296135988e-01 -9.359497595177840301e-01 3.095313146023301876e-01 -6.129813727807679191e-01 -1.936270002312383831e-01 -1.211806977565604154e-01 -3.194467545320214263e-01 -2.454571216076966711e-01 -6.693728867363707424e-01 -8.803997274751101942e-01 7.666294565851380916e-02 1.734714384322619818e-01 -7.200602966254042725e-01 -5.720518187334860949e-01 -4.709932361242617493e-01 6.412365336141081507e-01 -7.006297356443735858e-01 6.281734675851982641e-02 1.131462854649317590e-01 -3.163734001403717411e-01 -3.273969962348087237e-01 9.060387100483052736e-01 8.872368644536016147e-02 2.784210213011040214e-01 -3.441318095775293406e-02 2.738621035469893661e-01 2.018140344112346884e-01 -7.336430198642628353e-01 -3.504554685174295914e-01 -1.096078061449300700e-01 -7.644679396639850744e-01 -2.848202160601919775e-01 -5.593241838414766409e-01 6.663778873636458933e-01 -3.323186836205588301e-01 -5.669918078881293066e-01 -1.935191564985287715e-01 3.493825647364741660e-01 -8.898653125042130796e-01 -6.548793363087268560e-01 3.559521674798722390e-01 4.794701442112773715e-01 2.210297417663462660e-01 7.356278839841173811e-01 -6.695322016949523114e-01 3.985351651663746608e-01 8.215370874909599941e-01 -7.132134911341194705e-01 -5.378326417259717829e-01 7.517990362588464204e-02 -3.452104266337736038e-01 3.668462631825204490e-01 -9.355491848015642375e-01 -6.849556093502110476e-01 4.212686573875540907e-01 9.223135032015874479e-01 8.216111767767597662e-01 7.910040605848793760e-01 -7.777502877003767967e-01 -7.216540161728041136e-01 -8.710145114116331078e-01 6.938468972045494509e-02 7.525583563307828294e-01 5.105408438961981515e-02 5.474501747521396400e-01 -6.390708486484842910e-01 7.157386866863841846e-01 -6.606875510242367078e-01 -9.129065913238948449e-01 -2.197096456462361846e-01 9.498977034864258817e-02
9.243897653573341922e-01 -8.291428476123650082e-01 -5.191029109416286369e-01 -8.873622427245309030e-01 -2.331824326910895140e-01 -4.420148801812979200e-01 2.290241351431224898e-02 -3.114399941774195768e-01 7.200508581303010081e-01 4.680644376932646678e-01 6.978301472750224610e-01 -8.704367402546976384e-01 7.536561465952926198e-02 -6.062574014532760014e-01 6.502565869719779679e-01 -9.894621513059865814e-01 -7.872679331636165401e-01 -2.612865765699637355e-01 -2.223176579213557158e-01 -4.874344189817705342e-01 -8.599205901440228894e-01 -7.862643168350994527e-01 -4.721241538032640572e-01 8.849853486662349056e-01 -6.078260654814000574e-01 3.813619732829212072e-01 -4.811129910933413800e-01 -9.849369032978668725e-01 -1.100895674241917588e+00 -7.831486823425756194e-01 -8.613150151338688776e-02 4.039669143890615155e-01 4.145643087045011166e-01 -3.481825267725242035e-01 -5.135207858842940482e-02 6.231805086555978201e-01 6.484893081768753342e-01 -3.941174218465324230e-01 -1.059972173685595154e+00 -9.265004678332441346e-01 3.566290925908013332e-01 -4.690832675990514455e-01 -4.760244912804162398e-02 -6.367071733358480312e-01 6.212114207061142368e-01 -1.211683988468033324e-02 1.407109771284092981e-02 -4.252681909643038494e-01 -2.889550054901979942e-03 -1.049767764982533880e+00 -5.377606495054306768e-01 -3.137050659489477589e-01 -5.161906586515621065e-01 -8.395106935970387818e-01 4.372605778648348124e-02 5.270572004885776263e-01 8.715030664671906679e-01 -5.010452946644391309e-02 1.051508768871800698e-01 -4.630638196662085759e-01 -7.428507639918179306e-01 -7.495961032454679929e-01 4.641045428150837315e-01 3.758223316177257689e-01 -6.676024772168874799e-01 -2.827492581861705268e-01 1.828042907803927031e-01 -8.206718085333316592e-01 5.508762650437016850e-01 1.186209550284898634e-01 2.090166481443489210e-01 3.975468443552732101e-01 9.606343146957119217e-01 1.206716778488787778e-01 7.015100271751091299e-01 -2.432659155452309985e-01 1.997362041506532127e-01 8.468807117570745779e-01 3.214129389082864829e-01 -4.139391318731889813e-01 2.140366574816715828e-01 -4.021952068264451063e-01 -4.697471449520069786e-01 1.600712829520602176e-01 -7.020289232091743159e-01 -1.209437930656864640e-01 8.773570335022673472e-01 -3.620747420269685435e-01 -6.941250255199653552e-01 -1.532659091323659017e-01 5.801463567423578160e-01 6.532255129410321493e-01 6.437607231869109103e-01 -9.898420763476172279e-01 -4.788424250555797790e-01 8.699357401609743023e-01 -7.887699031608299549e-01 -3.162137359654143554e-02 4.939085453332543452e-01 -8.609740998700804449e-01 2.356021793699065170e-01 -5.078579879090205917e-02 -6.363164900043917216e-01 7.396642874470736873e-01 -6.574432991367783474e-01 2.597823248571266563e-01 4.675195756921805557e-01 9.181450487432954444e-02 2.401617484294137905e-01 -7.647488693541515392e-01 -3.998596313594291463e-01 1.517567133378391608e-01 -2.272594813626501731e-01 3.175059850217809010e-01 5.920239696164163457e-01 -6.245308229469059835e-01 6.739651618925353027e-01 -3.191819801481874386e-01 8.612905906150947200e-01 1.041916643573626011e-01 5.573196900156744960e-01 -1.123358716578094080e-01 2.333437927854626823e-02 -4.386557834984378124e-01 -7.548968328447884790e-01 -2.605075449762630502e-01 -5.747517676482830629e-01 -1.049788852742186807e+00 -4.793686090328242999e-01 -6.404497321810097565e-01 7.327788406565287627e-01 -9.647477355703077961e-01 -6.414978862575854146e-01 3.395862359990151624e-01 8.110816628951925678e-01 -5.452068849686859675e-01 -9.741286252754040031e-01 9.036316886258416448e-01 3.426121194996773478e-01 -3.994202827138897960e-01 -8.486548847910635462e-02 1.645324274929626795e-01 -2.779444305665255688e-01 7.248299650464392618e-01 4.467361366196258565e-01 8.906484004962819112e-01 -4.306860580731198818e-01 8.681282398402544453e-01 -4.839158824112354401e-02 2.052679400733907200e-01 4.624693820267412048e-01 5.028984795381316042e-01 -2.721467335593606984e-01 -1.473823967685358727e-01 6.279854178261600195e-01 2.960111328704649880e-01 7.264368202460829149e-01 9.408074882873194156e-01 -6.481858226139426415e-01 -7.037861569450200028e-01 3.526292783614896065e-01 4.878822301458132782e-01 1.942845433343372563e-01 7.496061767976937018e-01 -5.486630107331905704e-01 -3.506636040180414193e-01 -1.433206349981668015e-01 -3.717035754405393355e-01 -2.602077195157373804e-02 3.378964254629497899e-01 -5.843447312127112436e-01 -9.309517284195741038e-02 8.937830973399786272e-01 -3.750290244388276850e-01 -9.782571890891362809e-01 5.972915137733368907e-01 -6.876472262092993282e-02 -1.014605212851710903e+00 7.419987308368325429e-01 -2.144889131081698930e-01 7.278553818790215457e-01 -2.308438125311385036e-01 -9.021226666429512653e-01 -5.267430860060745568e-01 -3.144968870235158587e-01 4.652517279517260906e-01 -6.639064521915672978e-01 -1.458770477592574444e-01 7.056782601847506609e-01 -5.490099050908336942e-02 -8.360266183035970355e-01 -9.669280987291222207e-01 3.743011610323375149e-01 9.578003037809849074e-01 4.709619151779337876e-01 5.118783199374009607e-01 3.284496088579789141e-01 4.920774710001513674e-01 -1.054718606207494025e+00 -5.707081046420356962e-01 3.805183176020351388e-01 5.993792483414127625e-01 3.307847866799074610e-01 -6.665737914517905205e-01 8.205036840146684440e-01 7.654721444130219155e-01 -8.336334888228082995e-01 -6.689448847930723474e-01 -4.838507055990414196e-01 4.217737395943194634e-01 6.585151766819468122e-01 1.147681219539132824e-01 -5.982820243856460385e-01 -2.499710911508098710e-01 -7.996689003222822167e-01 8.132962908326533125e-01 5.306335684643048722e-01 -2.883336858139493031e-02 -1.800257097402577500e-01 -8.094870199974091296e-01 -3.823519827435654661e-01 -8.032990427139091727e-01 5.576887049883062497e-01 8.107144625706474983e-02 -6.240734677866034419e-01 -5.938367013610179601e-01 -4.894009063718882668e-01 -4.264753151570354062e-01 -2.308196030274756172e-01 -4.275321765781974204e-01 3.397636922092179823e-01 -9.673385761926882598e-01 -4.258795895488361460e-01 4.790249635548096685e-01 7.701215998170011234e-01 6.007352414961683040e-01 -6.302013548585259084e-01 -5.495611716771277022e-01 -6.438356944272303206e-01 7.507325832558277012e-01 -5.412120211836443096e-01 4.976465966095566240e-01 -5.709719175374243783e-01 -9.538635757697759843e-01 4.599731347874628229e-01 4.176475846423811644e-01 -8.683683996567185259e-01 -3.612225056595120831e-01 8.607645251898826677e-01 -6.697383180586241602e-01 -8.434552171061729942e-01 7.126120110957222253e-02 8.624945072651702960e-01 -8.878412888431637118e-01 8.027216131262993742e-03
2.833175451825389879e-01 -7.383304083177332222e-01 -1.086082744890989771e+00 5.122215767002414877e-01 -9.631141252929117380e-01 -5.798747954945477900e-01 2.044826831544027668e-01 -5.094619145446183106e-01 -1.186823160988256021e+00 8.760918850660447121e-02 -4.755618082785543765e-01 -8.811299627929924938e-01 8.623152015095179035e-01 -7.810960617175073395e-01 2.680003998330955373e-01 6.745633501831367340e-01 5.638727079042900048e-01 -7.207597296630079420e-01 -6.316148446309152176e-01 -1.042867089418795912e+00 7.539020083195762112e-01 7.139050734865469705e-01 1.161670268936647876e-01 -8.361129240607764190e-01 -7.612562595620513406e-01 5.969711934395667552e-02 -5.466444433971416883e-01 -4.989860949297998394e-01 -8.484644764047249987e-01 -6.815066216056413495e-01 -1.559484023666156405e-01 -1.110275988185560614e-01 -4.283251261868759735e-02 9.181485299304603664e-01 -8.441467406016106567e-01 4.305753203133865226e-01 4.786487886214593201e-01 5.350154313921738625e-02 -1.662181216175714349e-01 7.177921867588376026e-01 4.353045665201132897e-01 -1.040460685592537793e+00 8.489702937111102132e-01 -1.119723710760686330e+00 4.818399242575506503e-02 9.147474653458412264e-02 5.535566397950456574e-01 -3.496897795743971193e-01 -8.691253295712906279e-01 -6.368741542712583886e-03 -1.047182818585578046e+00 -3.879799274271246157e-01 8.373239424620755322e-01 7.052683068537423106e-01 -7.943956452922273925e-01 5.125855119773163882e-01 5.443332683168867758e-01 7.363370475861465980e-01 -5.904431005871831895e-01 -6.164953351615041349e-02 5.419746420626804229e-01 2.268090665952822438e-01 5.840573757464170845e-02 9.312841195753492063e-02 -6.261860658545965741e-01 -1.061740872084595333e+00 3.706418291410974453e-01 -4.883288018005360054e-01 -3.474777194209748288e-01 4.522477698226269605e-02 2.700435529266043688e-01 -7.009391087690911570e-01 5.485824532835807954e-01 -3.392297238205507770e-01 2.167864744688573764e-01 7.631427436977349377e-01 -2.649881894566047391e-02 -4.103567805954741465e-01 1.929333973293465287e-01 -7.463799982652230547e-02 -1.353510808548692157e-01 2.916433462396531007e-01 6.147064589438996363e-01 -1.381507085282152603e-01 -9.207654521284619475e-01 -4.054959673520929647e-02 -6.373686779182266005e-01 -1.085226948979884698e+00 3.970528773375133214e-01 -5.534236804916182750e-01 3.592654686649918716e-01 -1.113958413783558005e-01 -4.189343092761688148e-01 -4.430454248978254461e-01 -9.955895702042986128e-01 -6.578205316980194339e-02 5.477949371931543077e-01 -9.449419002639062315e-01 -8.213124233034554411e-01 -8.712017577152035563e-02 1.707873881870564381e-01 2.667680497449711474e-01 -5.043280956821811767e-01 -1.022271766769844437e+00 -2.853424778092858438e-01 -6.496915374136429389e-01 -1.158239940735732665e+00 2.678907651650293542e-01 8.054461580309744129e-01 -2.976495716384464640e-01 -4.395656027005429567e-01 2.999839284746801810e-02 5.800809607113156519e-01 5.028514327142294960e-01 2.372828942132512164e-01 -2.236184615047366320e-01 2.352741628695403653e-01 -6.489407892807872447e-01 -5.146931035121327103e-01 3.723744846364642203e-01 7.284312150373577488e-01 -8.321441122058208517e-01 -4.781795873117241080e-01 -1.113114885046708524e+00 -2.292151429344246871e-01 -6.575684024723609244e-01 2.324163154097679262e-01 3.067822855837832319e-01 -8.141620088701075897e-01 -9.671667015112384025e-01 6.619309270769369036e-01 -4.102695309116280442e-01 2.389880585842073940e-02 8.427524427047119460e-01 4.307308000011059179e-01 -3.863397693294038926e-01 -9.098857079043144447e-01 -2.435554352067799411e-02 -3.691136260781568423e-01 -1.011619666903914805e+00 4.711929343858290431e-01 -3.221799931442366205e-01 3.676690737817532584e-02 4.073137530446265808e-01 8.451297287985164441e-01 1.378153193520873510e-01 -4.958535179541697646e-01 -8.971804104975832361e-01 -9.516885935301928612e-01 -4.413234890748700123e-01 2.236074355086596077e-01 2.785536731739493010e-01 -6.636264146100430139e-01 -9.368328617395148550e-01 -4.751983097069674700e-01 -5.066432248597883131e-02 3.248204528266969149e-01 2.031432383350679008e-03 -5.344496537763278043e-01 7.874141786773637686e-02 -5.716004869846373904e-01 1.894202755552706341e-01 5.989380445541734321e-01 1.164527872617333037e-01 5.417283278718647982e-02 -5.063172864297965647e-01 5.503166811331522412e-01 8.606743467242479184e-01 3.464983348336732050e-01 5.991790603372052632e-02 -8.342820902690503138e-01 -5.659552815055957087e-01 -4.128884727558512213e-01 -4.621410439836771133e-01 -1.738768219121682446e-01 1.224853751237187094e-01 -6.393878823726701910e-01 -6.558174430375122155e-01 -8.156616770504160341e-01 -4.877274593094160227e-01 -1.857360577432703164e-01 -8.751439375556893663e-02 9.400585489340904655e-01 9.107760700332053760e-01 -1.467824494444246175e-01 8.822994822841069285e-01 -6.430721499140618080e-01 -2.063498266706130166e-02 -2.207206663006590353e-01 8.401047501619691715e-01 5.642319847056795901e-01 -6.170716876999040590e-01 -2.068337309734742668e-01 -7.554740818455581985e-01 -1.726076490417878528e-02 4.528777065630504306e-01 -1.021612192107399952e+00 -7.481612158543810009e-01 7.654693198232692675e-01 8.217629506951185103e-01 5.783499271074895448e-02 8.496813394002535047e-02 -5.213180844599528685e-01 8.228949773720742877e-01 2.236683926359187002e-01 3.125827120534303005e-01 -1.068004800089264794e+00 5.898487509983205701e-01 4.996680301804027335e-01 3.015040860514630605e-01 3.318617426441738405e-01 -7.499436658884389706e-01 2.825703152844341037e-01 -8.817294388608722944e-01 3.508750961461084561e-01 -1.045848452902004677e+00 4.505737319409751640e-01 -1.606013769891911358e-01 -6.168309542156176217e-01 3.299644819498355752e-01 -4.438720967078964574e-01 6.956924495323268953e-01 -7.246544027151047285e-01 7.664637862805461221e-01 8.242135107824479778e-01 -4.954330505130190576e-01 6.168519877914808713e-01 5.716414359510451071e-01 -2.547025549541811484e-01 -3.806961706455215810e-01 -5.457713603942497826e-01 9.200110092495240588e-01 -7.102124000896978817e-01 7.547962779528460953e-01 -3.056934106857835398e-01 7.983541587206284262e-01 5.260017264921246216e-01 -7.704119671221225651e-01 6.593123066132344778e-02 2.585469582900262187e-01 -3.938932095046977500e-01 -1.085455896571286827e+00 -5.822724797497401683e-01 5.702898039117199058e-01 -9.659294052374464146e-01 -8.260387091680285732e-01 3.078623146977424452e-01 -6.333125407702468179e-02 -9.289189985776910574e-02 -3.702547221158799529e-01 1.062481022552169835e-01 5.234968074420692785e-01 -5.390033259078644834e-01 3.797700952282073716e-01 -1.954970416391915433e-01
3.871113086723447227e-01 7.231904619378415333e-01 -8.435806143265023316e-01 3.411019178558858389e-01 8.033030224245830686e-01 5.581054369694792294e-01 -3.033391847104053435e-02 6.785375421692517728e-01 -1.225122542202412124e+00 5.501794018670342484e-02 -7.062725867900785381e-01 -1.239040499422956465e+00 8.415223102524047039e-02 5.632492231172411268e-01 -4.268341451845677481e-01 1.221168590857486302e+00 1.411379360050736498e+00 2.371010006024218963e-01 7.188977636995333986e-01 2.167330055092396290e-01 3.126013599886641736e-01 -2.606553436525803069e-01 -1.225706233456054672e+00 1.297786714386400142e+00 8.995291747626316115e-01 -1.013069913618367179e+00 6.093272702457415146e-01 -4.308397522448112471e-01 -1.237964292870795235e+00 -4.479230052882545721e-01 9.280735701316561448e-02 -1.696053046070767456e+00 -3.885199850482184969e-02 1.045828019152020394e+00 1.138853130781748879e+00 6.058685656463057567e-01 1.586775957680260432e-02 -5.188664071415610701e-01 7.680972812444670783e-01 2.819066660562455362e-01 -1.251032535284041680e+00 -1.110610821530249731e-01 1.382897721002022795e+00 -1.644184307547894852e-01 -7.140012750977910994e-01 -4.049138220139084088e-01 7.319464902330032885e-01 8.139945438616296158e-01 5.798964487058057282e-02 6.654347120777635016e-01 -4.165179939192050207e-01 1.531192048074116463e-01 -1.311195406782471817e+00 1.037460504337851752e+00 2.048838722660561301e-02 2.834930082725095613e-01 1.290465314651504158e+00 -8.071636984895167455e-01 6.821010635502959829e-01 4.787595994002556976e-01 -7.448841255886184953e-01 8.699317388624400182e-01 1.325157075521057326e+00 -2.150886362784056594e-01 5.340249631210034487e-01 -1.387401595658071418e+00 1.291991801736765755e+00 -6.886745461478236408e-01 -5.932185522959728674e-01 -1.064978772928213274e-01 1.148405485824102845e+00 8.839795726032626533e-01 -7.080418526980482019e-01 -3.944282074027487539e-01 3.209410038558673794e-01 -5.400298576215601942e-01 2.855950308351329348e-01 1.229870113222552241e+00 1.329888589709171898e+00 6.798041287885330242e-01 9.305182736760436724e-01 -9.730372310979538142e-01 -1.382364285042247509e+00 3.409225045732044990e-01 4.897246475666561759e-03 -7.336897908108861444e-01 5.432377219502932952e-01 -4.863907531164086140e-01 -3.950408148275769138e-01 -7.845335764006650114e-01 -1.119155568765103581e+00 3.803308150706178892e-01 -2.175649556603134194e-01 7.617709809808502763e-01 6.825252205491522117e-01 -1.466666416006053852e+00 1.212501122751302729e+00 9.136310720455934620e-01 -7.422502171511892177e-01 -1.418486998960107881e+00 -3.649314450653306507e-01 1.306117269129477947e-02 3.165809641330129542e-01 6.361696682372217637e-01 8.163061966960356575e-01 -6.678268877178474838e-01 5.607917280010472627e-01 -2.693465963727442736e-01 1.359575888802709187e+00 1.185776072217995303e+00 3.500086343005395229e-01 5.282520035555675619e-01 -1.498961043768327617e-01 -2.575830696735443848e-01 -1.257281980778035768e+00 2.314281763932100888e-01 -1.382892045849417384e+00 -3.173338204127781892e-01 4.143728771560017954e-01 -1.486420829056420700e+00 2.664796664076681323e-02 -1.640173748603751980e+00 -9.343127331754278245e-03 -1.890536188366974124e-01 4.188454378937282452e-01 7.865188581435066384e-01 -1.106965085195342757e-01 -1.163771013689038486e-01 -1.902883282586376457e-01 -3.891261680756051278e-01 2.800582659777761663e-02 -1.521018667209724118e+00 1.165483046592371563e+00 2.845473412505757360e-01 -4.111163500636718648e-01 4.400106206906276296e-01 9.369474826725392169e-02 1.298014764085556383e+00 2.225839114650417505e-01 1.042608288747926881e+00 -3.181375013138976748e-01 -8.632410213126552601e-02 -9.177906878288416559e-02 -7.806133005969497773e-01 -6.469053291275515816e-02 6.734022062156894695e-01 -6.753648522224570128e-01 1.214979105177878660e+00 -8.597078359378412804e-02 -6.572270823437605936e-01 4.904145903325671588e-03 -6.778321792120609590e-01 -6.950129587969299250e-01 -6.887499875598949162e-01 1.280095315723392746e+00 -8.972697919394695409e-01 -6.676265638711456063e-01 -4.975947458610109897e-01 -2.784165041494636728e-01 -1.544767898947866147e+00 3.088516155487206483e-01 -4.210549257197955808e-01 4.979141399907309751e-01 -2.124471494966601037e-01 -7.369209454584577657e-01 1.002302618465686468e+00 -4.262325550299194687e-01 1.352621352063370974e+00 -6.518412164875211356e-01 -5.961077476507128381e-01 2.066878463275159117e-01 -1.247204066592511706e+00 -9.179355184084740937e-01 1.098332106174863404e-01 3.715472305810039177e-01 -3.704940671394584273e-01 -5.440534510802608886e-02 -8.116350579335066540e-01 3.298788666855521079e-01 -3.457202359086443688e-01 -1.355415787669303818e+00 6.425252072628289124e-01 -5.217549853711526131e-01 4.537862980890733922e-01 3.640490251360452567e-01 7.167088597510631320e-01 1.161481415580066123e+00 9.630167333435316057e-02 -5.466618972976559077e-01 -3.311635900024677004e-01 2.565684655127895009e-01 8.370460985505984164e-01 7.839198901652532081e-01 9.981928316065180606e-01 -6.605602514487157739e-02 3.842283951265169084e-01 -3.329508411382567368e-01 -2.765607145939683043e-01 2.291737213062244177e-02 1.212826429270389972e-01 1.322222208861872028e+00 -5.722228954661667810e-01 -1.294262832996393442e-01 -9.581480685605603398e-03 7.281152394506593684e-01 -2.194550391706680606e-02 1.045114147101808388e+00 -3.010758862985466952e-02 -2.213639437642211938e-02 -4.644160035531162412e-01 3.156572025921283720e-02 -9.172810483802282810e-01 1.240799170820297892e+00 -1.131749405755610033e-01 -1.187923477404438266e+00 9.545435481146702372e-01 -2.179567774477502995e-01 -1.039262726417270244e+00 -3.239216190517158478e-01 1.248790070129331520e+00 -5.569935369837556438e-01 -6.938199469546721954e-01 1.095187095261206167e+00 1.140767906654230668e+00 2.850567958983346584e-01 -1.800012533909540746e-01 1.388260433330425203e-01 -3.224556315346825963e-01 5.953076175795763980e-01 7.993275327418387644e-01 8.697236512077625159e-01 3.165452801269433292e-01 6.961893875752256378e-02 6.888083464460863226e-02 -9.352334781889202198e-01 2.555186799867231132e-03 -9.858407181231004790e-01 7.097396277693229782e-01 7.477392282432245851e-01 4.373838535128163896e-01 -2.871704050010547848e-01 -1.873256998210212076e-01 -7.670795125676718729e-02 1.166927884027689322e+00 -5.993691540892247538e-01 -3.311548855692023063e-01 4.050217937487244901e-01 7.154547345871058450e-01 -2.829918724591099499e-01 5.383159214127156700e-01 5.029352142319002406e-01 -3.976258314832066543e-02 4.065212141433992010e-01 -8.297293755322220354e-01 -1.535598084301665056e-01
-6.934889118560159105e-01 -9.409313182032530420e-01 1.025325959354835281e-01 -7.326798179540591205e-01 4.536099265332902419e-01 -1.201810660491269278e+00 -5.718821072836576258e-01 -1.126904535601912949e+00 -3.004191440623741882e-01 1.282208447351214087e+00 1.787543686515710023e-02 -5.350525667597557655e-01 6.620553270884247388e-01 7.708011608009348592e-01 -7.572731881290220013e-01 2.230043553057463324e-01 7.797890957359812081e-01 -1.334769889975059298e+00 -3.427317341027880104e-01 6.156829035834284758e-01 -8.437912223993523364e-01 1.463434907419034758e-01 3.680370407276657430e-01 -1.277868306904382800e+00 -9.012482145506814923e-01 2.699332893049473658e-01 -7.785295451476086370e-01 2.374949938880575595e-01 6.545934566835337476e-01 9.740693994812290590e-01 -2.106665309922674811e-01 -8.061417439230478266e-01 6.568923638693452416e-01 7.431395157354919734e-01 -4.787419887576385702e-01 4.466055369859285862e-01 4.828724261624144365e-01 2.790953727055215938e-01 1.586009025617455062e-02 1.256041611958426396e-02 7.411063475426810099e-01 8.467901929229448843e-02 -8.601145640255019043e-01 3.767434572559406891e-02 1.455568325905523264e-01 -6.860795910180195190e-01 -1.384249785905682373e+00 -8.174689177514098404e-01 2.459595251334212654e-02 1.630275872053266628e+00 2.823833485742271443e-01 -1.415344266799512640e+00 -1.211154809650044406e+00 2.966335030340468415e-01 -8.557244838163931000e-01 -5.440204707484682656e-01 -1.307589695658612383e+00 -1.187421147797073306e+00 -9.794228972975965730e-01 -9.818611804940233778e-01 -3.962415266382102175e-01 1.964004984674823928e-01 7.703265504593865831e-01 1.463137160493824807e+00 -5.876816563929863069e-01 8.436415442997314829e-01 -3.529398033183377414e-01 -1.455898453713141860e+00 -9.496739618728233800e-01 -3.605833740659032394e-01 7.077625005627307120e-01 -7.020221406636398265e-02 -5.458583027660112164e-01 3.638618302752741340e-02 -1.629582180936558489e-01 1.597995106748254512e-01 -1.437228485688646806e+00 2.311870149031618193e-01 -1.075831783524296315e+00 5.099340454884074836e-01 3.372551225883844705e-01 1.498755709823736959e+00 -1.730613109171792230e+00 -6.051995960634366511e-01 5.422798843870310637e-02 4.784385106285741207e-01 -9.879732021128395658e-01 1.269272202443325837e+00 -9.902688095918552591e-01 3.052669316703952515e-02 -1.676102310276852414e-01 3.527121158372680254e-01 -5.063412170764033382e-01 6.036796292962581106e-02 -7.984166078860832627e-01 8.482551456107250143e-01 1.607109068718280132e-01 -5.195396589025006451e-01 1.092257936248223871e+00 6.606553704644688718e-01 1.685455095783024548e+00 -8.032752381067540526e-01 -1.011924182331664701e+00 -1.178809652975455258e+00 -4.420433952184718018e-01 -5.342815611852588242e-01 -2.758340300535268574e-01 -2.868833367629340936e-01 -8.484402809501931375e-02 -7.398037631797167446e-01 -1.004058398297243304e+00 -3.993557063429944987e-01 -7.878276490511644248e-01 -3.506273383939987331e-01 5.934047752414830512e-01 -6.977179902555292745e-01 -1.234813060802604223e-01 -1.017969773130690953e-01 -4.249530362136674788e-01 -1.172853359734379458e-01 -4.328586189434421305e-01 -6.935688984794090572e-01 -5.798755798610553125e-01 -1.997258165841625521e-01 3.837985506541223280e-01 -8.643825583122293210e-01 -9.165080915915300164e-01 -7.004392673414178150e-01 8.362391279088851603e-02 -8.300984440944511045e-01 2.848403529019459882e-02 -1.220373740141783347e+00 3.239486227260580109e-01 -8.362815359728766884e-01 1.789726252264109418e-01 -1.090463042697829898e+00 -7.273757792453073856e-01 -2.558853547338623136e-01 -2.387757669194814636e-01 1.905916157956865087e-01 3.458010787593219781e-01 -9.689613453231075146e-01 1.785060136243948881e-01 2.078470548419510400e-01 -1.867432348321751978e-01 3.821190196655412097e-02 -7.379722172863356633e-01 -1.111714715430439870e+00 -6.598971657363630339e-01 3.039041470687777746e-01 -1.021268524764462393e+00 -6.592775490625253365e-01 -5.019599766798870100e-01 1.055624926024423704e+00 -1.026229185425886481e+00 8.977343244343318762e-01 8.962601076878695672e-01 -6.493505277884862315e-01 6.287181945598163679e-01 -7.489440909110852695e-01 1.495294042482788743e-01 -4.112989760182337862e-01 1.751824330715668898e-01 -7.462738354067689484e-01 5.042375964573175828e-01 -1.519687306076604072e+00 -5.925431207512694698e-01 -3.404326131337038763e-01 1.179424523142834191e+00 -3.873750881135307189e-02 3.317518355875282987e-01 -5.776207873439471729e-01 -1.018670659343632323e+00 5.820754104556581376e-01 2.718012605650850233e-01 -5.794393963646643497e-01 3.138641024946869362e-01 7.914447472112726700e-01 -1.606776403799009822e-01 -6.800127351082295712e-01 -6.851051810859017932e-01 3.109289163328316646e-02 5.123456149777415591e-01 -1.006800942381734565e+00 -3.603290909382467766e-01 7.243995409455318280e-01 7.029280457635483925e-02 -4.490604477058433575e-01 -9.621385809762517116e-01 2.164620760410046127e-02 -1.533102201159467770e-01 -8.563345239430912859e-01 1.282630902280117668e+00 -6.844057028747714266e-01 8.347353184274289850e-01 -7.576294815756895451e-01 -1.276462569430625527e+00 -9.231087934318412680e-01 -6.066030093500658360e-01 -5.003447075635465424e-01 -7.590489206900602470e-01 2.995605857694063623e-01 8.955318877956424117e-01 1.742906869391788738e-01 3.273834032377441750e-01 -7.392840088692856915e-01 -6.254331693683873317e-01 -8.663846005589159738e-01 -2.997973238714540245e-01 -8.775281369291735301e-01 -2.644040978495389854e-02 1.227407520110705308e+00 6.561504193546945085e-02 -5.664241083769974150e-01 -1.099931314771368962e+00 -5.161848155412027683e-01 7.150112277786410120e-01 -5.182521371124484411e-01 8.247850894937562849e-01 2.251925166602329609e-01 -1.852999277753280549e-01 -6.337627579290875390e-01 -8.018713831778768730e-01 7.360271447329189698e-01 -1.294082263909504649e+00 -1.160158147394024564e+00 -9.174130355260430303e-01 6.201627615809803817e-01 -3.376933185362594736e-02 -8.300494392142293565e-01 -1.255350286554717920e+00 5.107153772354051657e-01 -1.502593463663397244e-01 -1.168445670908953016e+00 1.218499349910462382e+00 -1.262858949710058964e-01 3.567146960802394240e-01 -2.086031536285800139e-02 -1.322261192549607278e+00 -4.381310203574034778e-01 -1.230032987562289293e+00 -4.156238896059114701e-02 -9.148645523507547006e-01 -3.587592769498867962e-01 -7.830186134630019446e-01 4.306990659489959850e-01 -1.134355966023855133e+00 -6.713111400976859988e-01 -6.706780326495320743e-02 3.748721132306136461e-01 -2.223158507785554239e-01 8.932957186333322086e-03 -1.309265714818311110e+00 -6.412729914417499844e-01 -9.469593305636266889e-01
-1.659071800936471608e-01 8.338504444974073060e-01 -1.031237181766296418e+00 -2.768433733347118730e-01 -1.085908886241796711e+00 2.941561156851820943e-02 -8.188094439707270800e-01 2.906075295214749499e-01 -6.719426698193701197e-01 7.116234008251207666e-01 -7.472954597108568686e-01 -3.306615510477690645e-01 -6.392541036914528574e-01 4.745533176660340358e-01 -1.512206247448471541e-01 5.042944497026132789e-01 -9.614468163589611205e-01 -1.218114155242756430e-01 4.163009387578428533e-01 8.103278427114966043e-01 2.437070199354404720e-01 -7.243127555516924998e-01 4.617187944120531018e-01 -1.011567835406760096e+00 3.434395748133726167e-01 6.182099123698562293e-01 -3.232370352207784153e-02 -2.619259566083807084e-02 7.868099568167556956e-01 -9.929984302005034902e-01 -1.170442232929234772e+00 -5.190324712092359016e-01 -1.142518191847756437e-01 -6.115641698943086180e-02 -4.831985410764601530e-01 -5.913638487237307118e-01 -7.989092635160752742e-01 5.518472274261843058e-01 -4.664900256787274380e-01 -6.292800860903760563e-02 5.826908305489819639e-01 6.642095295823871592e-02 -3.550330378859553604e-01 -7.975316180251125209e-01 -2.262748616941202273e-01 -9.052567115536439002e-02 7.830580129684701074e-01 -6.114912997253449944e-01 -7.505190086704602859e-01 -7.494793569242912401e-01 -5.643417603824533169e-01 -1.004421411644959905e+00 -2.754050504615255246e-01 -4.882045065699411879e-01 5.711099358010648386e-01 4.288058922879429691e-01 -9.311274956168120731e-01 6.800286302605491606e-01 -7.497224092884000601e-01 3.377041693753135565e-01 3.012199319445247464e-02 -9.872498718155342523e-01 6.113761613922842342e-01 6.233134863655463986e-01 5.678255460056182979e-01 -3.191013011149339551e-01 -7.336690559581868776e-01 1.003649301250703729e+00 4.499282280757528896e-01 -9.784370126673320733e-01 -3.413854151668738734e-01 3.971476892993853203e-01 -1.022147943991661423e-01 -6.897183889304926430e-01 5.389834144004844729e-01 -5.824006268643662221e-01 -1.087918055470703971e+00 -7.419277672562388792e-01 8.641202763370272599e-01 1.900637219499929920e-01 -6.482405441944903979e-01 3.151913652495319518e-01 2.111905277316445673e-01 3.173455466423564797e-01 -1.040168900034195820e+00 -6.276539440425916716e-01 5.876557284809402759e-01 4.319605756138013009e-01 -7.231069624962709330e-01 -4.544851986122682153e-01 -5.722798889418836965e-02 4.870630112080175933e-01 -7.400719307364532762e-01 -9.177322217708316909e-01 -3.591259758634969268e-01 7.791053945072486941e-01 -6.535554744007793238e-01 -9.518200919619540512e-01 -9.165514341055042147e-01 -3.231872181338049099e-01 -9.951810638942730769e-01 4.825571509519641089e-02 2.252657366393420180e-01 -2.315032484167325322e-01 2.822799404292573033e-01 -1.708491440115112725e-01 2.853829380377582714e-01 -5.753995509735422287e-01 3.215026271436330907e-01 -1.580583903086356934e-01 3.316375918633790443e-01 -2.766741010941528578e-01 -2.307979923664392752e-01 -1.080310386172443238e+00 -9.780022410591494852e-02 -8.851253223889076205e-01 -7.384413486383406555e-01 -1.658205996477189748e-01 3.611686802015282027e-02 -3.736826452333256721e-01 -9.297725870981458085e-01 3.893189803262913640e-01 9.032180952281807507e-01 3.816971555791687232e-01 -9.895616246068223987e-01 5.850130267903339565e-01 -1.004988633140942111e+00 -1.559827553095677610e-01 7.787666312507663946e-01 -6.743256206399611541e-01 -8.997589012915886419e-01 5.170789261505907008e-01 7.553764342004166688e-01 -3.985643354222155876e-01 -7.511854316828510125e-01 -6.317013770981370069e-01 7.765222429736547971e-01 -6.436409568097918588e-02 6.154052489531637304e-01 -4.877104510492610290e-01 -1.012223649136863024e+00 -2.213174437716252108e-01 -7.325912729470007712e-01 -6.483652205751512521e-02 -2.627727533935423146e-02 -5.655706971866237831e-01 -3.756815685296582275e-01 -1.168166596379892397e+00 -3.116947514436372857e-01 -3.404828780999527571e-01 8.143357670547636540e-02 7.375539900862787546e-01 -1.267187807936751287e-01 -9.571897038342366271e-01 6.935689467535411934e-01 6.031432893024896158e-01 -3.290750432623957278e-01 -5.046389939329388730e-01 6.680842700829121572e-01 -2.798547706906717725e-01 1.683384153617406565e-01 8.084229923595431799e-01 -1.135564305149554087e+00 -6.022986467997486493e-01 -5.035034968002524147e-01 6.649718476970593040e-01 5.663182553720215624e-03 -1.078295702995620164e+00 4.902518970075519511e-01 1.633871870623715972e-01 6.045291881195436617e-02 8.330535627715444091e-01 6.762307659581427988e-01 4.387965277061731117e-01 -6.655764172724688565e-01 -8.549363754746920341e-01 -5.651300530992904303e-01 -6.209877626248807569e-01 6.939502563881490282e-02 1.893329363506152108e-01 -4.381155037450377293e-03 -9.149160435707337502e-01 -2.535117938622746259e-01 8.507994487118198945e-01 3.600194631936842748e-01 -3.126011174001879778e-01 1.668685634390811301e-01 -5.817138685489519068e-01 -9.920991002715869866e-01 -4.633301774451450278e-03 -4.605633744567029786e-01 -1.818609607925537885e-01 7.633706953312454635e-01 1.098932117436858535e-01 4.432108099055963035e-01 -9.384070209018705588e-01 -1.646748905520450390e-01 -2.148170963595770755e-01 2.622973440324627425e-01 -4.370133013475913097e-01 -3.917664940504239635e-01 9.176320521266042585e-01 -8.982046282312317054e-01 -7.792284858808801173e-01 -5.342333440832675029e-01 3.848069660752701515e-01 2.518335094431717325e-01 5.441762026645032835e-01 -2.557371649409195813e-01 6.896351889609880770e-01 2.773789619648040494e-01 3.221967615525540563e-01 4.075391343814696032e-01 2.076621707750239687e-01 -1.689984306176683659e-01 -1.022318717109894415e+00 1.924435904307677039e-02 7.310332587431087048e-02 1.425812738965153981e-01 -5.216562843937564420e-01 -4.629278561346392845e-02 -7.175084322640743473e-01 1.587130955521766917e-01 -1.099452487233858911e+00 7.346373150896960968e-01 -6.297007866153302436e-01 -5.593455184734779095e-01 7.126324982623581938e-01 5.694207967184040653e-01 4.835626800112987622e-01 -4.940552413183247893e-01 7.570157079761808960e-01 3.730573354651838813e-01 2.039015423516628844e-01 7.202899684722590123e-01 4.250819145928484422e-01 -1.540861547197868997e-01 -5.060866604282089343e-01 -3.294416241257828726e-01 -1.023791870816974869e+00 -4.774767555523741214e-01 -4.802240087210123409e-01 5.955702687651933669e-01 6.306264680398108169e-01 7.862320316797977160e-01 -3.613709110894416932e-01 3.383505024774856595e-01 1.323501827267331565e-01 -5.972619416819172633e-01 5.474655235509566786e-01 -7.278773175217344571e-01 4.344902126193637137e-01 -8.819194623445695269e-01 -9.415825570717911708e-01 3.986815015845792121e-01
-2.212196047069080879e-02 -1.857275929618470711e-01 4.576790007302967145e-01 -4.009363291201846202e-01 6.773249756040617964e-01 8.387545849227969752e-01 8.993318911783197978e-01 -5.038699937471105006e-01 -2.834089281105238722e-01 3.317964156123561770e-01 7.016415961853171845e-01 2.924281848895324276e-01 4.263761159457923333e-01 6.536046007122524593e-01 -3.573399670406362527e-01 3.617372515528980564e-02 1.018688226704034597e-02 2.254175228778840245e-01 6.805095404240927293e-01 1.303108609454400879e-01 8.218178679333589809e-01 4.210062994548463000e-01 -2.781592646107093891e-01 1.069899717073481415e-01 7.550149671845006738e-01 1.400630155697307477e-01 3.680071519253203527e-01 2.052406935643612540e-01 -4.584647148069554423e-01 -7.087928248726090841e-01 -2.314524425637558558e-01 -8.492862888443362124e-01 5.792438244194261232e-01 3.645041146444218949e-01 -2.428720349046186722e-01 -7.078434831362017121e-01 6.758547772885060700e-01 2.051952928576436519e-01 8.943716935564905990e-01 -8.805890069724949809e-01 -6.185360519095355336e-01 -8.975889671087350363e-01 4.345200241201125912e-01 -7.535010683869948211e-01 7.014921876584158111e-01 -1.123678125042396475e-01 -8.096673384271300955e-03 -9.757405486475062562e-01 1.508179665745131848e-01 -5.988444725469183050e-01 -6.662308184807255174e-01 7.154449565901700447e-01 6.467743527443593488e-01 -1.044551211344026065e+00 6.080499849300327053e-01 7.113238585892478483e-01 -4.369328873106461536e-02 1.995836810862099131e-01 3.663860337408211820e-01 3.047775674831656456e-01 -1.882687193361568812e-01 7.641445652204503780e-02 9.130524306932037704e-02 5.954715082013185556e-01 -5.888264887998925223e-01 4.005043633100535683e-01 5.461069093827194409e-01 4.936189779541672040e-01 5.428276275695405051e-01 5.201505521317473235e-01 -2.366394908193283908e-01 1.781786433367889000e-01 4.457761146942005315e-01 4.811792901187502136e-01 8.426256213155975949e-01 8.733506754958935137e-01 9.819501940740445189e-03 -1.110591210214290775e-01 6.219930533254796057e-01 -6.228291921351838401e-01 4.607403986414679853e-01 -7.471837659260720521e-01 3.436372893419775004e-02 1.018172880737823749e-01 -1.891977713508678216e-01 6.292332360977893613e-01 7.022829363458735728e-03 -1.472313439366931265e-01 -2.910762516533112465e-01 -9.577343200776802234e-01 -3.789761583303863923e-01 -8.934376561149539597e-01 5.089839946402794496e-02 1.921722344636311586e-01 4.850514546115790582e-01 1.223143340831361614e-01 -7.057018023551077102e-01 4.245385476522548496e-01 -2.733190065871634114e-02 -9.008697404965270161e-01 -1.026582395498349731e+00 -4.287358577013842265e-01 2.910034331527549534e-01 7.752828176294832563e-01 8.482122679859328551e-01 4.522504429728885778e-01 -4.939106134255215053e-01 1.595204560473003075e-01 -6.156168503061928421e-01 4.365477732279248735e-01 -7.290008074659423132e-01 4.583076147221528118e-01 6.829264266528087823e-01 -2.133311265454811492e-02 -1.020591807835153686e+00 -1.529552451142783542e-01 5.430472141471996972e-01 -7.278259509503508529e-01 -9.989519191352783656e-01 3.314304687542947159e-01 4.658414734481181041e-02 -1.053305549619777404e+00 8.711909298461367746e-01 -1.222516702741531080e-03 7.975349702130865581e-02 4.949110546199240734e-01 7.620020422002139471e-01 -1.000200396136934122e+00 -3.853428599342331173e-01 -6.508551694596722559e-01 -1.429107306968651903e-01 -9.520965603182691694e-01 -9.314735008998222821e-01 -4.715048997940348152e-01 7.457804957326243933e-01 8.345958119517495888e-01 4.526902458237155313e-01 -1.053400373227903142e+00 4.113893253822916707e-01 -1.016079771918650287e+00 -7.516972022350674187e-01 -1.053703993024529106e+00 -7.779097073241690863e-01 3.122894918632931893e-01 3.303541233255256060e-01 -3.216626087289518598e-01 3.323106112473592222e-01 6.332672534867661573e-01 -8.061246403346300493e-01 -9.120943117509664466e-01 -3.405917483339742091e-01 -3.330286732303435193e-01 -5.832399864775547060e-01 4.104336732970854107e-01 -4.019950491309658425e-01 4.797073232953537048e-01 6.414470610752044388e-01 -2.074816949457035029e-02 -2.019832907585575044e-01 -9.661443025239758731e-01 -5.744380888890318060e-01 6.997730170828134755e-01 -5.525783519340093930e-01 1.856180714554906130e-01 -1.309352684073274986e-01 -9.009327266416090607e-01 6.683930012466396953e-01 -9.228285561732217923e-01 1.905299789358738671e-01 8.795234368968039007e-01 3.384161064439604738e-01 -4.605743901790348427e-01 -9.462388408076780610e-01 1.042683070152490427e-01 4.000185961830323711e-01 -3.853316826136344297e-01 2.273900809140492474e-01 1.513571072914939378e-02 -9.989892560149833400e-01 7.460993900008402457e-01 -3.657457305815589033e-01 -3.308211460568423745e-01 5.678048830075426157e-01 -1.176647199732720472e-01 -1.731553291156849306e-01 1.939765543958363037e-01 -6.180397088075776368e-01 -2.711251030513200239e-02 2.910542038560446909e-01 -5.193001627839283901e-02 3.046253613364275359e-01 1.594046935542426380e-01 6.098669929971299863e-01 7.103907308220285266e-01 -9.183668547468472054e-01 -5.730658585903292135e-01 -9.863521106076046374e-01 -6.736452782041129073e-01 3.235187728178274824e-01 -9.802271644572329024e-01 -7.249320345141330169e-01 4.017333612615083260e-01 -1.663298053951571265e-01 -4.979509449072370142e-01 1.874247238533963966e-01 6.749961841798413076e-01 -9.760453458456739284e-01 2.682736119722276547e-01 2.442342684514248741e-01 6.420175738504522167e-01 -7.260498598834902451e-01 3.382428868624381413e-01 -8.456439999081550862e-01 -9.656587912722243150e-01 2.565749534957300071e-01 -9.863389806441021923e-01 -9.583327690255990516e-01 -1.019022078104105278e+00 -1.585828916292144897e-01 4.331677080292374304e-01 9.127146534594213767e-01 -6.084515610251755025e-01 5.261391259956201827e-01 5.447727874785712743e-01 6.439362515577828905e-01 -4.683330755407019708e-01 -8.128729222523455311e-01 4.705937195651394012e-01 7.648582545746589190e-02 -2.524604827386532357e-01 -9.641822148764012113e-01 -1.084844553171995241e+00 -4.691884654850684289e-01 -5.228874025146945659e-01 -1.720292101982986988e-01 7.969955548528024902e-01 -2.631339706118834831e-01 -5.139271970325780536e-01 5.976651243654559353e-01 -4.685728936929079436e-01 7.512451389196634910e-01 6.550197265765544952e-01 1.748101649212256969e-01 4.043737903864804140e-01 -7.419985590896731598e-01 1.473901498801351573e-01 -4.722092911358821699e-01 -1.033129998863113602e-01 -6.223309000467043273e-01 7.349414983873149287e-01 -2.663047855088935267e-01 -1.512190153814780558e-01 4.095575486879803329e-01 -9.333914857496148354e-01 -5.130693060634956143e-02
6.200385142937944183e-01 3.521916109150786678e-01 -4.633720688593521153e-01 2.974712299533429638e-01 8.562201989955723347e-01 7.742326600234000766e-01 4.846829741634677280e-01 -4.870890970772689399e-01 -3.993604402946362431e-01 -5.650621826581389909e-03 -2.618477946061546491e-01 -2.544371817139352010e-01 5.121718646822318588e-01 -8.061573531825863004e-01 8.758405360648474636e-01 3.857347842746912669e-01 7.312808306422248217e-01 5.454060776238481845e-01 -1.532316320540039745e-01 8.462572880268052211e-01 -5.509317412003211789e-01 -9.332145865309844357e-01 -9.247172387552007322e-01 -6.050089268090794725e-01 6.655334379585724214e-02 -6.658459625206459842e-01 6.691125472373570249e-01 -1.045099012146773143e+00 3.229262144387601285e-01 8.266946731565715245e-01 -4.721914226824046601e-01 1.271899879573705483e-01 3.857559633831306178e-01 -4.247213217470089952e-01 -1.373311432129090681e-01 4.700276468858898271e-01 -7.664026095831633079e-01 -7.500274711408838613e-01 -3.230829929017674518e-01 -5.711553396453088460e-01 -5.382595039654664015e-01 -7.004774690359207856e-01 -8.147175933450263585e-01 8.222921511212676338e-01 -3.969846493175291369e-01 1.123118884460600070e-01 6.027267007880521971e-02 -9.930015880756271063e-02 4.684946862081689756e-01 -4.196387150860776960e-01 6.550919241826237416e-01 -8.725188119626441363e-01 6.172847636971864199e-02 -3.335025604859508941e-01 -2.754097184603081505e-01 -4.254642673222228666e-01 2.010148186409163873e-01 -5.775479497397469908e-01 -4.926632166140841873e-01 -4.889341286674566689e-01 -1.016515493454072105e+00 -2.677548464753429780e-01 -8.951339586923331426e-01 6.492114571230671594e-01 4.156759264903566731e-01 6.966055448800315131e-02 4.794927621965382469e-01 7.150092831069378985e-01 3.797619121146100230e-01 3.093050049792403500e-02 -7.747565955272651683e-01 -1.889636195425317966e-01 1.552304188072889668e-01 2.009717510263476226e-01 8.955686004727980709e-01 -6.750421725364240677e-01 2.060816946503510050e-01 -4.854664951007922613e-01 -1.722201449918538407e-01 9.130775449995477411e-01 -3.705759101241969389e-01 -3.937291368952957060e-01 -2.569442831898391955e-01 -9.931317885248961419e-01 -2.189673836879987290e-01 1.366463782482864042e-01 1.553779655568703066e-01 5.856066953544921683e-01 1.860066035211079549e-01 2.788084902391059494e-02 1.757307576119415404e-01 -9.282583492687315196e-01 9.805017701928572249e-01 -7.104658244292182401e-01 -1.777135267309399302e-01 -5.562267897684382012e-01 1.357151847371827758e-01 1.093719287013941721e-01 -3.935581022083565195e-01 8.185429304267796136e-01 4.249036603536974210e-01 7.435568746815656160e-01 -1.071891381488305622e-01 1.925082865523605469e-01 -1.888617572972058345e-01 -3.954468394912308282e-01 3.135927938859792152e-02 -6.577526906100509274e-01 -5.817095514894304875e-01 1.678878501196580386e-02 -9.868219518809636659e-01 -1.207836666656521007e-01 9.820064039269159606e-01 6.336689868596288022e-01 -9.533331666522428804e-01 3.020470928401340904e-01 -7.067673533786232865e-01 -8.522238551009080343e-01 -3.223815169942979564e-01 1.900734437538887656e-01 8.978501167282952611e-02 -1.068806659652884905e+00 6.840333272411772692e-01 -1.394153135089721551e-01 6.963776590479607842e-01 -6.384020426688877814e-01 -8.353433993980663441e-01 -1.260551312186819206e-01 -1.212975995814001284e-01 -9.740712996630275233e-01 -9.369783594151324113e-01 -9.517932299965272680e-01 -9.296925646640026297e-01 -7.394764264110640362e-01 1.258678529650144595e-01 -1.135654638213105805e-01 9.401435592111235806e-01 -8.636847740319427702e-01 7.114559275807708083e-01 1.444942466284019622e-01 7.152599813069606682e-01 -9.053995164620403102e-01 -8.299344812585199849e-01 6.807602170764426308e-01 1.314408421849072861e-01 1.128654357927787039e-01 -1.146598888012730466e+00 2.784233775486537610e-01 6.859495453026135392e-01 9.051383740459592042e-01 -1.444372557783918098e-01 -4.995589191919772021e-01 -2.465171465734525280e-01 -5.754308276015100976e-01 -5.566062668411769776e-01 -2.964160399158469739e-01 1.848014718575494708e-01 3.156104007017342394e-01 5.318638488144838972e-01 -7.507851461683227035e-01 3.503576550089403385e-01 5.838451198234737571e-01 1.175310411938223082e-01 -6.494384745950401716e-02 -7.301688698821333645e-01 -9.313101636042251386e-01 -2.277397069333398083e-01 3.099532282998715971e-01 -7.045829484937264908e-01 -2.159069635579056179e-01 -2.259984372696997174e-02 8.622648882488523903e-01 6.339506826003036277e-01 7.223986265064257228e-01 9.462980002302895377e-01 5.236375843731798652e-01 -6.888993760656834109e-01 5.286849591754586575e-01 -7.071565144056788377e-01 7.593263645464665146e-01 -4.681602383230486497e-01 -4.626276849298230909e-01 1.454421166382890429e-01 -8.988627620373668137e-01 7.937277689591465402e-01 -2.835036385748463950e-01 5.582977988844313177e-01 4.011310757352642420e-01 3.597033695132985653e-01 -6.843907944010368949e-02 -1.291114464771187798e-01 2.805874531549379935e-01 3.336961281636552368e-01 -5.333949760503998716e-01 3.833078093938153685e-01 8.698208882467124425e-01 6.084077092652919738e-01 3.523430290527275188e-01 4.703731450308984430e-01 -1.104980863619513531e+00 -6.546718190868571208e-01 -4.835120535845388590e-01 4.543503772228473236e-01 9.360375483909451066e-01 4.001606177856659174e-01 -9.726691409842312674e-02 8.503810106772135002e-01 -2.969484906464802676e-01 2.377553004021424055e-01 -1.073293789354205607e+00 -6.940779056115774504e-01 -4.575568495112430911e-01 -2.181689593101597824e-01 -1.913408359616803611e-01 5.135764733377885527e-01 -4.551833980705663474e-01 -8.347466142685296964e-01 4.090172973373403138e-03 8.571755357676456022e-01 -2.001214636110212886e-01 -5.094684604678618722e-01 5.059605285147761311e-01 2.218994704003394991e-01 -9.935393326940347158e-01 8.819468067694599123e-01 -5.569324789250955365e-02 -3.977618151971904492e-01 2.786686130681239604e-01 -4.323336493076290199e-01 -8.476592618638995047e-02 2.906579632401005697e-01 -7.960131685728045747e-01 -1.549233436868571179e-01 4.599968073562140658e-01 7.897430647582418528e-01 -9.579935278205988780e-01 5.118941844896019999e-01 8.658923876738726655e-01 9.562142624501852595e-01 8.688326673707027492e-01 -7.578768855153985573e-01 7.576917879371906084e-01 -7.911105388027811491e-01 -2.862168993137199080e-01 -2.883803649079069720e-01 -4.883579584799905282e-01 -3.350036492649561271e-01 7.549634366368389304e-02 -8.704286774978580166e-01 -2.576682969144289403e-01 1.574890544059763253e-01 -8.704292032087695974e-01 -5.151141494073999683e-01 -5.494277647218021032e-01 -8.715485764383106293e-01
6.156308304771084261e-01 -4.726573724096763129e-01 -1.796920379026241688e-01 -1.896241016485519237e-01 -3.899900916531969797e-01 -7.445004205523974017e-01 7.877156258684403500e-01 3.635463931019804473e-01 -4.669090393582657761e-01 -8.159843160899231673e-01 -7.526274374963979330e-01 -4.493672768996298528e-01 -9.023793438784527554e-01 -7.095801964477380652e-01 -4.942843975288761793e-02 8.716930613287093843e-01 -1.307770349610877236e-01 4.191811718029801459e-01 1.407324939956609289e-01 9.521555907983877409e-01 -6.434140963872215790e-01 4.783017940341705576e-01 -2.998602796222137323e-01 9.829306289380088657e-01 -2.934869770938315914e-01 9.574577333362946918e-01 7.212101004308947294e-01 1.958339754318831338e-01 -9.475318833098946847e-01 -6.303381534180503287e-01 -8.865769222631011415e-01 5.840287329700440955e-01 -8.521711757929990583e-01 5.725409432226026274e-01 -9.435626041392408681e-01 -4.891812636754774291e-01 -4.045583918102823584e-01 1.300619007817616635e-01 1.242806384905778549e-01 7.754594778989306603e-01 2.730800050075732344e-01 -6.761497247481407236e-01 -9.458630121712786609e-01 5.246201629606069838e-01 7.125606080094054606e-02 1.576879390120970170e-01 -1.713892339435554857e-01 1.801997084921212744e-01 -1.884006732425033692e-01 -1.085848205457674992e-01 1.846536531602481768e-01 -1.419415850701251890e-02 -8.816691957322549955e-01 9.539842286954972606e-01 7.107969221339206500e-01 -2.420922483609788123e-01 9.350683956768547633e-02 8.664015314257289546e-01 -2.048980497092669217e-01 8.894637622753274186e-01 -9.389039106543289881e-01 4.920659178004168632e-01 5.949343345986078946e-01 -6.133868790965752993e-01 -6.736933140232924666e-01 1.813331657135085484e-01 -4.024031013348969288e-02 1.732658255730513686e-01 -7.348883736443080350e-01 -4.460709161229033382e-01 -8.604273413881209365e-01 -7.835169088332587517e-01 4.336709963654712952e-01 -9.466613336398225220e-01 8.001864156141115514e-02 -4.022989983685566484e-01 7.374246305618280539e-01 9.082641460123709598e-02 9.954965316359193350e-01 1.223170471518269936e-01 1.239574322429899539e-01 -3.312709977913076975e-01 -4.963459129596152208e-01 -1.447989405355118719e-01 -5.456797696338887560e-01 -8.572976885140939363e-01 -1.491626728779620603e-01 -7.904857481078096937e-01 4.462054437688617314e-01 -4.027633136593044005e-01 -1.925104952060253255e-02 -6.090798152719517633e-01 3.618864548423639804e-01 6.620386227707231175e-01 -5.585045790776488328e-01 -9.867971130514489042e-01 -4.984338134289190148e-01 2.556806766591471769e-01 -3.796304144017159099e-01 6.715050731817869822e-01 7.056713281512917435e-01 -2.550062938205551744e-01 -2.685241253711061482e-01 -9.664831699316424052e-01 9.964951591146148369e-02 -6.911302275126759431e-01 -7.734341344585832223e-01 -8.926652140128085167e-01 -6.410109098151030027e-01 -6.876515798498012977e-01 -9.286523023251799236e-01 9.648100826091744464e-01 3.170351429535883114e-01 -2.257216622388321936e-01 -8.762164508559728837e-01 -9.050606745930913632e-01 6.076828432830253535e-01 -1.540924171034991630e-01 -7.832025615380929784e-01 -6.682246721069492468e-01 3.607759166751176583e-01 -1.467821612572665357e-01 -8.058626802882666862e-01 -2.159697916156332609e-01 -9.100602936037194279e-01 -4.576969171115391477e-01 6.533955696987807892e-03 -8.695004472566668363e-02 5.372517696062402148e-01 -6.786087618454540449e-01 2.084308087140489610e-02 -7.182821203793067211e-01 -6.209014937397218103e-01 -1.797410481679972416e-01 -7.087613507371413046e-01 1.245628697591007750e-01 -8.939039109327866217e-02 8.843866746009751978e-01 3.402910961916922883e-01 -7.932461031031725618e-01 2.139143153935944563e-01 -1.593898054696492039e-01 1.863786290745564648e-03 3.125313987571253782e-01 -6.281137976942416934e-01 -2.806930886474504616e-01 -4.093301879640290353e-02 2.299274604463852900e-01 -4.282612177971512613e-01 5.569584408127178574e-03 -4.425649231836021325e-01 1.447795725938408329e-01 -3.161810178710111052e-01 6.781202588898510575e-01 3.723877350259719443e-01 6.296932899253560034e-01 -6.945345674977900785e-01 -6.295307466768341742e-01 8.540836719778531483e-02 -8.796585953093679633e-01 7.579360876445190298e-02 -3.273923508825609674e-01 -3.509268567076048173e-01 -5.391595585348551989e-01 -9.899076513376173780e-01 3.742515096788041062e-01 5.039830751170747414e-01 -3.227348696408960382e-01 -6.238819883064453120e-02 5.942460554466846290e-01 2.947344420809564491e-01 -9.538473720851756710e-01 -4.324230193988304882e-01 9.092593453597801467e-01 7.663075857329539886e-01 -3.494147734685907336e-01 8.214426637602945114e-01 -4.357331539947362220e-02 -5.964077955944729892e-01 -4.568591186787953617e-01 -5.195929446519365058e-01 -8.887268976139448551e-01 -1.256411872828447907e-01 8.095289616601346605e-01 5.185372809273746525e-02 9.131481385634401815e-02 -5.461538515776744873e-01 -9.063255681961424060e-01 -7.475120982536704872e-01 -5.705354367860968612e-01 7.474581773607236190e-01 9.767990438745967063e-01 -9.638664953373703437e-01 -1.126908600143793349e-01 -2.631417181537901717e-01 7.355821807871570917e-02 2.332731481904745385e-01 -2.071938651449697633e-01 -6.338405001005460448e-01 1.702642866313645309e-01 -9.332939460846226831e-01 7.858299852918412265e-01 2.892832657100554150e-01 -8.110571833031707811e-01 1.034323899778896300e-01 -7.418995076920470444e-01 -7.616519322621359001e-01 -4.681975306627423339e-01 5.264255705295382004e-01 3.966832833276560666e-01 1.170596969532461396e-01 -4.890819727408846074e-01 3.674339320746422555e-02 8.595258246177093220e-01 -6.292223067455759988e-01 4.686673170332544824e-01 7.449752715929071067e-01 3.398022640152325025e-01 -5.932247605603145901e-01 -7.409274767524042238e-01 3.006014474210992604e-02 -7.391793984410448548e-01 6.523346847429418727e-01 4.763049841881410174e-02 -4.159488516820102899e-01 1.370795738391852592e-01 -4.778675314685897901e-01 1.693903386704030400e-01 -5.355024522440690049e-01 -5.616002702225839638e-01 3.750138262102727105e-02 6.711780238560347556e-01 2.882686683216027501e-01 -8.109094956862492598e-01 -7.343716368278754292e-01 -2.188130710788146471e-01 -3.624517000897820029e-01 7.825361160586034037e-01 7.828722549422719723e-01 -9.395594342149510281e-01 -5.780785322621896372e-01 -2.232251458401551536e-01 -6.465204004877554977e-01 8.378346279445747502e-01 -6.201592848218066001e-01 4.681612133615851712e-01 9.137703114049416930e-01 -4.408278624823315506e-02 6.288121546428383501e-01 -1.428181203968203750e-01 6.273612430358679326e-01 5.221957051755241608e-01 9.203092914309234374e-01 -3.285789251931887645e-01 5.335297991955693098e-01
7.711243042357726063e-01 5.339753132431346305e-01 4.369985583640024762e-01 6.000469708447834227e-01 -5.128219833654366067e-01 -1.896751940040813655e-01 -8.434294408838158841e-01 6.518500777823950099e-01 -6.672805669817628571e-01 5.678727933917145920e-01 -6.833848481543618458e-01 -6.224902671575367474e-01 2.109110409228776850e-01 7.486696493648992146e-01 1.778462624246281154e-01 -4.058647746430978365e-01 -9.801586770079082633e-01 -4.544744603820055073e-01 -1.225371209130812350e-01 3.791367420520244669e-01 6.842663889810403077e-01 -1.080685860535093967e+00 -1.064425413251788521e+00 -5.110197091893086130e-01 -1.716290017404519322e-02 -1.761395590373914799e-01 -1.869078602323282490e-01 6.429574160989932619e-01 1.321774897473684540e-01 -8.751798328483508804e-01 -6.305557352132247217e-01 -2.016313024683145383e-01 -3.842304286152314341e-01 4.204435484746334439e-01 -2.612502231852721346e-01 8.378605116411810272e-01 -7.539734547465184455e-01 -1.252337671557101073e-01 6.634905690813800438e-01 -9.471035199616907319e-01 -7.842023873128932676e-01 -7.059930471078322833e-01 8.960539812842926999e-01 -1.663781579694987578e-01 5.728342177704510707e-01 6.490383072352521321e-01 -8.919445425319814102e-01 -3.586362367398988060e-01 -9.701537309572216827e-02 5.524194465968005341e-01 7.542913322457401870e-01 -4.341901639809956914e-01 3.885423898610708138e-01 6.431611556290597331e-01 -4.975489107270789635e-01 -6.945762517022343596e-01 2.349211387867893297e-01 -1.652078211882669970e-02 -8.060994894718499504e-01 3.916644039847680947e-01 -4.005593221424215145e-01 1.244641460399348032e-01 -1.052298059662688301e+00 -9.440942295632447079e-02 3.313127744821297571e-01 -5.813278709270562894e-01 4.652250254552049991e-01 -3.486152442516020078e-01 -2.392248108305009002e-01 -6.998597856785159221e-01 4.161440183209406118e-01 7.625257288332973893e-01 -2.332408978702914248e-01 9.153405742559639346e-01 5.040781685842098403e-01 -6.569855735241861838e-01 -7.859387092573083544e-01 -3.611123532044454021e-01 -2.364089685161782084e-01 -7.903529594672069336e-02 3.009342751220186463e-01 4.619342144487427748e-01 -1.161257631639592613e+00 -2.425354503273357554e-01 -2.296047238503080290e-01 -3.979510874784997765e-01 3.800924026765583469e-02 5.800564826368406202e-01 -5.394284462835348126e-01 6.708916655720422728e-01 -7.836522910122254437e-01 5.920223109566918537e-03 3.723745774190398428e-01 6.945599789420576764e-01 4.958546956093923264e-01 6.415604844159153997e-01 1.403230922316873151e-02 7.509580281104311084e-01 1.479196396202901165e-01 -9.462534539213856011e-01 -1.187936967415520018e+00 3.570666692838425638e-01 2.535563199892205133e-01 -5.071014382663889819e-01 -8.824106423195100524e-01 2.919701353119523723e-01 3.809076334980562861e-01 1.623716481011754434e-02 2.556500405903338602e-01 -2.460112060754821861e-01 6.540553550394332394e-01 -1.227203187751600526e-02 6.882399384625140781e-01 3.929892292092569961e-01 -1.620509057716021106e-01 3.837566973212248600e-01 4.605302521150968498e-01 -8.569814356139072720e-01 -2.293960044742771598e-01 4.061325691271450711e-01 -1.028771825954062136e+00 -1.075631532284880176e+00 -3.074838696115175241e-01 -9.201926396817355913e-01 3.804943135214857164e-01 8.773911983804328907e-01 -8.233193672307240196e-02 6.356373951274800760e-01 -8.207912350932756729e-01 3.157083408691147564e-01 6.446151667995717038e-02 2.760124615134830206e-01 1.880332424564203422e-02 7.978596792122349957e-01 -2.006978383702787416e-01 8.135039060986423154e-01 7.571420825478316630e-01 -2.456982112635456572e-01 -2.737129286825483732e-01 -1.027845571184368367e+00 -1.861316084317796160e-01 -7.165237861690373355e-01 -4.416867724948010387e-01 -5.365886107600412736e-01 2.934326907308511534e-01 -1.923609943458646776e-01 -1.201297727052236947e-01 6.123109935322912367e-01 5.931395637493060979e-01 -6.311753717465527769e-03 -1.669568298818968899e-01 -4.343128839958516618e-01 -9.913833170303633091e-01 -1.986033027826016317e-01 -2.575090224688054708e-01 -9.046688702943006533e-01 2.602947113163922022e-01 3.183218109210815272e-01 8.757817497226374481e-01 -5.890742332867748843e-01 -2.981683029651978623e-01 -2.980488646734070352e-02 -3.799015817319380539e-01 -6.106556523977930452e-03 6.547873406965188936e-01 3.696868987139032559e-01 -9.128562677610262410e-01 5.423574037599753206e-01 2.997134319444809125e-01 5.101253553142428565e-01 -4.398267396857496458e-01 2.323646555430926037e-03 8.070617352730605210e-02 -8.262973168890069831e-01 7.233391017042208881e-01 -3.692772809276094748e-01 1.726335898605048103e-01 5.640245397259517901e-01 2.547326109105252923e-01 7.916725384305712820e-01 9.200165725040211628e-02 -7.653413350629687528e-01 3.778864140502893321e-01 -2.529541557244576189e-01 -4.161164974208986234e-01 4.549459872217337941e-01 4.759483538105593325e-01 8.245077473621845732e-01 -7.219778934102871748e-01 -2.142216158943420490e-01 4.388503852212436440e-01 -3.958943246457610754e-02 -6.464057232115368867e-01 9.235338893162144958e-01 5.702167120429731950e-01 6.553891726435524812e-02 -1.309688360779594565e-02 4.408401239008581940e-01 5.060917528027816248e-01 4.485332446553625396e-01 -1.984109619621449716e-01 3.795488834680323942e-01 -6.371049278334584010e-01 6.519098804812321034e-03 -5.121010272561676846e-01 -8.644199983134043253e-01 -7.693215764008846103e-01 7.469163170302433041e-01 -6.847733660703250180e-01 1.877885462068417943e-01 -6.404132458047581133e-01 -6.754912288607141380e-02 -8.088915163720159507e-01 -6.172882868896635289e-01 -3.467183546252936566e-01 3.544363507847909656e-01 7.412908504935475928e-01 -2.956138604087641952e-01 2.649088570956908972e-01 -7.919898033265294623e-01 -8.952564195851983042e-01 -2.581269466274100366e-01 4.532669070355044294e-01 -6.231988967124379997e-01 4.171908898473276617e-01 -6.331576614921945456e-01 -9.037242074905527112e-01 -9.058104996795493524e-02 -1.051937294951225788e+00 3.208951864797569553e-01 3.985575846566759006e-01 8.535550926287942541e-01 6.799512132070607839e-02 -9.031963261104963836e-02 -1.102113886528008235e+00 4.776406493907221947e-03 -1.030665014487441855e+00 5.406438183111768048e-01 7.892687103583441444e-02 -6.460969828740887877e-01 2.904280564198131742e-01 -4.245235469275276952e-01 1.066697034776447200e-01 4.780140768123567474e-01 -9.011990340238393848e-01 -7.524754148235758555e-02 -9.007087942722943330e-01 2.454960889061215956e-01 -4.666733418978435965e-01 2.335891621717134381e-01 -9.615792767652786566e-01 4.490563325860117416e-01 -1.247045342710885463e-01 1.567880967898583056e-01 -6.217690946456978507e-01
-1.915709299176547933e-02 4.792257755972941236e-01 3.403785581891778933e-01 -9.950083122530737345e-01 7.740469497998557769e-01 7.383442405113722629e-01 -1.119253464200459680e+00 -3.130461041491961471e-01 -1.654349650725765564e+00 2.676620837529145036e-01 8.334683251769588186e-02 -7.779724779694514591e-01 8.268016705848395542e-01 1.161619849970092044e+00 -6.039655497129670092e-01 5.917481631806293940e-01 -1.922699788319616854e+00 -7.540278229901526963e-01 9.685465797977557134e-01 1.018678003149731115e+00 1.260609693558265132e+00 3.013151869518477799e-01 9.707545440124570879e-01 6.688681121118470463e-01 6.182639426226752555e-01 -9.007002915387651854e-01 -3.881344729087138901e-01 -3.370578733930238435e-01 2.214359042764867461e-02 -4.354315294713964613e-02 -4.295188606732893155e-01 1.180218184701926187e+00 -9.617066334672971784e-02 -1.182817591248913475e-01 1.167818264119472760e+00 -8.754548523971622531e-01 -2.125664566286914470e-01 -1.646602768968572938e+00 1.127595809628327839e+00 -1.174527168569681201e+00 -1.687237132545675422e+00 -1.108186314128089656e+00 4.854484226487310039e-01 -1.018684547865921664e+00 -7.529582338140862197e-01 -6.595884321888700885e-01 1.187008965640725666e+00 3.533173299127171374e-01 -8.330138395567220078e-02 -1.102205636234400155e+00 4.792161762013613657e-01 -7.526372314051662515e-01 -1.107330119895563597e-01 7.177299348190353534e-01 9.554545785105296452e-02 2.015408322755761095e+00 -6.954022218663815647e-01 -1.059724715956809282e+00 1.380936487325946649e+00 1.088511160080797291e+00 1.427765730147011247e+00 -1.573897541829406277e-01 -9.954074532123480257e-01 -1.367109646057854455e+00 5.565813325688972329e-02 2.339309343265897068e-01 6.576242642851554132e-01 -9.772307451495383379e-01 -7.061674703861466895e-01 -5.950949102358018550e-01 -2.600352197521620390e-01 5.827099306192596861e-01 -1.644083439659614343e-01 -4.683208838742095037e-01 3.199855712513055561e-01 -1.685457091525941253e+00 3.111038095077704457e-01 -1.215647861682248143e+00 -8.614606326071825304e-01 1.140874702333067647e+00 1.285897934168814150e+00 5.326082617442636780e-01 3.901189697125255762e-01 -2.366831592439904430e-01 1.643000370488175932e+00 -1.329235063262245164e+00 -1.382115088555571525e+00 -1.274732301255198375e-01 -5.452320771627426899e-01 -3.567268666006753186e-01 -1.635639274728434012e-01 8.041866416691333397e-01 3.147080224061195031e-01 6.871636415325506064e-01 -7.519638416186340546e-01 8.405937524917972414e-01 1.574512687101161434e+00 -1.159659773341539468e+00 1.472657628118653861e+00 -8.490326226307012281e-01 -6.452882073129609930e-01 -1.903859140147184270e+00 -7.034264467436919244e-01 3.446852918539362043e-01 1.059814023559425999e+00 -7.517375647514219772e-02 -1.299757391234857007e+00 -1.135327766760519497e+00 8.475959457164433664e-01 9.592100067506692529e-02 5.159513504271852069e-01 1.274076548434694089e+00 1.424757915530767693e+00 8.041922110878825247e-01 9.329587399492351718e-01 -7.996886122017334841e-01 -4.024140458052811731e-01 -1.055859341252650019e+00 1.192505073059560328e+00 -2.120311720127146873e-02 1.960314782183562254e+00 -3.511228850523380740e-01 9.269063465223152942e-01 2.098921357536164933e+00 6.292699993345662879e-01 -6.368201258607438797e-01 -1.266056067258605235e-02 -7.925646599998241726e-01 1.163367419939596914e+00 -3.654100985591040018e-01 -6.893729215209204453e-01 -4.545862540516014683e-01 1.372717313508359516e-01 4.162830661441158653e-01 1.660928813154935124e+00 1.288719707172381490e+00 7.211989537473757483e-01 1.871414830562542486e-01 1.263410004418587640e+00 -8.435656663795833010e-01 1.405836295410654024e+00 1.512393441795973681e+00 4.771163247536392982e-01 -4.942719008645792833e-01 -3.792081966057941345e-01 1.779884276596400278e-02 1.736264594562427488e-01 8.870811649618455252e-01 -3.591235363173568285e-01 5.032292357862455656e-01 -3.554814159251475925e-01 2.676831911003422770e-01 9.194767206214370381e-01 1.475665383944457787e+00 -8.007114490907495385e-01 3.563172748374858756e-01 9.395325190233733137e-01 -2.720086698096461642e-01 8.712342124266094778e-01 -3.454279009959190794e-01 1.288908791823363487e+00 -1.324792822858006147e+00 4.229962566770750221e-01 -1.403103232345030316e+00 3.063487624548549282e-01 1.546601763907472282e+00 3.297442578313593275e-02 -1.454204591268975832e+00 -1.483365555263695956e+00 4.016056207657537902e-01 1.923762700732171149e+00 -7.708740662555677581e-01 2.603256035523413003e-01 -3.119708342296990677e-01 7.305128802110136266e-02 3.592101211467687016e-01 -5.462997341996221889e-01 -9.805360919479285675e-01 1.903455751008544583e+00 2.264914849945067199e-01 2.018346910976198394e-01 2.998437761626072673e-01 -4.199438904972810915e-01 1.205400314016801672e-01 -1.527589297649252220e-01 4.259306694801132664e-01 1.032986373169791028e+00 -1.525426015416810888e+00 -7.587194379870086658e-02 5.975818328713891070e-01 -1.619180430254631986e-01 8.847099947855325830e-01 -6.898941945147571975e-01 -8.556330645284386527e-02 -4.255770984212703389e-01 -9.228341719583775804e-01 6.747338650640384294e-01 -1.246065682142714071e+00 -1.412760169569521773e+00 1.042117070658098665e+00 -2.118255651295691822e-01 -7.882040973032504727e-01 4.934192029188577133e-01 1.709258336349082974e+00 -1.242904955748342699e+00 8.261965009153520167e-01 -1.047066122815749623e+00 -4.812269655266409041e-01 -7.523876638656947780e-01 9.010565971007479247e-01 7.370987659226561073e-01 -3.104012552786430401e-01 -1.486099953703235332e+00 -2.502526111895681526e-01 1.255885271314950646e+00 2.680914337932188141e-01 -5.667345259061819240e-02 -1.061015042205692316e+00 6.713411620577869332e-01 -1.207175850121431582e+00 1.333367873663308112e+00 -5.123735641030032623e-02 -1.324578551710967833e+00 5.954678127393469023e-01 -9.795843784257148856e-01 6.123532987662865246e-01 -1.245181091002364848e+00 -2.980968194500716595e-01 3.287768606100298641e-01 1.561581946234177121e+00 -4.504392091579928481e-01 4.591959723440686147e-01 -1.243710768904710218e+00 -1.063144480546125648e+00 7.257165245197422232e-01 2.968171782018145799e-01 -1.391713956538711772e+00 1.085331074413746544e+00 -5.705173446697580086e-01 -9.180125282911001661e-02 -1.537991978918093805e+00 1.333004840438823280e+00 -3.320888628215812877e-01 2.250876768787011817e-01 -8.835253959979803007e-01 6.846624084253007947e-01 7.318347822083089982e-01 -1.449846359537511953e+00 -6.104582565776279779e-01 -8.908485260973216802e-01 -7.781183735359117337e-01 -6.243442213214112080e-01 -1.194106204667334303e+00 -1.253361688721704725e+00 3.811545021491890561e-01
4.714299962786868692e-01 5.484355249620199713e-01 5.508471033288467877e-01 -9.006726147115003966e-01 7.134007060578900772e-01 2.275547837081589309e-01 3.029138355837874830e-01 1.615331413965400212e-02 7.064592171150931854e-01 -6.480690209095826271e-01 4.706707904158999312e-01 -1.829357458737495001e-01 6.807383373455375697e-01 -5.569365349056087933e-01 -1.118979154236867224e+00 -9.314551702308397907e-01 7.076078344444228785e-01 1.631006895186373484e-01 3.508850984626600278e-01 -8.376461723870808063e-02 -4.521897538832578972e-02 -3.559962930764324351e-01 4.206517535791747253e-01 4.326950183446250930e-01 2.861093727368741457e-01 7.716624912386488289e-01 4.552336542994116497e-01 7.826114623630060496e-01 3.678347319245363345e-02 1.157267376601956305e-01 2.018875741637018717e-01 -5.435645222940764798e-01 -1.031565228463846573e+00 4.880669236876799544e-01 3.419286433815639237e-01 -9.119699125856645106e-01 -8.008449796148469080e-01 2.375116236225297550e-01 -7.220942902279416098e-02 -7.576857860176323678e-01 -1.066275680538883774e+00 1.369549363106178919e-01 -9.630833096264338478e-01 -6.687621736496359715e-01 -1.022499128812624364e-01 -9.271211030620433169e-01 -2.916172476384819578e-01 -1.039771212518458388e+00 -8.630040694273707347e-01 7.674963581030883608e-01 -3.161754038163937935e-02 2.527283423499789849e-01 -4.404229117817017314e-01 4.380884711634826512e-01 7.029913545860011492e-01 7.270275821153373563e-01 -9.677036927412360767e-02 3.679860023815940129e-01 2.605964574152535573e-01 7.988097936258435894e-01 -6.415200293608789295e-01 3.306733869174686979e-02 -9.966449731933960665e-01 7.204140616944678666e-01 7.841699485231764521e-01 -1.507665048835732657e-01 7.604380853594858158e-02 3.724724119090114804e-01 -5.942437792735415503e-01 -4.279806780549763046e-01 -5.226542244719352137e-01 -3.764776947553869629e-03 7.925426482657754734e-01 -3.129039771438829054e-01 -1.037510806320389500e+00 1.959383088611315604e-01 -1.940382253180060190e-01 -4.782696353444303994e-01 -2.490392517475994993e-01 6.198544126665990195e-01 5.563056870382818708e-01 -8.139316669741523125e-01 1.547570257605160593e-01 8.116123706944924354e-01 4.872141869895618704e-01 2.612614702713103032e-01 -4.824571136648953540e-01 -8.323325686852801608e-01 5.369495180464437523e-01 7.029945444807428334e-02 -3.617070095665934626e-01 4.322493369272202290e-01 3.438974888816156983e-01 1.856379267456326476e-01 -6.902491277711707562e-01 6.128779377047413046e-01 3.478540704888794521e-01 -4.890836724211146125e-01 -9.884531949143563478e-01 6.550683150951007727e-01 4.626750603057521727e-01 -1.155808444256707507e-01 -3.033020100139737774e-01 1.303403998205904801e-01 -3.024639222568514252e-01 -1.014482873496666882e+00 -5.347537719866802819e-01 -6.538270093932589955e-01 8.553892650686395482e-01 4.484161378534331499e-01 -3.007859114931090150e-01 4.042903857149245939e-01 -4.657449396728020607e-01 -3.393502086375516785e-02 -7.578018162783904943e-01 -5.703004059442289275e-01 -2.921753602505303693e-01 -9.814225142288011128e-01 6.132553502822760683e-01 6.561242655706509552e-01 -6.680037183445981519e-01 -2.520291269917520616e-01 5.487257252076807035e-01 -6.199305659244406241e-01 1.085740319373397211e-01 -2.189796893829125679e-01 -2.831793416672720443e-01 4.203523502548993096e-01 -1.843178354676462682e-01 -1.591959409179868334e-01 8.909378539105075046e-01 7.279552328409619744e-01 -6.202945582108762013e-01 -6.968838526719515203e-01 2.760012088075984860e-01 -3.365174420286553558e-01 3.426803869745569942e-01 3.983148590124490629e-01 4.738672699938333843e-01 -5.666481529982999588e-01 8.987778934303434220e-01 -9.514887237177202528e-02 -9.485480016101311973e-01 -9.230649529369788775e-01 2.278829330779054071e-02 -5.652281003972584039e-02 6.907268978110698843e-01 7.215878896055046843e-01 -1.645363884466924664e-01 -7.345089896640286664e-01 2.915526043329949232e-02 -5.948711043120311626e-01 1.859448478549631523e-01 -7.390103330765686318e-02 6.084247474105296538e-01 -8.723636143136707100e-01 -6.818774275821632980e-01 1.298787752154898778e-01 1.746638668989663745e-01 -3.478853877781632464e-01 6.360023854533740639e-01 5.225967065307296489e-01 2.472512705980847714e-02 -2.770445960989685874e-01 -3.786167802972036367e-01 -8.671562233420953003e-01 6.761541349566754233e-01 -6.160915560576225580e-01 -9.019541593601845264e-01 -3.195675097943555254e-02 -1.683355389997995277e-01 -1.025444304270467288e+00 7.489852467246690959e-03 2.865899294330985225e-01 -1.006104591309783525e-01 -9.793837419245645659e-01 -7.967423258787765805e-01 -9.310295871429373760e-01 8.521881428551386639e-02 -9.345450211849072319e-01 -3.990639634829185045e-01 -8.228224775679351399e-01 -3.430269930831561509e-01 1.426682201276732731e-01 -3.871527216940705007e-01 6.499977299867957248e-01 -2.228372822942405462e-01 7.306394565668500318e-01 5.303539668568320042e-01 -9.474497137427531079e-01 -9.567446612052050714e-01 -7.827204189132253020e-01 1.305481842004471427e-01 2.839450341507374631e-01 4.546189707227597521e-01 -3.392638031187595465e-02 2.301384835313005361e-01 1.581821147966493146e-01 -5.112491152470720612e-01 8.683780390072698419e-02 -2.526431587470944762e-01 9.224556781598210187e-02 7.821476266719414872e-01 -2.311093445563862092e-01 -1.557157046098464337e-01 -4.905550430878761192e-01 8.609844951319881035e-02 5.454236303861290658e-01 -5.889043021726699800e-01 5.238612233665573825e-01 -8.513115196984002986e-02 -6.975899138408959699e-01 -2.459515761799807854e-01 -8.142808176569764633e-01 6.600763089752212931e-01 -9.566238651653612424e-01 1.227337116313451798e-01 -9.465300117468737895e-01 -5.025949311252496665e-01 -8.197449177457019065e-01 -8.918088960899220319e-02 1.746354135360094206e-01 5.639401321864828676e-01 -1.719939968475477643e-01 3.503863787273434616e-01 4.048887105758655625e-02 8.290965016955926803e-01 -9.306134840560460475e-01 5.533373550834864707e-01 5.805393677439126821e-01 4.796661673787353530e-01 -2.291784181795648023e-01 -5.984873746487665014e-02 8.643541766846191132e-01 7.626362519356262304e-01 4.473422145164467900e-01 -2.313226878418711274e-01 -1.794753185751811475e-02 5.036309781492908089e-01 -5.599403304373847812e-01 -6.164650175845385327e-01 -6.508105378356383586e-01 -9.235136449166075900e-02 7.997156718544645715e-01 -6.216171404736936523e-01 4.912641981390516999e-01 -1.083152796572070420e+00 -8.193744806425570792e-02 -5.483681319244749774e-01 -5.366067893728033722e-01 -3.264445519010174546e-01 -8.357471343890778004e-02 4.613212836016172824e-01 6.755215412798479813e-01 -7.950761612196141082e-01
-1.738400976319851854e-01 -6.852111039793953307e-01 5.514422095197125673e-01 -9.223790946524575984e-01 5.949028910185564234e-01 5.080093683785994463e-01 7.540033411991180490e-01 7.359563291160803322e-01 -8.432062656195830064e-01 -8.040039190819411874e-02 -4.000240655235859366e-01 -5.965579016886769503e-01 -1.151339570449582572e+00 5.970679667039834049e-02 -1.082246031027341182e+00 7.318797772733856011e-01 -4.213783535593196294e-01 -6.481574539332955395e-03 3.039830581593507830e-01 -1.119610346515625743e+00 -8.282316682009706055e-01 -1.725136854812822917e-01 5.148229895548935703e-02 6.026265218341348984e-01 -1.288745013479939416e-01 6.509594236043105830e-01 2.028424196409192581e-01 -1.057864400453333298e+00 1.758532301230115447e-01 -7.346810743939476973e-01 -1.002688010814560826e+00 3.303798258829386270e-01 5.453918011155946266e-03 4.342058628206296178e-01 -8.410874146616200697e-01 -2.749345320043498075e-01 -4.499728498269505161e-01 1.403864860167867122e-02 -1.514471591247890381e-01 5.000834194127360410e-01 -8.029910736043145425e-01 1.950659228388324229e-01 2.652550450273106208e-01 -5.806084439052323909e-02 -5.056863505879966025e-02 9.606436014267960566e-01 3.865718652907763619e-01 -2.020077175499516986e-01 -1.760379892188654871e-01 2.756319539688113496e-01 -9.994679690699294072e-01 3.301543482101747529e-01 -8.754900630556418095e-01 -8.488904815226659961e-01 3.655098241448352936e-01 -7.280869852609178627e-01 5.376976340090146023e-01 4.608538132214547445e-01 -4.144494243187015203e-01 6.669814561585484100e-04 3.096838021910241490e-01 6.457334120477212780e-01 -5.961492189069929060e-01 1.702291542940697067e-01 5.788949491528611047e-01 -3.375544308720576647e-01 3.020332883006633662e-02 -5.272074261882807311e-02 9.009388083490674770e-01 -1.047692394180321784e+00 9.147320670502979978e-02 1.172277394532879238e-03 -3.024089558640293274e-01 3.515189591443161898e-01 4.593001786224195637e-01 -1.130907583030577312e-01 -1.036019014408261718e+00 -5.091990483380691712e-01 -9.764479373444490129e-01 -4.300848867155462329e-01 -1.070083431856228146e-01 4.129480108248136383e-01 -3.450778926952742520e-02 -1.089588804067341266e-01 4.037475399152125610e-01 -1.114956975934437766e+00 4.334145868496980802e-01 -5.667439321530187701e-01 3.397256149951420612e-02 5.847996323339415409e-02 -7.005157082062067886e-01 -5.095297441450981069e-01 1.644669801946206100e-01 -4.511478077645154072e-01 -5.724458839417552181e-01 -4.575849284573443310e-01 7.853642203032971114e-01 8.054865635745285246e-01 -5.284305554774593877e-02 -1.038690960277145914e+00 4.753028472941697724e-01 -7.629133629963411600e-01 3.557602299304811200e-01 7.136867857435107432e-01 9.520691613026950328e-01 -7.276276495235854957e-01 7.732838749731922590e-02 6.358905022744725244e-01 8.960192824182021398e-02 4.596432790236069099e-01 5.049111427713520728e-01 6.033557888172017547e-01 3.246773852576797514e-01 8.038854856997141862e-01 1.867723752338728005e-01 8.937213830676729032e-01 5.795557603510758521e-02 5.935297982968981145e-01 2.047892879132956478e-01 -4.868255365256987099e-01 6.443293953042761313e-01 -3.149861753396538400e-01 -7.884023815354367359e-01 8.186647911352128437e-01 7.664186245799144981e-01 1.377981128536885647e-01 2.960614350440516351e-01 8.097212844118159003e-01 -7.239866439280854271e-01 8.986332290656691424e-02 -2.276619114434688396e-01 -5.800725967097915270e-02 -8.252540239094138252e-01 -2.808515108784618297e-01 -9.618920949395720621e-02 7.809331260611346304e-02 3.389549139246863518e-01 1.602917460901378821e-01 3.956489614333913996e-01 1.188511546358618221e-01 -1.319952690961888053e-01 -2.837212464926717331e-02 -1.545076715642038079e-01 -7.198469636502685676e-01 -5.477205617121709835e-01 -9.382253965665753037e-02 -3.206810326398234490e-01 5.902005958170916111e-01 -1.393877133739507002e-01 1.709114551654993264e-01 -6.235230501335335962e-01 5.073578869738365471e-01 3.528336987014656367e-01 5.435749218296552776e-01 -2.989552815271633857e-01 1.089409047536501196e-01 -7.096100319003255663e-01 -6.059116873577623519e-01 -5.002366128231624520e-01 -6.543074994630161401e-01 -3.334692848411421329e-01 7.202468125889281980e-01 8.627015956660929463e-01 3.019429177322632829e-01 -7.795535639099754333e-01 -1.580946260213136612e-01 6.992188296713730544e-01 -3.269477700709686463e-01 1.429454212866499985e-01 8.496386886341737998e-01 -7.105612111933284902e-02 3.719367053660835309e-02 6.674664686903721833e-01 7.505289127471022059e-01 6.523742170997525180e-01 4.386397052508702460e-02 7.464109356323007927e-02 1.742815192841160044e-02 -7.872040915809758177e-01 2.882360601383810450e-01 -5.349253498910275795e-01 -7.996644825757037722e-01 -6.671853684755011393e-01 -4.209683699015674962e-01 8.535945062626172364e-01 8.497197518020471740e-01 6.478997601018610109e-01 -4.933596813431767591e-02 -2.321081629111051148e-01 3.428017993125409557e-01 -8.440955135605103798e-01 9.349391072717651019e-01 2.348163499743814164e-01 -4.036225371442509480e-01 6.305592127187574780e-01 1.732165937722963123e-01 -7.910144476250596801e-01 -9.110591087211600270e-01 -1.100153314811513683e+00 -7.118798551560695520e-01 -9.530912630080415893e-01 -1.339950457049534083e-01 -8.822204981898309484e-01 -1.260363111224280241e-01 -6.545121775008432286e-01 3.632779529231840165e-02 -1.099192948115755991e-01 6.024829547221005610e-01 -4.319925219313234810e-01 -6.884835363255578100e-01 8.336765852182186354e-01 -1.944099453532321664e-01 -8.980933291228101467e-01 -1.045885957727296089e+00 -5.648849691370315396e-02 -6.813068745037448304e-01 -7.348873037356542515e-01 -6.788459985097009541e-01 2.727654081147825593e-01 9.545157478537751317e-01 -7.448823373354346300e-01 6.703750915687901601e-01 4.028276359992797873e-01 1.109612150687891291e-01 -1.025366025833365224e+00 5.689236960941599364e-01 6.825209969454548720e-01 4.265403738589953475e-01 1.164077932793449871e-01 2.852875249553056825e-01 -8.337063974430074242e-02 -4.440103608328828666e-01 -6.111277529237708617e-01 5.272787790257523755e-01 6.909664703655159501e-01 2.128742500287635897e-01 -1.260483259773521048e-01 7.815734941442290529e-01 -8.639423924477217520e-01 -3.622322644254980517e-01 -1.735094841801160803e-01 -9.046013498504609229e-01 -8.885307957789286004e-02 9.131249379033473668e-01 5.870707556135557059e-01 -6.246315772249614456e-02 3.002880451723884958e-01 6.195046130755738067e-01 -5.420001703370097568e-01 -4.129695395460944995e-01 2.463397323615395540e-01 1.833357737881360083e-01 -1.001065904775225945e+00 5.342210937776463719e-01 -7.828276928044877181e-01
7.557746920835152656e-03 9.358500674442356282e-02 -1.044340505543067676e+00 -2.273540156595959261e-01 1.055353074606550819e-02 3.587804955291294950e-01 7.825934491359192169e-01 -8.971391125262816457e-01 -5.348169662498204469e-01 -5.734858705066469414e-02 -4.455016873211498085e-01 -2.540836752016349398e-01 8.488290642125769780e-01 -9.101484372059511774e-01 7.720282077281639399e-01 2.809443282773635975e-01 -1.965641437057764201e-02 -1.014247179872820870e-01 9.444581143226123132e-02 -4.975091482737281634e-01 -7.230372236694617705e-01 1.748269890300789275e-01 8.740941337441632264e-01 -2.426696925253725087e-03 3.227427865587073064e-01 -5.886158127926551659e-02 -6.151951538493024563e-01 9.186772614491274525e-02 8.133357266948749720e-01 2.919323619245030588e-01 -9.878877604454476824e-01 -3.451769505559463269e-01 1.980172896243277414e-01 4.801578371872895074e-02 -7.924731095764024902e-01 8.470074960276908760e-01 -2.629866902963626241e-01 3.688356721196796029e-01 4.688029970439233640e-01 -6.156585228217209549e-01 2.269762609165357770e-01 2.401896854171703746e-02 -6.837024675572247467e-01 4.035303044959486218e-01 -1.918218558778552948e-02 -6.015195041342876747e-01 -2.447347580874503215e-01 3.306538424063455994e-01 9.448424089399549697e-01 4.795354649358419402e-03 4.898932037797696926e-01 -3.493770065028478089e-01 -4.525411591136690309e-02 6.262395574676862253e-01 9.233142303809321882e-01 -6.877977196909168534e-01 6.706084973812113104e-01 9.381694406027007993e-01 -1.571698269886147581e-01 -4.625865586099813798e-01 8.119999683674898883e-01 -5.840014360608475341e-01 9.460171692957406453e-01 -2.989701801202680476e-01 -8.627100273478600645e-01 -8.316577284327631991e-01 -5.960934527297223617e-02 -9.287539889759756084e-01 -5.093462632951712976e-01 5.055370893224353512e-01 5.277345687253893747e-01 6.051756594929514899e-01 -9.292053943013512951e-01 5.039894530346792356e-01 5.525782924504698546e-01 -1.061624535217205567e+00 -3.028117345036477337e-01 7.018921941785953855e-01 8.819936132751781122e-01 7.890833656582902922e-01 5.853131801103370058e-02 -4.523783843891864276e-01 1.029337910052856991e-01 1.350889626899631768e-01 2.992401995600724174e-01 1.035882828781533177e-01 7.230895814540561073e-01 -3.466268825533194153e-01 -5.690096554589922917e-01 -1.051476803774627600e+00 -6.082658587027219843e-01 -7.141020153582547936e-01 -5.402948129599214333e-01 7.431094001873252974e-01 4.107356459393738390e-01 -6.210216557807940463e-01 5.594489978607688485e-01 6.643631126891777483e-02 -2.523862591961975044e-01 -6.613966604333554322e-01 -4.456859671060312000e-01 -9.177707867483971826e-01 -5.627733578689571026e-01 3.103467496940496839e-01 -3.091308960551292229e-01 6.127039219793738445e-01 3.107465101078881187e-01 1.867747242361948723e-01 -1.859020398565374155e-01 2.624640478765019047e-01 7.095131349912406904e-01 -4.227672701267665700e-01 -3.508514615198198849e-01 6.758861722132910588e-01 -2.960830012101095532e-03 8.136775716984493423e-01 -7.398159309902841985e-01 -6.465807398505727388e-01 7.014290583338064211e-01 -8.979217086872576248e-01 -7.870446667796593410e-02 5.728804114302583628e-01 3.589381263268663913e-01 -1.421626629031665090e-01 -6.860116477675107793e-01 8.023990274354980690e-02 9.456063910120842131e-01 4.966666204815071151e-01 -9.311777471702950004e-01 3.979522458159979181e-01 9.089306597486803696e-01 -7.065351735307013881e-01 8.803116053706544486e-01 -6.235372055609351705e-01 6.052355139266960560e-01 -7.631693646833366262e-01 9.617232212761041288e-03 -3.086365603385910483e-01 3.065137717469156864e-01 -6.918344623465514376e-01 1.284158230549015400e-01 -1.030355622378686054e+00 -1.762308680272738348e-01 -4.036471741410594533e-02 6.506033160050909148e-01 4.835181915896709648e-01 -9.338394526293014586e-01 2.295162300942317213e-01 2.961548487021916642e-01 3.695822559165518606e-01 8.556587741606805353e-02 -8.794646744495351331e-01 2.429904138386816681e-01 3.115982469690681267e-01 -5.348448495966771077e-01 7.787554684367000712e-01 -1.965422138391514362e-01 6.951978136737605452e-01 2.889539256459418559e-01 1.211184428240718869e-01 1.642644984024088650e-02 2.788325734128523359e-01 6.489038156037671978e-01 5.372844546008277433e-01 3.159275202184003151e-01 -9.643136070208585542e-01 -1.080977573203177666e+00 -3.085590146387678367e-01 -9.947324975652188650e-01 -5.422259897726908022e-03 -1.018677732907389277e+00 -3.754673167051347099e-02 -3.363632909437775931e-01 8.541149237321475907e-01 -9.804457591514313952e-01 -8.960829333270922126e-01 5.990502405302463584e-01 4.962398289976606147e-01 8.122155264566888189e-01 -8.620500930695713659e-01 1.465558758416367624e-01 -2.786185353243683313e-02 -4.337675097382236444e-01 1.842792296764271254e-01 7.950782110687217852e-01 -9.372492383874559962e-01 2.526092317367348850e-01 -4.554667217032696280e-01 -2.703113583117756624e-01 5.846501161661767920e-01 -8.090380306000640731e-01 6.403284357336403998e-01 -2.762808984536206935e-01 9.455429130804973159e-01 7.349204600333876236e-01 -2.001282178762755493e-01 -4.245856492086947931e-01 -6.318198584880200253e-01 -6.751037985513492767e-01 4.633802090607144764e-01 4.682009076657859259e-01 8.565011011277098296e-01 -8.680195234914316327e-01 -5.828283090962028679e-01 8.981929214018482543e-01 3.776878034350617669e-02 8.099622024816131860e-02 -3.464395333744352823e-01 3.352239555089958634e-01 -8.288106023619527807e-02 -1.140301453516084224e-01 3.071810322374181335e-02 -9.705017234874572241e-01 -4.223028330108843931e-02 -8.129798065281771402e-01 -1.500601634150903751e-01 -8.716825799616260140e-01 7.304126578895733246e-01 -3.543367546795241907e-01 -1.495239597815765653e-01 4.632087430686552820e-01 -7.442625537157975257e-01 1.282380997130880274e-01 -8.004994729741457885e-03 -3.566495499118977897e-01 3.464953656687804751e-01 5.803503093497872634e-01 -1.275901062439075695e-01 2.291916795050908395e-01 8.026468845603929037e-01 -1.031053607181646736e-01 -7.854723822291714841e-01 2.539504709467144475e-02 -1.650153569368321693e-01 4.314795307963492088e-01 5.628846597924125339e-01 -7.586042418623484274e-01 -1.460394408690858514e-01 -4.830593908779937107e-01 9.026474385282363677e-01 8.732128779357639647e-01 -1.490097106180396369e-01 -2.100733488989514619e-01 4.706121812251212178e-01 1.589841633761177875e-01 -5.637499551583864399e-01 -8.228403317067731204e-02 7.558252878297239130e-01 3.074433452361633456e-01 1.038856022434098275e-01 7.268190030966080739e-01 -5.532305092252912671e-01 9.639839770131013452e-01 -7.188997414539455288e-01 6.349494275045357572e-01
4.324539965957019394e-01 6.411261008961103292e-01 1.094280854994962408e-02 -7.414610463902250315e-01 -1.666271590645401757e-01 6.781315107495211603e-01 5.167214749161307408e-01 -7.926632878466736143e-01 8.172269715833643255e-01 -1.071252276326823516e+00 -3.010007103668176920e-01 3.580512592158119900e-01 8.002127512888076444e-01 -7.498162236919317936e-01 6.903052565317384648e-01 -6.723850578787333720e-01 -1.050154250225592695e-02 -2.329602418739978864e-01 5.715556346084363915e-01 -8.406780084695902877e-01 -7.285534936152771035e-01 8.972503123561334504e-03 -7.211905596953952502e-01 6.955461542106584627e-01 1.085220240537713571e-01 6.438205969987136346e-01 4.447685239206559116e-01 -1.324878823007531181e-01 2.386979403116700205e-01 -9.819215472590726579e-01 1.448971146346410555e-01 8.750521199807450579e-01 -8.770561451424621069e-01 -2.573415225486911928e-01 -1.071807779542442995e+00 2.950988071467681717e-01 -1.117516999068510986e+00 -2.596390395276381713e-01 -7.185711778336179023e-01 4.890536193529724796e-01 8.283270023439436025e-02 2.305073290015704213e-01 5.385115640349053510e-03 -6.092444736202946576e-01 4.581997081192378807e-01 6.858019509091013433e-01 -2.693327265959806760e-01 8.180824164679496857e-02 1.595266904492496918e-01 2.119596026228922070e-01 1.760456888558865549e-02 5.220693927204650420e-01 5.254000659672515283e-01 1.245972999983050930e-02 6.704536937312924882e-01 -6.333743506206545026e-01 -2.412897955805233807e-01 1.643555669282738552e-01 -8.123339150514139462e-01 3.216591290436877637e-01 -7.971950543326986049e-02 -3.296753702510096806e-01 -2.143915653373729413e-01 -4.509181263608463830e-01 -6.509150761061938129e-01 6.726989951476889384e-01 5.226001101779069735e-01 -4.558870445722883469e-01 -7.526264857691454813e-01 -9.251381720240285933e-01 5.163164952474849079e-01 3.227808601701269708e-01 -9.617203360885024921e-01 -8.629071274303383721e-01 7.109994403031699717e-01 5.190977083618432131e-01 -5.740076345120741497e-01 -9.103415124343586795e-01 5.274217878127761550e-01 -1.079514247910144720e+00 2.043576296886448485e-01 -8.050226994357281285e-01 2.244485342656297733e-01 -7.582926681702892857e-01 -3.652026325297095255e-01 -9.614834283782578428e-01 -5.136105982229841604e-01 -8.920235809692658169e-01 -2.192871543826848402e-01 1.325666050782079719e-01 -3.522579163480442088e-01 8.409717224970242322e-01 4.494111796300390149e-01 1.962373036696738252e-02 -6.782603201167499221e-03 -4.785160887777282768e-01 -2.604909916821070148e-02 4.428843914306899165e-01 -1.053456538889518512e+00 -2.129739866939401316e-01 6.567010973837164034e-01 5.019212409693633026e-01 -6.560440420988892241e-01 4.118899015709826528e-01 9.924443903260789235e-02 -2.036912743768893794e-02 2.116161085880243486e-01 1.213398598009942930e-01 -9.370730021926549913e-01 -2.502388074235163962e-01 -7.099309591789679796e-01 3.246153074991431353e-01 -5.490204074567031078e-01 -2.245841438014976321e-01 5.551239349969941950e-01 4.668954399319020787e-01 5.604464052232694948e-01 -1.940884566548594092e-01 7.972732607862763610e-01 -1.094778069903698858e+00 8.185504471666348314e-01 -4.588272775002029125e-01 5.489674105287419836e-01 8.051045347702370236e-01 7.211129385626218191e-01 3.477987974328494158e-01 2.516088848103111841e-01 7.946039807373737052e-01 -1.659935441068444983e-01 -9.132503508077239873e-01 -1.086181541899001290e+00 6.233612705976756541e-01 -1.015289713790875181e+00 7.366110145812234666e-01 7.771344666888817254e-02 2.140762274128554243e-01 7.299760700816724235e-01 7.062243396071187229e-01 -2.949770184878941492e-01 1.134825401164505920e-01 -2.740530567095443223e-02 5.826526370301445823e-01 -1.010407629512871885e+00 5.256128087002267385e-02 -2.085255005754397817e-01 6.630750483389338257e-01 2.191870380804745999e-01 -5.766083367465545395e-01 -8.254249686847582312e-01 -7.672455456239261895e-02 9.107463078825251968e-01 -4.162514314800612181e-01 9.751928474120074020e-01 -2.396635857051342480e-02 -7.372053442662862555e-01 -1.094152663203883380e+00 -5.008746109199938568e-01 -1.017677768379029901e+00 7.212990170528145450e-02 2.695080033883529569e-01 2.121959920480963324e-01 -3.695809215793149916e-01 -8.833522369148777420e-01 1.636536308614770230e-01 -9.402863182217564564e-01 2.435017164883274687e-01 4.967399222609809040e-01 -9.807159363331383606e-01 -3.952315590250729538e-01 1.861414489311319920e-01 2.052819401038458447e-01 -6.704403213289438224e-01 8.607300138255402633e-02 -9.907271891789090970e-03 6.395441326408504157e-01 3.390240983172285172e-01 -4.677452439192370526e-01 -6.968391030882236103e-01 1.520552811477094146e-01 -5.567598933291213470e-01 -9.905472871879102970e-01 5.570483964254286935e-01 -6.366719222797510014e-01 -3.181298384112183908e-01 6.141568530534401438e-01 -9.399667463682334079e-01 8.392706002286562939e-01 -3.367089952492253319e-02 1.545329912633370828e-01 3.215735229807145656e-01 8.401261744260258846e-01 8.604624483783004929e-03 2.115708703584079364e-01 2.460956904958494507e-01 1.431025510296718428e-01 5.171025352530863595e-01 -3.851521493244400296e-01 -1.824291614831183850e-01 -1.031062798837985905e+00 6.955228522399433677e-01 2.143639320966182760e-02 -9.740765951832999758e-02 -5.727500054491662107e-01 7.281213417570309154e-01 -1.140289782867951240e+00 -9.142903373129012135e-01 -9.671720238317492724e-01 -6.429801805394180780e-01 -1.398761572888317928e-01 -2.161652671287701555e-01 -5.370516231507312943e-01 -6.596472210137581393e-02 -6.530867559441416725e-01 -4.669218461425511113e-01 -8.111004306530009700e-01 2.211125662174309447e-01 -9.633367345581557162e-01 -4.503040369081610095e-01 -7.726482669396482483e-02 1.914793880543117985e-02 -3.330751224979498493e-01 1.833424308163003613e-01 -7.674471583668176500e-01 3.323617689889787896e-01 6.779359579541356373e-01 9.070187818736875629e-01 6.850815915504242515e-01 -6.331430984150323571e-01 -9.967555645757374405e-01 8.876418500461602523e-01 4.237048219048712011e-02 -1.810942942370085199e-02 -8.283953507339735234e-01 7.106602803673890412e-01 7.843053844124406870e-01 6.200878096814423923e-01 1.955683378622481150e-01 -2.799329836409337746e-01 8.097795765686889302e-01 6.305591778213892606e-01 5.584670081563263278e-01 9.538942503256453431e-02 -1.041652536701555887e+00 -1.013093491223635567e+00 -6.562379938457874040e-01 -9.567828979520928145e-01 4.282864028850208449e-01 6.358450069659867809e-01 -3.467496239088265625e-02 1.139072262786418460e-01 -1.232914956478213114e-01 7.130638635637792655e-01 9.464379218037972941e-02 -1.097844854127691568e-02 6.209658929610255562e-01
