-6.262607694803388192e-01 -6.597706370367679707e-01 5.716741782158684115e-01 -8.729229490942812530e-01 -6.901623126051458224e-01 1.134471800946251108e+00 2.762896298706041254e-01 -1.266122795741455864e-01 -5.779258844450048116e-01 -3.282898127147546724e-02 6.863058371280045256e-01 3.712634730921329784e-01 -8.770962732381466509e-01 -8.804841380819016239e-01 1.808923185146818768e-01 -1.678155783538286761e+00 9.596392102274353686e-01 -7.172790245532131292e-01 -6.635131849119361158e-01 2.633949622744208852e-01 6.910678619675103551e-01 -5.922684370638886531e-01 8.499557987667438752e-01 4.967196933576405460e-01 -8.871586762391094894e-01 -5.209152240400225509e-01 -6.898036289435061086e-01 1.634828537817407668e+00 -4.286378879263945674e-01 -5.825020325952101619e-01 1.823554652722223224e-01 3.999813340833592301e-01 4.312908240246287050e-01 5.368293834180992707e-01 5.747116881671947564e-01 5.907537756812930585e-01 1.018339721115858909e+00 1.038619537059529252e+00 6.528905482926499193e-01 8.488027160169673291e-01 -8.200033109504464290e-01 -8.162092123497765028e-01 8.540698731024810586e-01 -6.110761031598559434e-01 -9.666018603792074781e-01 -3.699306368111610066e-01 4.771685376184253147e-01 5.303699046743729495e-01 -7.678823317812646376e-01 6.613626502999657431e-02 3.199715830850637932e-01 -1.215866333107421093e+00 2.962321027188748457e-01 -1.285704868190098993e-01 -5.703214493819301900e-01 -7.786493841370507596e-01 2.078725069887528143e-01 3.998368704133684060e-03 1.690620334580909212e+00 -4.439319744683121183e-01 7.886640398377721406e-02 6.609098867574396685e-01 5.153835836917913804e-01 -9.645301983585268246e-01 3.845485755148652651e-01 -1.358600917130425023e-01 2.626251350037759821e-02 4.654837489024808983e-01 -7.261544209357442270e-01 5.063305401634685676e-01 1.235218703368579529e+00 -3.096667845982445932e-01 -4.971010795723337372e-01 -6.358866720852887067e-01 3.801459795593486457e-01 -4.217827326569901225e-01 -4.397351471055971905e-01 -2.476064353763963912e-03 6.579290042014239448e-02 8.968320502375566328e-01 -7.441014907005073509e-01 -1.603004660317632224e+00 5.406413811098620403e-01 2.119776980806945821e-01 6.842400122471994361e-01 1.034064663824422192e+00 -1.597611261914452518e-01 -2.542449007314522280e-01 1.185615498462803535e-01 -5.372965806713784209e-01 4.905903467092033732e-01 -2.625181328701101102e-01 6.930823756304717032e-01 5.254591053191177696e-01 1.094181903722200033e+00 -1.347837101554755501e-01 1.887399814264431319e-01 6.759327020361667326e-01 -8.423664739630930542e-01 1.106103375083818813e-01 -3.157004642326474153e-01 9.524612093564556181e-01 6.962404921019584858e-01 -1.049152405179717418e-01 5.395675197900922093e-01 1.424822606035153871e+00 -6.830428776498583820e-01 -8.491756049114830285e-01 5.333329717078642840e-02 1.707183411465865441e-01 1.188725884206635053e+00 -1.576713549574233209e-01 4.951618384789516214e-01 1.150599722314104900e+00 2.471967103385133702e-01 1.045504936869001478e+00 -8.325963512225234009e-01 4.580839178559782676e-02 1.121528300263024969e+00 -9.450187371989481333e-01 -8.176690853078777410e-01 -8.538017067213440336e-01 -7.000804191143037425e-01 -6.805496809829411076e-01 4.770239709429590635e-01 7.960604765902581370e-01 -3.031168682584515217e+00 -2.129760598952647188e-01 1.101320634910249563e+00 6.019306175323456687e-01 -9.425243372334830561e-01 4.002123501493101698e-01 -7.860572970309074314e-01 7.762471108165854838e-01 -7.248098445051114336e-01 -2.188718225793728767e-01 -4.563384918444138849e-01 -7.566017333818201296e-01 1.121770259424047511e+00 1.151792002980870144e+00 -1.148678939527560949e-01 1.371817186042602055e+00 1.423169642944412672e-01 5.474072574541974934e-01 -3.762531425785054506e-01 -3.224976919700869860e-01 -9.266649422291618476e-01 1.036997196191073306e-01 2.034500450610950140e-01 -3.909148460830045302e-01 -7.327606132341887291e-01 4.670050597251624303e-01 2.927110038883513621e-01 -2.055215859891140751e-01 9.782075453714732527e-01 6.840780363345368154e-02 -7.196509946706279859e-01 3.877596605507324656e-01 1.195786338439832341e-01 2.652745840483187179e-01 5.868655379522316057e-02 -1.029886525658453289e+00 7.278893073121043278e-01 2.240794605479171780e-02 -5.806556064504154735e-01 -1.131699182985343027e-01 7.163660459412517501e-01 -9.810749266131937874e-02 7.077849016185709941e-01 5.207720948334371158e-01 5.507658393978717148e-01 5.143682397178050980e-01 -7.239426962026319634e-01 -5.290673012404784048e-01 5.945196108031730597e-01 -1.137709030880778710e-01 -6.562955857640044854e-01 -1.345952146055393595e+00 3.487638921535455849e-01 -5.055722176611064933e-01 4.651897529771192308e-01 -3.619120016158585695e-01 -6.202901542601085838e-01 5.395113777437630237e-02 -8.114269525830288821e-01 1.482124971271371328e-01 5.537841493821809014e-01 2.301330686188999275e-01 -2.299256417202938663e-01 -6.822835777117520761e-01 -6.758787922259740233e-02 7.784986630437878974e-01 5.385457246895378747e-01 -3.108585545202553410e-02 5.917025307405758827e-01 -8.955859797163716607e-01 -3.829406141589389301e-01 1.006488461256655587e+00 8.082396303822070305e-01 -8.505102272304320143e-01 8.935181540865403393e-01 -9.060805411523503716e-02 2.382164692852509202e-01 -6.113302180098576510e-01 -8.340042429586297379e-01 -5.407950982440059562e-01 7.471171537041081390e-01 -1.476375214707678740e+00 2.001413540404044233e-02 -2.586695538192284038e-01 -5.055516922522747952e-02 7.831155864042107506e-01 5.123991864317888334e-01 3.589181849417108494e-01 6.298546333063352876e-01 5.435643573466956147e-01 5.055644186672983986e-01 -1.012597434355668069e+00 -1.573082730610862456e-01 8.920703664420424894e-02 4.122389052633869677e-01 -9.031652935694894913e-01 9.506014882309856695e-01 1.099671531270752511e-01 3.508605712956240907e-01 3.980468931669675636e-01 1.124392951953348430e+00 3.839117803290534869e-01 2.153825681005676063e-01 2.585850383631648763e-01 5.910529211162479646e-01 -2.128940312591689754e-01 3.825738196194232166e-01 1.965260349319064848e-01 -8.233894014786484750e-01 9.822191943322687857e-01 -2.882206278762566298e-01 1.534086684824534363e-01 1.730784359450785737e-01 -3.069420142694137196e-02 6.995710454392226607e-01 5.304006387839722558e-01 1.035500279096803311e+00 7.300176157161417656e-01 -7.326801833232107208e-01 4.051834491898960722e-01 -8.219740452212735971e-01 9.598525252383044437e-01 1.388946661709303809e+00 1.061867283005086371e+00 -6.248319780289142145e-01 -8.825444969508078330e-01 -1.045999374873362253e+00 1.078649796182750142e+00 3.202413524225115049e-01
-8.937325495423779076e-01 9.469729938665616409e-01 7.226915845010929429e-01 4.499564004331226830e-01 5.284732644008355990e-02 1.950449285830233859e-01 4.384274375110597810e-01 2.049271698933402830e-01 7.045573069521465781e-01 8.186619141060415966e-03 -1.746918713379562171e-01 4.471040668873951240e-01 -2.657434143222895395e-01 -3.561148272020169814e-01 1.593675124083274441e-01 1.486369313562408756e+00 7.033392662040786059e-01 5.915505866888488562e-01 -4.292397085890759523e-01 2.498466794049716000e-01 6.236763001733976880e-02 -3.358408663097252056e-01 -3.751540176832803275e-01 2.719805695039123616e-01 -6.540911357717074104e-01 -2.530134838535546549e-01 -6.977464499994702474e-02 -5.887634102961178742e-03 -6.368009076436824678e-01 -8.368199621399429189e-01 2.750574107099499344e-01 4.209727669718719145e-01 -5.361536543422416520e-03 1.041064942128863358e+00 9.801396379719702345e-01 2.077679842283188250e-01 1.137630267957703500e+00 -2.781778108301276031e-01 3.302814284732102368e-01 1.479415007242651958e+00 4.804723247043589662e-01 -1.187236458497286762e+00 -7.929984092632648141e-01 -1.417588901821764114e-01 8.716248141167084462e-01 -1.099043916997860526e-01 4.633676403265140631e-01 1.804508247958988565e-01 -8.654856776698146570e-01 -4.447320026248235969e-01 7.336244276598863356e-02 -3.576105349084133245e-01 4.618605352150011167e-02 1.894155792095279789e-01 1.139563197000518016e-02 -1.249555135284768248e+00 6.049439757599754941e-01 1.887620077600013491e-01 2.123015116015155024e-01 -8.861012838814059933e-02 2.670353445216620547e-01 7.144864404198804086e-01 -4.217009762746888324e-01 -6.202550864873104253e-01 -7.400198481591011568e-01 -2.749120930662443674e-01 -3.889597835767557021e-01 -2.298392683506802342e-02 8.495355796929686676e-01 -5.432388624042201464e-01 5.166604397978670216e-01 -2.411931118810815289e-01 8.132164585276679958e-02 -1.794550936442556102e-03 -1.026768426063362771e-01 -8.459807888933573716e-01 8.207609666257530134e-02 -7.293179483897183069e-01 -6.782528512254734077e-01 -6.488847772803013614e-01 -5.790380377880676166e-01 -4.701952610033890978e-01 4.958180047605006968e-01 2.204445969605586808e-01 1.126002462646449320e+00 8.178212411133715110e-01 -5.064315873084089537e-02 2.810523756409869511e-01 3.379468135938459294e-01 -1.645261382864894248e-02 5.322424869235973244e-01 -1.532576192500147427e-01 9.887871239528197576e-01 -1.329595319681862731e-01 6.000694780814924689e-01 -1.937777566153252862e-01 1.431305373136524950e-01 1.052665875828657366e-01 2.634746983245149776e-01 1.140487398229952584e-02 -5.564787067440696289e-01 7.635780164455890917e-01 3.187149656969071598e-01 -3.572945383174999101e-01 9.073325195757826478e-01 1.318300367371534054e-01 9.052784475984982926e-01 -1.089619021795761755e+00 -1.571728142534366546e+00 1.899572380634344526e-01 -3.146434120109427024e-01 3.341526639457837594e-02 4.922881485915712174e-01 1.330666839377385280e+00 -4.688005425042613972e-01 1.074270523894354623e+00 -6.265277370387817291e-01 -5.473375507714592358e-02 4.975088702359339865e-01 -1.094538274350987800e-01 5.164937711423167599e-01 -1.762515113716536927e-03 3.707770820048693072e-01 -6.592490094752961882e-01 -1.462156750363268094e-02 -4.795585907513613133e-01 -6.562798153076504493e-02 -6.645384083894670391e-02 4.877285723912495041e-01 -8.254932786117729071e-01 -8.041509437997566012e-01 -9.146890143545607921e-02 -1.187710420626122865e+00 -7.074352954004834437e-01 -7.839301086229180093e-01 2.656070559206932802e-01 -1.447249133423066103e-01 -2.277245103947248273e-01 1.130395178442903867e-02 8.990794557224462968e-01 1.440047990768509589e-01 1.855639771250539249e+00 -8.854357184463856889e-02 7.165830699895242573e-01 -5.787581953192575193e-03 -6.388728153457030601e-01 -3.071168375260507899e-01 -1.300302127940494434e-01 8.430690965223458511e-01 -8.013717285290534731e-01 -9.033541283863439908e-01 1.072904059472658128e-01 -6.191911133804813838e-01 -1.963303988117838517e-01 7.281023351133236732e-01 2.399820056949509769e-02 -6.025709459787693678e-01 8.647444643062233149e-01 -1.695158130350310210e-01 -6.010772649913966870e-01 7.723556229287248387e-02 -3.760959896462356955e-01 3.307628479476807937e-01 7.266428800071207394e-01 -1.215853100860220110e-01 -2.779881144443757668e-01 -2.485162652676226047e-01 6.693662126182753358e-01 1.138358993986650303e+00 -3.035180604533315729e-01 6.035074225882750554e-01 3.112362236161461126e-01 -3.307385326828285455e-01 2.170263806366445891e-01 1.590484092662298177e-01 8.814404687765944879e-02 -9.471744186837400825e-01 4.725776749551489631e-01 6.191439775890628106e-02 -2.206336016238988340e-01 7.701136864514239733e-01 -1.401103036723136130e-01 -9.482720187754728469e-01 -3.165449392921596550e-01 -1.070731974322710833e+00 9.300129370651412097e-01 -6.222987202853914601e-01 -2.331813734207424937e-01 -6.638428295673046708e-01 -1.038825253339935806e+00 -8.738909057709494388e-02 2.129909826582898624e-01 2.113024054709685962e-01 -7.214810061185225054e-01 -5.484770990601745000e-01 -1.131965893851843291e-01 -1.033613884148540246e-01 -5.584991018542139196e-01 3.786447353453770703e-01 -3.316130587107429806e-02 -2.078376024200736527e-01 -3.556292852309542729e-01 -4.235621059453406612e-01 -9.292537911464962552e-02 -1.941215745392100289e-01 -5.739339836283966489e-01 -6.920433631618011505e-01 -6.211747561673781615e-01 -1.839059801625596013e-01 1.440482481228065603e-01 8.064411736849139145e-02 1.011473621567388959e+00 4.873896453441063370e-01 -1.448121605669520640e-01 3.720870906199421069e-01 7.857164217834602393e-01 2.133649825093249519e-01 8.581697409633540219e-02 3.010120308320692328e-01 2.012847434019948978e-01 7.121457602988296998e-01 7.133759696925977556e-01 5.220303113247625193e-01 4.541221956530915316e-01 5.176518175193879356e-01 7.281042464078788523e-01 -2.221278180659746748e-01 5.497885544377082434e-01 -4.025883815186667158e-01 4.097062270605417722e-01 -8.978206638214099311e-02 7.216165791318663869e-01 -1.684479054087903993e-01 -1.183169357854924400e-02 6.170784796227569979e-02 -1.827739422334520580e-01 3.749403916929975877e-01 3.138615238976751876e-01 -5.135784256371981327e-01 -8.119632059561818216e-02 8.294244704829394355e-01 3.095906371131548207e-01 5.032177376195113849e-01 4.518853444666656727e-01 -1.084788706974931793e+00 6.330594428015758890e-01 -7.275767598710046746e-01 4.978632665572179095e-01 2.076555483906322719e-01 7.117130941092213448e-01 -6.091012403877150705e-01 3.046880151460564234e-01 -2.730989278755487915e-01 2.944346434131464019e-01 6.992621060775319197e-01
-6.722393218966186135e-01 2.056829132772575175e-01 -2.441947876166210979e-02 3.656323626975656049e-01 2.755462258313965407e+00 -7.257186958469340199e-02 1.943857019021213994e-01 7.465519426273713455e-01 7.335540967025754311e-01 -2.350445943854281294e-01 -4.863807643655269075e-01 -1.737211503663828316e-01 -4.449160069337899648e-01 3.811791319858624100e-02 -2.195618131812318297e-01 2.490100491765322221e+00 3.869184979220038345e-01 7.040216870043393138e-01 6.472203905831105386e-01 5.965821974751774892e-01 1.664773347218556909e-01 9.578733838694281078e-02 -1.319959977622242042e-01 -3.577353167148706881e-01 8.107931929598626297e-01 -6.922655917895397248e-01 -6.177024806147780600e-01 1.393270157127152742e-01 -2.507306803017923524e-01 -2.257614655860504527e-01 3.804046937481315727e-01 -2.191096467487727850e-01 5.830174529069672706e-01 -2.615727203145193358e-01 -3.121596902396360160e-02 6.420459316152998808e-02 1.764005606653516189e-01 -4.855498135246168467e-01 -2.514499635210096784e-01 -3.648820497752951891e-02 2.703990078608892178e-01 -1.633824267746871173e-01 -8.414920377106144267e-01 -3.302188280284900079e-01 8.678915459223337514e-01 2.058626609145342359e-02 -4.365602602852636238e-01 2.959392274465845185e-01 -4.323856357760594293e-02 -7.099196839056572950e-01 3.151665712440154116e-02 -8.900734854298906207e-01 1.341143930245385085e-01 -7.245385644356124866e-01 9.215731465192854577e-01 -2.278337828619853289e-01 -4.432585432395412250e-01 -3.623664058319892023e-01 3.613250606463335735e-01 -5.934231479099927320e-01 4.156732605707093020e-01 -4.256909910340417325e-01 -2.825371980823345175e-01 2.341922432499993767e-01 1.035540038827067327e-02 3.959954880305292524e-01 -3.581487588711041448e-01 -4.772269978732789908e-01 -4.689788111327980458e-01 1.705081448933879439e-03 1.671968020839568747e-01 -7.191210591563829135e-01 -1.110761433978405682e-01 6.292589050323044164e-01 -4.096025855214223688e-01 -5.991775225686926110e-01 2.218446151053793391e-02 1.507416928390176436e-01 8.961934159006847977e-01 1.636316281920671134e-01 -5.715371350665613415e-01 -2.014173936296900225e-01 -6.610580770295378106e-02 4.971857064934493559e-02 3.225066765029890314e-01 2.848150745501340508e-02 6.983545784262586154e-02 -2.516365191399937973e-01 -4.398030607701896022e-01 -7.567700711810189107e-01 1.475652813228412429e-02 -4.079692163357568901e-01 -4.350095631330517382e-02 -2.073650573283378762e-01 5.747246888809124377e-01 -8.056366565844116368e-01 -7.775185114473839310e-01 -6.618394387607604012e-02 -7.095029752094573761e-01 2.086267575351386516e-01 1.539229902375461589e-01 1.203585375153217452e-01 3.630506590483849050e-01 7.597795891891466757e-01 -2.273082761935750207e-01 2.614699909352067794e-02 9.112791685505807759e-01 -2.313511711487094835e-01 -1.220595430462832753e-01 -5.088801987146738259e-01 -9.916406697442537999e-01 4.951686326314120867e-01 -5.424928187492775722e-01 -2.026464944158706816e-01 -6.801299184985363233e-01 1.763541618987131965e-01 -5.386518590028932518e-01 2.757640126580982454e-01 7.990588344819273825e-01 -5.365031180905721619e-01 -2.815716601880738912e-01 -4.506375462769113827e-01 6.478709188240909800e-01 -2.218494607833957633e-01 -1.091013860624933551e+00 4.207934270105333496e-01 -4.144956208946958265e-01 4.113979064405099417e-01 -1.211833552808626729e-01 -1.687799640446738525e-01 4.827142318506210672e-01 -4.440356835189812057e-01 -1.086976954057330275e-01 -4.299838443442562941e-01 -1.726910752035859808e-01 -5.418107974742252253e-01 -9.982629208845633650e-01 -4.976381026555490306e-01 1.175292592297738220e-01 3.888904811146693952e-01 1.477086149596915643e-01 2.983262886843031716e-03 3.768538767527497280e-01 -7.052658426865245911e-01 4.134247032610064432e-01 -5.141566728634485717e-01 -7.998431448506064800e-01 -6.116581405731861265e-01 -7.264572566169594237e-02 -3.679918504767708543e-01 -4.717220811585477458e-01 -7.303470295490055442e-01 -4.396221313045498014e-01 -4.231190937258458851e-01 -2.300239910945361399e-01 -3.826596900553251301e-01 3.492130005316165242e-01 -3.353703796844736407e-01 -4.650608067875053320e-01 7.617355654505308937e-02 -7.612334412822834295e-01 -1.712927792024478701e-01 -1.820438299978504315e-01 3.272380020250718613e-01 -6.768647391864401897e-01 1.388502892724142734e-01 5.253015732459463960e-01 7.044466674446628329e-02 -9.523775851234619894e-02 -5.794764984583006262e-01 1.372779046134437186e-01 -2.925079490959432427e-01 -5.829776154019482570e-01 4.115700839549099044e-01 -3.102789274321408053e-01 1.426282899879073029e-01 -1.890351742524336576e-01 1.379272822621806505e+00 -1.463078066258530208e-01 1.637846388887601590e+00 -2.044952173451845268e-01 1.990423550644712325e+00 -2.305564946924549274e-01 -9.692430801011806540e-01 -7.742818364854371360e-01 -4.739163381636187222e-01 -4.492229189700526759e-01 -1.887917850320429691e-01 -5.047084260829889368e-01 -8.339380029395941640e-02 -1.527785435321204754e-01 -1.398754715142852267e-01 1.420067958992611568e-01 -7.751670252353375368e-01 -3.760500442066770921e-01 -6.141490590487093115e-01 1.714455559075551416e-01 -1.103527626181528137e-01 3.998168999055978778e-01 9.386339048931465756e-01 -1.006593268364921911e+00 4.481075271539494143e-01 -1.864634991071467407e-01 -1.370331178524324844e+00 -2.233665964837453777e-01 1.357716520067134836e-01 -7.327112985761621289e-01 -1.988739738877228491e-01 6.372663444415177514e-01 -4.712632780081895678e-01 1.678656438690749320e-01 7.900716113707760557e-03 -5.643252410536179209e-01 -7.630914690331918049e-01 -2.022047053835942122e-03 5.579726949489512977e-01 -2.075816730452660075e-01 7.578193796601259691e-02 9.824305630005603085e-01 -4.415202730488202443e-01 -2.622297777961913878e-01 1.395354418557367415e-01 3.170380692238741055e-02 1.984018846150294446e-01 4.647838191617202908e-01 -5.375419927755060723e-01 -1.358345288250037974e-01 -1.579877992994123681e-01 2.010291255158797863e-01 5.480311492640063155e-03 -2.156834753349014533e-01 6.488204085994495607e-01 1.911653093133584280e-01 2.531192336885899619e-01 -5.511343248959750252e-01 3.817614637163893598e-01 -7.486844027056888118e-01 -6.926558339693014155e-01 2.936313132691913963e-01 -2.118474073113022216e-01 -6.905033184420278358e-02 -4.150730038050685078e-01 3.519006975043097174e-02 -9.539369189691547513e-02 -3.232239199423235232e-01 1.871928853161663464e-01 6.331447057469968831e-01 -2.752431059647527101e-01 2.166431914818548743e-01 1.642429542818674149e-01 -3.398527474731701803e-01 -6.601105615822779882e-01 -9.569361377616036890e-01 -2.399145816376394846e-01 -2.813675128070288745e-01
